{"learner":{"attributes":{"scikit_learn":"{\"_estimator_type\": \"classifier\"}"},"feature_names":["flg_substandard","flg_is_borderline_standard","flg_is_revised_term","flg_is_rental_flat","flg_has_health_claim","flg_has_life_claim","flg_gi_claim","flg_is_proposal","flg_with_preauthorisation","flg_is_returned_mail","is_consent_to_mail","is_consent_to_email","is_consent_to_call","is_consent_to_sms","is_valid_dm","is_valid_email","is_housewife_retiree","is_sg_pr","is_class_1_2","is_dependent_in_at_least_1_policy","f_ever_declined_la","flg_latest_being_lapse","flg_latest_being_cancel","recency_lapse","recency_cancel","tot_inforce_pols","tot_cancel_pols","f_elx","f_mindef_mha","f_retail","flg_affconnect_show_interest_ever","flg_affconnect_ready_to_buy_ever","flg_affconnect_lapse_ever","affcon_visit_days","clmcon_visit_days","recency_clmcon","recency_clmcon_regis","hlthclaim_amt","recency_hlthclaim","hlthclaim_cnt_success","recency_hlthclaim_success","hlthclaim_cnt_unsuccess","recency_hlthclaim_unsuccess","flg_hlthclaim_839f8a_ever","recency_hlthclaim_839f8a","flg_hlthclaim_14cb37_ever","recency_hlthclaim_14cb37","giclaim_amt","recency_giclaim","age","insurance_time","race_desc_0","race_desc_1","race_desc_2","race_desc_3","race_desc_4","clttype_0","clttype_1","clttype_2","stat_flag_0","stat_flag_1","stat_flag_2","hh_size_est_0","hh_size_est_1","hh_size_est_2","hh_size_est_3","hh_size_est_4","hh_size_est_5","hh_size_est_6","annual_income_est_0","annual_income_est_1","annual_income_est_2","annual_income_est_3","annual_income_est_4","annual_income_est_5","ae_lh_sum","smins_lh_sum","pempaid_lh_sum","ae_lh_mean","smins_lh_mean","pempaid_lh_mean","ae_lh_std","smins_lh_std","pempaid_lh_std","ae_lh_min","smins_lh_min","pempaid_lh_min","ae_lh_max","smins_lh_max","pempaid_lh_max"],"feature_types":["int","int","int","int","int","int","int","int","int","int","int","int","int","int","int","int","int","int","int","int","int","int","int","float","float","float","float","int","int","int","int","int","int","float","float","float","float","float","float","float","float","float","float","int","float","int","float","float","float","float","float","int","int","int","int","int","int","int","int","int","int","int","int","int","int","int","int","int","int","int","int","int","int","int","int","float","float","float","float","float","float","float","float","float","float","float","float","float","float","float"],"gradient_booster":{"model":{"gbtree_model_param":{"num_parallel_tree":"1","num_trees":"100"},"iteration_indptr":[0,1,2,3,4,5,6,7,8,9,10,11,12,13,14,15,16,17,18,19,20,21,22,23,24,25,26,27,28,29,30,31,32,33,34,35,36,37,38,39,40,41,42,43,44,45,46,47,48,49,50,51,52,53,54,55,56,57,58,59,60,61,62,63,64,65,66,67,68,69,70,71,72,73,74,75,76,77,78,79,80,81,82,83,84,85,86,87,88,89,90,91,92,93,94,95,96,97,98,99,100],"tree_info":[0,0,0,0,0,0,0,0,0,0,0,0,0,0,0,0,0,0,0,0,0,0,0,0,0,0,0,0,0,0,0,0,0,0,0,0,0,0,0,0,0,0,0,0,0,0,0,0,0,0,0,0,0,0,0,0,0,0,0,0,0,0,0,0,0,0,0,0,0,0,0,0,0,0,0,0,0,0,0,0,0,0,0,0,0,0,0,0,0,0,0,0,0,0,0,0,0,0,0,0],"trees":[{"base_weights":[-8.2381195E-1,-8.6415064E-1,4.389194E-1,-1.1106795E0,-7.544649E-1,1.0868791E0,-6.2298787E-1,-1.114544E0,1.1181661E-1,-8.752758E-1,-4.9687403E-1,2.2489538E0,6.612225E-1,-8.4298795E-1,1.4611097E-1,-1.1303316E0,-8.9003056E-1,-8.820702E-1,2.4935679E-1,-2.7173617E-1,-8.4027594E-1,4.44902E-2,2.645059E0,6.487755E-2,1.6646297E0,-9.518779E-1,1.1181661E-1,8.311893E-1,-2.272578E-1,-3.397075E-1,-1.3222721E-1,-3.9376218E-2,-9.546814E-1,-8.878636E-1,2.918935E-1,-5.548656E-1,8.3684385E-2,9.9191755E-2,-8.6691195E-1,2.9810815E0,1.1181661E-1,7.013842E-1,-3.947749E-1,-3.3620406E-2,1.898377E0,-1.847134E-1,-3.2089975E-1,-9.210994E-2,5.4812765E-1,-1.03478365E-1,1.1181661E-1,-2.933041E-1,-3.3620406E-2,-3.2887727E-1,-2.5319096E-1,-1.7883588E-1,4.9958706E-1,5.90913E-1,-1.5193577E-1,2.4357696E-1,-2.2213246E-1,-2.707079E-1,-6.920687E-2,1.0963894E0,2.918935E-1,3.42186E-1,-1.2342754E-1,-1.805264E-1,1.6861111E-1,2.6016366E-1,7.856545E-1,1.1181661E-1,-1.8818022E-1],"categories":[],"categories_nodes":[],"categories_segments":[],"categories_sizes":[],"default_left":[0,0,0,0,0,0,0,0,0,0,0,0,0,0,0,0,0,0,0,0,0,0,0,0,0,0,0,0,0,0,0,0,0,0,0,0,0,0,0,0,0,0,0,0,0,0,0,0,0,0,0,0,0,0,0,0,0,0,0,0,0,0,0,0,0,0,0,0,0,0,0,0,0],"id":0,"left_children":[1,3,5,7,9,11,13,15,-1,17,19,21,23,25,27,29,31,33,-1,35,37,-1,39,41,43,45,-1,47,-1,-1,-1,49,51,53,-1,55,57,59,61,63,-1,65,67,-1,69,71,-1,-1,-1,-1,-1,-1,-1,-1,-1,-1,-1,-1,-1,-1,-1,-1,-1,-1,-1,-1,-1,-1,-1,-1,-1,-1,-1],"loss_changes":[8.70072E1,4.373535E1,3.735888E1,3.3130493E0,3.516382E1,1.5070129E1,3.6489916E0,7.817993E-1,0E0,9.746643E0,2.8186455E1,6.7281113E0,1.5399269E1,2.5192842E0,4.026541E0,1.5429688E-1,2.0435448E0,9.190674E0,0E0,2.2534092E1,3.7159576E0,0E0,4.3409195E0,5.337059E0,4.207945E0,1.1838894E0,0E0,4.63933E0,0E0,0E0,0E0,5.9646E-1,5.711441E-1,6.1447754E0,0E0,1.2397072E1,1.1224738E2,3.5315552E0,2.9754715E0,4.6643944E0,0E0,4.1902375E0,2.4538417E0,0E0,4.0863457E0,1.0339721E0,0E0,0E0,0E0,0E0,0E0,0E0,0E0,0E0,0E0,0E0,0E0,0E0,0E0,0E0,0E0,0E0,0E0,0E0,0E0,0E0,0E0,0E0,0E0,0E0,0E0,0E0,0E0],"parents":[2147483647,0,0,1,1,2,2,3,3,4,4,5,5,6,6,7,7,9,9,10,10,11,11,12,12,13,13,14,14,15,15,16,16,17,17,19,19,20,20,22,22,23,23,24,24,25,25,27,27,31,31,32,32,33,33,35,35,36,36,37,37,38,38,39,39,41,41,42,42,44,44,45,45],"right_children":[2,4,6,8,10,12,14,16,-1,18,20,22,24,26,28,30,32,34,-1,36,38,-1,40,42,44,46,-1,48,-1,-1,-1,50,52,54,-1,56,58,60,62,64,-1,66,68,-1,70,72,-1,-1,-1,-1,-1,-1,-1,-1,-1,-1,-1,-1,-1,-1,-1,-1,-1,-1,-1,-1,-1,-1,-1,-1,-1,-1,-1],"split_conditions":[1E0,1E0,1.4375E0,1.5E1,5E-1,-5.445776E-1,1E0,1E0,1.1181661E-1,1E0,1E0,1E0,1E0,1.8E1,5.4375E0,1.944978E4,-6.713693E-1,2E0,2.4935679E-1,1.25E-1,1E0,4.44902E-2,7.90008E5,5E0,1E0,-1.0096818E-1,1.1181661E-1,3.7621044E-2,-2.272578E-1,-3.397075E-1,-1.3222721E-1,-7.0456433E-1,1E0,1E0,2.918935E-1,9E1,9.375E-1,4.9709544E-1,5.7779944E5,5.625E-1,1.1181661E-1,1E0,3.58887E3,-3.3620406E-2,5.0567085E-1,2.9375E0,-3.2089975E-1,-9.210994E-2,5.4812765E-1,-1.03478365E-1,1.1181661E-1,-2.933041E-1,-3.3620406E-2,-3.2887727E-1,-2.5319096E-1,-1.7883588E-1,4.9958706E-1,5.90913E-1,-1.5193577E-1,2.4357696E-1,-2.2213246E-1,-2.707079E-1,-6.920687E-2,1.0963894E0,2.918935E-1,3.42186E-1,-1.2342754E-1,-1.805264E-1,1.6861111E-1,2.6016366E-1,7.856545E-1,1.1181661E-1,-1.8818022E-1],"split_indices":[6,15,23,48,25,49,69,55,0,16,10,14,21,42,23,37,50,34,0,23,11,0,76,48,14,50,0,49,0,0,0,50,35,14,0,46,23,50,82,23,0,13,47,0,50,23,0,0,0,0,0,0,0,0,0,0,0,0,0,0,0,0,0,0,0,0,0,0,0,0,0,0,0],"split_type":[0,0,0,0,0,0,0,0,0,0,0,0,0,0,0,0,0,0,0,0,0,0,0,0,0,0,0,0,0,0,0,0,0,0,0,0,0,0,0,0,0,0,0,0,0,0,0,0,0,0,0,0,0,0,0,0,0,0,0,0,0,0,0,0,0,0,0,0,0,0,0,0,0],"sum_hessian":[1.6996893E3,1.6473785E3,5.2310852E1,5.044514E2,1.1429271E3,3.2472878E1,1.9837975E1,5.033886E2,1.0627487E0,7.76397E2,3.665302E2,7.557324E0,2.4915552E1,1.5350814E1,4.487161E0,4.6654666E2,3.6841953E1,7.7379913E2,2.59783E0,2.2246872E2,1.440615E2,1.4169983E0,6.1403255E0,1.6295479E1,8.620072E0,1.4288066E1,1.0627487E0,2.59783E0,1.889331E0,4.6453925E2,2.007414E0,2.7159133E0,3.412604E1,7.719098E2,1.889331E0,1.23515015E2,9.895371E1,3.8967452E0,1.4016475E2,5.077577E0,1.0627487E0,6.6126585E0,9.682821E0,1.0627487E0,7.557324E0,2.2435806E0,1.2044485E1,1.5350814E0,1.0627487E0,1.6531646E0,1.0627487E0,3.3063293E1,1.0627487E0,1.3012767E2,6.417821E2,1.21979935E2,1.5350814E0,2.3026222E1,7.592749E1,2.1254973E0,1.7712477E0,1.3237125E2,7.7934904E0,3.188246E0,1.889331E0,4.7233276E0,1.889331E0,8.265823E0,1.4169983E0,4.014828E0,3.5424955E0,1.0627487E0,1.1808319E0],"tree_param":{"num_deleted":"0","num_feature":"90","num_nodes":"73","size_leaf_vector":"1"}},{"base_weights":[-7.273364E-1,-7.689173E-1,2.729919E-1,-1.0524943E0,-6.5306044E-1,6.3589084E-1,-5.331133E-1,-1.0572369E0,8.997564E-2,-7.4474996E-1,-3.2248518E-1,8.565223E-1,-2.1540987E-1,-6.61032E-1,1.8871993E-1,-1.0766636E0,-7.983078E-1,-7.5180805E-1,4.437308E-1,-9.260999E-1,-1.9231042E-1,9.271464E-1,-1.84614E-1,-5.3146905E-1,2.3739755E-1,-7.5327355E-1,1.1798757E-1,-1.0791309E0,-1.1411139E-1,-4.3872708E-1,-1.0079335E0,-8.32876E-1,-5.6113887E-1,-9.6919304E-1,-1.477637E-1,1.4389105E0,-2.8343505E-1,1.0378942E0,-2.5859776E-1,-2.9790527E-1,3.558854E-1,-9.454261E-1,-1.3456526E-1,-1.2908784E-1,-3.2451954E-1,-1.8679014E-1,2.4339879E-1,-3.1712925E-1,-3.772269E-2,-2.5227976E-1,2.360153E-1,2.928368E-1,-2.1622278E-1,-3.1159663E-1,-1.3763143E-1,1.11239605E-1,-1.7855874E-1,-3.2256044E-2,-1.7601839E-1,2.2066666E-1,4.8905462E-1,-2.0646344E-1,1.1426785E-1,2.620204E-1,-7.644443E-2,-3.6350302E-2,-3.0461448E-1,-2.2078393E-1,1.2960663E-1],"categories":[],"categories_nodes":[],"categories_segments":[],"categories_sizes":[],"default_left":[0,0,0,0,0,0,0,0,0,0,0,0,0,0,0,0,0,0,0,0,0,0,0,0,0,0,0,0,0,0,0,0,0,0,0,0,0,0,0,0,0,0,0,0,0,0,0,0,0,0,0,0,0,0,0,0,0,0,0,0,0,0,0,0,0,0,0,0,0],"id":1,"left_children":[1,3,5,7,9,11,13,15,-1,17,19,21,23,25,-1,27,29,31,-1,33,35,37,-1,39,-1,41,-1,43,-1,45,47,49,51,53,55,-1,57,59,61,-1,63,65,67,-1,-1,-1,-1,-1,-1,-1,-1,-1,-1,-1,-1,-1,-1,-1,-1,-1,-1,-1,-1,-1,-1,-1,-1,-1,-1],"loss_changes":[5.908136E1,4.3966248E1,1.7078669E1,2.8351746E0,2.9086609E1,7.6814747E0,3.1375651E0,1.1094971E0,0E0,1.2989349E1,1.6468555E1,3.8866463E0,3.2888923E0,1.9476228E0,0E0,2.1011353E-1,1.9085617E0,1.1202301E1,0E0,1.1085854E0,8.1155975E1,4.318102E0,0E0,3.408254E0,0E0,1.769866E0,0E0,1.4111328E-1,0E0,3.5526557E0,6.8813324E-1,7.546692E0,5.6716553E1,7.709274E-1,9.487358E-1,0E0,9.184714E0,3.887247E0,1.2057971E0,0E0,1.2618301E0,5.694685E-1,2.0036893E0,0E0,0E0,0E0,0E0,0E0,0E0,0E0,0E0,0E0,0E0,0E0,0E0,0E0,0E0,0E0,0E0,0E0,0E0,0E0,0E0,0E0,0E0,0E0,0E0,0E0,0E0],"parents":[2147483647,0,0,1,1,2,2,3,3,4,4,5,5,6,6,7,7,9,9,10,10,11,11,12,12,13,13,15,15,16,16,17,17,19,19,20,20,21,21,23,23,25,25,27,27,29,29,30,30,31,31,32,32,33,33,34,34,36,36,37,37,38,38,40,40,41,41,42,42],"right_children":[2,4,6,8,10,12,14,16,-1,18,20,22,24,26,-1,28,30,32,-1,34,36,38,-1,40,-1,42,-1,44,-1,46,48,50,52,54,56,-1,58,60,62,-1,64,66,68,-1,-1,-1,-1,-1,-1,-1,-1,-1,-1,-1,-1,-1,-1,-1,-1,-1,-1,-1,-1,-1,-1,-1,-1,-1,-1],"split_conditions":[1E0,1E0,1.4375E0,1.5E1,1E0,1E0,5.7779944E5,1E0,8.997564E-2,1E0,1E0,1E0,1E0,3.7E1,1.8871993E-1,1.944978E4,1E0,1.25E-1,4.437308E-1,4.2436835E-1,1E0,6.1E1,-1.84614E-1,3.7843E2,2.3739755E-1,1E0,1.1798757E-1,1E0,-1.1411139E-1,2.7773166E-1,1.1502075E0,1E0,6.25E-1,1E0,7.073306E-1,1.4389105E0,1E0,4.1109E2,5E-1,-2.9790527E-1,2.5E-1,-1.9087137E-1,1.0366193E-1,-1.2908784E-1,-3.2451954E-1,-1.8679014E-1,2.4339879E-1,-3.1712925E-1,-3.772269E-2,-2.5227976E-1,2.360153E-1,2.928368E-1,-2.1622278E-1,-3.1159663E-1,-1.3763143E-1,1.11239605E-1,-1.7855874E-1,-3.2256044E-2,-1.7601839E-1,2.2066666E-1,4.8905462E-1,-2.0646344E-1,1.1426785E-1,2.620204E-1,-7.644443E-2,-3.6350302E-2,-3.0461448E-1,-2.2078393E-1,1.2960663E-1],"split_indices":[6,15,23,48,25,13,82,55,0,7,14,35,55,42,0,37,17,23,0,49,29,48,0,47,0,69,0,59,0,50,50,16,23,67,50,0,10,47,23,0,23,50,49,0,0,0,0,0,0,0,0,0,0,0,0,0,0,0,0,0,0,0,0,0,0,0,0,0,0],"split_type":[0,0,0,0,0,0,0,0,0,0,0,0,0,0,0,0,0,0,0,0,0,0,0,0,0,0,0,0,0,0,0,0,0,0,0,0,0,0,0,0,0,0,0,0,0,0,0,0,0,0,0,0,0,0,0,0,0,0,0,0,0,0,0,0,0,0,0,0,0],"sum_hessian":[1.414364E3,1.3581411E3,5.6222828E1,3.9158762E2,9.665535E2,3.891494E1,1.7307886E1,3.904367E2,1.1509253E0,7.5569775E2,2.1085582E2,3.0900366E1,8.014575E0,1.5980193E1,1.3276926E0,3.6025003E2,3.0186666E1,7.539667E2,1.7310271E0,3.632129E1,1.7453453E2,2.983876E1,1.0616055E0,6.4589186E0,1.5556567E0,1.4957149E1,1.0230447E0,3.584301E2,1.8199285E0,1.2256104E1,1.7930561E1,5.266708E2,2.272959E2,3.4183483E1,2.1378045E0,2.204643E0,1.7232988E2,2.7403936E1,2.4348235E0,4.170564E0,2.2883542E0,1.1009773E1,3.9473758E0,2.0955496E0,3.5633456E2,1.1121796E1,1.1343087E0,1.6796253E1,1.1343087E0,5.245423E2,2.1284916E0,2.0897804E1,2.063981E2,2.917783E1,5.0056534E0,1.0695255E0,1.068279E0,1.09925674E2,6.240421E1,1.962703E1,7.776907E0,1.4108313E0,1.0239921E0,1.0058331E0,1.2825209E0,1.0750408E0,9.934732E0,1.7698885E0,2.1774871E0],"tree_param":{"num_deleted":"0","num_feature":"90","num_nodes":"69","size_leaf_vector":"1"}},{"base_weights":[-6.3586E-1,-1.0024418E0,-5.085022E-1,-1.0111789E0,6.39703E-2,-6.728297E-1,-2.4601257E-1,-1.034946E0,-7.2938603E-1,-9.9723345E-1,-6.030068E-1,6.8347555E-1,-5.6506234E-1,-1.0380319E0,-9.827561E-2,1.126431E-1,-8.131881E-1,-1.0371996E0,6.900952E-2,4.5911717E0,-6.596381E-1,-3.1595907E-1,8.368639E-1,1.0884017E0,-5.8971417E-1,-1.1168108E-1,-3.1237772E-1,-6.2025737E-2,1.2672105E-1,-8.702946E-1,-1.9466347E-1,-1.047041E0,-2.6461193E-2,2.8158644E-1,-2.1441314E-1,1.7378212E0,4.644323E-1,-6.716184E-1,5.672527E-1,-4.9730217E-1,2.345397E-1,1.3439924E0,4.352849E-1,6.7497146E-1,-1.04832016E-1,-6.173706E-1,5.215779E-1,-2.7157336E-1,-2.1169271E-2,1.0591926E-1,-1.8541953E-1,-3.1723303E-1,-1.0032516E-1,-2.1479417E-1,-5.1654413E-2,-2.1592093E-1,3.2098033E-2,5.3593934E-1,2.0233999E-1,3.1709218E-1,4.0783934E-2,-1.9164447E-1,2.0460513E-1,4.3062285E-1,-2.3446578E-1],"categories":[],"categories_nodes":[],"categories_segments":[],"categories_sizes":[],"default_left":[0,0,0,0,0,0,0,0,0,0,0,0,0,0,0,0,0,0,0,0,0,0,0,0,0,0,0,0,0,0,0,0,0,0,0,0,0,0,0,0,0,0,0,0,0,0,0,0,0,0,0,0,0,0,0,0,0,0,0,0,0,0,0,0,0],"id":2,"left_children":[1,3,5,7,-1,9,11,13,15,17,19,21,23,25,-1,27,29,31,33,35,37,39,41,43,45,-1,-1,-1,-1,47,49,51,-1,-1,-1,-1,-1,53,-1,55,-1,57,59,-1,-1,61,63,-1,-1,-1,-1,-1,-1,-1,-1,-1,-1,-1,-1,-1,-1,-1,-1,-1,-1],"loss_changes":[5.5025726E1,3.4623108E0,3.8001648E1,1.2789307E0,0E0,1.1711624E1,1.01880936E2,2.6611328E-1,1.9973373E0,4.1091766E0,1.3535292E2,1.3741207E1,1.1049652E1,2.0532227E-1,0E0,4.1608876E-1,7.024822E-1,7.6116943E-1,3.6428654E0,9.231644E0,1.4893753E1,2.8618054E0,1.4991814E1,7.6374145E0,8.074318E0,0E0,0E0,0E0,0E0,5.596924E-1,1.0007981E0,3.1620026E-1,0E0,0E0,0E0,0E0,0E0,9.725662E0,0E0,1.5922475E0,0E0,8.666782E0,8.075194E0,0E0,0E0,7.306175E0,9.061133E0,0E0,0E0,0E0,0E0,0E0,0E0,0E0,0E0,0E0,0E0,0E0,0E0,0E0,0E0,0E0,0E0,0E0,0E0],"parents":[2147483647,0,0,1,1,2,2,3,3,5,5,6,6,7,7,8,8,9,9,10,10,11,11,12,12,13,13,15,15,16,16,17,17,18,18,19,19,20,20,21,21,22,22,23,23,24,24,29,29,30,30,31,31,37,37,39,39,41,41,42,42,45,45,46,46],"right_children":[2,4,6,8,-1,10,12,14,16,18,20,22,24,26,-1,28,30,32,34,36,38,40,42,44,46,-1,-1,-1,-1,48,50,52,-1,-1,-1,-1,-1,54,-1,56,-1,58,60,-1,-1,62,64,-1,-1,-1,-1,-1,-1,-1,-1,-1,-1,-1,-1,-1,-1,-1,-1,-1,-1],"split_conditions":[1E0,1.8E1,1.25E-1,1E0,6.39703E-2,1E0,9.375E-1,1.944978E4,-6.713693E-1,2.5E0,1E0,1E0,-5.1977867E-1,1E0,-9.827561E-2,1E0,9.095436E-1,2.1E1,3.5E0,1E0,1E0,7.5E-1,9.616169E-2,-5.506623E-1,5E0,-1.1168108E-1,-3.1237772E-1,-6.2025737E-2,1.2672105E-1,1.8E1,1E0,1E0,-2.6461193E-2,2.8158644E-1,-2.1441314E-1,1.7378212E0,4.644323E-1,1E0,5.672527E-1,1E0,2.345397E-1,1E0,3.125E-1,6.7497146E-1,-1.04832016E-1,1.6699585E1,1E0,-2.7157336E-1,-2.1169271E-2,1.0591926E-1,-1.8541953E-1,-3.1723303E-1,-1.0032516E-1,-2.1479417E-1,-5.1654413E-2,-2.1592093E-1,3.2098033E-2,5.3593934E-1,2.0233999E-1,3.1709218E-1,4.0783934E-2,-1.9164447E-1,2.0460513E-1,4.3062285E-1,-2.3446578E-1],"split_indices":[15,48,23,55,0,14,23,37,50,25,29,14,50,59,0,65,50,24,25,25,54,23,77,49,36,0,0,0,0,36,73,20,0,0,0,0,0,20,0,51,0,73,23,0,0,77,12,0,0,0,0,0,0,0,0,0,0,0,0,0,0,0,0,0,0],"split_type":[0,0,0,0,0,0,0,0,0,0,0,0,0,0,0,0,0,0,0,0,0,0,0,0,0,0,0,0,0,0,0,0,0,0,0,0,0,0,0,0,0,0,0,0,0,0,0,0,0,0,0,0,0,0,0,0,0,0,0,0,0,0,0,0,0],"sum_hessian":[1.1885249E3,3.0467877E2,8.838461E2,3.0267172E2,2.0070667E0,5.425979E2,3.4124826E2,2.7666443E2,2.6007294E1,9.3749E1,4.4884888E2,8.691026E1,2.5433801E2,2.749972E2,1.6672175E0,2.322911E0,2.3684381E1,9.038821E1,3.360796E0,3.9773588E0,4.4487152E2,1.1422786E1,7.548747E1,3.1023774E0,2.5123563E2,1.887848E0,2.7310934E2,1.3073925E0,1.0155185E0,2.1309858E1,2.3745236E0,8.935821E1,1.0299935E0,1.4994094E0,1.8613864E0,2.2036517E0,1.7737072E0,4.4352484E2,1.3466855E0,1.0272769E1,1.1500167E0,3.232258E1,4.3164898E1,1.4036862E0,1.6986911E0,2.4556868E2,5.6669526E0,2.0291155E1,1.0187039E0,1.1076945E0,1.2668291E0,8.759568E1,1.7625271E0,4.069447E2,3.6580154E1,7.369213E0,2.903556E0,1.8456747E1,1.386583E1,1.3206205E1,2.9958693E1,2.4208188E2,3.48679E0,3.2713683E0,2.3955843E0],"tree_param":{"num_deleted":"0","num_feature":"90","num_nodes":"65","size_leaf_vector":"1"}},{"base_weights":[-5.510178E-1,-9.580169E-1,-4.2653003E-1,-9.992795E-1,-5.5824304E-1,-6.5464115E-1,-2.5473565E-1,-1.0031848E0,-8.447994E-2,-1.3198496E-1,-8.657143E-1,-6.684007E-1,3.490769E-1,-7.917241E-1,-1.6121452E-1,-9.6322455E-2,-3.0217558E-1,-3.7713063E-1,2.566627E-1,-2.9942378E-1,5.0590757E-2,-6.952278E-1,1.7591238E-1,-8.4374195E-1,1.8465917E-1,2.1940017E0,-2.5223327E-1,1.888512E-1,-6.479461E-1,-7.114135E-1,3.7610242E-1,-3.5934767E-1,1.3469908E0,-8.832219E-1,-4.0950325E-1,1.4479132E0,8.282694E-1,-1.1916368E-1,-5.346049E-1,-9.5059045E-2,2.0638876E-1,-2.5648767E-1,-4.961334E-2,9.922777E-2,-2.1845467E-1,2.318451E-1,-1.7788976E-1,2.5052902E-1,-1.9857033E-1,-5.6071837E-2,6.735359E-1,-2.7281955E-1,-7.570346E-2,-2.64188E-1,1.0161194E-1,4.6553114E-1,1.3513166E-1,2.306851E-2,-1.1312001E-1,1.5280893E-1,-1.8022612E-1],"categories":[],"categories_nodes":[],"categories_segments":[],"categories_sizes":[],"default_left":[0,0,0,0,0,0,0,0,0,0,0,0,0,0,0,0,0,0,0,0,0,0,0,0,0,0,0,0,0,0,0,0,0,0,0,0,0,0,0,0,0,0,0,0,0,0,0,0,0,0,0,0,0,0,0,0,0,0,0,0,0],"id":3,"left_children":[1,3,5,7,9,11,13,15,-1,17,19,21,-1,23,25,-1,-1,27,-1,-1,-1,29,31,33,-1,35,37,39,41,43,45,47,49,51,53,55,-1,57,59,-1,-1,-1,-1,-1,-1,-1,-1,-1,-1,-1,-1,-1,-1,-1,-1,-1,-1,-1,-1,-1,-1],"loss_changes":[5.0888794E1,3.340744E0,3.0286926E1,3.143921E-1,3.080679E0,9.11377E0,2.221576E1,2.631073E-1,0E0,3.0813062E0,2.0826178E0,7.6271973E0,0E0,5.331421E0,8.205126E1,0E0,0E0,1.6280173E0,0E0,0E0,0E0,5.8395233E0,7.3802066E0,7.323456E-1,0E0,2.0289612E0,1.3723619E1,1.2158593E0,5.448766E-1,5.778885E0,2.548321E0,3.5666656E0,5.4641047E0,7.2226715E-1,2.830213E0,1.561718E-1,0E0,1.2704613E1,8.4025E0,0E0,0E0,0E0,0E0,0E0,0E0,0E0,0E0,0E0,0E0,0E0,0E0,0E0,0E0,0E0,0E0,0E0,0E0,0E0,0E0,0E0,0E0],"parents":[2147483647,0,0,1,1,2,2,3,3,4,4,5,5,6,6,7,7,9,9,10,10,11,11,13,13,14,14,17,17,21,21,22,22,23,23,25,25,26,26,27,27,28,28,29,29,30,30,31,31,32,32,33,33,34,34,35,35,37,37,38,38],"right_children":[2,4,6,8,10,12,14,16,-1,18,20,22,-1,24,26,-1,-1,28,-1,-1,-1,30,32,34,-1,36,38,40,42,44,46,48,50,52,54,56,-1,58,60,-1,-1,-1,-1,-1,-1,-1,-1,-1,-1,-1,-1,-1,-1,-1,-1,-1,-1,-1,-1,-1,-1],"split_conditions":[1E0,1E0,0E0,1.944978E4,1E0,1E0,1E0,1E0,-8.447994E-2,2.7773166E-1,1E0,1E0,3.490769E-1,3.5E1,1E0,-9.6322455E-2,-3.0217558E-1,-5.506623E-1,2.566627E-1,-2.9942378E-1,5.0590757E-2,2.8785E2,1E0,2.5E0,1.8465917E-1,3.125E-1,1E0,1.25E-1,4.7408453E-1,-6.987552E-1,1.125E0,1E1,1.359E1,1E0,1E0,2E0,8.282694E-1,1E0,-4.8437068E-1,-9.5059045E-2,2.0638876E-1,-2.5648767E-1,-4.961334E-2,9.922777E-2,-2.1845467E-1,2.318451E-1,-1.7788976E-1,2.5052902E-1,-1.9857033E-1,-5.6071837E-2,6.735359E-1,-2.7281955E-1,-7.570346E-2,-2.64188E-1,1.0161194E-1,4.6553114E-1,1.3513166E-1,2.306851E-2,-1.1312001E-1,1.5280893E-1,-1.8022612E-1],"split_indices":[15,55,25,37,17,27,14,59,0,50,69,46,0,24,29,0,0,49,0,0,0,47,21,25,0,23,10,23,49,50,23,46,37,63,73,33,0,73,50,0,0,0,0,0,0,0,0,0,0,0,0,0,0,0,0,0,0,0,0,0,0],"split_type":[0,0,0,0,0,0,0,0,0,0,0,0,0,0,0,0,0,0,0,0,0,0,0,0,0,0,0,0,0,0,0,0,0,0,0,0,0,0,0,0,0,0,0,0,0,0,0,0,0,0,0,0,0,0,0,0,0,0,0,0,0],"sum_hessian":[1.01145355E3,2.3533995E2,7.761136E2,2.1196265E2,2.3377302E1,3.3220126E2,4.4391235E2,2.104198E2,1.542834E0,1.0395256E1,1.2982047E1,3.3033383E2,1.8674257E0,6.473651E1,3.7917584E2,1.7210169E0,2.0869879E2,8.823099E0,1.5721569E0,1.1540309E1,1.4417375E0,3.2033218E2,1.000163E1,6.2815044E1,1.921466E0,1.3248578E1,3.6592728E2,2.953399E0,5.8697004E0,3.158956E2,4.436603E0,7.3399415E0,2.6616888E0,5.6632217E1,6.1828256E0,7.254752E0,5.9938254E0,2.4968396E2,1.1624329E2,1.6483676E0,1.3050314E0,3.5675876E0,2.3021128E0,4.705796E0,3.111898E2,3.2916086E0,1.1449945E0,1.127711E0,6.2122307E0,1.2753819E0,1.3863069E0,5.3952133E1,2.6800828E0,3.6853206E0,2.497505E0,6.067322E0,1.1874306E0,1.4224825E2,1.0743572E2,6.5273705E0,1.0971593E2],"tree_param":{"num_deleted":"0","num_feature":"90","num_nodes":"61","size_leaf_vector":"1"}},{"base_weights":[-4.6623468E-1,-9.136216E-1,-3.4718192E-1,-9.651837E-1,-4.794646E-1,-5.128297E-1,-1.15491934E-1,-9.7014356E-1,-7.250724E-2,-1.0460847E-1,-8.005168E-1,-9.098893E-1,-4.411174E-1,4.970149E-1,-3.9727405E-1,-8.2859226E-2,-9.7530115E-1,-2.868514E-1,2.4130774E-1,-2.881841E-1,6.8215206E-2,-9.6812844E-1,1.02439605E-1,-4.8307303E-1,1.5131545E0,3.916586E-1,9.0636325E-1,1.1812118E-2,-5.535887E-1,-2.9419154E-1,-4.2592284E-1,-4.1360027E-1,1.17120616E-1,-9.8206353E-1,-3.52537E-2,-1.8976176E-1,2.1148093E-1,-3.1167623E-1,-6.407857E-1,3.4559044E-1,6.783012E-1,3.417549E-1,5.2783924E-1,1.0352483E0,-1.094079E-1,-7.708925E-1,2.5028458E-1,-6.034557E-1,1.620723E-1,-8.395482E-3,-1.7674501E-1,4.543418E-2,-1.6361386E-1,-2.9946738E-1,-5.0115217E-2,-1.1207996E-1,8.729291E-2,-1.9730707E-1,1.6498354E-1,2.5046843E-1,-7.5316556E-2,1.5698281E-1,-1.1564685E-2,3.868766E-1,8.262033E-2,1.2007382E-1,-2.6993787E-1,6.3221323E-1,3.653338E-2,-1.9058923E-1,1.4090563E-1,-1.4877975E-1,2.0503043E-1],"categories":[],"categories_nodes":[],"categories_segments":[],"categories_sizes":[],"default_left":[0,0,0,0,0,0,0,0,0,0,0,0,0,0,0,0,0,0,0,0,0,0,0,0,0,0,0,0,0,0,0,0,0,0,0,0,0,0,0,0,0,0,0,0,0,0,0,0,0,0,0,0,0,0,0,0,0,0,0,0,0,0,0,0,0,0,0,0,0,0,0,0,0],"id":4,"left_children":[1,3,5,7,9,11,13,15,-1,17,19,21,23,25,27,-1,29,31,-1,-1,-1,33,35,37,39,41,43,45,47,-1,49,51,-1,53,-1,-1,-1,55,57,59,-1,61,-1,63,-1,65,67,69,71,-1,-1,-1,-1,-1,-1,-1,-1,-1,-1,-1,-1,-1,-1,-1,-1,-1,-1,-1,-1,-1,-1,-1,-1],"loss_changes":[4.6318237E1,3.6431427E0,2.6543571E1,3.5028076E-1,2.4986386E0,1.1099197E1,5.0295418E1,3.0870056E-1,0E0,2.0611293E0,2.0957613E0,3.6865234E0,2.8940475E1,3.6086102E0,1.2754934E1,0E0,5.1254272E-2,1.0148451E0,0E0,0E0,0E0,5.6773376E-1,2.3121245E0,8.925453E0,5.7437897E0,4.5080566E0,3.334694E0,1.0663449E1,5.246334E0,0E0,1.9829035E-1,7.423016E-1,0E0,5.7832336E-1,0E0,0E0,0E0,6.2183714E0,3.8813858E0,1.4060322E0,0E0,5.091299E0,0E0,2.862589E0,0E0,2.3747053E0,1.0184476E1,4.9141426E0,3.8332813E0,0E0,0E0,0E0,0E0,0E0,0E0,0E0,0E0,0E0,0E0,0E0,0E0,0E0,0E0,0E0,0E0,0E0,0E0,0E0,0E0,0E0,0E0,0E0,0E0],"parents":[2147483647,0,0,1,1,2,2,3,3,4,4,5,5,6,6,7,7,9,9,10,10,11,11,12,12,13,13,14,14,16,16,17,17,21,21,22,22,23,23,24,24,25,25,26,26,27,27,28,28,30,30,31,31,33,33,37,37,38,38,39,39,41,41,43,43,45,45,46,46,47,47,48,48],"right_children":[2,4,6,8,10,12,14,16,-1,18,20,22,24,26,28,-1,30,32,-1,-1,-1,34,36,38,40,42,44,46,48,-1,50,52,-1,54,-1,-1,-1,56,58,60,-1,62,-1,64,-1,66,68,70,72,-1,-1,-1,-1,-1,-1,-1,-1,-1,-1,-1,-1,-1,-1,-1,-1,-1,-1,-1,-1,-1,-1,-1,-1],"split_conditions":[1E0,1E0,1.25E-1,1.944978E4,1E0,1E0,9.375E-1,1E0,-7.250724E-2,4.9709544E-1,1E0,2.5E0,1E0,1E0,-3.3769897E-1,-8.2859226E-2,3.9879382E0,5E-1,2.4130774E-1,-2.881841E-1,6.8215206E-2,2.1E1,1E0,4.3112084E-2,-4.506224E-1,6.726812E5,5E0,1E0,9.592753E0,-2.9419154E-1,5.2795607E-1,-6.987552E-1,1.17120616E-1,1E0,-3.52537E-2,-1.8976176E-1,2.1148093E-1,1E0,1E0,-1.8914406E-1,6.783012E-1,2.044478E0,5.2783924E-1,1E0,-1.094079E-1,-4.8437068E-1,1E0,9.9E1,1.5E0,-8.395482E-3,-1.7674501E-1,4.543418E-2,-1.6361386E-1,-2.9946738E-1,-5.0115217E-2,-1.1207996E-1,8.729291E-2,-1.9730707E-1,1.6498354E-1,2.5046843E-1,-7.5316556E-2,1.5698281E-1,-1.1564685E-2,3.868766E-1,8.262033E-2,1.2007382E-1,-2.6993787E-1,6.3221323E-1,3.653338E-2,-1.9058923E-1,1.4090563E-1,-1.4877975E-1,2.0503043E-1],"split_indices":[15,55,23,37,17,14,23,59,0,50,64,25,54,69,49,0,77,25,0,0,0,24,73,49,50,82,39,14,75,0,49,50,0,20,0,0,0,20,16,49,0,77,0,64,0,50,29,38,25,0,0,0,0,0,0,0,0,0,0,0,0,0,0,0,0,0,0,0,0,0,0,0,0],"split_type":[0,0,0,0,0,0,0,0,0,0,0,0,0,0,0,0,0,0,0,0,0,0,0,0,0,0,0,0,0,0,0,0,0,0,0,0,0,0,0,0,0,0,0,0,0,0,0,0,0,0,0,0,0,0,0,0,0,0,0,0,0,0,0,0,0,0,0,0,0,0,0,0,0],"sum_hessian":[8.745746E2,1.82413E2,6.9216156E2,1.6195546E2,2.0457535E1,4.0289587E2,2.892657E2,1.6051413E2,1.4413257E0,1.0049596E1,1.0407938E1,5.9846653E1,3.4304922E2,9.090425E1,1.9836145E2,1.5866268E0,1.589275E2,8.94133E0,1.1082662E0,9.061983E0,1.3459547E0,5.6632263E1,3.214387E0,3.3657617E2,6.473031E0,7.385306E1,1.7051195E1,5.509596E1,1.4326549E2,1.5662091E2,2.3065982E0,7.8596783E0,1.0816513E0,5.556741E1,1.0648568E0,1.4255329E0,1.788854E0,1.6271704E2,1.7385915E2,3.0981786E0,3.3748524E0,7.2459274E1,1.3937839E0,1.5649826E1,1.4013698E0,1.2345017E1,4.2750942E1,1.3407965E2,9.18584E0,1.0116659E0,1.2949324E0,1.4581448E0,6.4015336E0,5.426655E1,1.3008609E0,1.4790012E2,1.481692E1,1.7186685E2,1.9922918E0,1.4828178E0,1.615361E0,4.879379E1,2.3665483E1,1.1202793E1,4.447033E0,1.0153017E0,1.1329716E1,1.7702008E0,4.098074E1,1.306122E2,3.467455E0,4.082343E0,5.1034966E0],"tree_param":{"num_deleted":"0","num_feature":"90","num_nodes":"73","size_leaf_vector":"1"}},{"base_weights":[-3.8909525E-1,-8.11019E-1,-2.6364043E-1,-8.317665E-1,4.001084E-1,1.4954227E0,-3.1225428E-1,-9.218314E-1,-3.4423578E-1,1.5950779E0,1.5757415E-1,2.8956475E0,-3.3034006E-1,-2.9693696E-1,-7.301516E-1,-4.4823107E-1,4.7356993E-1,7.744554E-1,1.7624565E0,5.8730192E-2,1.2893417E0,-4.678991E-1,4.0716738E-2,-8.0301344E-1,9.719649E-2,-2.8316522E-1,-2.7937433E-1,-1.8639934E-1,3.6889172E-1,-8.344414E-3,3.648583E-1,5.6569785E-1,1.9016413E-1,-3.3075903E-2,-5.38472E-1,1.2080517E-1,-4.542224E-1,-2.6466697E-1,-5.2241843E-2,1.5644796E-1,-1.7183042E-1,-1.4297736E-2,-2.0422573E-1,7.344664E-2,-2.1669964E-1,-1.6953951E-1,1.0862494E-1,5.1213097E-2,-2.790883E-1,-1.9746563E-1,1.886134E-1],"categories":[],"categories_nodes":[],"categories_segments":[],"categories_sizes":[],"default_left":[0,0,0,0,0,0,0,0,0,0,0,0,0,0,0,0,0,0,0,0,0,0,0,0,0,0,0,0,0,0,0,0,0,0,0,0,0,0,0,0,0,0,0,0,0,0,0,0,0,0,0],"id":5,"left_children":[1,3,5,7,-1,9,11,13,15,17,-1,19,21,-1,23,25,27,29,31,-1,-1,33,35,37,39,41,-1,-1,-1,-1,-1,-1,-1,43,45,47,49,-1,-1,-1,-1,-1,-1,-1,-1,-1,-1,-1,-1,-1,-1],"loss_changes":[4.0534996E1,8.938957E0,5.133727E1,7.361847E0,0E0,7.256088E-1,3.458923E1,1.1924362E0,2.6672816E0,5.818329E-1,0E0,1.1849512E1,2.9488201E1,0E0,2.6276093E0,1.8191066E0,3.8624392E0,1.516962E0,3.3258057E-1,0E0,0E0,1.2909897E1,6.2808847E0,1.7880039E0,1.5253589E0,1.925137E0,0E0,0E0,0E0,0E0,0E0,0E0,0E0,1.1648823E1,8.904991E0,7.2917876E0,5.2929826E0,0E0,0E0,0E0,0E0,0E0,0E0,0E0,0E0,0E0,0E0,0E0,0E0,0E0,0E0],"parents":[2147483647,0,0,1,1,2,2,3,3,5,5,6,6,7,7,8,8,9,9,11,11,12,12,14,14,15,15,16,16,17,17,18,18,21,21,22,22,23,23,24,24,25,25,33,33,34,34,35,35,36,36],"right_children":[2,4,6,8,-1,10,12,14,16,18,-1,20,22,-1,24,26,28,30,32,-1,-1,34,36,38,40,42,-1,-1,-1,-1,-1,-1,-1,44,46,48,50,-1,-1,-1,-1,-1,-1,-1,-1,-1,-1,-1,-1,-1,-1],"split_conditions":[1E0,8.12E1,1E0,1E0,4.001084E-1,1E0,1E0,1E0,1.5E1,-6.1466116E-1,1.5757415E-1,-4.3872753E-1,1E0,-2.9693696E-1,1E0,1E0,1.875E-1,5E-1,2E0,5.8730192E-2,1.2893417E0,-5.81234E-1,5.1875E0,3.6767706E-1,-3.4437725E-1,1E0,-2.7937433E-1,-1.8639934E-1,3.6889172E-1,-8.344414E-3,3.648583E-1,5.6569785E-1,1.9016413E-1,1E0,4.51E1,1E0,9.61176E0,-2.6466697E-1,-5.2241843E-2,1.5644796E-1,-1.7183042E-1,-1.4297736E-2,-2.0422573E-1,7.344664E-2,-2.1669964E-1,-1.6953951E-1,1.0862494E-1,5.1213097E-2,-2.790883E-1,-1.9746563E-1,1.886134E-1],"split_indices":[14,37,29,55,0,6,59,28,24,50,0,50,25,0,27,25,23,25,33,0,0,49,23,49,49,23,0,0,0,0,0,0,0,10,47,52,77,0,0,0,0,0,0,0,0,0,0,0,0,0,0],"split_type":[0,0,0,0,0,0,0,0,0,0,0,0,0,0,0,0,0,0,0,0,0,0,0,0,0,0,0,0,0,0,0,0,0,0,0,0,0,0,0,0,0,0,0,0,0,0,0,0,0,0,0],"sum_hessian":[7.6882806E2,1.7495682E2,5.938712E2,1.7388684E2,1.0699649E0,1.5170607E1,5.787006E2,1.4602063E2,2.786622E1,1.31733465E1,1.9972599E0,2.3523579E0,5.7634827E2,1.04726875E2,4.129375E1,2.5123348E1,2.7428708E0,3.1849887E0,9.9883585E0,1.1936266E0,1.1587311E0,4.2028003E2,1.5606824E2,3.7978516E1,3.3152332E0,1.990669E1,5.216658E0,1.1931787E0,1.5496923E0,1.463701E0,1.7212877E0,8.400476E0,1.5878818E0,5.889247E1,3.6138754E2,1.3498207E2,2.1086164E1,3.3372257E1,4.606261E0,2.1654427E0,1.1497906E0,1.3204834E1,6.701857E0,4.2430084E1,1.6462387E1,3.5135855E2,1.0028998E1,1.2966338E2,5.3186975E0,1.8073736E1,3.0124288E0],"tree_param":{"num_deleted":"0","num_feature":"90","num_nodes":"51","size_leaf_vector":"1"}},{"base_weights":[-3.1802532E-1,-8.2089704E-1,-2.1529564E-1,-8.9702183E-1,-3.416371E-1,-1.0757242E-1,-4.80474E-1,-3.2535754E-2,-9.052514E-1,-4.9334982E-1,4.791499E-1,-2.802551E-1,8.539071E-2,1.0039594E0,-5.4135376E-1,-9.21188E-1,-3.5075432E-1,-1.4151745E-1,-2.6894537E-1,4.163953E-1,-1.7451692E-1,-3.185152E-1,6.648393E-1,3.820567E-1,-9.626524E-2,1.560398E-1,1.573796E0,-6.199521E-1,7.6561004E-2,-9.2998505E-1,-7.6065645E-2,1.3736176E-1,-2.2006898E-1,-5.9729743E-1,5.7263714E-1,-5.679345E-1,-1.847266E-1,3.9663557E-2,6.9887656E-1,5.4503715E-1,-2.4850605E-1,-1.677896E-1,8.6215305E-1,-1.0353751E-1,2.2115959E-1,5.714251E-1,1.0983848E-1,-6.572834E-1,4.8972152E-2,-1.0729429E-1,3.8865277E-1,-7.814061E-2,-2.817392E-1,-3.166327E-2,-2.4646905E-1,-1.1454069E-2,3.3819216E-1,7.321071E-2,-2.0242983E-1,-6.669836E-2,4.5091358E-1,1.5823397E-1,-1.6655745E-1,9.6258946E-2,2.5100744E-1,7.533546E-2,-1.790501E-1,-6.934937E-2,1.7072853E-1,3.7449473E-1,-1.8850884E-1,-2.0510411E-1,6.353981E-2,1.5479206E-1,-1.4597923E-1,-8.563873E-2,2.0903571E-1],"categories":[],"categories_nodes":[],"categories_segments":[],"categories_sizes":[],"default_left":[0,0,0,0,0,0,0,0,0,0,0,0,0,0,0,0,0,0,0,0,0,0,0,0,0,0,0,0,0,0,0,0,0,0,0,0,0,0,0,0,0,0,0,0,0,0,0,0,0,0,0,0,0,0,0,0,0,0,0,0,0,0,0,0,0,0,0,0,0,0,0,0,0,0,0,0,0],"id":6,"left_children":[1,3,5,7,9,11,13,-1,15,17,19,21,23,25,27,29,31,33,-1,-1,-1,35,37,39,41,43,45,47,49,51,-1,-1,-1,53,55,57,59,61,-1,63,65,67,69,-1,-1,-1,-1,71,73,75,-1,-1,-1,-1,-1,-1,-1,-1,-1,-1,-1,-1,-1,-1,-1,-1,-1,-1,-1,-1,-1,-1,-1,-1,-1,-1,-1],"loss_changes":[3.541667E1,3.9446182E0,1.6330118E1,5.5036163E-1,2.4262912E0,1.3655676E1,1.5488869E1,0E0,5.496597E-1,2.0482435E0,3.9417071E0,8.026833E0,1.0490077E1,3.0716882E0,7.7944145E0,3.244629E-1,1.6899071E0,3.3939633E0,0E0,0E0,0E0,6.849127E0,8.996532E0,7.7267103E0,8.446347E0,1.3814473E0,8.997593E-1,3.5687065E0,4.372466E0,3.295822E-1,0E0,0E0,0E0,5.9847045E-1,1.4535741E0,6.4340553E0,9.036171E0,2.4301798E0,0E0,3.5896263E0,2.9096675E0,5.433444E0,5.718829E0,0E0,0E0,0E0,0E0,3.2235985E0,2.356122E0,2.68275E0,0E0,0E0,0E0,0E0,0E0,0E0,0E0,0E0,0E0,0E0,0E0,0E0,0E0,0E0,0E0,0E0,0E0,0E0,0E0,0E0,0E0,0E0,0E0,0E0,0E0,0E0,0E0],"parents":[2147483647,0,0,1,1,2,2,3,3,4,4,5,5,6,6,8,8,9,9,10,10,11,11,12,12,13,13,14,14,15,15,16,16,17,17,21,21,22,22,23,23,24,24,25,25,26,26,27,27,28,28,29,29,33,33,34,34,35,35,36,36,37,37,39,39,40,40,41,41,42,42,47,47,48,48,49,49],"right_children":[2,4,6,8,10,12,14,-1,16,18,20,22,24,26,28,30,32,34,-1,-1,-1,36,38,40,42,44,46,48,50,52,-1,-1,-1,54,56,58,60,62,-1,64,66,68,70,-1,-1,-1,-1,72,74,76,-1,-1,-1,-1,-1,-1,-1,-1,-1,-1,-1,-1,-1,-1,-1,-1,-1,-1,-1,-1,-1,-1,-1,-1,-1,-1,-1],"split_conditions":[1E0,1E0,1E0,1E0,1E0,1.25E-1,1E0,-3.2535754E-2,2.9074075E0,1E0,2.6875E0,3E0,8.125E-1,1E0,1E0,1E0,3.6263058E0,3.3072385E-1,-2.6894537E-1,4.163953E-1,-1.7451692E-1,1E0,2.878473E0,1E0,1E0,2.5E-1,6.602941E-1,1E0,4.6E1,-1.1131228E0,-7.6065645E-2,1.3736176E-1,-2.2006898E-1,-6.8126E-1,2.7773166E-1,-6.160443E-1,1.571231E0,6.3E1,6.9887656E-1,1E0,-3.5075873E-1,9.352174E0,5.5E0,-1.0353751E-1,2.2115959E-1,5.714251E-1,1.0983848E-1,2E0,1E0,1E0,3.8865277E-1,-7.814061E-2,-2.817392E-1,-3.166327E-2,-2.4646905E-1,-1.1454069E-2,3.3819216E-1,7.321071E-2,-2.0242983E-1,-6.669836E-2,4.5091358E-1,1.5823397E-1,-1.6655745E-1,9.6258946E-2,2.5100744E-1,7.533546E-2,-1.790501E-1,-6.934937E-2,1.7072853E-1,3.7449473E-1,-1.8850884E-1,-2.0510411E-1,6.353981E-2,1.5479206E-1,-1.4597923E-1,-8.563873E-2,2.0903571E-1],"split_indices":[15,55,10,59,21,23,11,0,83,17,23,24,23,18,20,70,81,49,0,0,0,18,81,31,30,23,81,6,40,49,0,0,0,49,50,50,50,24,0,65,49,75,23,0,0,0,0,33,13,0,0,0,0,0,0,0,0,0,0,0,0,0,0,0,0,0,0,0,0,0,0,0,0,0,0,0,0],"split_type":[0,0,0,0,0,0,0,0,0,0,0,0,0,0,0,0,0,0,0,0,0,0,0,0,0,0,0,0,0,0,0,0,0,0,0,0,0,0,0,0,0,0,0,0,0,0,0,0,0,0,0,0,0,0,0,0,0,0,0,0,0,0,0,0,0,0,0,0,0,0,0,0,0,0,0,0,0],"sum_hessian":[6.879955E2,1.155205E2,5.72475E2,9.893429E1,1.6586216E1,4.080989E2,1.6437608E2,1.1682634E0,9.776602E1,1.4335416E1,2.2508001E0,2.1512827E2,1.9297063E2,5.8655434E0,1.5851053E2,9.439183E1,3.3741894E0,8.376201E0,5.959215E0,1.0461968E0,1.2046033E0,2.073953E2,7.73297E0,7.286696E1,1.20103676E2,2.8695183E0,2.9960248E0,1.4062042E2,1.7890116E1,9.277642E1,1.6154131E0,1.0211263E0,2.3530633E0,5.2129064E0,3.1632946E0,7.127457E1,1.3612073E2,6.36609E0,1.3668802E0,5.8009083E1,1.4857873E1,1.1253072E2,7.572954E0,1.758882E0,1.1106364E0,1.8985301E0,1.0974946E0,1.3320398E2,7.416441E0,1.633784E1,1.5522763E0,1.6475106E0,9.1128914E1,2.093363E0,3.1195433E0,1.9486051E0,1.2146895E0,8.137956E0,6.3136616E1,1.3400357E2,2.1171458E0,3.5601087E0,2.8059812E0,3.3986336E1,2.4022749E1,6.218061E0,8.6398115E0,1.0425102E2,8.2797E0,6.1437316E0,1.4292228E0,1.2948444E2,3.7195468E0,3.9813805E0,3.4350607E0,1.3902339E1,2.4355E0],"tree_param":{"num_deleted":"0","num_feature":"90","num_nodes":"77","size_leaf_vector":"1"}},{"base_weights":[-2.5491273E-1,-6.970746E-1,-1.5025845E-1,-7.251283E-1,3.2548815E-1,1.2164565E0,-1.9183868E-1,-8.4214574E-1,-2.7266714E-1,1.2970423E0,1.266614E-1,1.751993E0,-2.0857713E-1,-2.8361273E-1,-5.984702E-1,-3.6420742E-1,3.3650017E-1,1.512022E-1,1.3868381E0,7.221642E-1,-4.9480837E-2,-3.6237282E-1,-6.074767E-3,-7.142338E-1,2.2177127E-1,-2.1399866E-1,-2.6008552E-1,-8.234717E-2,2.2385593E-1,4.3685672E-1,1.2263961E-1,-2.7274644E-1,-3.044358E-1,3.1052557E-1,-1.2816797E-1,-2.5804394E-1,-6.368568E-3,2.8097466E-1,-1.280401E-1,-9.002458E-2,1.4341025E-1,-1.0842394E-1,6.9520675E-2,1.4406732E-1,-4.748031E-2,-5.644001E-2,1.7841084E-1],"categories":[],"categories_nodes":[],"categories_segments":[],"categories_sizes":[],"default_left":[0,0,0,0,0,0,0,0,0,0,0,0,0,0,0,0,0,0,0,0,0,0,0,0,0,0,0,0,0,0,0,0,0,0,0,0,0,0,0,0,0,0,0,0,0,0,0],"id":7,"left_children":[1,3,5,7,-1,9,11,13,15,17,-1,19,21,-1,23,25,27,-1,29,-1,-1,31,33,35,37,39,-1,-1,-1,-1,-1,-1,41,43,45,-1,-1,-1,-1,-1,-1,-1,-1,-1,-1,-1,-1],"loss_changes":[2.9051228E1,6.8015213E0,2.9258844E1,6.07349E0,0E0,4.2631721E-1,1.6521227E1,1.8014526E0,1.5691141E0,2.5042534E-1,0E0,5.8551884E0,1.5357862E1,0E0,3.0762405E0,1.553796E0,1.1832253E0,0E0,1.7830276E-1,0E0,0E0,8.602535E0,8.308216E0,2.7286596E0,2.515437E0,1.2789948E0,0E0,0E0,0E0,0E0,0E0,0E0,7.872076E0,4.835225E0,6.83418E0,0E0,0E0,0E0,0E0,0E0,0E0,0E0,0E0,0E0,0E0,0E0,0E0],"parents":[2147483647,0,0,1,1,2,2,3,3,5,5,6,6,7,7,8,8,9,9,11,11,12,12,14,14,15,15,16,16,18,18,21,21,22,22,23,23,24,24,25,25,32,32,33,33,34,34],"right_children":[2,4,6,8,-1,10,12,14,16,18,-1,20,22,-1,24,26,28,-1,30,-1,-1,32,34,36,38,40,-1,-1,-1,-1,-1,-1,42,44,46,-1,-1,-1,-1,-1,-1,-1,-1,-1,-1,-1,-1],"split_conditions":[1E0,8.12E1,1E0,1E0,3.2548815E-1,1E0,1E0,1E0,1.5E1,-8.534115E-1,1.266614E-1,2.0034865E-3,5E-1,-2.8361273E-1,1E0,1E0,5.625E-1,1.512022E-1,1E0,7.221642E-1,-4.9480837E-2,1E0,5.4057974E-1,1.5E0,-8.396097E-1,1.8E1,-2.6008552E-1,-8.234717E-2,2.2385593E-1,4.3685672E-1,1.2263961E-1,-2.7274644E-1,1E0,1E0,1.132569E4,-2.5804394E-1,-6.368568E-3,2.8097466E-1,-1.280401E-1,-9.002458E-2,1.4341025E-1,-1.0842394E-1,6.9520675E-2,1.4406732E-1,-4.748031E-2,-5.644001E-2,1.7841084E-1],"split_indices":[14,37,29,55,0,6,59,28,24,49,0,49,25,0,29,25,23,0,35,0,0,15,75,25,49,48,0,0,0,0,0,0,20,27,37,0,0,0,0,0,0,0,0,0,0,0,0],"split_type":[0,0,0,0,0,0,0,0,0,0,0,0,0,0,0,0,0,0,0,0,0,0,0,0,0,0,0,0,0,0,0,0,0,0,0,0,0,0,0,0,0,0,0,0,0,0,0],"sum_hessian":[6.290707E2,1.1931344E2,5.0975726E2,1.1804816E2,1.265284E0,1.4216442E1,4.9554083E2,9.310713E1,2.4941023E1,1.23321705E1,1.8842719E0,3.3456206E0,4.921952E2,6.3378136E1,2.9728996E1,2.2032322E1,2.9086998E0,1.9269629E0,1.0405208E1,2.3027556E0,1.042865E0,2.7929092E2,2.1290427E2,2.6165417E1,3.56358E0,1.8061586E1,3.9707365E0,1.2999704E0,1.6087295E0,9.259731E0,1.1454762E0,2.5350733E1,2.539402E2,5.882405E1,1.5408022E2,2.1415243E1,4.7501736E0,1.4839756E0,2.0796044E0,1.6567144E1,1.4944422E0,2.2984157E2,2.4098639E1,4.317186E1,1.5652194E1,1.4296072E2,1.11194935E1],"tree_param":{"num_deleted":"0","num_feature":"90","num_nodes":"47","size_leaf_vector":"1"}},{"base_weights":[-2.0076257E-1,-6.240485E-1,-1.1350224E-1,-6.544635E-1,2.3380984E-1,9.9925923E-1,-1.4637743E-1,-7.886967E-1,-2.150449E-1,6.6517067E-1,3.7790978E-1,1.0262711E-1,-2.512166E-1,-9.158597E-1,-5.20131E-1,-3.1306577E-1,3.0981323E-1,1.5950996E-2,7.641355E-1,6.8193756E-2,5.8494675E-1,-8.4554327E-1,-2.0647262E-1,-5.2614194E-1,-2.8488758E-1,-2.1426329E-1,-8.63349E-1,-4.1687524E-1,1.4085999E-1,-1.0718352E-1,2.83582E-1,8.9135146E-1,5.2484695E-2,4.2657435E-1,3.39536E-2,-8.802055E-1,-1.8964153E-2,-5.4089165E-1,-1.2408609E-1,-2.424088E-1,9.552791E-2,-1.16882525E-1,2.017804E-1,-2.7920437E-1,-7.3552094E-2,1.3370612E-1,-1.5710376E-1,1.2318744E-1,3.56943E-1,-1.1540028E-2,1.6388234E-1,-1.1110885E-1,-2.7470237E-1,3.7510507E-2,-2.0719586E-1,-7.211499E-2,2.4739904E-2],"categories":[],"categories_nodes":[],"categories_segments":[],"categories_sizes":[],"default_left":[0,0,0,0,0,0,0,0,0,0,0,0,0,0,0,0,0,0,0,0,0,0,0,0,0,0,0,0,0,0,0,0,0,0,0,0,0,0,0,0,0,0,0,0,0,0,0,0,0,0,0,0,0,0,0,0,0],"id":8,"left_children":[1,3,5,7,-1,9,11,13,15,17,-1,19,21,23,25,27,29,-1,31,33,-1,35,37,39,-1,41,43,45,-1,-1,-1,47,-1,-1,49,51,-1,53,55,-1,-1,-1,-1,-1,-1,-1,-1,-1,-1,-1,-1,-1,-1,-1,-1,-1,-1],"loss_changes":[2.1448309E1,4.750988E0,1.786126E1,5.5984955E0,0E0,3.8229942E-1,1.2327372E1,2.0690384E0,1.3449686E0,4.597788E-1,0E0,8.792636E0,8.651453E0,1.4867783E-1,2.57225E0,1.8967285E0,2.1689968E0,0E0,3.7153006E-1,6.385165E0,0E0,5.657368E-1,8.473457E0,1.7263731E0,0E0,2.6285691E0,2.7323437E-1,1.9851737E0,0E0,0E0,0E0,3.0678654E-1,0E0,0E0,5.081679E0,5.6266785E-2,0E0,6.167328E0,6.0254326E0,0E0,0E0,0E0,0E0,0E0,0E0,0E0,0E0,0E0,0E0,0E0,0E0,0E0,0E0,0E0,0E0,0E0,0E0],"parents":[2147483647,0,0,1,1,2,2,3,3,5,5,6,6,7,7,8,8,9,9,11,11,12,12,13,13,14,14,15,15,16,16,18,18,19,19,21,21,22,22,23,23,25,25,26,26,27,27,31,31,34,34,35,35,37,37,38,38],"right_children":[2,4,6,8,-1,10,12,14,16,18,-1,20,22,24,26,28,30,-1,32,34,-1,36,38,40,-1,42,44,46,-1,-1,-1,48,-1,-1,50,52,-1,54,56,-1,-1,-1,-1,-1,-1,-1,-1,-1,-1,-1,-1,-1,-1,-1,-1,-1,-1],"split_conditions":[1E0,8.12E1,1E0,1E0,2.3380984E-1,3.125E-1,-3.4437725E-1,1E0,1E0,-8.396097E-1,3.7790978E-1,1E0,1E0,-6.569848E-1,1E0,3.5E1,1E0,1.5950996E-2,1E0,1E0,5.8494675E-1,1.944978E4,1E0,1.10191815E-1,-2.8488758E-1,3.5565615E-1,1E0,-6.713693E-1,1.4085999E-1,-1.0718352E-1,2.83582E-1,-4.1604427E-1,5.2484695E-2,4.2657435E-1,1E0,9.075057E-2,-1.8964153E-2,-4.6970955E-1,1E0,-2.424088E-1,9.552791E-2,-1.16882525E-1,2.017804E-1,-2.7920437E-1,-7.3552094E-2,1.3370612E-1,-1.5710376E-1,1.2318744E-1,3.56943E-1,-1.1540028E-2,1.6388234E-1,-1.1110885E-1,-2.7470237E-1,3.7510507E-2,-2.0719586E-1,-7.211499E-2,2.4739904E-2],"split_indices":[14,37,29,55,0,23,49,28,67,49,0,7,15,50,10,24,29,0,30,59,0,37,51,49,0,49,27,50,0,0,0,50,0,0,55,49,0,50,25,0,0,0,0,0,0,0,0,0,0,0,0,0,0,0,0,0,0],"split_type":[0,0,0,0,0,0,0,0,0,0,0,0,0,0,0,0,0,0,0,0,0,0,0,0,0,0,0,0,0,0,0,0,0,0,0,0,0,0,0,0,0,0,0,0,0,0,0,0,0,0,0,0,0,0,0,0,0],"sum_hessian":[5.816051E2,9.835399E1,4.832511E2,9.679E1,1.5639886E0,1.3023837E1,4.7022726E2,7.35325E1,2.32575E1,7.262121E0,5.761716E0,1.3932831E2,3.3089896E2,4.826796E1,2.5264544E1,1.9937548E1,3.3199515E0,1.2248541E0,6.037267E0,1.3779659E2,1.531733E0,2.1914532E1,3.0898444E2,5.170689E0,4.309727E1,1.4218041E1,1.1046503E1,1.8015203E1,1.9223447E0,1.8332311E0,1.4867203E0,4.5434117E0,1.4938555E0,2.3995645E0,1.3539702E2,2.0864971E1,1.0495616E0,5.9974365E1,2.4901006E2,3.9091988E0,1.2614905E0,1.233912E1,1.8789212E0,9.505615E0,1.5408877E0,1.6353074E0,1.6379896E1,2.6503372E0,1.8930744E0,1.1943842E2,1.595859E1,2.1013522E0,1.8763618E1,1.1041672E1,4.8932693E1,1.5920663E2,8.980343E1],"tree_param":{"num_deleted":"0","num_feature":"90","num_nodes":"57","size_leaf_vector":"1"}},{"base_weights":[-1.5528977E-1,-5.478842E-1,-8.4024616E-2,-3.088625E-1,-7.803718E-1,8.553884E-1,-1.10424116E-1,-4.268392E-1,3.8142854E-1,-8.807945E-1,4.5008812E-2,9.349625E-1,5.5225357E-2,-7.584162E-1,-8.1318446E-2,-4.8499802E-1,1.893173E-1,8.459639E-1,-4.2444825E-1,-2.702748E-1,-3.584605E-1,-2.2431843E-1,3.351985E-1,3.717095E-1,1.0774151E0,-2.0279002E-1,-8.862568E-1,-4.4079423E-2,-5.745308E-1,-2.1787314E-2,-6.1740565E-1,1.2136617E0,-3.6637153E-2,-1.2798693E-2,-1.7625819E-1,-3.4042867E-3,-1.5690385E-1,-6.9124185E-2,2.4600656E-1,3.713409E-1,4.160099E-2,-4.9731165E-1,1.3741559E-1,-2.831462E-1,-7.387637E-2,2.2724682E-1,-1.1042988E-1,-7.245612E-1,3.8797686E-1,-1.2981729E-1,1.863255E-1,-2.002622E-1,1.08538434E-1,4.9943155E-1,7.2839744E-2,-1.9777066E-1,-8.3085615E-3,2.074745E-3,1.9236389E-1,-3.8076706E-2,3.290915E-1,-2.361615E-1,9.345168E-2,-1.8404868E-1,2.915212E-1],"categories":[],"categories_nodes":[],"categories_segments":[],"categories_sizes":[],"default_left":[0,0,0,0,0,0,0,0,0,0,0,0,0,0,0,0,0,0,0,0,0,0,0,0,0,0,0,0,0,0,0,0,0,0,0,0,0,0,0,0,0,0,0,0,0,0,0,0,0,0,0,0,0,0,0,0,0,0,0,0,0,0,0,0,0],"id":9,"left_children":[1,3,5,7,9,11,13,15,17,19,21,23,-1,25,27,29,-1,31,33,-1,35,-1,-1,37,39,41,43,45,47,49,51,53,-1,-1,-1,-1,-1,-1,-1,-1,-1,55,-1,-1,-1,57,59,61,63,-1,-1,-1,-1,-1,-1,-1,-1,-1,-1,-1,-1,-1,-1,-1,-1],"loss_changes":[1.5253882E1,4.4176064E0,1.1602049E1,3.6639414E0,3.5078754E0,5.115223E-1,8.467258E0,2.5940952E0,2.905902E0,6.9639206E-2,5.502432E0,4.9787235E-1,0E0,1.1925287E0,7.94398E0,2.1832132E0,0E0,1.803328E0,1.7127788E-1,0E0,1.6806692E-1,0E0,0E0,1.2111487E0,1.0945215E0,1.1834886E0,3.3524895E-1,7.3075333E0,4.667816E0,2.645978E0,1.6071148E0,1.1116776E0,0E0,0E0,0E0,0E0,0E0,0E0,0E0,0E0,0E0,2.7647883E-1,0E0,0E0,0E0,7.275164E0,6.625085E0,1.9735794E0,3.3718314E0,0E0,0E0,0E0,0E0,0E0,0E0,0E0,0E0,0E0,0E0,0E0,0E0,0E0,0E0,0E0,0E0],"parents":[2147483647,0,0,1,1,2,2,3,3,4,4,5,5,6,6,7,7,8,8,9,9,10,10,11,11,13,13,14,14,15,15,17,17,18,18,20,20,23,23,24,24,25,25,26,26,27,27,28,28,29,29,30,30,31,31,41,41,45,45,46,46,47,47,48,48],"right_children":[2,4,6,8,10,12,14,16,18,20,22,24,-1,26,28,30,-1,32,34,-1,36,-1,-1,38,40,42,44,46,48,50,52,54,-1,-1,-1,-1,-1,-1,-1,-1,-1,56,-1,-1,-1,58,60,62,64,-1,-1,-1,-1,-1,-1,-1,-1,-1,-1,-1,-1,-1,-1,-1,-1],"split_conditions":[1E0,1E0,1E0,1E0,2E0,1E0,1E0,1E0,1E0,3.5E0,1E0,-6.1466116E-1,5.5225357E-2,2.014618E-1,1E0,-7.668905E-1,1.893173E-1,1E0,-3.5131398E-1,-2.702748E-1,-2.544951E-2,-2.2431843E-1,3.351985E-1,5E-1,2E0,1.6028986E0,1E0,-5.506623E-1,1.0943292E0,1E0,8.12E1,1E0,-3.6637153E-2,-1.2798693E-2,-1.7625819E-1,-3.4042867E-3,-1.5690385E-1,-6.9124185E-2,2.4600656E-1,3.713409E-1,4.160099E-2,4.4591978E-1,1.3741559E-1,-2.831462E-1,-7.387637E-2,-6.449004E-1,1E0,2E0,1.875E-1,-1.2981729E-1,1.863255E-1,-2.002622E-1,1.08538434E-1,4.9943155E-1,7.2839744E-2,-1.9777066E-1,-8.3085615E-3,2.074745E-3,1.9236389E-1,-3.8076706E-2,3.290915E-1,-2.361615E-1,9.345168E-2,-1.8404868E-1,2.915212E-1],"split_indices":[14,54,29,69,25,6,15,63,29,23,73,50,0,49,12,49,0,23,50,0,50,0,0,25,33,75,53,49,50,21,37,15,0,0,0,0,0,0,0,0,0,50,0,0,0,49,16,35,23,0,0,0,0,0,0,0,0,0,0,0,0,0,0,0,0],"split_type":[0,0,0,0,0,0,0,0,0,0,0,0,0,0,0,0,0,0,0,0,0,0,0,0,0,0,0,0,0,0,0,0,0,0,0,0,0,0,0,0,0,0,0,0,0,0,0,0,0,0,0,0,0,0,0,0,0,0,0,0,0,0,0,0,0],"sum_hessian":[5.458494E2,8.2834175E1,4.6301523E2,4.1991253E1,4.084292E1,1.1797716E1,4.5121753E2,3.6188057E1,5.8031983E0,3.6352795E1,4.4901237E0,1.01963215E1,1.601394E0,1.831889E1,4.3289865E2,3.4815582E1,1.3724729E0,3.6496627E0,2.1535358E0,3.430645E1,2.0463452E0,2.7556481E0,1.7344759E0,2.7867913E0,7.4095306E0,3.910255E0,1.4408633E1,4.0352097E2,2.937768E1,7.998484E0,2.6817099E1,2.4611883E0,1.1884743E0,1.0221577E0,1.1313783E0,1.0018873E0,1.0444579E0,1.3968027E0,1.3899888E0,6.05623E0,1.3533002E0,2.8759637E0,1.0342914E0,1.2784079E1,1.6245552E0,7.881179E1,3.2470917E2,2.5629852E1,3.747827E0,5.078862E0,2.9196222E0,2.5813719E1,1.0033804E0,1.1924043E0,1.268784E0,1.838332E0,1.0376316E0,5.2099075E1,2.6712717E1,3.212164E2,3.4927657E0,2.4395052E1,1.2348005E0,1.361376E0,2.386451E0],"tree_param":{"num_deleted":"0","num_feature":"90","num_nodes":"65","size_leaf_vector":"1"}},{"base_weights":[-1.192714E-1,-5.4737276E-1,-7.249702E-2,-6.8513393E-1,-7.134049E-2,2.546529E-3,-2.8855285E-1,-7.817505E-1,-3.27252E-1,-2.148448E-1,2.1025509E-1,-5.9252404E-2,3.1682238E-1,8.06311E-1,-3.4960285E-1,-8.068007E-1,-7.4888105E-3,2.1238215E-1,-5.628316E-1,9.471467E-2,-2.3440461E-1,-9.4772235E-2,5.5808693E-1,1.8129733E-1,1.0145682E0,1.1501397E0,1.0815656E-1,-4.3256664E-1,1.359104E-1,-2.9280943E-1,-8.582803E-1,-7.414018E-1,5.9019756E-2,2.876191E-1,-1.7575115E-1,-1.16670854E-1,7.201348E-1,1.167544E0,1.0048216E-1,5.055269E-1,-1.928699E-1,-2.0181917E-1,1.4576192E0,4.2558032E-1,6.7438304E-2,1.5479037E-1,-9.416795E-2,-2.2837332E-1,-6.205775E-1,3.1380332E-1,-2.2261976E-1,-2.0727071E-1,1.4286354E-1,-1.1005101E-1,-2.7664128E-1,-2.5019765E-1,-8.423431E-2,2.3540883E-1,-9.208313E-2,-3.9484102E-2,3.3095267E-1,-1.8339635E-1,3.331216E-1,4.38296E-1,1.0571058E-3,2.4751106E-1,-1.3147199E-1,-1.14743255E-1,2.2004554E-1,-1.8797158E-1,3.4552537E-2,5.871038E-1,-1.7714708E-1,-9.092866E-2,3.418349E-1,-2.3378967E-1,9.2093E-5,-1.5151322E-1,1.584464E-1],"categories":[],"categories_nodes":[],"categories_segments":[],"categories_sizes":[],"default_left":[0,0,0,0,0,0,0,0,0,0,0,0,0,0,0,0,0,0,0,0,0,0,0,0,0,0,0,0,0,0,0,0,0,0,0,0,0,0,0,0,0,0,0,0,0,0,0,0,0,0,0,0,0,0,0,0,0,0,0,0,0,0,0,0,0,0,0,0,0,0,0,0,0,0,0,0,0,0,0],"id":10,"left_children":[1,3,5,7,9,11,13,15,17,19,-1,21,23,25,27,29,-1,-1,31,33,-1,35,37,39,41,43,45,47,49,51,53,55,-1,57,-1,59,61,63,65,67,69,-1,71,-1,-1,-1,-1,73,75,77,-1,-1,-1,-1,-1,-1,-1,-1,-1,-1,-1,-1,-1,-1,-1,-1,-1,-1,-1,-1,-1,-1,-1,-1,-1,-1,-1,-1,-1],"loss_changes":[1.0400011E1,3.3087425E0,7.6398473E0,1.113163E0,1.5476589E0,6.8297524E0,8.401083E0,5.5723E-1,2.870434E0,2.0726905E0,0E0,6.4974904E0,5.2802663E0,1.4882064E0,4.721265E0,5.278835E-1,0E0,0E0,1.341408E0,1.2531246E0,0E0,5.058687E0,4.382667E0,6.1152325E0,7.843627E0,7.734957E-1,7.334789E-1,3.662695E0,2.990127E0,1.6144177E0,4.8548698E-1,7.914543E-2,0E0,2.341554E0,0E0,5.109229E0,4.542003E0,2.3262215E0,4.3858733E0,5.7160225E0,3.2454658E0,0E0,8.915764E0,0E0,0E0,0E0,0E0,5.362358E0,5.027252E0,2.9666495E0,0E0,0E0,0E0,0E0,0E0,0E0,0E0,0E0,0E0,0E0,0E0,0E0,0E0,0E0,0E0,0E0,0E0,0E0,0E0,0E0,0E0,0E0,0E0,0E0,0E0,0E0,0E0,0E0,0E0],"parents":[2147483647,0,0,1,1,2,2,3,3,4,4,5,5,6,6,7,7,8,8,9,9,11,11,12,12,13,13,14,14,15,15,18,18,19,19,21,21,22,22,23,23,24,24,25,25,26,26,27,27,28,28,29,29,30,30,31,31,33,33,35,35,36,36,37,37,38,38,39,39,40,40,42,42,47,47,48,48,49,49],"right_children":[2,4,6,8,10,12,14,16,18,20,-1,22,24,26,28,30,-1,-1,32,34,-1,36,38,40,42,44,46,48,50,52,54,56,-1,58,-1,60,62,64,66,68,70,-1,72,-1,-1,-1,-1,74,76,78,-1,-1,-1,-1,-1,-1,-1,-1,-1,-1,-1,-1,-1,-1,-1,-1,-1,-1,-1,-1,-1,-1,-1,-1,-1,-1,-1,-1,-1],"split_conditions":[1E0,1E0,1E0,1E0,9.095436E-1,1E0,1E0,3.3E1,-5.862798E-1,1E0,2.1025509E-1,4.1E1,2.375E0,1E0,1E0,-6.569848E-1,-7.4888105E-3,2.1238215E-1,1.0356846E0,1E0,-2.3440461E-1,1.6699585E1,2.5172887E-2,3.125E-1,-5.9340334E-1,1.1594203E-1,1E0,-6.9009E-3,1E0,1.10191815E-1,-7.440359E-1,5.97787E-1,5.9019756E-2,1E0,-1.7575115E-1,1E0,5E-1,2.12597E3,3.75E-1,1E0,-2.5449522E-2,-2.0181917E-1,7.6875E0,4.2558032E-1,6.7438304E-2,1.5479037E-1,-9.416795E-2,1E0,1.0691563E0,1E0,-2.2261976E-1,-2.0727071E-1,1.4286354E-1,-1.1005101E-1,-2.7664128E-1,-2.5019765E-1,-8.423431E-2,2.3540883E-1,-9.208313E-2,-3.9484102E-2,3.3095267E-1,-1.8339635E-1,3.331216E-1,4.38296E-1,1.0571058E-3,2.4751106E-1,-1.3147199E-1,-1.14743255E-1,2.2004554E-1,-1.8797158E-1,3.4552537E-2,5.871038E-1,-1.7714708E-1,-9.092866E-2,3.418349E-1,-2.3378967E-1,9.2093E-5,-1.5151322E-1,1.584464E-1],"split_indices":[15,55,10,65,50,11,11,38,49,17,0,47,23,65,20,50,0,0,50,64,0,77,50,23,49,75,28,49,72,49,49,50,0,65,0,7,25,47,23,14,50,0,23,0,0,0,0,0,50,51,0,0,0,0,0,0,0,0,0,0,0,0,0,0,0,0,0,0,0,0,0,0,0,0,0,0,0,0,0],"split_type":[0,0,0,0,0,0,0,0,0,0,0,0,0,0,0,0,0,0,0,0,0,0,0,0,0,0,0,0,0,0,0,0,0,0,0,0,0,0,0,0,0,0,0,0,0,0,0,0,0,0,0,0,0,0,0,0,0,0,0,0,0,0,0,0,0,0,0,0,0,0,0,0,0,0,0,0,0,0,0],"sum_hessian":[5.2035455E2,5.01998E1,4.7015475E2,3.859217E1,1.1607627E1,3.4968536E2,1.2046942E2,2.94557E1,9.13647E0,1.0397182E1,1.210445E0,2.92901E2,5.678434E1,5.7178993E0,1.1475152E2,2.8447966E1,1.0077342E0,1.3220346E0,7.814435E0,7.2618413E0,3.1353407E0,2.777657E2,1.5135311E1,4.8603737E1,8.180601E0,3.39736E0,2.3205392E0,9.809777E1,1.6653751E1,3.1987128E0,2.5249254E1,6.346348E0,1.4680872E0,6.1079097E0,1.1539315E0,2.7133118E2,6.4345274E0,5.82539E0,9.309921E0,2.5851444E1,2.2752295E1,1.5935147E0,6.587086E0,2.2201881E0,1.177172E0,1.0670035E0,1.2535359E0,4.8086758E1,5.001101E1,1.4382247E1,2.2715044E0,2.1745918E0,1.0241209E0,3.6791632E0,2.1570091E1,4.6092496E0,1.7370983E0,3.152508E0,2.9554017E0,2.6892896E2,2.4022067E0,1.3301507E0,5.104377E0,4.448762E0,1.3766278E0,3.7435546E0,5.5663667E0,5.142224E0,2.070922E1,9.019523E0,1.3732772E1,5.3315625E0,1.2555237E0,4.633401E1,1.7527499E0,3.962598E1,1.0385028E1,2.7024436E0,1.1679803E1],"tree_param":{"num_deleted":"0","num_feature":"90","num_nodes":"79","size_leaf_vector":"1"}},{"base_weights":[-9.376581E-2,-5.7777215E-2,-5.8959347E-1,-3.6382645E-1,-1.4188565E-2,-6.909146E-1,2.1789825E-1,-1.7608052E-1,-6.158204E-1,5.215285E-2,-2.6139447E-1,-8.107068E-1,-1.24922745E-1,7.056518E-1,-1.8189244E-1,1.4319796E-2,-6.0819954E-1,-7.8040594E-1,4.5914745E-1,-9.343131E-3,3.5623384E-1,7.277947E-1,-3.3581534E-1,-9.121834E-1,7.2919376E-2,2.918982E-1,-6.4546746E-1,-2.3542557E-2,3.405192E-1,-2.1913889E-1,5.6241417E-1,-7.570156E-1,8.855482E-2,-8.108123E-1,-7.361718E-2,-1.6594136E-1,3.3311605E-1,3.3685377E-1,-2.6818786E-2,-1.17881574E-1,5.337615E-1,-2.7648804E-1,4.5396078E-1,-3.838241E-1,8.7457126E-1,-9.5157486E-1,-2.8908895E-2,-2.3598033E-1,-1.47651145E-2,1.1412988E-1,-1.0965249E-1,2.5443307E-1,-4.59535E-2,-2.7748978E-1,9.035646E-2,-2.5439566E-1,-6.536494E-2,2.1925375E-1,-1.587049E-2,1.1357503E-1,-1.1769659E-1,-3.3777248E-2,2.0280068E-1,2.7766366E-2,-1.8045504E-1,-1.3829641E-1,1.7677997E-1,3.9022392E-1,3.740643E-2,-2.9697824E-1,-2.54154E-2],"categories":[],"categories_nodes":[],"categories_segments":[],"categories_sizes":[],"default_left":[0,0,0,0,0,0,0,0,0,0,0,0,0,0,0,0,0,0,0,0,0,0,0,0,0,0,0,0,0,0,0,0,0,0,0,0,0,0,0,0,0,0,0,0,0,0,0,0,0,0,0,0,0,0,0,0,0,0,0,0,0,0,0,0,0,0,0,0,0,0,0],"id":11,"left_children":[1,3,5,7,9,11,13,15,17,19,21,23,25,27,-1,29,31,33,35,37,39,41,43,45,-1,-1,47,-1,-1,49,51,53,-1,55,-1,-1,-1,-1,57,59,61,63,-1,65,67,69,-1,-1,-1,-1,-1,-1,-1,-1,-1,-1,-1,-1,-1,-1,-1,-1,-1,-1,-1,-1,-1,-1,-1,-1,-1],"loss_changes":[8.945524E0,6.26848E0,2.9277935E0,2.6634173E0,6.7817492E0,1.9599142E0,2.2548473E0,2.8862534E0,4.713066E0,6.1032934E0,6.6847095E0,2.8851986E0,4.338579E0,1.2060282E0,0E0,3.3547282E0,1.6646442E0,1.5430546E-1,3.1837406E0,5.417908E0,4.6836605E0,5.495741E0,5.103406E0,6.4520264E-1,0E0,0E0,3.8250208E-1,0E0,0E0,1.7564673E0,1.7294962E0,1.9642196E0,0E0,2.585745E-1,0E0,0E0,0E0,0E0,5.3575053E0,2.297895E0,3.764965E0,4.959375E-1,0E0,6.249547E0,9.356375E-1,6.3962173E-1,0E0,0E0,0E0,0E0,0E0,0E0,0E0,0E0,0E0,0E0,0E0,0E0,0E0,0E0,0E0,0E0,0E0,0E0,0E0,0E0,0E0,0E0,0E0,0E0,0E0],"parents":[2147483647,0,0,1,1,2,2,3,3,4,4,5,5,6,6,7,7,8,8,9,9,10,10,11,11,12,12,13,13,15,15,16,16,17,17,18,18,19,19,20,20,21,21,22,22,23,23,26,26,29,29,30,30,31,31,33,33,38,38,39,39,40,40,41,41,43,43,44,44,45,45],"right_children":[2,4,6,8,10,12,14,16,18,20,22,24,26,28,-1,30,32,34,36,38,40,42,44,46,-1,-1,48,-1,-1,50,52,54,-1,56,-1,-1,-1,-1,58,60,62,64,-1,66,68,70,-1,-1,-1,-1,-1,-1,-1,-1,-1,-1,-1,-1,-1,-1,-1,-1,-1,-1,-1,-1,-1,-1,-1,-1,-1],"split_conditions":[1E0,1E0,1E0,1E0,4.9129966E-1,1E0,2.7E4,1.25E0,2E0,1E0,-5.294606E-1,2.2E1,-3.0705395E-1,1E0,-1.8189244E-1,3.75E-1,1E0,3.5E0,1E0,1E0,1E0,9.041665E-1,1E0,3E0,7.2919376E-2,2.918982E-1,5.896932E-1,-2.3542557E-2,3.405192E-1,-6.484094E-1,3.80083E-1,4.5E1,8.855482E-2,1E0,-7.361718E-2,-1.6594136E-1,3.3311605E-1,3.3685377E-1,1E0,-5.9340334E-1,-3.1590596E-1,7.2192335E-1,4.5396078E-1,2E1,4.9709544E-1,6.243902E0,-2.8908895E-2,-2.3598033E-1,-1.47651145E-2,1.1412988E-1,-1.0965249E-1,2.5443307E-1,-4.59535E-2,-2.7748978E-1,9.035646E-2,-2.5439566E-1,-6.536494E-2,2.1925375E-1,-1.587049E-2,1.1357503E-1,-1.1769659E-1,-3.3777248E-2,2.0280068E-1,2.7766366E-2,-1.8045504E-1,-1.3829641E-1,1.7677997E-1,3.9022392E-1,3.740643E-2,-2.9697824E-1,-2.54154E-2],"split_indices":[12,14,69,54,49,66,76,23,25,69,50,40,50,18,0,23,71,23,73,59,18,49,16,35,0,0,49,0,0,50,50,24,0,64,0,0,0,0,29,49,50,49,0,47,50,87,0,0,0,0,0,0,0,0,0,0,0,0,0,0,0,0,0,0,0,0,0,0,0,0,0],"split_type":[0,0,0,0,0,0,0,0,0,0,0,0,0,0,0,0,0,0,0,0,0,0,0,0,0,0,0,0,0,0,0,0,0,0,0,0,0,0,0,0,0,0,0,0,0,0,0,0,0,0,0,0,0,0,0,0,0,0,0,0,0,0,0,0,0,0,0,0,0,0,0],"sum_hessian":[5.0222342E2,4.6927838E2,3.294504E1,5.7588078E1,4.116903E2,2.9400362E1,3.5446799E0,3.3974453E1,2.3613625E1,3.2520554E2,8.648476E1,2.390789E1,5.492471E0,2.3172219E0,1.2274579E0,2.4254356E1,9.720096E0,2.0715889E1,2.8977365E0,2.7130692E2,5.389863E1,5.4370456E0,8.1047714E1,2.193039E1,1.9775012E0,1.486985E0,4.005486E0,1.1091361E0,1.2080858E0,1.7430206E1,6.824149E0,8.484454E0,1.2356409E0,1.911409E1,1.6017989E0,1.1933827E0,1.7043537E0,3.1625705E0,2.6814435E2,1.4775178E1,3.9123447E1,2.6704159E0,2.7666297E0,7.861252E1,2.4351952E0,2.0761528E1,1.168861E0,2.9807024E0,1.0247838E0,3.106392E0,1.4323815E1,4.7446785E0,2.0794702E0,7.430974E0,1.0534804E0,1.758166E1,1.53243E0,8.0245285E0,2.601198E2,5.1248345E0,9.650344E0,7.094403E0,3.2029045E1,1.5854799E0,1.0849361E0,7.3324326E1,5.2881904E0,1.0843415E0,1.3508537E0,1.974593E1,1.0155977E0],"tree_param":{"num_deleted":"0","num_feature":"90","num_nodes":"71","size_leaf_vector":"1"}},{"base_weights":[-7.236373E-2,-4.395395E-2,-5.158108E-1,-6.0247883E-2,7.247675E-1,-6.6438556E-1,1.22863464E-1,-1.9880044E-1,2.0855894E-2,1.4493414E0,2.643614E-1,-8.9665097E-1,-2.5164795E-1,-2.020834E-1,5.387566E-1,-2.2725907E-1,5.5646443E-1,-2.286325E-2,4.0350506E-1,6.0615087E-1,7.3617026E-2,1.0260868E0,-5.732113E-1,-2.8759682E-1,-3.4765717E-2,3.6513618E-1,-5.974449E-1,9.980564E-1,-7.927808E-2,4.543109E-1,-2.5425157E-1,1.1148852E0,-1.9863246E-1,-4.6946377E-2,7.36614E-1,2.196229E-1,5.40573E-1,4.4572282E-1,-4.700915E-2,-2.1750897E-1,-1.8119846E-2,8.663747E-1,-1.6682577E-1,-2.584872E-1,1.3302024E-1,4.1465175E-1,5.326279E-2,3.508363E-1,-4.9251787E-2,-9.076597E-2,6.9320105E-2,-7.705524E-2,4.900398E-1,9.110052E-3,-7.259403E-2,4.574609E-1,-6.490942E-2,3.4669676E-1,-8.670176E-4,-1.6634313E-2,4.0754604E-1],"categories":[],"categories_nodes":[],"categories_segments":[],"categories_sizes":[],"default_left":[0,0,0,0,0,0,0,0,0,0,0,0,0,0,0,0,0,0,0,0,0,0,0,0,0,0,0,0,0,0,0,0,0,0,0,0,0,0,0,0,0,0,0,0,0,0,0,0,0,0,0,0,0,0,0,0,0,0,0,0,0],"id":12,"left_children":[1,3,5,7,9,11,13,15,17,19,21,23,25,-1,27,29,31,33,35,-1,-1,37,39,-1,-1,41,43,45,-1,47,49,51,-1,53,55,57,-1,-1,-1,-1,-1,59,-1,-1,-1,-1,-1,-1,-1,-1,-1,-1,-1,-1,-1,-1,-1,-1,-1,-1,-1],"loss_changes":[6.106681E0,5.7844152E0,2.8524203E0,5.057882E0,2.8160005E0,2.0602589E0,2.4678972E0,3.6976738E0,4.770065E0,1.9129539E0,5.109636E0,6.0870075E-1,2.3460107E0,0E0,2.0084345E0,3.0742998E0,5.0409985E0,4.723373E0,7.12166E0,0E0,0E0,2.4455285E0,2.6895E-1,0E0,0E0,2.423312E0,2.2441494E0,7.6900697E-1,0E0,3.0605633E0,3.7113895E0,3.769167E0,0E0,3.7681377E0,6.2936034E0,5.621855E0,0E0,0E0,0E0,0E0,0E0,1.4879646E0,0E0,0E0,0E0,0E0,0E0,0E0,0E0,0E0,0E0,0E0,0E0,0E0,0E0,0E0,0E0,0E0,0E0,0E0,0E0],"parents":[2147483647,0,0,1,1,2,2,3,3,4,4,5,5,6,6,7,7,8,8,9,9,10,10,11,11,12,12,14,14,15,15,16,16,17,17,18,18,21,21,22,22,25,25,26,26,27,27,29,29,30,30,31,31,33,33,34,34,35,35,41,41],"right_children":[2,4,6,8,10,12,14,16,18,20,22,24,26,-1,28,30,32,34,36,-1,-1,38,40,-1,-1,42,44,46,-1,48,50,52,-1,54,56,58,-1,-1,-1,-1,-1,60,-1,-1,-1,-1,-1,-1,-1,-1,-1,-1,-1,-1,-1,-1,-1,-1,-1,-1,-1],"split_conditions":[1E0,8.8E1,9.5103735E-1,0E0,4.1E1,1E0,1.9493192E-1,1E0,1E0,1.02E2,1E0,1.0129485E0,-4.5197195E-1,-2.020834E-1,1E0,-6.987552E-1,4.9E1,1.4E1,1E0,6.0615087E-1,7.3617026E-2,3.1855452E-1,1.2298E3,-2.8759682E-1,-3.4765717E-2,1.4913044E0,1E0,1.439834E0,-7.927808E-2,-5.9340334E-1,3.14435E5,1E0,-1.9863246E-1,8.660254E4,-1.4343487E-1,5E-1,5.40573E-1,4.4572282E-1,-4.700915E-2,-2.1750897E-1,-1.8119846E-2,-6.607799E-1,-1.6682577E-1,-2.584872E-1,1.3302024E-1,4.1465175E-1,5.326279E-2,3.508363E-1,-4.9251787E-2,-9.076597E-2,6.9320105E-2,-7.705524E-2,4.900398E-1,9.110052E-3,-7.259403E-2,4.574609E-1,-6.490942E-2,3.4669676E-1,-8.670176E-4,-1.6634313E-2,4.0754604E-1],"split_indices":[12,46,50,25,40,25,49,39,24,42,23,49,49,0,73,50,38,36,63,0,0,49,37,0,0,75,20,50,0,49,76,51,0,82,49,25,0,0,0,0,0,49,0,0,0,0,0,0,0,0,0,0,0,0,0,0,0,0,0,0,0],"split_type":[0,0,0,0,0,0,0,0,0,0,0,0,0,0,0,0,0,0,0,0,0,0,0,0,0,0,0,0,0,0,0,0,0,0,0,0,0,0,0,0,0,0,0,0,0,0,0,0,0,0,0,0,0,0,0,0,0,0,0,0,0],"sum_hessian":[4.8552484E2,4.5732507E2,2.8199762E1,4.4873523E2,8.589831E0,2.284506E1,5.3547015E0,1.6515083E2,2.835844E2,2.5028908E0,6.086941E0,1.386831E1,8.976749E0,1.6243135E0,3.7303882E0,1.5982758E2,5.323254E0,2.5534995E2,2.8234468E1,1.2375594E0,1.2653314E0,3.069935E0,3.0170057E0,1.2636898E1,1.2314117E0,3.2047105E0,5.7720394E0,2.21856E0,1.5118284E0,5.4855137E0,1.5434206E2,3.7087698E0,1.6144845E0,2.4841098E2,6.93896E0,2.5975847E1,2.2586212E0,2.0263216E0,1.0436134E0,2.0085423E0,1.0084635E0,2.114011E0,1.0906994E0,4.740925E0,1.0311148E0,1.0448856E0,1.1736743E0,2.1308277E0,3.3546863E0,1.40714E2,1.3628062E1,1.1559049E0,2.552865E0,1.7849727E2,6.991371E1,3.4692574E0,3.469703E0,4.1835365E0,2.179231E1,1.0445992E0,1.0694118E0],"tree_param":{"num_deleted":"0","num_feature":"90","num_nodes":"61","size_leaf_vector":"1"}},{"base_weights":[-5.2378014E-2,-3.589875E-1,-9.590612E-3,-1.7414674E-1,-6.1427134E-1,1.3718455E-2,-5.439737E-1,-2.8832117E-1,3.5421652E-1,-7.574676E-1,6.366498E-2,2.0951833E-1,-4.0351387E-2,-6.8523014E-1,1.8213709E-1,-3.6556444E-1,3.662822E-1,6.3813746E-1,-9.066975E-2,-7.893672E-1,-7.140825E-2,-1.8551686E-1,5.3765076E-1,1.1375222E-1,7.5171435E-1,-8.6252846E-2,2.2024138E-1,-8.482621E-1,1.4475933E-1,-4.236191E-1,1.5085082E-1,-8.671758E-2,2.780403E-1,7.981012E-2,3.2173643E-1,-8.2847416E-1,-6.661597E-2,2.545482E-1,-3.1449E-2,5.962586E-2,1.076766E0,1.1735287E0,2.2247332E-1,-2.7538693E-1,-1.7412188E-2,3.1484875E-1,-6.7406833E-1,-9.0834546E-1,-6.9985446E-3,1.7590048E-2,-1.6213894E-1,9.92712E-2,-5.623122E-2,-7.827297E-2,-2.624157E-1,1.8986662E-1,-1.7192382E-2,7.848059E-2,3.838807E-1,4.825089E-1,-4.9837932E-2,-9.1568805E-2,3.6419067E-1,8.475866E-3,-1.9063136E-1,-2.3317844E-2,1.8987435E-1,-5.592684E-2,1.3215262E-1,-2.8105128E-1,4.1079737E-2,-6.052049E-2,-2.9180625E-1],"categories":[],"categories_nodes":[],"categories_segments":[],"categories_sizes":[],"default_left":[0,0,0,0,0,0,0,0,0,0,0,0,0,0,0,0,0,0,0,0,0,0,0,0,0,0,0,0,0,0,0,0,0,0,0,0,0,0,0,0,0,0,0,0,0,0,0,0,0,0,0,0,0,0,0,0,0,0,0,0,0,0,0,0,0,0,0,0,0,0,0,0,0],"id":13,"left_children":[1,3,5,7,9,11,13,15,17,19,21,23,25,27,-1,29,31,33,-1,35,-1,-1,37,39,41,43,45,47,-1,49,-1,-1,-1,51,-1,53,-1,-1,-1,55,57,59,61,63,65,67,69,71,-1,-1,-1,-1,-1,-1,-1,-1,-1,-1,-1,-1,-1,-1,-1,-1,-1,-1,-1,-1,-1,-1,-1,-1,-1],"loss_changes":[6.2288623E0,2.6368747E0,5.2129374E0,2.2209654E0,2.3805408E0,4.25822E0,3.260118E0,1.6221657E0,1.4397266E0,1.42066E-1,1.9851679E0,4.433194E0,3.7916012E0,3.4648232E0,0E0,1.5655057E0,1.5925268E0,1.12479E0,0E0,2.226839E-1,0E0,0E0,7.9813504E-1,3.852429E0,2.6154523E0,3.4960237E0,4.2324457E0,6.9481087E-1,0E0,1.4792233E0,0E0,0E0,0E0,2.810746E-1,0E0,2.1222496E-1,0E0,0E0,0E0,4.876119E0,3.1669617E-1,4.307865E0,4.006273E0,7.854711E0,7.823152E0,2.8317208E0,1.1648495E0,4.147606E-1,0E0,0E0,0E0,0E0,0E0,0E0,0E0,0E0,0E0,0E0,0E0,0E0,0E0,0E0,0E0,0E0,0E0,0E0,0E0,0E0,0E0,0E0,0E0,0E0,0E0],"parents":[2147483647,0,0,1,1,2,2,3,3,4,4,5,5,6,6,7,7,8,8,9,9,10,10,11,11,12,12,13,13,15,15,16,16,17,17,19,19,22,22,23,23,24,24,25,25,26,26,27,27,29,29,33,33,35,35,39,39,40,40,41,41,42,42,43,43,44,44,45,45,46,46,47,47],"right_children":[2,4,6,8,10,12,14,16,18,20,22,24,26,28,-1,30,32,34,-1,36,-1,-1,38,40,42,44,46,48,-1,50,-1,-1,-1,52,-1,54,-1,-1,-1,56,58,60,62,64,66,68,70,72,-1,-1,-1,-1,-1,-1,-1,-1,-1,-1,-1,-1,-1,-1,-1,-1,-1,-1,-1,-1,-1,-1,-1,-1,-1],"split_conditions":[1E0,1E0,1E0,1E0,2E0,-5.506623E-1,6.5625E0,2.1E1,1E0,3.5E0,1E0,1E0,1E0,6.0347824E0,1.8213709E-1,3.4E1,1E0,7.57953E-2,-9.066975E-2,1E0,-7.140825E-2,-1.8551686E-1,5.7261413E-1,1E0,1E0,1E0,1E0,8.921456E-1,1.4475933E-1,-8.534115E-1,1.5085082E-1,-8.671758E-2,2.780403E-1,-4.077455E-1,3.2173643E-1,-6.766252E-1,-6.661597E-2,2.545482E-1,-3.1449E-2,-5.709544E-1,-8.964494E-1,1E0,1E0,2.3327099E-1,2.2E1,-2.8011724E-1,5.775238E-1,-5.939143E-1,-6.9985446E-3,1.7590048E-2,-1.6213894E-1,9.92712E-2,-5.623122E-2,-7.827297E-2,-2.624157E-1,1.8986662E-1,-1.7192382E-2,7.848059E-2,3.838807E-1,4.825089E-1,-4.9837932E-2,-9.1568805E-2,3.6419067E-1,8.475866E-3,-1.9063136E-1,-2.3317844E-2,1.8987435E-1,-5.592684E-2,1.3215262E-1,-2.8105128E-1,4.1079737E-2,-6.052049E-2,-2.9180625E-1],"split_indices":[14,54,52,69,25,49,23,48,29,23,73,55,20,75,0,40,29,50,0,64,0,0,50,54,73,18,48,49,0,49,0,0,0,50,0,50,0,0,0,50,49,6,66,77,46,49,49,50,0,0,0,0,0,0,0,0,0,0,0,0,0,0,0,0,0,0,0,0,0,0,0,0,0],"split_type":[0,0,0,0,0,0,0,0,0,0,0,0,0,0,0,0,0,0,0,0,0,0,0,0,0,0,0,0,0,0,0,0,0,0,0,0,0,0,0,0,0,0,0,0,0,0,0,0,0,0,0,0,0,0,0,0,0,0,0,0,0,0,0,0,0,0,0,0,0,0,0,0,0],"sum_hessian":[4.740586E2,5.714857E1,4.1691E2,3.412337E1,2.3025198E1,4.0041864E2,1.649139E1,2.8433475E1,5.689898E0,1.8913008E1,4.1121907E0,8.602532E1,3.143933E2,1.5049334E1,1.4420569E0,2.5827387E1,2.6060874E0,3.9914498E0,1.6984484E0,1.732915E1,1.5838585E0,1.5611188E0,2.5510721E0,7.414004E1,1.1885285E1,2.678777E2,4.6515625E1,1.3445761E1,1.6035724E0,2.4689049E1,1.1383375E0,1.4246885E0,1.1813991E0,2.2643378E0,1.727112E0,1.5780966E1,1.5481839E0,1.5031633E0,1.0479087E0,7.1200134E1,2.9399009E0,5.93645E0,5.9488354E0,7.068261E1,1.9719507E2,4.265154E1,3.8640857E0,1.2438685E1,1.0070752E0,4.9123588E0,1.9776691E1,1.0446439E0,1.2196938E0,1.6893563E0,1.4091609E1,1.131525E1,5.9884884E1,1.0420007E0,1.8979002E0,4.33031E0,1.6061405E0,4.334201E0,1.6146348E0,3.8845108E1,3.1837503E1,1.8126436E2,1.5930716E1,8.4520035E0,3.4199535E1,2.8012886E0,1.0627971E0,1.3832321E0,1.1055453E1],"tree_param":{"num_deleted":"0","num_feature":"90","num_nodes":"73","size_leaf_vector":"1"}},{"base_weights":[-4.067449E-2,-1.3075885E-1,5.6191172E-2,-3.5259873E-1,-1.6930392E-2,3.352341E-1,-8.8773206E-2,-3.891861E-1,2.992943E-1,-8.735733E-2,3.6521918E-1,1.8338747E-1,6.847428E-1,1.817568E-1,-2.28471E-1,-2.3693034E-1,-8.0633956E-1,-2.0130664E-1,2.152651E-1,5.319185E-1,-2.3203208E-1,3.8007712E-1,-1.9387114E-1,1.5782017E-1,1.2165092E0,-4.0304E-1,3.2992604E-1,-5.205391E-1,-5.765346E-2,-2.9080075E-1,7.993646E-1,-8.4408325E-1,-1.1678638E-2,-1.3710792E-1,-8.2741004E-1,1.3278229E0,2.7377954E-2,3.6982492E-1,5.212704E-1,2.028562E-1,1.0971165E0,-3.8249788E-1,8.335308E-1,9.1103697E-1,-2.2865264E-1,7.765438E-1,5.8494955E-1,1.5486287E-1,-6.6082203E-1,1.5469245E0,1.4515969E-1,-8.145146E-1,-1.628336E-1,-1.5757385E-1,3.4683087E-1,-9.682177E-2,2.0277657E-1,-3.5552107E-2,4.157437E-1,-2.6512048E-1,-3.2573555E-2,-6.6996224E-2,1.9219999E-1,-1.2331711E-2,-2.764742E-1,6.436517E-2,6.006181E-1,-1.5267381E-1,8.080212E-2,2.4068232E-1,-5.4104332E-2,1.3127181E-1,-6.262357E-2,4.5383304E-1,-3.4540534E-2,-1.6621207E-1,1.8554288E-1,4.5693782E-1,-1.08390406E-1,-1.32613685E-2,4.4079724E-1,3.2928368E-1,-1.7000008E-1,3.087258E-1,5.6289753E-4,-2.3450471E-1,-5.623024E-2,-9.0051055E-2,6.152188E-1,1.4510562E-1,-6.6138685E-2,-2.757345E-1,-2.686303E-2,1.5332289E-1,-2.1589257E-1,-8.4085144E-2,1.2777606E-1,2.890838E-1,-1.6483909E-2],"categories":[],"categories_nodes":[],"categories_segments":[],"categories_sizes":[],"default_left":[0,0,0,0,0,0,0,0,0,0,0,0,0,0,0,0,0,0,0,0,0,0,0,0,0,0,0,0,0,0,0,0,0,0,0,0,0,0,0,0,0,0,0,0,0,0,0,0,0,0,0,0,0,0,0,0,0,0,0,0,0,0,0,0,0,0,0,0,0,0,0,0,0,0,0,0,0,0,0,0,0,0,0,0,0,0,0,0,0,0,0,0,0,0,0,0,0,0,0],"id":14,"left_children":[1,3,5,7,9,11,13,15,-1,17,19,21,23,25,27,29,31,33,35,37,-1,39,41,43,45,47,49,51,53,55,57,59,-1,61,63,65,67,69,-1,71,73,75,77,79,81,83,-1,-1,85,87,89,91,93,95,97,-1,-1,-1,-1,-1,-1,-1,-1,-1,-1,-1,-1,-1,-1,-1,-1,-1,-1,-1,-1,-1,-1,-1,-1,-1,-1,-1,-1,-1,-1,-1,-1,-1,-1,-1,-1,-1,-1,-1,-1,-1,-1,-1,-1],"loss_changes":[4.074734E0,6.100231E0,9.143626E0,4.4368086E0,4.3613005E0,3.9736385E0,5.675082E0,4.9223585E0,0E0,4.75508E0,5.1995325E0,4.170522E0,6.260394E0,4.5797377E0,4.8964787E0,3.6041598E0,5.786247E-1,3.8971415E0,7.877533E0,3.773397E0,0E0,4.4319735E0,4.1138997E0,3.9098084E0,2.135582E0,2.906123E0,9.106028E0,3.6861935E0,2.6182842E0,2.0134363E0,1.9143307E0,4.894619E-1,0E0,6.291757E0,6.345248E-1,3.6603765E0,4.472463E0,5.186005E0,0E0,3.0472457E0,3.7175055E0,3.3013356E0,3.3123438E0,2.471489E0,4.747697E0,1.7063861E0,0E0,0E0,3.62247E-1,5.6089354E0,4.7021933E0,1.4103546E0,6.983976E0,3.8106017E0,3.2441692E0,0E0,0E0,0E0,0E0,0E0,0E0,0E0,0E0,0E0,0E0,0E0,0E0,0E0,0E0,0E0,0E0,0E0,0E0,0E0,0E0,0E0,0E0,0E0,0E0,0E0,0E0,0E0,0E0,0E0,0E0,0E0,0E0,0E0,0E0,0E0,0E0,0E0,0E0,0E0,0E0,0E0,0E0,0E0,0E0],"parents":[2147483647,0,0,1,1,2,2,3,3,4,4,5,5,6,6,7,7,9,9,10,10,11,11,12,12,13,13,14,14,15,15,16,16,17,17,18,18,19,19,21,21,22,22,23,23,24,24,25,25,26,26,27,27,28,28,29,29,30,30,31,31,33,33,34,34,35,35,36,36,37,37,39,39,40,40,41,41,42,42,43,43,44,44,45,45,48,48,49,49,50,50,51,51,52,52,53,53,54,54],"right_children":[2,4,6,8,10,12,14,16,-1,18,20,22,24,26,28,30,32,34,36,38,-1,40,42,44,46,48,50,52,54,56,58,60,-1,62,64,66,68,70,-1,72,74,76,78,80,82,84,-1,-1,86,88,90,92,94,96,98,-1,-1,-1,-1,-1,-1,-1,-1,-1,-1,-1,-1,-1,-1,-1,-1,-1,-1,-1,-1,-1,-1,-1,-1,-1,-1,-1,-1,-1,-1,-1,-1,-1,-1,-1,-1,-1,-1,-1,-1,-1,-1,-1,-1],"split_conditions":[1.25E-1,1E0,7.5E-1,4.2E1,1E0,1.3853745E-1,-3.3769897E-1,5.4057974E-1,2.992943E-1,2.5450432E0,6.2065156E5,1.9645684E0,1E0,-7.9909474E-1,6.745075E-2,1E0,1E0,1.732612E0,2.7739131E0,1.9E1,-2.3203208E-1,7.538636E-1,1E0,3.1855452E-1,3.5E2,-4.4591978E-1,-7.440359E-1,4.6307054E-1,1E0,1E0,-3.9542907E-1,1E0,-1.1678638E-2,1.1217489E0,-6.2683266E-1,2.7139087E0,4.043724E0,1.19096205E-1,5.212704E-1,3.80083E-1,1E0,1E0,3.4027777E0,2E0,-4.7607192E-1,1E0,5.8494955E-1,1.5486287E-1,7.994467E-2,1.4375E0,1E0,1E0,9.478261E-1,1E0,3.704011E-1,-9.682177E-2,2.0277657E-1,-3.5552107E-2,4.157437E-1,-2.6512048E-1,-3.2573555E-2,-6.6996224E-2,1.9219999E-1,-1.2331711E-2,-2.764742E-1,6.436517E-2,6.006181E-1,-1.5267381E-1,8.080212E-2,2.4068232E-1,-5.4104332E-2,1.3127181E-1,-6.262357E-2,4.5383304E-1,-3.4540534E-2,-1.6621207E-1,1.8554288E-1,4.5693782E-1,-1.08390406E-1,-1.32613685E-2,4.4079724E-1,3.2928368E-1,-1.7000008E-1,3.087258E-1,5.6289753E-4,-2.3450471E-1,-5.623024E-2,-9.0051055E-2,6.152188E-1,1.4510562E-1,-6.6138685E-2,-2.757345E-1,-2.686303E-2,1.5332289E-1,-2.1589257E-1,-8.4085144E-2,1.2777606E-1,2.890838E-1,-1.6483909E-2],"split_indices":[23,18,23,44,69,49,49,75,0,77,82,77,65,49,49,70,12,89,75,40,0,77,27,49,76,50,49,50,20,16,49,27,0,77,50,77,77,49,0,50,11,66,83,25,50,6,0,0,50,23,73,55,75,67,50,0,0,0,0,0,0,0,0,0,0,0,0,0,0,0,0,0,0,0,0,0,0,0,0,0,0,0,0,0,0,0,0,0,0,0,0,0,0,0,0,0,0,0,0],"split_type":[0,0,0,0,0,0,0,0,0,0,0,0,0,0,0,0,0,0,0,0,0,0,0,0,0,0,0,0,0,0,0,0,0,0,0,0,0,0,0,0,0,0,0,0,0,0,0,0,0,0,0,0,0,0,0,0,0,0,0,0,0,0,0,0,0,0,0,0,0,0,0,0,0,0,0,0,0,0,0,0,0,0,0,0,0,0,0,0,0,0,0,0,0,0,0,0,0,0,0],"sum_hessian":[4.6511832E2,2.4081355E2,2.2430476E2,8.0950935E1,1.5986261E2,7.623909E1,1.4806567E2,7.950828E1,1.4426543E0,1.3563722E2,2.4225388E1,5.4211292E1,2.2027796E1,5.0319332E1,9.774634E1,5.9397068E1,2.0111212E1,9.8778145E1,3.6859085E1,2.1596521E1,2.6288671E0,3.56284E1,1.8582891E1,1.1715649E1,1.0312146E1,9.82434E0,4.0494995E1,3.5315563E1,6.243078E1,5.7145805E1,2.2512639E0,1.9073221E1,1.0379913E0,9.06973E1,8.080837E0,4.4487944E0,3.2410294E1,2.018896E1,1.407562E0,2.9596373E1,6.0320272E0,1.6230705E1,2.3521864E0,3.5125487E0,8.203099E0,7.7321134E0,2.5800333E0,1.9320728E0,7.8922668E0,4.3658924E0,3.61291E1,1.8683624E1,1.6631937E1,5.055302E1,1.1877758E1,5.5963055E1,1.1827507E0,1.1887031E0,1.0625607E0,1.790634E1,1.1668806E0,8.228883E1,8.408476E0,1.0179212E0,7.062916E0,2.175279E0,2.2735157E0,9.733496E0,2.2676796E1,1.1047291E1,9.141668E0,1.8807985E1,1.0788388E1,4.3072414E0,1.7247857E0,1.4237285E1,1.9934211E0,1.3172034E0,1.0349832E0,1.6353133E0,1.8772354E0,1.2096329E0,6.993467E0,5.583474E0,2.1486392E0,5.768312E0,2.1239545E0,1.0222439E0,3.3436487E0,1.8592024E1,1.7537079E1,1.6093782E1,2.5898416E0,7.5618715E0,9.0700655E0,4.219828E1,8.354737E0,4.133661E0,7.744097E0],"tree_param":{"num_deleted":"0","num_feature":"90","num_nodes":"99","size_leaf_vector":"1"}},{"base_weights":[-3.078004E-2,-9.137382E-3,-4.161097E-1,-1.7245376E-2,9.9259365E-1,-4.9979484E-1,1.5001161E-1,-2.8384795E-2,6.953152E-1,5.743863E-2,4.1933742E-1,-6.043021E-1,2.2878234E-1,-2.4076353E-1,-1.8870981E-2,1.2741182E0,-3.3004165E-1,-7.398597E-1,-3.4301218E-2,1.4776465E-1,-5.1716447E-2,-2.6943931E-2,6.572202E-1,2.9949673E-2,5.3369874E-1,-1.8393579E-1,4.0752687E-2,-8.253434E-1,-1.6551243E-1,2.2887222E-1,-2.1227972E-1,-3.3103437E-3,-1.4393473E-1,-1.8272437E-1,3.6564612E-1,-2.8244722E-1,-8.980008E-2,1.1579511E-1,-1.7689636E-1],"categories":[],"categories_nodes":[],"categories_segments":[],"categories_sizes":[],"default_left":[0,0,0,0,0,0,0,0,0,0,0,0,0,0,0,0,0,0,0,0,0,0,0,0,0,0,0,0,0,0,0,0,0,0,0,0,0,0,0],"id":15,"left_children":[1,3,5,7,9,11,-1,13,15,-1,-1,17,19,-1,21,23,25,27,29,-1,-1,31,33,-1,-1,-1,-1,35,37,-1,-1,-1,-1,-1,-1,-1,-1,-1,-1],"loss_changes":[3.7941294E0,3.5275843E0,2.10499E0,3.4307077E0,8.644228E-1,1.8644681E0,0E0,3.1082551E0,4.3693657E0,0E0,0E0,1.5278416E0,4.6260506E-1,0E0,2.309817E0,2.4658403E0,5.0465065E-1,6.5832996E-1,3.1757061E0,0E0,0E0,2.9914207E0,4.294352E0,0E0,0E0,0E0,0E0,5.638857E-1,1.0108415E0,0E0,0E0,0E0,0E0,0E0,0E0,0E0,0E0,0E0,0E0],"parents":[2147483647,0,0,1,1,2,2,3,3,4,4,5,5,7,7,8,8,11,11,12,12,14,14,15,15,16,16,17,17,18,18,21,21,22,22,27,27,28,28],"right_children":[2,4,6,8,10,12,-1,14,16,-1,-1,18,20,-1,22,24,26,28,30,-1,-1,32,34,-1,-1,-1,-1,36,38,-1,-1,-1,-1,-1,-1,-1,-1,-1,-1],"split_conditions":[1E0,3.452087E1,6.87769E3,3E0,1E0,1.3344399E0,1.5001161E-1,-1.1407264E0,1.1594203E-1,5.743863E-2,4.1933742E-1,1E0,1E0,-2.4076353E-1,6.6E1,1E0,3.373913E0,1E0,-3.0705395E-1,1.4776465E-1,-5.1716447E-2,1E0,1.1618625E0,2.9949673E-2,5.3369874E-1,-1.8393579E-1,4.0752687E-2,3.911253E-1,-2.1318592E-1,2.2887222E-1,-2.1227972E-1,-3.3103437E-3,-1.4393473E-1,-1.8272437E-1,3.6564612E-1,-2.8244722E-1,-8.980008E-2,1.1579511E-1,-1.7689636E-1],"split_indices":[12,75,37,34,65,50,0,49,75,0,0,66,73,0,44,18,75,69,50,0,0,52,87,0,0,0,0,49,49,0,0,0,0,0,0,0,0,0,0],"split_type":[0,0,0,0,0,0,0,0,0,0,0,0,0,0,0,0,0,0,0,0,0,0,0,0,0,0,0,0,0,0,0,0,0,0,0,0,0,0,0],"sum_hessian":[4.544116E2,4.312154E2,2.3196188E1,4.2872806E2,2.4873338E0,2.1671112E1,1.5250766E0,4.2307434E2,5.653732E0,1.3300862E0,1.1572475E0,1.9101728E1,2.5693831E0,4.1241884E0,4.1895013E2,3.458715E0,2.1950169E0,1.5191006E1,3.910723E0,1.4127389E0,1.1566443E0,4.1495544E2,3.9946795E0,1.4000648E0,2.05865E0,1.1688019E0,1.026215E0,1.2842558E1,2.3484476E0,1.7296569E0,2.181066E0,4.0186133E2,1.3094119E1,1.2013401E0,2.7933393E0,9.872708E0,2.9698496E0,1.0600587E0,1.2883888E0],"tree_param":{"num_deleted":"0","num_feature":"90","num_nodes":"39","size_leaf_vector":"1"}},{"base_weights":[-2.2794314E-2,-2.4961011E-1,5.1446245E-3,-1.0225586E-1,-4.9349654E-1,5.814248E-1,-9.330565E-3,-1.2722036E-2,-2.3244576E-1,-6.662246E-1,1.5279019E-1,3.3612245E-1,2.886593E-1,8.0089784E-1,-1.9546736E-2,1.4660685E-1,-4.0936953E-1,-3.4535247E-1,-7.9865426E-1,-1.2721147E-1,2.1402629E-1,5.343889E-1,-9.591039E-2,-4.879972E-2,3.4437287E-1,-5.434436E-1,-4.8849797E-3,2.861186E-1,-5.571836E-1,-5.41468E-1,8.8809475E-2,-2.4224798E-1,2.947168E-1,-6.050836E-3,-2.6701078E-1,6.8921196E-1,-2.509137E-2,4.1472238E-2,-7.535248E-1,1.2918119E-1,-5.5850726E-2,1.314602E-1,-2.05807E-1,-2.171071E-1,-1.1726136E-2,-2.2959812E-1,-7.821979E-2,6.746871E-2,2.2890384E-1,-8.399345E-2,1.3841766E-1,-9.34442E-2,-2.522889E-1,1.6583262E-2,2.7060023E-1,-2.062609E-2,3.1757587E-1],"categories":[],"categories_nodes":[],"categories_segments":[],"categories_sizes":[],"default_left":[0,0,0,0,0,0,0,0,0,0,0,0,0,0,0,0,0,0,0,0,0,0,0,0,0,0,0,0,0,0,0,0,0,0,0,0,0,0,0,0,0,0,0,0,0,0,0,0,0,0,0,0,0,0,0,0,0],"id":16,"left_children":[1,3,5,7,9,11,13,15,-1,17,19,21,-1,23,25,27,29,31,33,-1,-1,35,-1,-1,-1,37,39,41,43,45,-1,-1,-1,-1,-1,47,-1,49,51,53,55,-1,-1,-1,-1,-1,-1,-1,-1,-1,-1,-1,-1,-1,-1,-1,-1],"loss_changes":[2.8578458E0,1.7268982E0,3.361474E0,1.9225745E0,2.151988E0,5.988369E-1,3.27237E0,1.9140744E0,0E0,3.4793663E-1,1.818146E0,1.1515139E0,0E0,1.8328183E0,2.989361E0,2.286787E0,9.6828604E-1,4.505723E0,6.670289E-1,0E0,0E0,6.475918E-1,0E0,0E0,0E0,1.3331997E0,2.603172E0,3.07165E0,3.101951E-1,2.8165245E-1,0E0,0E0,0E0,0E0,0E0,1.0597706E-3,0E0,6.3505507E-1,4.1378975E-2,5.944275E0,4.0411825E0,0E0,0E0,0E0,0E0,0E0,0E0,0E0,0E0,0E0,0E0,0E0,0E0,0E0,0E0,0E0,0E0],"parents":[2147483647,0,0,1,1,2,2,3,3,4,4,5,5,6,6,7,7,9,9,10,10,11,11,13,13,14,14,15,15,16,16,17,17,18,18,21,21,25,25,26,26,27,27,28,28,29,29,35,35,37,37,38,38,39,39,40,40],"right_children":[2,4,6,8,10,12,14,16,-1,18,20,22,-1,24,26,28,30,32,34,-1,-1,36,-1,-1,-1,38,40,42,44,46,-1,-1,-1,-1,-1,48,-1,50,52,54,56,-1,-1,-1,-1,-1,-1,-1,-1,-1,-1,-1,-1,-1,-1,-1,-1],"split_conditions":[1E0,1E0,1E0,2E0,2E0,4.1244814E-1,1E0,1.25E0,-2.3244576E-1,-7.440359E-1,9.294606E-2,5.3941905E-2,2.886593E-1,-4.3872753E-1,1E0,1E0,1.9E1,-8.220977E-1,-6.713693E-1,-1.2721147E-1,2.1402629E-1,-2.708418E-2,-9.591039E-2,-4.879972E-2,3.4437287E-1,2.014618E-1,-2.3568465E-1,1E0,-3.2345194E-1,1E0,8.8809475E-2,-2.4224798E-1,2.947168E-1,-6.050836E-3,-2.6701078E-1,-8.8591254E-1,-2.509137E-2,1.6507246E0,1E0,1E0,3.452087E1,1.314602E-1,-2.05807E-1,-2.171071E-1,-1.1726136E-2,-2.2959812E-1,-7.821979E-2,6.746871E-2,2.2890384E-1,-8.399345E-2,1.3841766E-1,-9.34442E-2,-2.522889E-1,1.6583262E-2,2.7060023E-1,-2.062609E-2,3.1757587E-1],"split_indices":[14,54,29,25,25,50,59,23,0,49,50,50,0,50,15,71,48,49,50,0,0,49,0,0,0,49,50,13,49,15,0,0,0,0,0,49,0,75,51,20,75,0,0,0,0,0,0,0,0,0,0,0,0,0,0,0,0],"split_type":[0,0,0,0,0,0,0,0,0,0,0,0,0,0,0,0,0,0,0,0,0,0,0,0,0,0,0,0,0,0,0,0,0,0,0,0,0,0,0,0,0,0,0,0,0,0,0,0,0,0,0,0,0,0,0,0,0],"sum_hessian":[4.497756E2,4.8456734E1,4.0131888E2,3.1091045E1,1.7365686E1,8.873754E0,3.9244513E2,2.833757E1,2.753474E0,1.3678966E1,3.6867218E0,6.5419936E0,2.33176E0,3.9230003E0,3.8852213E2,2.0666466E1,7.6711044E0,5.050241E0,8.628725E0,1.9371966E0,1.7495251E0,5.165531E0,1.3764625E0,1.1793852E0,2.7436154E0,9.595305E0,3.7892682E2,1.774279E1,2.923677E0,6.656885E0,1.0142193E0,4.0369487E0,1.0132922E0,1.0347085E0,7.594016E0,4.038626E0,1.1269048E0,2.7476852E0,6.8476195E0,1.0395002E2,2.749768E2,1.58175335E1,1.9252557E0,1.91228E0,1.011397E0,2.7432556E0,3.9136295E0,1.1089603E0,2.929666E0,1.7450787E0,1.0026065E0,1.8842229E0,4.963397E0,9.5855064E1,8.094959E0,2.7275714E2,2.2196639E0],"tree_param":{"num_deleted":"0","num_feature":"90","num_nodes":"57","size_leaf_vector":"1"}},{"base_weights":[-1.8380307E-2,-3.1932947E-1,-8.77002E-4,-6.644694E-1,4.5333183E-3,3.0200887E-2,-1.7436542E-1,-7.631032E-1,4.505762E-2,-2.4342614E-1,7.6182395E-1,1.6447948E-2,9.2871433E-1,5.0901777E-1,-2.8663397E-1,-1.319478E-2,-8.335748E-1,3.0343395E-1,-6.4244854E-1,3.824753E-1,8.503924E-3,3.4600507E-2,-3.5880306E-1,3.593018E-2,5.176542E-1,-3.5209826E-1,9.458349E-1,-3.390462E-1,6.625329E-1,-2.6979318E-2,-2.7685547E-1,-1.2828049E-1,8.8169026E-1,-2.48407E-1,-1.9313222E-1,5.754781E-2,-3.7594172E-1,-4.6231666E-1,1.4047252E-1,-1.8738803E-1,1.9185871E-1,-2.1031721E-1,8.17482E-2,1.30908E0,-7.260407E-2,-4.1241837E-1,3.489289E-1,2.6472545E-1,5.232781E-2,5.9979048E-2,3.4709242E-1,-7.411395E-2,-1.0788912E-2,-2.2181219E-1,2.0599015E-2,-2.030117E-2,-2.7229825E-1,-1.6688141E-1,1.09541826E-1,7.071172E-1,1.401709E-1,5.420756E-2,-1.4836527E-1,4.3829945E-1,-1.7953902E-1],"categories":[],"categories_nodes":[],"categories_segments":[],"categories_sizes":[],"default_left":[0,0,0,0,0,0,0,0,0,0,0,0,0,0,0,0,0,0,0,0,0,0,0,0,0,0,0,0,0,0,0,0,0,0,0,0,0,0,0,0,0,0,0,0,0,0,0,0,0,0,0,0,0,0,0,0,0,0,0,0,0,0,0,0,0],"id":17,"left_children":[1,3,5,7,9,11,13,15,-1,17,19,21,23,25,27,-1,29,31,33,-1,-1,35,37,39,-1,41,43,45,47,-1,-1,-1,49,-1,51,53,55,57,-1,-1,-1,-1,-1,59,-1,61,63,-1,-1,-1,-1,-1,-1,-1,-1,-1,-1,-1,-1,-1,-1,-1,-1,-1,-1],"loss_changes":[2.3458648E0,2.7390652E0,2.2800782E0,1.0673041E0,2.7432108E0,4.4168634E0,5.0749445E0,5.0763035E-1,0E0,2.5994382E0,1.3194592E0,2.4256833E0,3.7716494E0,3.878395E0,3.001545E0,0E0,5.6271887E-1,2.6291625E0,3.9803386E-1,0E0,0E0,3.2138302E0,1.6235027E0,1.8199725E0,0E0,1.0412471E0,3.132041E0,2.8475275E0,1.9592094E-1,0E0,0E0,0E0,3.882618E-1,0E0,1.8740378E-2,2.9011226E0,2.9004796E0,1.3778348E0,0E0,0E0,0E0,0E0,0E0,3.4445248E0,0E0,2.4693546E0,6.8832297E0,0E0,0E0,0E0,0E0,0E0,0E0,0E0,0E0,0E0,0E0,0E0,0E0,0E0,0E0,0E0,0E0,0E0,0E0],"parents":[2147483647,0,0,1,1,2,2,3,3,4,4,5,5,6,6,7,7,9,9,10,10,11,11,12,12,13,13,14,14,16,16,17,17,18,18,21,21,22,22,23,23,25,25,26,26,27,27,28,28,32,32,34,34,35,35,36,36,37,37,43,43,45,45,46,46],"right_children":[2,4,6,8,10,12,14,16,-1,18,20,22,24,26,28,-1,30,32,34,-1,-1,36,38,40,-1,42,44,46,48,-1,-1,-1,50,-1,52,54,56,58,-1,-1,-1,-1,-1,60,-1,62,64,-1,-1,-1,-1,-1,-1,-1,-1,-1,-1,-1,-1,-1,-1,-1,-1,-1,-1],"split_conditions":[1E0,1E0,6.250139E-1,1E0,5.2795607E-1,5.896932E-1,-3.349931E-1,-9.0936077E-1,4.505762E-2,-5.506623E-1,7.2192335E-1,1E0,1E0,9.041665E-1,1E0,-1.319478E-2,-6.766252E-1,-7.9909474E-1,3.1833194E-2,3.824753E-1,8.503924E-3,1E0,1E0,8.1687415E-1,5.176542E-1,-4.8437068E-1,1E0,1.1967647E1,5.0567085E-1,-2.6979318E-2,-2.7685547E-1,-1.2828049E-1,-6.888287E-1,-2.48407E-1,-1.7427383E-2,-1.1131228E0,1.1562932E-1,2E0,1.4047252E-1,-1.8738803E-1,1.9185871E-1,-2.1031721E-1,8.17482E-2,1.0015211E0,-7.260407E-2,-1.7676347E-1,8.621675E-1,2.6472545E-1,5.232781E-2,5.9979048E-2,3.4709242E-1,-7.411395E-2,-1.0788912E-2,-2.2181219E-1,2.0599015E-2,-2.030117E-2,-2.7229825E-1,-1.6688141E-1,1.09541826E-1,7.071172E-1,1.401709E-1,5.420756E-2,-1.4836527E-1,4.3829945E-1,-1.7953902E-1],"split_indices":[17,55,49,62,49,49,50,49,0,49,49,12,65,49,16,0,50,49,49,0,0,53,1,50,0,50,66,81,50,0,0,0,49,0,50,49,50,35,0,0,0,0,0,49,0,50,49,0,0,0,0,0,0,0,0,0,0,0,0,0,0,0,0,0,0],"split_type":[0,0,0,0,0,0,0,0,0,0,0,0,0,0,0,0,0,0,0,0,0,0,0,0,0,0,0,0,0,0,0,0,0,0,0,0,0,0,0,0,0,0,0,0,0,0,0,0,0,0,0,0,0,0,0,0,0,0,0,0,0,0,0,0,0],"sum_hessian":[4.443912E2,2.3477566E1,4.2091364E2,1.0856314E1,1.2621252E1,3.5766852E2,6.324512E1,9.74031E0,1.1160039E0,1.0019218E1,2.6020334E0,3.5327942E2,4.3891044E0,8.425406E0,5.4819714E1,1.0142822E0,8.7260275E0,4.3276844E0,5.691534E0,1.0966827E0,1.5053506E0,3.3784418E2,1.5435233E1,2.5627415E0,1.8263627E0,2.9008276E0,5.524579E0,5.256018E1,2.2595341E0,1.1504571E0,7.57557E0,2.0264125E0,2.3012722E0,3.4314423E0,2.2600918E0,3.207743E2,1.7069887E1,1.4110191E1,1.3250415E0,1.2070029E0,1.3557385E0,1.7825145E0,1.1183131E0,4.1526384E0,1.3719403E0,4.7856808E1,4.7033706E0,1.0008347E0,1.2586994E0,1.1584822E0,1.1427898E0,1.2570357E0,1.0030559E0,3.5113873E0,3.172629E2,1.1518912E1,5.5509744E0,1.2965713E1,1.1444783E0,1.0480669E0,3.1045716E0,5.675058E0,4.218175E1,1.9142535E0,2.789117E0],"tree_param":{"num_deleted":"0","num_feature":"90","num_nodes":"65","size_leaf_vector":"1"}},{"base_weights":[-1.4599062E-2,-1.1070376E-1,3.604386E-2,-1.4676571E-1,4.8768333E-1,8.29688E-2,-1.629978E-1,-7.988529E-2,-4.4787112E-1,9.027417E-1,-2.953415E-1,6.036541E-2,5.377051E-1,1.8502587E-1,-4.2577225E-1,1.862426E-1,-1.54463E-1,-5.6795067E-1,2.5055832E-1,-1.3548617E-2,1.3594184E0,-2.0704375E-1,1.1141987E-1,8.765292E-2,-6.1473507E-1,-7.718368E-2,1.465396E0,5.734829E-1,-4.1602468E-1,2.2939417E-1,-5.177482E-1,2.905872E-2,8.46215E-1,-8.220895E-2,-5.4442954E-1,-6.3245875E-1,1.391808E-1,5.4742813E-1,-1.1865755E-2,2.7616259E-2,2.8268677E-1,7.745574E-2,-7.673689E-1,-4.9804732E-1,3.4658587E-1,5.1200545E-1,1.0733921E-1,1.1223261E0,-5.0829124E-2,-5.490546E-1,1.1793184E-1,-6.8013424E-1,9.249814E-3,-8.229142E-2,1.5153277E-1,4.2149478E-1,-6.512307E-3,-1.9667438E-1,-6.8617477E-3,3.4023678E-1,-2.3573259E-1,-2.1822466E-1,4.4556774E-2,3.1452563E-2,-9.6874386E-2,2.6146326E-2,2.3069632E-1,-2.9252914E-1,5.045033E-2,-2.3668316E-1,1.421275E-1,-2.2969818E-2,5.633028E-1,7.714136E-2,-1.84681E-1,-2.2617257E-1,-6.205879E-2,-2.3420154E-1,5.8151964E-2,2.4364157E-1,-1.8571872E-1],"categories":[],"categories_nodes":[],"categories_segments":[],"categories_sizes":[],"default_left":[0,0,0,0,0,0,0,0,0,0,0,0,0,0,0,0,0,0,0,0,0,0,0,0,0,0,0,0,0,0,0,0,0,0,0,0,0,0,0,0,0,0,0,0,0,0,0,0,0,0,0,0,0,0,0,0,0,0,0,0,0,0,0,0,0,0,0,0,0,0,0,0,0,0,0,0,0,0,0,0,0],"id":18,"left_children":[1,3,5,7,9,11,13,15,17,19,21,23,25,27,29,31,33,35,-1,-1,37,-1,-1,39,41,43,45,47,49,-1,51,53,55,57,59,61,-1,-1,-1,63,65,-1,67,69,-1,-1,-1,71,73,75,-1,77,79,-1,-1,-1,-1,-1,-1,-1,-1,-1,-1,-1,-1,-1,-1,-1,-1,-1,-1,-1,-1,-1,-1,-1,-1,-1,-1,-1,-1],"loss_changes":[2.153623E0,3.3659973E0,2.7221766E0,2.8793864E0,3.1620312E0,2.386516E0,5.1693316E0,2.4038143E0,4.4944134E0,2.6886115E0,1.2670949E0,4.204754E0,6.3978477E0,5.9926333E0,3.90169E0,2.7397325E0,2.6043882E0,1.9212518E0,0E0,0E0,2.7594838E0,0E0,0E0,2.5382977E0,1.3810754E0,4.504989E0,5.764227E-1,5.33045E0,1.3196063E0,0E0,2.600914E0,3.396183E0,2.4990757E0,2.7237659E0,6.7730427E0,1.8462639E0,0E0,0E0,0E0,4.564628E0,4.7893305E0,0E0,1.6815386E0,2.167789E0,0E0,0E0,0E0,7.599784E0,1.5770037E0,4.9062347E-1,0E0,2.1890354E0,4.603218E0,0E0,0E0,0E0,0E0,0E0,0E0,0E0,0E0,0E0,0E0,0E0,0E0,0E0,0E0,0E0,0E0,0E0,0E0,0E0,0E0,0E0,0E0,0E0,0E0,0E0,0E0,0E0,0E0],"parents":[2147483647,0,0,1,1,2,2,3,3,4,4,5,5,6,6,7,7,8,8,9,9,10,10,11,11,12,12,13,13,14,14,15,15,16,16,17,17,20,20,23,23,24,24,25,25,26,26,27,27,28,28,30,30,31,31,32,32,33,33,34,34,35,35,39,39,40,40,42,42,43,43,47,47,48,48,49,49,51,51,52,52],"right_children":[2,4,6,8,10,12,14,16,18,20,22,24,26,28,30,32,34,36,-1,-1,38,-1,-1,40,42,44,46,48,50,-1,52,54,56,58,60,62,-1,-1,-1,64,66,-1,68,70,-1,-1,-1,72,74,76,-1,78,80,-1,-1,-1,-1,-1,-1,-1,-1,-1,-1,-1,-1,-1,-1,-1,-1,-1,-1,-1,-1,-1,-1,-1,-1,-1,-1,-1,-1],"split_conditions":[0E0,1E0,3.1875E0,1E0,4.8E1,1.132569E4,1.3658537E0,-5.7952976E-1,3.02966E5,3.75E-1,1E0,2.36893E3,3.8E1,2.014618E-1,-7.231106E-1,1E0,1E0,1.2033195E0,2.5055832E-1,-1.3548617E-2,6.1875E0,-2.0704375E-1,1.1141987E-1,2.4806143E-1,-5.445776E-1,1E0,2E3,1E0,2.2899032E0,2.2939417E-1,9.957029E0,-6.3153523E-1,1E0,-5.015214E-1,-5.294606E-1,1E0,1.391808E-1,5.4742813E-1,-1.1865755E-2,-6.9009E-3,3.75E-1,7.745574E-2,1E0,1.0264606E1,3.4658587E-1,5.1200545E-1,1.0733921E-1,5E-1,5.9375E0,6.375E0,1.1793184E-1,2E0,1.1293422E1,-8.229142E-2,1.5153277E-1,4.2149478E-1,-6.512307E-3,-1.9667438E-1,-6.8617477E-3,3.4023678E-1,-2.3573259E-1,-2.1822466E-1,4.4556774E-2,3.1452563E-2,-9.6874386E-2,2.6146326E-2,2.3069632E-1,-2.9252914E-1,5.045033E-2,-2.3668316E-1,1.421275E-1,-2.2969818E-2,5.633028E-1,7.714136E-2,-1.84681E-1,-2.2617257E-1,-6.205879E-2,-2.3420154E-1,5.8151964E-2,2.4364157E-1,-1.8571872E-1],"split_indices":[25,45,23,13,40,37,87,50,76,23,21,37,46,49,49,11,64,50,0,0,23,0,0,49,49,71,76,28,50,0,77,50,10,50,50,20,0,0,0,49,23,0,64,77,0,0,0,25,23,23,0,41,87,0,0,0,0,0,0,0,0,0,0,0,0,0,0,0,0,0,0,0,0,0,0,0,0,0,0,0,0],"split_type":[0,0,0,0,0,0,0,0,0,0,0,0,0,0,0,0,0,0,0,0,0,0,0,0,0,0,0,0,0,0,0,0,0,0,0,0,0,0,0,0,0,0,0,0,0,0,0,0,0,0,0,0,0,0,0,0,0,0,0,0,0,0,0,0,0,0,0,0,0,0,0,0,0,0,0,0,0,0,0,0,0],"sum_hessian":[4.4067307E2,1.5166795E2,2.8900513E2,1.43759E2,7.908941E0,2.343413E2,5.4663826E1,1.1866654E2,2.5092466E1,5.0690804E0,2.8398602E0,2.2432367E2,1.0017617E1,2.3644484E1,3.1019342E1,2.5647404E1,9.3019135E1,2.3454733E1,1.6377333E0,1.9411105E0,3.12797E0,1.7616266E0,1.0782336E0,2.1644514E2,7.8785343E0,6.5758414E0,3.4417758E0,1.4390084E1,9.254398E0,1.7002256E0,2.9319117E1,2.155721E1,4.0901933E0,7.949998E1,1.351916E1,2.2439047E1,1.0156857E0,2.118823E0,1.0091468E0,1.6637274E2,5.0072403E1,1.0696447E0,6.8088894E0,5.346138E0,1.2297035E0,2.3819778E0,1.0597978E0,7.2333894E0,7.1566954E0,8.22375E0,1.030648E0,2.2190794E1,7.128324E0,1.3425557E1,8.131654E0,2.111819E0,1.9783742E0,6.513269E0,7.298671E1,1.2344482E0,1.2284712E1,2.0067677E1,2.3713698E0,1.3691077E2,2.9461966E1,3.6553967E1,1.35184355E1,5.5371294E0,1.2717602E0,4.2593327E0,1.086805E0,3.1431742E0,4.0902147E0,4.9837837E0,2.172912E0,4.391561E0,3.8321896E0,1.9997177E1,2.1936162E0,3.0009668E0,4.1273575E0],"tree_param":{"num_deleted":"0","num_feature":"90","num_nodes":"81","size_leaf_vector":"1"}},{"base_weights":[-1.3112066E-2,-5.755345E-3,-6.4492553E-1,-2.0818031E-1,1.7985879E-2,-2.3674305E-1,-1.2408683E-2,-2.4214934E-1,1.6185343E-1,4.8019648E-1,7.119563E-3,-2.8160533E-1,1.5609953E-1,6.218634E-1,-6.6475803E-3,6.425508E-1,-1.0933026E-3,-1.7809899E-1,-6.2448287E-1,5.7383064E-2,8.525949E-1,-3.7010077E-2,9.044693E-1,1.9617242E-1,-2.6563874E-2,-1.13194995E-1,5.9208367E-2,2.8197752E-2,-2.3535557E-1,6.3012615E-2,-3.7867285E-2,2.959086E-1,7.0269294E-2,3.3764192E-1,9.834478E-2,2.7357375E-2,3.5393372E-1,-2.2277938E-1,-1.0400264E-3],"categories":[],"categories_nodes":[],"categories_segments":[],"categories_sizes":[],"default_left":[0,0,0,0,0,0,0,0,0,0,0,0,0,0,0,0,0,0,0,0,0,0,0,0,0,0,0,0,0,0,0,0,0,0,0,0,0,0,0],"id":19,"left_children":[1,3,5,7,9,-1,-1,11,-1,13,15,17,-1,19,-1,21,23,25,27,29,31,-1,33,35,37,-1,-1,-1,-1,-1,-1,-1,-1,-1,-1,-1,-1,-1,-1],"loss_changes":[2.0276582E0,2.0847273E0,4.0442586E-1,1.2871319E0,1.9477291E0,0E0,0E0,1.4776278E0,0E0,6.4774394E-1,1.9867947E0,1.404819E0,0E0,8.6056256E-1,0E0,1.0860891E0,1.8979971E0,2.6334033E0,1.166779E0,1.13355026E-1,1.730094E-1,0E0,1.0767603E-1,4.353007E0,5.529758E0,0E0,0E0,0E0,0E0,0E0,0E0,0E0,0E0,0E0,0E0,0E0,0E0,0E0,0E0],"parents":[2147483647,0,0,1,1,2,2,3,3,4,4,7,7,9,9,10,10,11,11,13,13,15,15,16,16,17,17,18,18,19,19,20,20,22,22,23,23,24,24],"right_children":[2,4,6,8,10,-1,-1,12,-1,14,16,18,-1,20,-1,22,24,26,28,30,32,-1,34,36,38,-1,-1,-1,-1,-1,-1,-1,-1,-1,-1,-1,-1,-1,-1],"split_conditions":[1E0,1E0,2.375E0,7.4E1,1E0,-2.3674305E-1,-1.2408683E-2,8.12E1,1.6185343E-1,1E0,1E0,1.25E0,1.5609953E-1,-6.1466116E-1,-6.6475803E-3,-4.3872753E-1,-5.294606E-1,1.0013831E-1,-2.439834E-1,-4.7809148E-1,1E0,-3.7010077E-2,-1.6791147E-1,1E0,-8.8591254E-1,-1.13194995E-1,5.9208367E-2,2.8197752E-2,-2.3535557E-1,6.3012615E-2,-3.7867285E-2,2.959086E-1,7.0269294E-2,3.3764192E-1,9.834478E-2,2.7357375E-2,3.5393372E-1,-2.2277938E-1,-1.0400264E-3],"split_indices":[3,14,23,24,29,0,0,37,0,55,59,23,0,50,0,50,50,50,50,49,31,0,50,25,49,0,0,0,0,0,0,0,0,0,0,0,0,0,0],"split_type":[0,0,0,0,0,0,0,0,0,0,0,0,0,0,0,0,0,0,0,0,0,0,0,0,0,0,0,0,0,0,0,0,0,0,0,0,0,0,0],"sum_hessian":[4.3603464E2,4.3201346E2,4.0211773E0,4.4534016E1,3.8747943E2,2.9974742E0,1.0237031E0,4.3245434E1,1.288583E0,7.9081078E0,3.7957132E2,4.171736E1,1.5280693E0,5.9829783E0,1.9251295E0,3.857769E0,3.7571356E2,3.3211155E1,8.506209E0,2.0982788E0,3.8846996E0,1.1178557E0,2.7399132E0,4.21976E1,3.3351596E2,2.1694956E1,1.1516198E1,1.6247268E0,6.881483E0,1.0670849E0,1.031194E0,2.7045295E0,1.18017E0,1.2927368E0,1.4471765E0,3.9115482E1,3.0821176E0,9.448604E0,3.2406735E2],"tree_param":{"num_deleted":"0","num_feature":"90","num_nodes":"39","size_leaf_vector":"1"}},{"base_weights":[-8.930809E-3,-1.86216E-2,4.1504216E-1,-9.686933E-3,-6.8159205E-1,-1.5013182E-2,9.348858E-1,-2.4559861E-2,4.884518E-1,-6.8120183E-3,-2.4600136E-1,-4.167039E-1,2.5569072E-1,3.4155893E-1,5.1362228E-2,-1.291949E-2,-5.6068665E-1,6.9721544E-1,-1.2687193E-1,4.8071615E-2,-6.358254E-1,-4.741124E-2,1.4261812E-1,-2.6950112E-1,4.2719077E-2,-5.2031316E-2,8.502803E-1,-2.1890253E-1,-5.748676E-2,-1.7792568E-2,2.2522236E-1,-9.914784E-3,1.300077E-1,-1.4347145E-1,1.729673E-1,3.010012E-1,-3.6638767E-2],"categories":[],"categories_nodes":[],"categories_segments":[],"categories_sizes":[],"default_left":[0,0,0,0,0,0,0,0,0,0,0,0,0,0,0,0,0,0,0,0,0,0,0,0,0,0,0,0,0,0,0,0,0,0,0,0,0],"id":20,"left_children":[1,3,5,7,9,11,13,15,17,-1,-1,19,-1,-1,-1,21,23,25,-1,-1,27,29,31,-1,33,-1,35,-1,-1,-1,-1,-1,-1,-1,-1,-1,-1],"loss_changes":[1.7877607E0,2.5079932E0,2.1880155E0,3.122847E0,4.9488068E-1,2.5520995E0,4.922135E-1,2.543124E0,2.620003E0,0E0,0E0,7.316462E-1,0E0,0E0,0E0,2.15806E0,1.8029296E0,1.5228925E0,0E0,0E0,1.9076467E-2,3.1683831E0,3.7444851E0,0E0,1.4054297E0,0E0,1.4541712E0,0E0,0E0,0E0,0E0,0E0,0E0,0E0,0E0,0E0,0E0],"parents":[2147483647,0,0,1,1,2,2,3,3,4,4,5,5,6,6,7,7,8,8,11,11,15,15,16,16,17,17,20,20,21,21,22,22,24,24,26,26],"right_children":[2,4,6,8,10,12,14,16,18,-1,-1,20,-1,-1,-1,22,24,26,-1,-1,28,30,32,-1,34,-1,36,-1,-1,-1,-1,-1,-1,-1,-1,-1,-1],"split_conditions":[9.2E1,1.4459985E0,1E0,1.1616517E0,-2.5449514E-2,4.42969E3,1.13E2,1.0304605E0,4.9514704E0,-6.8120183E-3,-2.4600136E-1,1E2,2.5569072E-1,3.4155893E-1,5.1362228E-2,1E0,1E0,1E0,-1.2687193E-1,4.8071615E-2,1.19E2,9.608578E-1,5.773503E3,-2.6950112E-1,1E0,-5.2031316E-2,9E0,-2.1890253E-1,-5.748676E-2,-1.7792568E-2,2.2522236E-1,-9.914784E-3,1.300077E-1,-1.4347145E-1,1.729673E-1,3.010012E-1,-3.6638767E-2],"split_indices":[46,49,11,49,50,37,38,49,81,0,0,46,0,0,0,69,11,15,0,0,38,49,82,0,73,0,46,0,0,0,0,0,0,0,0,0,0],"split_type":[0,0,0,0,0,0,0,0,0,0,0,0,0,0,0,0,0,0,0,0,0,0,0,0,0,0,0,0,0,0,0,0,0,0,0,0,0],"sum_hessian":[4.3224185E2,4.2351755E2,8.724303E0,4.1888693E2,4.630611E0,5.3059363E0,3.4183664E0,4.0766595E2,1.1220986E1,1.005965E0,3.6246462E0,3.9814878E0,1.3244487E0,2.3112059E0,1.1071607E0,4.0000516E2,7.660804E0,9.320844E0,1.9001424E0,1.1698962E0,2.8115914E0,3.279702E2,7.203493E1,4.598707E0,3.062097E0,1.3737383E0,7.947106E0,1.7906148E0,1.0209767E0,3.2406537E2,3.9048467E0,4.5456287E1,2.6578642E1,1.602458E0,1.4596391E0,6.8388643E0,1.1082411E0],"tree_param":{"num_deleted":"0","num_feature":"90","num_nodes":"37","size_leaf_vector":"1"}},{"base_weights":[-7.6085506E-3,3.7053532E-3,-3.6740938E-1,-2.3189805E-2,1.7021723E-1,-5.3703874E-1,1.7852873E-1,-3.9084654E-2,4.1620088E-1,-4.433524E-2,4.333103E-1,-7.4874806E-1,1.5898754E-1,-1.1430587E-1,4.5213375E-2,9.943803E-1,-1.03024475E-1,-2.1624085E-1,6.1735773E-1,7.220024E-1,-2.4683599E-1,-8.205404E-1,-1.8971372E-2,-1.304076E-1,7.2673863E-1,1.6126052E-1,-1.7639357E-1,3.754966E-1,-4.6055196E-3,2.938015E-1,-4.469436E-1,-6.6780174E-1,-3.9943304E-2,-6.265597E-2,9.80394E-1,9.229195E-1,-1.8903331E-1,2.2708598E-1,-6.5131396E-1,-3.3734813E-2,-2.73448E-1,-2.0678088E-2,-9.818402E-2,4.8300583E-2,2.9139796E-1,6.543607E-2,-6.535184E-2,-6.374274E-2,2.7663055E-1,1.2906453E-1,-2.0646001E-1,-2.811944E-1,1.452383E-2,5.9245184E-2,-1.539305E-1,4.582194E-1,-1.3120805E-2,1.7198198E-1,5.512295E-1,1.9401433E-1,-2.1604307E-1,-2.259557E-1,-1.16335265E-2],"categories":[],"categories_nodes":[],"categories_segments":[],"categories_sizes":[],"default_left":[0,0,0,0,0,0,0,0,0,0,0,0,0,0,0,0,0,0,0,0,0,0,0,0,0,0,0,0,0,0,0,0,0,0,0,0,0,0,0,0,0,0,0,0,0,0,0,0,0,0,0,0,0,0,0,0,0,0,0,0,0,0,0],"id":21,"left_children":[1,3,5,7,9,11,-1,13,15,17,19,21,-1,23,25,27,29,31,33,35,37,39,-1,41,43,45,47,-1,-1,-1,49,51,53,-1,55,57,59,-1,61,-1,-1,-1,-1,-1,-1,-1,-1,-1,-1,-1,-1,-1,-1,-1,-1,-1,-1,-1,-1,-1,-1,-1,-1],"loss_changes":[1.7597477E0,1.8838632E0,2.4712672E0,2.5464718E0,3.3210433E0,3.0464811E0,0E0,2.2280025E0,3.925207E0,3.9015903E0,5.355579E0,4.5020533E-1,0E0,2.6072915E0,4.297906E0,1.6087375E0,3.272382E0,2.1256108E0,2.3315992E0,3.6093426E0,3.9855955E0,4.868865E-1,0E0,2.191164E0,3.4693098E-1,2.4074616E0,2.47642E0,0E0,0E0,0E0,1.6643007E0,1.4984577E0,2.4052005E0,0E0,2.924862E0,3.9171724E0,2.339188E0,0E0,3.8693857E-1,0E0,0E0,0E0,0E0,0E0,0E0,0E0,0E0,0E0,0E0,0E0,0E0,0E0,0E0,0E0,0E0,0E0,0E0,0E0,0E0,0E0,0E0,0E0,0E0],"parents":[2147483647,0,0,1,1,2,2,3,3,4,4,5,5,7,7,8,8,9,9,10,10,11,11,13,13,14,14,15,15,16,16,17,17,18,18,19,19,20,20,21,21,23,23,24,24,25,25,26,26,30,30,31,31,32,32,34,34,35,35,36,36,38,38],"right_children":[2,4,6,8,10,12,-1,14,16,18,20,22,-1,24,26,28,30,32,34,36,38,40,-1,42,44,46,48,-1,-1,-1,50,52,54,-1,56,58,60,-1,62,-1,-1,-1,-1,-1,-1,-1,-1,-1,-1,-1,-1,-1,-1,-1,-1,-1,-1,-1,-1,-1,-1,-1,-1],"split_conditions":[1E0,1E0,6.5625E0,7E2,1E0,6.0347824E0,1.7852873E-1,1.25E-1,5E-1,1E0,1E0,8.350091E-1,1.5898754E-1,1E0,3.375E0,1.7192891E-1,8.1573E2,-2.725485E-1,3E0,6.1462545E-1,-5.81234E-1,-5.939143E-1,-1.8971372E-2,1E0,3.5325035E-1,5E0,2E1,3.754966E-1,-4.6055196E-3,2.938015E-1,-1.9087137E-1,3.269565E0,7.073306E-1,-6.265597E-2,1E0,2.7581346E-1,-1.9087137E-1,2.2708598E-1,3.911253E-1,-3.3734813E-2,-2.73448E-1,-2.0678088E-2,-9.818402E-2,4.8300583E-2,2.9139796E-1,6.543607E-2,-6.535184E-2,-6.374274E-2,2.7663055E-1,1.2906453E-1,-2.0646001E-1,-2.811944E-1,1.452383E-2,5.9245184E-2,-1.539305E-1,4.582194E-1,-1.3120805E-2,1.7198198E-1,5.512295E-1,1.9401433E-1,-2.1604307E-1,-2.259557E-1,-1.16335265E-2],"split_indices":[52,20,23,47,73,75,0,23,23,4,65,49,0,16,23,49,47,49,39,49,49,50,0,10,50,48,36,0,0,0,50,75,50,0,11,49,50,0,49,0,0,0,0,0,0,0,0,0,0,0,0,0,0,0,0,0,0,0,0,0,0,0,0],"split_type":[0,0,0,0,0,0,0,0,0,0,0,0,0,0,0,0,0,0,0,0,0,0,0,0,0,0,0,0,0,0,0,0,0,0,0,0,0,0,0,0,0,0,0,0,0,0,0,0,0,0,0,0,0,0,0,0,0,0,0,0,0,0,0],"sum_hessian":[4.3095618E2,4.1877747E2,1.2178718E1,3.6128336E2,5.7494102E1,1.0729772E1,1.448946E0,3.4954953E2,1.173382E1,3.2126453E1,2.5367647E1,9.202178E0,1.5275931E0,1.8453152E2,1.65018E2,5.118751E0,6.615069E0,2.6035675E1,6.09078E0,1.7765455E1,7.6021914E0,8.151505E0,1.0506722E0,1.8189412E2,2.637405E0,1.0848227E2,5.6535736E1,3.8884108E0,1.2303404E0,1.149583E0,5.4654856E0,6.5277796E0,1.9507895E1,1.9889531E0,4.1018267E0,1.4544754E1,3.2207022E0,1.9331869E0,5.6690044E0,1.1824193E0,6.9690866E0,1.3963734E2,4.2256775E1,1.2966003E0,1.3408046E0,9.4702805E1,1.3779466E1,5.5518692E1,1.0170441E0,1.0100228E0,4.455463E0,4.518684E0,2.0090957E0,1.3377695E1,6.130199E0,2.3534186E0,1.7484082E0,1.1698801E1,2.845953E0,1.1668687E0,2.0538335E0,4.6637497E0,1.0052547E0],"tree_param":{"num_deleted":"0","num_feature":"90","num_nodes":"63","size_leaf_vector":"1"}},{"base_weights":[-5.533403E-3,-2.0714572E-1,2.0592254E-4,-6.0425685E-3,5.3040415E-1,3.6008883E-2,-8.9194074E-2,9.7891945E-1,-1.4744107E-1,3.4374942E-3,1.0812923E0,-4.9719203E-1,6.786625E-3,4.511289E-1,-3.6802257E-3,1.490706E-2,-2.626506E-1,1.3701894E0,-6.2376596E-2,1.3890703E-1,-5.746288E-1,6.1931066E-2,-7.314389E-1,-7.3853666E-3,6.667665E-2,5.083264E-1,1.3125543E-1,-1.9021897E-1,1.08557865E-1,1.8921699E-1,2.9302305E-3,-5.12463E-2,-2.7125645E-1],"categories":[],"categories_nodes":[],"categories_segments":[],"categories_sizes":[],"default_left":[0,0,0,0,0,0,0,0,0,0,0,0,0,0,0,0,0,0,0,0,0,0,0,0,0,0,0,0,0,0,0,0,0],"id":22,"left_children":[1,-1,3,5,7,9,11,13,-1,15,17,19,21,-1,-1,23,-1,25,-1,-1,27,29,31,-1,-1,-1,-1,-1,-1,-1,-1,-1,-1],"loss_changes":[1.6790239E0,0E0,1.4096165E0,1.473776E0,2.7525978E0,9.530061E0,5.546114E0,1.9841137E0,0E0,2.760792E0,3.4353619E0,2.2714028E0,4.7501116E0,0E0,0E0,2.2185438E0,0E0,1.3881769E0,0E0,0E0,1.643362E0,3.211896E0,6.3107157E-1,0E0,0E0,0E0,0E0,0E0,0E0,0E0,0E0,0E0,0E0],"parents":[2147483647,0,0,2,2,3,3,4,4,5,5,6,6,7,7,9,9,10,10,11,11,12,12,15,15,17,17,20,20,21,21,22,22],"right_children":[2,-1,4,6,8,10,12,14,-1,16,18,20,22,-1,-1,24,-1,26,-1,-1,28,30,32,-1,-1,-1,-1,-1,-1,-1,-1,-1,-1],"split_conditions":[-1.1407264E0,-2.0714572E-1,1E0,1.8070987E0,1E0,1.7173011E0,2.4814816E0,-3.5075873E-1,-1.4744107E-1,7E0,1E0,-5.864454E-1,1E0,4.511289E-1,-3.6802257E-3,1E0,-2.626506E-1,1E0,-6.2376596E-2,1.3890703E-1,8.75E0,-5.3609955E-1,3.4115942E0,-7.3853666E-3,6.667665E-2,5.083264E-1,1.3125543E-1,-1.9021897E-1,1.08557865E-1,1.8921699E-1,2.9302305E-3,-5.12463E-2,-2.7125645E-1],"split_indices":[49,0,7,83,27,77,83,49,0,25,10,50,55,0,0,69,0,21,0,0,23,50,75,0,0,0,0,0,0,0,0,0,0],"split_type":[0,0,0,0,0,0,0,0,0,0,0,0,0,0,0,0,0,0,0,0,0,0,0,0,0,0,0,0,0,0,0,0,0],"sum_hessian":[4.2606985E2,2.5490491E0,4.2352078E2,4.1956476E2,3.9560506E0,2.7902362E2,1.4054112E2,2.7785435E0,1.1775072E0,2.7156485E2,7.4587655E0,2.5969402E1,1.1457172E2,1.478519E0,1.3000245E0,2.6903714E2,2.5277133E0,6.0420146E0,1.4167508E0,1.5664208E0,2.440298E1,1.07460655E2,7.111057E0,2.2670392E2,4.2333237E1,3.877358E0,2.1646566E0,2.325033E1,1.1526507E0,8.09555E0,9.936511E1,2.1435378E0,4.9675193E0],"tree_param":{"num_deleted":"0","num_feature":"90","num_nodes":"33","size_leaf_vector":"1"}},{"base_weights":[-5.604288E-3,-7.457972E-6,-5.6160927E-1,6.777872E-3,-4.3653795E-1,-2.1559541E-1,-9.427588E-3,2.331906E-2,-2.0354299E-1,-6.815576E-1,7.294685E-2,9.2673255E-3,8.987397E-1,-7.561146E-1,3.284019E-2,-2.7144656E-1,-2.4634242E-2,2.1300806E-2,-7.096039E-1,1.1558227E-1,4.9267703E-1,-8.6345863E-1,-2.4402443E-2,9.3794805E-1,-2.565408E-1,1.0745043E-3,7.990925E-2,-2.7329367E-1,4.7161963E-2,2.5311014E-1,-1.2420235E-1,-2.8887242E-1,-5.6002386E-2,3.89744E-1,-8.24461E-2,-2.1234035E-1,5.10601E-2],"categories":[],"categories_nodes":[],"categories_segments":[],"categories_sizes":[],"default_left":[0,0,0,0,0,0,0,0,0,0,0,0,0,0,0,0,0,0,0,0,0,0,0,0,0,0,0,0,0,0,0,0,0,0,0,0,0],"id":23,"left_children":[1,3,5,7,9,-1,-1,11,13,15,-1,17,19,21,23,-1,-1,25,27,29,-1,31,-1,33,35,-1,-1,-1,-1,-1,-1,-1,-1,-1,-1,-1,-1],"loss_changes":[1.3246025E0,1.2541716E0,3.3061635E-1,1.4552639E0,1.2450283E0,0E0,0E0,4.7576046E0,4.0091105E0,5.9842634E-1,0E0,3.3224428E0,3.3681264E0,5.947604E-1,6.0873027E0,0E0,0E0,1.6361101E0,1.2470388E0,1.9115763E0,0E0,3.463645E-1,0E0,2.8200345E0,3.5289145E0,0E0,0E0,0E0,0E0,0E0,0E0,0E0,0E0,0E0,0E0,0E0,0E0],"parents":[2147483647,0,0,1,1,2,2,3,3,4,4,7,7,8,8,9,9,11,11,12,12,13,13,14,14,17,17,18,18,19,19,21,21,23,23,24,24],"right_children":[2,4,6,8,10,-1,-1,12,14,16,-1,18,20,22,24,-1,-1,26,28,30,-1,32,-1,34,36,-1,-1,-1,-1,-1,-1,-1,-1,-1,-1,-1,-1],"split_conditions":[1E0,6.1E1,1E0,7.0170016E0,9.0275E2,-2.1559541E-1,-9.427588E-3,6.455247E0,-1.2614107E-1,1.3853745E-1,7.294685E-2,5.962963E0,1E0,2.256962E1,1.5573996E-1,-2.7144656E-1,-2.4634242E-2,4.117284E0,1.3E6,2.7E4,4.9267703E-1,1E0,-2.4402443E-2,1.277105E6,1.0435294E1,1.0745043E-3,7.990925E-2,-2.7329367E-1,4.7161963E-2,2.5311014E-1,-1.2420235E-1,-2.8887242E-1,-5.6002386E-2,3.89744E-1,-8.24461E-2,-2.1234035E-1,5.10601E-2],"split_indices":[3,48,53,89,47,0,0,83,50,49,0,83,11,83,50,0,0,83,88,76,0,72,0,76,81,0,0,0,0,0,0,0,0,0,0,0,0],"split_type":[0,0,0,0,0,0,0,0,0,0,0,0,0,0,0,0,0,0,0,0,0,0,0,0,0,0,0,0,0,0,0,0,0,0,0,0,0],"sum_hessian":[4.246632E2,4.214211E2,3.242075E0,4.159403E2,5.480808E0,2.226966E0,1.0151091E0,3.8643716E2,2.9503149E1,4.026553E0,1.4542545E0,3.813269E2,5.1102476E0,8.180845E0,2.1322304E1,2.562651E0,1.4639024E0,3.760032E2,5.323703E0,3.0515056E0,2.058742E0,6.81679E0,1.3640546E0,4.6226487E0,1.6699656E1,3.5159595E2,2.440727E1,4.278726E0,1.0449767E0,1.0351659E0,2.0163395E0,5.574832E0,1.2419584E0,3.5069501E0,1.1156986E0,7.796535E0,8.90312E0],"tree_param":{"num_deleted":"0","num_feature":"90","num_nodes":"37","size_leaf_vector":"1"}},{"base_weights":[-6.601551E-3,-1.8360779E-1,-2.0832473E-3,7.6783574E-3,-2.8002486E-1,-1.0688399E-2,3.0930084E-1,-8.4243816E-1,1.2598103E-1,2.9933168E-2,-1.631001E-1,1.0526788E-1,1.3465505E0,-3.7395712E-2,-2.9233268E-1,2.2151567E-1,-1.9703199E-1,-5.743783E-3,2.6166892E-1,3.4564465E-1,-2.8004727E-1,3.0425003E-1,-2.4099694E-1,6.709245E-1,-1.2289606E-3,-2.4683061E-1,4.241676E-1,-2.5258046E-2,2.8820721E-2,3.9322916E-2,2.9601294E-1,-1.3970219E-1,1.881118E-1,-1.6936216E-1,-2.8154949E-2,1.6240193E-1,-6.224396E-2,-4.583957E-2,2.1837799E-1],"categories":[],"categories_nodes":[],"categories_segments":[],"categories_sizes":[],"default_left":[0,0,0,0,0,0,0,0,0,0,0,0,0,0,0,0,0,0,0,0,0,0,0,0,0,0,0,0,0,0,0,0,0,0,0,0,0,0,0],"id":24,"left_children":[1,-1,3,5,7,9,11,13,15,17,19,21,23,-1,-1,-1,25,27,29,31,33,35,-1,-1,-1,-1,37,-1,-1,-1,-1,-1,-1,-1,-1,-1,-1,-1,-1],"loss_changes":[1.1614759E0,0E0,1.1495868E0,2.2720854E0,3.3887858E0,2.4008746E0,4.8401346E0,4.6192837E-1,1.9691024E0,2.534745E0,4.9513683E0,3.9968908E0,4.557794E0,0E0,0E0,0E0,3.0018392E0,2.1367095E0,3.743336E0,3.8759308E0,3.490641E0,2.266101E0,0E0,0E0,0E0,0E0,8.2709545E-1,0E0,0E0,0E0,0E0,0E0,0E0,0E0,0E0,0E0,0E0,0E0,0E0],"parents":[2147483647,0,0,2,2,3,3,4,4,5,5,6,6,7,7,8,8,9,9,10,10,11,11,12,12,16,16,17,17,18,18,19,19,20,20,21,21,26,26],"right_children":[2,-1,4,6,8,10,12,14,16,18,20,22,24,-1,-1,-1,26,28,30,32,34,36,-1,-1,-1,-1,38,-1,-1,-1,-1,-1,-1,-1,-1,-1,-1,-1,-1],"split_conditions":[-1.1407264E0,-1.8360779E-1,5.3E1,1E0,4.802213E-1,1.83404E5,1.000591E6,1E0,5.97787E-1,1E0,-4.3872753E-1,1E0,1.100423E6,-3.7395712E-2,-2.9233268E-1,2.2151567E-1,1.2033195E0,5E-1,4.827742E0,-6.4204705E-1,3.4662206E5,6.875E-1,-2.4099694E-1,6.709245E-1,-1.2289606E-3,-2.4683061E-1,-8.585315E-2,-2.5258046E-2,2.8820721E-2,3.9322916E-2,2.9601294E-1,-1.3970219E-1,1.881118E-1,-1.6936216E-1,-2.8154949E-2,1.6240193E-1,-6.224396E-2,-4.583957E-2,2.1837799E-1],"split_indices":[49,0,24,24,50,76,88,14,50,20,50,20,88,0,0,0,50,25,77,50,82,23,0,0,0,0,49,0,0,0,0,0,0,0,0,0,0,0,0],"split_type":[0,0,0,0,0,0,0,0,0,0,0,0,0,0,0,0,0,0,0,0,0,0,0,0,0,0,0,0,0,0,0,0,0,0,0,0,0,0,0],"sum_hessian":[4.240611E2,2.1453316E0,4.2191577E2,4.085398E2,1.3375977E1,3.859996E2,2.2540184E1,5.1571608E0,8.218817E0,3.0540506E2,8.059456E1,1.9755627E1,2.7845578E0,1.1031226E0,4.054038E0,2.3940241E0,5.8247924E0,2.6550446E2,3.9900604E1,1.4698303E1,6.5896255E1,1.6752054E1,3.0035722E0,1.2832726E0,1.5012852E0,