{"learner":{"attributes":{"scikit_learn":"{\"_estimator_type\": \"classifier\"}"},"feature_names":["flg_substandard","flg_is_borderline_standard","flg_is_revised_term","flg_is_rental_flat","flg_has_health_claim","flg_has_life_claim","flg_gi_claim","flg_is_proposal","flg_with_preauthorisation","flg_is_returned_mail","is_consent_to_mail","is_consent_to_email","is_consent_to_call","is_consent_to_sms","is_valid_dm","is_valid_email","is_housewife_retiree","is_sg_pr","is_class_1_2","is_dependent_in_at_least_1_policy","f_ever_declined_la","flg_latest_being_lapse","flg_latest_being_cancel","recency_lapse","recency_cancel","tot_inforce_pols","tot_cancel_pols","f_elx","f_mindef_mha","f_retail","flg_affconnect_show_interest_ever","flg_affconnect_ready_to_buy_ever","flg_affconnect_lapse_ever","affcon_visit_days","clmcon_visit_days","recency_clmcon","recency_clmcon_regis","hlthclaim_amt","recency_hlthclaim","hlthclaim_cnt_success","recency_hlthclaim_success","hlthclaim_cnt_unsuccess","recency_hlthclaim_unsuccess","flg_hlthclaim_839f8a_ever","recency_hlthclaim_839f8a","flg_hlthclaim_14cb37_ever","recency_hlthclaim_14cb37","giclaim_amt","recency_giclaim","age","insurance_time","race_desc_0","race_desc_1","race_desc_2","race_desc_3","race_desc_4","clttype_0","clttype_1","clttype_2","stat_flag_0","stat_flag_1","stat_flag_2","hh_size_est_0","hh_size_est_1","hh_size_est_2","hh_size_est_3","hh_size_est_4","hh_size_est_5","hh_size_est_6","annual_income_est_0","annual_income_est_1","annual_income_est_2","annual_income_est_3","annual_income_est_4","annual_income_est_5","ae_lh_sum","smins_lh_sum","pempaid_lh_sum","ae_lh_mean","smins_lh_mean","pempaid_lh_mean","ae_lh_std","smins_lh_std","pempaid_lh_std","ae_lh_min","smins_lh_min","pempaid_lh_min","ae_lh_max","smins_lh_max","pempaid_lh_max"],"feature_types":["int","int","int","int","int","int","int","int","int","int","int","int","int","int","int","int","int","int","int","int","int","int","int","float","float","float","float","int","int","int","int","int","int","float","float","float","float","float","float","float","float","float","float","int","float","int","float","float","float","float","float","int","int","int","int","int","int","int","int","int","int","int","int","int","int","int","int","int","int","int","int","int","int","int","int","float","float","float","float","float","float","float","float","float","float","float","float","float","float","float"],"gradient_booster":{"gbtree":{"model":{"gbtree_model_param":{"num_parallel_tree":"1","num_trees":"100"},"iteration_indptr":[0,1,2,3,4,5,6,7,8,9,10,11,12,13,14,15,16,17,18,19,20,21,22,23,24,25,26,27,28,29,30,31,32,33,34,35,36,37,38,39,40,41,42,43,44,45,46,47,48,49,50,51,52,53,54,55,56,57,58,59,60,61,62,63,64,65,66,67,68,69,70,71,72,73,74,75,76,77,78,79,80,81,82,83,84,85,86,87,88,89,90,91,92,93,94,95,96,97,98,99,100],"tree_info":[0,0,0,0,0,0,0,0,0,0,0,0,0,0,0,0,0,0,0,0,0,0,0,0,0,0,0,0,0,0,0,0,0,0,0,0,0,0,0,0,0,0,0,0,0,0,0,0,0,0,0,0,0,0,0,0,0,0,0,0,0,0,0,0,0,0,0,0,0,0,0,0,0,0,0,0,0,0,0,0,0,0,0,0,0,0,0,0,0,0,0,0,0,0,0,0,0,0,0,0],"trees":[{"base_weights":[-8.237932E-1,-8.671672E-1,5.32694E-1,-1.1186697E0,-7.5496924E-1,8.841914E-1,-4.6172103E-1,-1.1205648E0,-3.3621967E-2,-8.7137717E-1,-5.060876E-1,1.1604862E0,-2.9820895E-1,2.927287E-1,-6.906025E-1,-1.1224258E0,-1.03479914E-1,-8.807412E-1,1.387064E0,-2.8826493E-1,-8.3897984E-1,5.137998E-1,1.6644984E0,-8.4040487E-1,3.812438E-1,-8.8405335E-1,1.22664005E-1,-1.2342906E-1,-3.372849E-1,-2.6627335E-1,2.4935298E-1,1.4456615E-1,5.481237E-1,-1.7004925E-1,2.0445092E-2,-2.642199E-1,-7.712964E-3,2.3814541E-1,-2.4039574E-1,3.3088169E-1,6.6018665E-1,-2.8554034E-1,-5.0619584E-2,-3.074827E-1,-1.00402184E-1],"categories":[],"categories_nodes":[],"categories_segments":[],"categories_sizes":[],"default_left":[0,0,0,0,0,0,0,0,0,0,0,0,0,0,0,0,0,0,0,0,0,0,0,0,0,0,0,0,0,0,0,0,0,0,0,0,0,0,0,0,0,0,0,0,0],"id":0,"left_children":[1,3,5,7,9,11,13,15,-1,17,19,21,23,-1,25,27,-1,29,31,33,35,37,39,41,-1,43,-1,-1,-1,-1,-1,-1,-1,-1,-1,-1,-1,-1,-1,-1,-1,-1,-1,-1,-1],"loss_changes":[1.0051807E2,4.5666504E1,1.904237E1,8.404541E-1,3.2670166E1,1.3326023E1,5.47077E0,3.4222412E-1,0E0,1.7659607E1,2.634002E1,9.7085495E0,8.146997E0,0E0,3.1611152E0,2.0245361E-1,0E0,9.804504E0,5.52547E-1,2.2190754E1,4.883133E0,6.396541E0,2.9221573E0,3.471508E-1,0E0,5.478296E-1,0E0,0E0,0E0,0E0,0E0,0E0,0E0,0E0,0E0,0E0,0E0,0E0,0E0,0E0,0E0,0E0,0E0,0E0,0E0],"parents":[2147483647,0,0,1,1,2,2,3,3,4,4,5,5,6,6,7,7,9,9,10,10,11,11,12,12,14,14,15,15,17,17,18,18,19,19,20,20,21,21,22,22,23,23,25,25],"right_children":[2,4,6,8,10,12,14,16,-1,18,20,22,24,-1,26,28,-1,30,32,34,36,38,40,42,-1,44,-1,-1,-1,-1,-1,-1,-1,-1,-1,-1,-1,-1,-1,-1,-1,-1,-1,-1,-1],"split_conditions":[1E0,1E0,3.125E0,3.725E2,5E-1,1E0,2E0,2.163368E4,-3.3621967E-2,1E0,1E0,1E0,1E0,2.927287E-1,1E0,-7.0705396E-1,-1.03479914E-1,7E0,1E0,1.25E-1,5.78143E5,1E0,1E0,5.303306E-1,3.812438E-1,7.4E1,1.22664005E-1,-1.2342906E-1,-3.372849E-1,-2.6627335E-1,2.4935298E-1,1.4456615E-1,5.481237E-1,-1.7004925E-1,2.0445092E-2,-2.642199E-1,-7.712964E-3,2.3814541E-1,-2.4039574E-1,3.3088169E-1,6.6018665E-1,-2.8554034E-1,-5.0619584E-2,-3.074827E-1,-1.00402184E-1],"split_indices":[6,15,23,47,25,13,48,37,0,16,10,18,55,0,31,50,0,36,11,23,82,67,21,49,0,48,0,0,0,0,0,0,0,0,0,0,0,0,0,0,0,0,0,0,0],"split_type":[0,0,0,0,0,0,0,0,0,0,0,0,0,0,0,0,0,0,0,0,0,0,0,0,0,0,0,0,0,0,0,0,0,0,0,0,0,0,0,0,0,0,0,0,0],"sum_hessian":[1.6995848E3,1.6472736E3,5.2311268E1,5.0540005E2,1.1418735E3,3.8731594E1,1.3579675E1,5.043373E2,1.0627571E0,7.7628503E2,3.6558844E2,3.1410378E1,7.3212156E0,1.4170095E0,1.2162665E1,5.026841E2,1.6531777E0,7.736872E2,2.5978508E0,2.2211624E2,1.4347221E2,1.4642431E1,1.6767946E1,5.7861223E0,1.5350937E0,1.0509487E1,1.6531777E0,1.889346E0,5.0079477E2,7.7108936E2,2.5978508E0,1.5350937E0,1.0627571E0,1.2434258E2,9.777366E1,1.3638716E2,7.0850477E0,1.2398833E1,2.2435985E0,9.6828985E0,7.0850477E0,4.605281E0,1.1808412E0,7.675468E0,2.834019E0],"tree_param":{"num_deleted":"0","num_feature":"90","num_nodes":"45","size_leaf_vector":"1"}},{"base_weights":[-7.2495663E-1,-7.698397E-1,3.1057185E-1,-1.0451262E0,-6.372066E-1,5.590794E-1,-3.4506068E-1,-1.0516587E0,9.1265455E-2,1.841357E0,-6.907611E-1,3.5286513E-1,1.0724156E0,7.034383E-1,-5.9792393E-1,-1.0770345E0,-7.802059E-1,-7.513797E-1,-2.7851682E-2,1.7993204E-1,1.3232952E0,1.4069823E0,-2.0558344E-1,3.96699E-1,-8.949543E-3,-7.6728654E-1,1.4583562E-1,-3.2379466E-1,-1.2806523E-1,4.950926E-2,-2.5142497E-1,-2.2735415E-1,4.723774E-1,-2.0010273E-1,1.63695E-1,-1.8117316E-2,1.9722979E-1,5.895549E-1,-7.48349E-2,-1.0496812E-1,5.2726835E-1,-2.6687217E-1,3.483936E-2],"categories":[],"categories_nodes":[],"categories_segments":[],"categories_sizes":[],"default_left":[0,0,0,0,0,0,0,0,0,0,0,0,0,0,0,0,0,0,0,0,0,0,0,0,0,0,0,0,0,0,0,0,0,0,0,0,0,0,0,0,0,0,0],"id":1,"left_children":[1,3,5,7,9,11,13,15,-1,-1,17,19,21,23,25,27,29,31,33,35,37,39,-1,-1,-1,41,-1,-1,-1,-1,-1,-1,-1,-1,-1,-1,-1,-1,-1,-1,-1,-1,-1],"loss_changes":[6.601831E1,4.8872986E1,9.888406E0,4.194763E0,3.373922E2,4.229865E0,4.920925E0,2.174652E0,0E0,0E0,3.6623077E1,5.2239814E0,8.01251E0,1.7447304E0,2.983099E0,1.289978E-1,2.3838787E0,1.3760986E1,2.8749655E1,3.3425615E0,5.301011E0,7.018448E0,0E0,0E0,0E0,1.4735069E0,0E0,0E0,0E0,0E0,0E0,0E0,0E0,0E0,0E0,0E0,0E0,0E0,0E0,0E0,0E0,0E0,0E0],"parents":[2147483647,0,0,1,1,2,2,3,3,4,4,5,5,6,6,7,7,10,10,11,11,12,12,13,13,14,14,15,15,16,16,17,17,18,18,19,19,20,20,21,21,25,25],"right_children":[2,4,6,8,10,12,14,16,-1,-1,18,20,22,24,26,28,30,32,34,36,38,40,-1,-1,-1,42,-1,-1,-1,-1,-1,-1,-1,-1,-1,-1,-1,-1,-1,-1,-1,-1,-1],"split_conditions":[1E0,1E0,4.7E1,8.85E1,1E0,6E2,-5.506623E-1,1E0,9.1265455E-2,1.841357E0,1E0,6.716924E0,3.3125E0,-6.362379E-2,1.2E1,1E0,-6.655602E-1,1E0,1.25E-1,1.5E0,6.25E-1,4E0,-2.0558344E-1,3.96699E-1,-8.949543E-3,1E0,1.4583562E-1,-3.2379466E-1,-1.2806523E-1,4.950926E-2,-2.5142497E-1,-2.2735415E-1,4.723774E-1,-2.0010273E-1,1.63695E-1,-1.8117316E-2,1.9722979E-1,5.895549E-1,-7.48349E-2,-1.0496812E-1,5.2726835E-1,-2.6687217E-1,3.483936E-2],"split_indices":[6,14,48,37,29,47,49,55,0,0,28,77,23,50,38,0,50,60,23,25,23,48,0,0,0,64,0,0,0,0,0,0,0,0,0,0,0,0,0,0,0,0,0],"split_type":[0,0,0,0,0,0,0,0,0,0,0,0,0,0,0,0,0,0,0,0,0,0,0,0,0,0,0,0,0,0,0,0,0,0,0,0,0,0,0,0,0,0,0],"sum_hessian":[1.4142887E3,1.3557815E3,5.8507225E1,4.3858884E2,9.171926E2,4.2533005E1,1.597422E1,4.3669528E2,1.8935444E0,6.3022237E0,9.108904E2,3.154738E1,1.0985624E1,2.7576628E0,1.32165575E1,3.9664856E2,4.004671E1,8.3445184E2,7.643854E1,2.7781977E1,3.7654033E0,9.396571E0,1.5890532E0,1.0598227E0,1.6978402E0,1.1683427E1,1.533131E0,3.9460394E2,2.0446386E0,2.2037754E0,3.7842934E1,8.328104E2,1.6414592E0,3.6072895E1,4.0365643E1,1.9061811E1,8.720165E0,2.4968388E0,1.2685643E0,1.5634608E0,7.8331103E0,1.0256676E1,1.426751E0],"tree_param":{"num_deleted":"0","num_feature":"90","num_nodes":"43","size_leaf_vector":"1"}},{"base_weights":[-6.379778E-1,-1.0194209E0,-5.012908E-1,-1.027993E0,8.843866E-2,-6.799264E-1,-2.1704473E-1,-1.0308691E0,-5.6575973E-2,1.2683713E-1,-7.1963474E-2,-6.926943E-1,4.7034854E-1,1.114135E0,-5.717082E-1,-8.412385E-2,-3.1009912E-1,-8.4378093E-1,-5.309356E-1,1.4496077E0,5.393182E-1,-2.750662E-1,-6.883533E-1,-2.5696886E-1,1.7137356E-1,-2.3292263E-1,-1.1211649E-1,2.6915105E-2,4.9444726E-1,3.1337446E-1,5.0690066E-2,-2.6636565E-1,-2.3554944E-2,-2.2218104E-1,-2.5024323E-2],"categories":[],"categories_nodes":[],"categories_segments":[],"categories_sizes":[],"default_left":[0,0,0,0,0,0,0,0,0,0,0,0,0,0,0,0,0,0,0,0,0,0,0,0,0,0,0,0,0,0,0,0,0,0,0],"id":2,"left_children":[1,3,5,7,9,11,13,15,-1,-1,-1,17,-1,19,21,-1,-1,23,25,27,29,31,33,-1,-1,-1,-1,-1,-1,-1,-1,-1,-1,-1,-1],"loss_changes":[6.1532776E1,3.0629883E0,4.4435394E1,5.555115E-1,4.6627644E-1,1.6546417E1,1.6130759E2,3.5891724E-1,0E0,0E0,0E0,1.266037E1,0E0,1.3089638E1,9.131783E0,0E0,0E0,5.474579E0,9.810394E0,1.1956902E1,5.082204E0,9.288656E0,6.028702E0,0E0,0E0,0E0,0E0,0E0,0E0,0E0,0E0,0E0,0E0,0E0,0E0],"parents":[2147483647,0,0,1,1,2,2,3,3,4,4,5,5,6,6,7,7,11,11,13,13,14,14,17,17,18,18,19,19,20,20,21,21,22,22],"right_children":[2,4,6,8,10,12,14,16,-1,-1,-1,18,-1,20,22,-1,-1,24,26,28,30,32,34,-1,-1,-1,-1,-1,-1,-1,-1,-1,-1,-1,-1],"split_conditions":[1E0,1.8E1,1.25E-1,2.163368E4,7.7771E2,1E0,9.375E-1,-7.0705396E-1,-5.6575973E-2,1.2683713E-1,-7.1963474E-2,0E0,4.7034854E-1,1E0,-3.4140912E-1,-8.412385E-2,-3.1009912E-1,1E0,1E0,1E0,-3.4838423E-1,1E0,1E0,-2.5696886E-1,1.7137356E-1,-2.3292263E-1,-1.1211649E-1,2.6915105E-2,4.9444726E-1,3.1337446E-1,5.0690066E-2,-2.6636565E-1,-2.3554944E-2,-2.2218104E-1,-2.5024323E-2],"split_indices":[15,48,23,37,47,16,23,50,0,0,0,25,0,6,49,0,0,27,18,14,49,14,6,0,0,0,0,0,0,0,0,0,0,0,0],"split_type":[0,0,0,0,0,0,0,0,0,0,0,0,0,0,0,0,0,0,0,0,0,0,0,0,0,0,0,0,0,0,0,0,0,0,0],"sum_hessian":[1.1889849E3,3.1196042E2,8.770244E2,3.0963666E2,2.3237422E0,5.377077E2,3.3931674E2,3.0835205E2,1.2846093E0,1.0087249E0,1.3150173E0,5.353585E2,2.3491566E0,7.0934105E1,2.6838263E2,1.5199938E0,3.0683206E2,2.7463052E2,2.60728E2,4.3831474E1,2.7102633E1,7.669542E1,1.9168721E2,2.725631E2,2.067398E0,1.0025375E2,1.6047426E2,5.7692275E0,3.8062244E1,1.0693364E1,1.640927E1,1.7770792E1,5.8924625E1,1.762406E2,1.5446609E1],"tree_param":{"num_deleted":"0","num_feature":"90","num_nodes":"35","size_leaf_vector":"1"}},{"base_weights":[-5.509489E-1,-9.771653E-1,-4.182881E-1,-9.878837E-1,7.5055584E-2,-5.3966415E-1,-7.436491E-2,-1.0081255E0,-7.1255165E-1,-7.128153E-2,1.1888714E-1,-5.5936337E-1,6.4284843E-1,-7.9206294E-1,3.515906E-2,-3.036431E-1,-4.8451476E-2,1.0700066E-1,-8.403565E-1,-9.1009396E-1,-4.9660298E-1,1.2268316E0,-4.6254557E-1,-8.513855E-1,2.4551962E-2,5.368024E-1,-1.946698E-2,-1.2827446E-1,-2.948272E-1,-2.966682E-1,-1.296509E-1,4.2106503E-1,-1.6306016E-1,4.2990702E-1,5.0700728E-2,-6.1041866E-3,-2.1768667E-1,-2.841397E-1,-8.046138E-2,3.0889316E-2,-2.0207302E-1],"categories":[],"categories_nodes":[],"categories_segments":[],"categories_sizes":[],"default_left":[0,0,0,0,0,0,0,0,0,0,0,0,0,0,0,0,0,0,0,0,0,0,0,0,0,0,0,0,0,0,0,0,0,0,0,0,0,0,0,0,0],"id":3,"left_children":[1,3,5,7,9,11,13,15,17,-1,-1,19,21,23,25,-1,-1,-1,27,29,31,33,35,37,-1,-1,39,-1,-1,-1,-1,-1,-1,-1,-1,-1,-1,-1,-1,-1,-1],"loss_changes":[5.7132477E1,2.7901154E0,3.2430573E1,6.106415E-1,4.3140024E-1,1.3748993E1,1.6068577E1,5.839691E-1,2.9973888E0,0E0,0E0,1.2004654E1,6.9476533E0,1.4725742E0,1.709211E1,0E0,0E0,0E0,6.3378716E-1,2.7621841E0,4.3764305E1,1.2281008E0,4.671722E-1,1.165842E0,0E0,0E0,1.3973434E1,0E0,0E0,0E0,0E0,0E0,0E0,0E0,0E0,0E0,0E0,0E0,0E0,0E0,0E0],"parents":[2147483647,0,0,1,1,2,2,3,3,4,4,5,5,6,6,7,7,8,8,11,11,12,12,13,13,14,14,18,18,19,19,20,20,21,21,22,22,23,23,26,26],"right_children":[2,4,6,8,10,12,14,16,18,-1,-1,20,22,24,26,-1,-1,-1,28,30,32,34,36,38,-1,-1,40,-1,-1,-1,-1,-1,-1,-1,-1,-1,-1,-1,-1,-1,-1],"split_conditions":[1E0,1.8E1,1E0,1E0,4.2718807E-1,5.8275E2,1E0,2.163368E4,-6.655602E-1,-7.128153E-2,1.1888714E-1,1E0,1E0,4.1828367E-1,1E0,-3.036431E-1,-4.8451476E-2,1.0700066E-1,1E0,1E0,1E0,1E0,3E1,1E0,2.4551962E-2,5.368024E-1,4.9375E0,-1.2827446E-1,-2.948272E-1,-2.966682E-1,-1.296509E-1,4.2106503E-1,-1.6306016E-1,4.2990702E-1,5.0700728E-2,-6.1041866E-3,-2.1768667E-1,-2.841397E-1,-8.046138E-2,3.0889316E-2,-2.0207302E-1],"split_indices":[15,48,25,55,49,47,14,37,50,0,0,14,23,49,29,0,0,0,17,21,29,69,48,67,0,0,23,0,0,0,0,0,0,0,0,0,0,0,0,0,0],"split_type":[0,0,0,0,0,0,0,0,0,0,0,0,0,0,0,0,0,0,0,0,0,0,0,0,0,0,0,0,0,0,0,0,0,0,0,0,0,0,0,0,0],"sum_hessian":[1.0166683E3,2.3981575E2,7.7685254E2,2.3745804E2,2.3577065E0,5.7378534E2,2.0306718E2,2.187169E2,1.8741144E1,1.3267286E0,1.030978E0,5.6490173E2,8.88362E0,2.6060944E1,1.7700624E2,2.1748918E2,1.2277138E0,1.8097743E0,1.693137E1,8.369259E1,4.8120917E2,5.740851E0,3.1427689E0,2.442845E1,1.6324929E0,4.386554E0,1.7261969E2,5.3695116E0,1.1561859E1,7.092874E1,1.2763847E1,1.0901928E1,4.7030722E2,4.5075564E0,1.2332947E0,1.5741562E0,1.5686128E0,2.0447323E1,3.981126E0,1.4611378E2,2.6505896E1],"tree_param":{"num_deleted":"0","num_feature":"90","num_nodes":"41","size_leaf_vector":"1"}},{"base_weights":[-4.6652916E-1,-9.362978E-1,-3.403164E-1,-9.496394E-1,6.3904315E-2,-5.1754177E-1,-9.779346E-2,-9.750044E-1,-6.3720566E-1,1.0100642E-1,-6.5353915E-2,-9.060868E-1,-4.4712585E-1,6.185487E-1,-4.248578E-1,-2.9403096E-1,-4.1475363E-2,-1.540345E-1,-2.836764E-1,-9.518617E-1,2.54557E-1,-4.8348168E-1,1.4428508E0,8.5902876E-1,2.708785E-1,-2.7983615E-1,-6.844813E-1,-1.5994333E-1,1.8168987E-1,-2.9375517E-1,-1.44762E-1,1.2989844E-1,-1.4872898E-2,-1.5025198E-1,3.3051074E-1,1.407843E-1,5.523539E-1,-5.998749E-2,2.8822583E-1,-2.4571238E-2,2.1847945E-1,-9.661168E-2,6.785005E-1,-2.2306477E-1,2.2107087E-2],"categories":[],"categories_nodes":[],"categories_segments":[],"categories_sizes":[],"default_left":[0,0,0,0,0,0,0,0,0,0,0,0,0,0,0,0,0,0,0,0,0,0,0,0,0,0,0,0,0,0,0,0,0,0,0,0,0,0,0,0,0,0,0,0,0],"id":4,"left_children":[1,3,5,7,9,11,13,15,17,-1,-1,19,21,23,25,-1,-1,27,-1,29,31,33,35,37,39,41,43,-1,-1,-1,-1,-1,-1,-1,-1,-1,-1,-1,-1,-1,-1,-1,-1,-1,-1],"loss_changes":[5.186992E1,2.540512E0,2.9837631E1,8.3255005E-1,3.3336467E-1,1.0581032E1,6.9339584E1,5.8036804E-1,2.3369393E0,0E0,0E0,3.4636154E0,2.4190903E1,7.52824E0,7.4519615E0,0E0,0E0,2.536376E0,0E0,2.7820206E-1,1.8913357E-1,9.802879E0,1.7357502E0,6.0534935E0,6.41951E0,1.488044E1,3.282135E0,0E0,0E0,0E0,0E0,0E0,0E0,0E0,0E0,0E0,0E0,0E0,0E0,0E0,0E0,0E0,0E0,0E0,0E0],"parents":[2147483647,0,0,1,1,2,2,3,3,4,4,5,5,6,6,7,7,8,8,11,11,12,12,13,13,14,14,17,17,19,19,20,20,21,21,22,22,23,23,24,24,25,25,26,26],"right_children":[2,4,6,8,10,12,14,16,18,-1,-1,20,22,24,26,-1,-1,28,-1,30,32,34,36,38,40,42,44,-1,-1,-1,-1,-1,-1,-1,-1,-1,-1,-1,-1,-1,-1,-1,-1,-1,-1],"split_conditions":[1E0,1.8E1,1.25E-1,1E0,7.7771E2,1E0,1.0625E0,2.163368E4,1E0,1.0100642E-1,-6.5353915E-2,2.5E0,1E0,1E0,1E0,-2.9403096E-1,-4.1475363E-2,2.7892998E-1,-2.836764E-1,8.912863E-1,-3.4140912E-1,1E0,-4.4868603E-1,1E0,3.2863072E-1,2.1E1,2.8E1,-1.5994333E-1,1.8168987E-1,-2.9375517E-1,-1.44762E-1,1.2989844E-1,-1.4872898E-2,-1.5025198E-1,3.3051074E-1,1.407843E-1,5.523539E-1,-5.998749E-2,2.8822583E-1,-2.4571238E-2,2.1847945E-1,-9.661168E-2,6.785005E-1,-2.2306477E-1,2.2107087E-2],"split_indices":[15,48,23,55,47,14,23,37,17,0,0,25,54,73,10,0,0,49,0,50,49,16,50,14,50,36,40,0,0,0,0,0,0,0,0,0,0,0,0,0,0,0,0,0,0],"split_type":[0,0,0,0,0,0,0,0,0,0,0,0,0,0,0,0,0,0,0,0,0,0,0,0,0,0,0,0,0,0,0,0,0,0,0,0,0,0,0,0,0,0,0,0,0],"sum_hessian":[8.792134E2,1.8483437E2,6.94379E2,1.8245123E2,2.3831453E0,4.0054437E2,2.9383463E2,1.6678969E2,1.5661534E1,1.1117713E0,1.271374E0,5.9632595E1,3.4091177E2,9.182552E1,2.0200911E2,1.6560922E2,1.1804681E0,6.685785E0,8.975749E0,5.7543026E1,2.0895655E0,3.3520786E2,5.7039104E0,5.3410908E1,3.8414616E1,1.309438E2,7.1065315E1,4.658941E0,2.0268443E0,5.335076E1,4.1922655E0,1.0498867E0,1.0396788E0,3.3225363E2,2.9542303E0,2.288537E0,3.415373E0,4.5962644E0,4.881464E1,2.2150692E1,1.6263924E1,1.2966397E2,1.2798375E0,6.59468E1,5.1185164E0],"tree_param":{"num_deleted":"0","num_feature":"90","num_nodes":"45","size_leaf_vector":"1"}},{"base_weights":[-3.8918322E-1,-8.9332724E-1,-2.7352288E-1,-9.42521E-1,-4.45647E-1,-1.5053959E-1,-5.5068386E-1,-9.5543915E-1,-3.7361726E-1,3.9905462E-2,-8.3353794E-1,-4.1853803E-1,3.083697E-2,-6.144796E-1,1.735805E-2,-9.6229035E-1,-1.0129183E-1,1.053817E-1,-2.2069183E-1,-3.3162966E-1,3.3640495E-1,-2.757589E-1,-3.7737735E-2,-4.5491508E-1,6.6358876E-1,-3.226772E-2,6.4085895E-1,-6.590193E-1,1.15073E-1,1.3642094E0,-2.266471E-1,-2.9077592E-1,-1.0976296E-1,1.1014097E-1,-1.9542144E-1,-1.4654553E-1,1.6174315E-1,3.1477055E-1,-1.06301896E-1,-1.966841E-2,3.8680893E-1,2.2783357E-1,-2.0030025E-1,1.03444956E-1,-2.0747705E-1,-5.5584315E-2,2.4613784E-1,7.987537E-2,5.718667E-1,-1.2378291E-1,2.291479E-1],"categories":[],"categories_nodes":[],"categories_segments":[],"categories_sizes":[],"default_left":[0,0,0,0,0,0,0,0,0,0,0,0,0,0,0,0,0,0,0,0,0,0,0,0,0,0,0,0,0,0,0,0,0,0,0,0,0,0,0,0,0,0,0,0,0,0,0,0,0,0,0],"id":5,"left_children":[1,3,5,7,9,11,13,15,17,19,21,23,25,27,29,31,-1,-1,-1,33,-1,-1,-1,35,37,39,41,43,45,47,49,-1,-1,-1,-1,-1,-1,-1,-1,-1,-1,-1,-1,-1,-1,-1,-1,-1,-1,-1,-1],"loss_changes":[4.493618E1,2.754593E0,2.1448997E1,5.909424E-1,3.078495E0,2.134812E1,7.032711E0,2.0619202E-1,1.4408785E0,3.6403615E0,4.320488E-1,7.278244E0,1.0133131E1,5.737419E0,7.058588E0,1.5847015E-1,0E0,0E0,0E0,1.7644979E0,0E0,0E0,0E0,6.0049057E0,2.7941132E0,1.06018E1,4.335972E0,5.6123047E0,2.4563615E0,1.4518538E0,3.6757164E0,0E0,0E0,0E0,0E0,0E0,0E0,0E0,0E0,0E0,0E0,0E0,0E0,0E0,0E0,0E0,0E0,0E0,0E0,0E0,0E0],"parents":[2147483647,0,0,1,1,2,2,3,3,4,4,5,5,6,6,7,7,8,8,9,9,10,10,11,11,12,12,13,13,14,14,15,15,19,19,23,23,24,24,25,25,26,26,27,27,28,28,29,29,30,30],"right_children":[2,4,6,8,10,12,14,16,18,20,22,24,26,28,30,32,-1,-1,-1,34,-1,-1,-1,36,38,40,42,44,46,48,50,-1,-1,-1,-1,-1,-1,-1,-1,-1,-1,-1,-1,-1,-1,-1,-1,-1,-1,-1,-1],"split_conditions":[1E0,1E0,1E0,2.9074075E0,1E0,0E0,1E0,1.5622009E0,1.5131398E-1,1.09820195E-1,9.095436E-1,5E1,1E0,1E0,-2.439834E-1,1E0,-1.0129183E-1,1.053817E-1,-2.2069183E-1,-6.655602E-1,3.3640495E-1,-2.757589E-1,-3.7737735E-2,1E0,4.5E1,2.2E1,5.4375E0,1E0,2E0,1E0,2.3E1,-2.9077592E-1,-1.0976296E-1,1.1014097E-1,-1.9542144E-1,-1.4654553E-1,1.6174315E-1,3.1477055E-1,-1.06301896E-1,-1.966841E-2,3.8680893E-1,2.2783357E-1,-2.0030025E-1,1.03444956E-1,-2.0747705E-1,-5.5584315E-2,2.4613784E-1,7.987537E-2,5.718667E-1,-1.2378291E-1,2.291479E-1],"split_indices":[15,55,10,83,17,25,20,49,50,50,50,47,24,6,50,70,0,0,0,50,0,0,0,46,48,36,23,11,25,13,40,0,0,0,0,0,0,0,0,0,0,0,0,0,0,0,0,0,0,0,0],"split_type":[0,0,0,0,0,0,0,0,0,0,0,0,0,0,0,0,0,0,0,0,0,0,0,0,0,0,0,0,0,0,0,0,0,0,0,0,0,0,0,0,0,0,0,0,0,0,0,0,0,0,0],"sum_hessian":[7.738402E2,1.4314993E2,6.306903E2,1.27981255E2,1.5168682E1,4.3791815E2,1.9277214E2,1.2447534E2,3.505913E0,7.134726E0,8.033956E0,1.762246E2,2.6169354E2,1.7323471E2,1.9537434E1,1.2255859E2,1.9167532E0,1.1776189E0,2.328294E0,5.8263893E0,1.308337E0,6.9000745E0,1.1338812E0,1.71054E2,5.1705847E0,2.3801846E2,2.3675093E1,1.6335826E2,9.876449E0,2.2924945E0,1.7244938E1,1.20526405E2,2.032183E0,1.7827188E0,4.0436707E0,1.6595808E2,5.095919E0,3.7276094E0,1.4429755E0,2.3309683E2,4.921627E0,2.2092554E1,1.5825377E0,4.8325405E0,1.5852571E2,7.4440856E0,2.432363E0,1.2505256E0,1.0419691E0,1.501018E1,2.2347584E0],"tree_param":{"num_deleted":"0","num_feature":"90","num_nodes":"51","size_leaf_vector":"1"}},{"base_weights":[-3.1538066E-1,-7.898566E-1,-1.9042853E-1,-8.083796E-1,2.468508E-1,1.1704125E0,-2.3099685E-1,-8.9226496E-1,-3.7718523E-1,1.2482234E0,7.9264306E-2,1.7907219E-1,-3.1036478E-1,-2.9106358E-1,-6.807622E-1,-1.9334571E-1,-2.7505E-1,1.3738805E0,8.3622195E-2,2.3701625E-2,1.3755243E0,-4.2281705E-1,-3.707494E-2,-2.3714015E-1,6.730884E-2,1.1817443E-2,-1.6717534E-1,1.6429226E-1,4.4276324E-1,-1.2916204E-1,7.786615E-2,1.2859121E-1,5.489939E-1,-1.3308945E-1,2.8409457E-1,-2.2616077E-2,4.275321E-1],"categories":[],"categories_nodes":[],"categories_segments":[],"categories_sizes":[],"default_left":[0,0,0,0,0,0,0,0,0,0,0,0,0,0,0,0,0,0,0,0,0,0,0,0,0,0,0,0,0,0,0,0,0,0,0,0,0],"id":6,"left_children":[1,3,5,7,-1,9,11,13,15,17,-1,19,21,-1,23,25,-1,27,-1,29,31,33,35,-1,-1,-1,-1,-1,-1,-1,-1,-1,-1,-1,-1,-1,-1],"loss_changes":[4.1306557E1,5.0098877E0,3.0900126E1,4.8828278E0,0E0,8.143177E-1,1.7617275E1,1.3189087E0,2.3260143E0,1.4046936E0,0E0,1.6351128E1,1.3889221E1,0E0,3.720728E0,1.7232993E0,0E0,2.6505852E-1,0E0,8.577778E0,3.5670567E0,9.556896E0,7.5577965E0,0E0,0E0,0E0,0E0,0E0,0E0,0E0,0E0,0E0,0E0,0E0,0E0,0E0,0E0],"parents":[2147483647,0,0,1,1,2,2,3,3,5,5,6,6,7,7,8,8,9,9,11,11,12,12,14,14,15,15,17,17,19,19,20,20,21,21,22,22],"right_children":[2,4,6,8,-1,10,12,14,16,18,-1,20,22,-1,24,26,-1,28,-1,30,32,34,36,-1,-1,-1,-1,-1,-1,-1,-1,-1,-1,-1,-1,-1,-1],"split_conditions":[1E0,3.6E1,1E0,1E0,2.468508E-1,1E0,-5.506623E-1,1E0,1E0,2E0,7.9264306E-2,1E0,1E0,-2.9106358E-1,1E0,8.75E-1,-2.7505E-1,-7.720847E-1,8.3622195E-2,-7.720847E-1,0E0,1E0,1.9843895E1,-2.3714015E-1,6.730884E-2,1.1817443E-2,-1.6717534E-1,1.6429226E-1,4.4276324E-1,-1.2916204E-1,7.786615E-2,1.2859121E-1,5.489939E-1,-1.3308945E-1,2.8409457E-1,-2.2616077E-2,4.275321E-1],"split_indices":[14,40,29,55,0,69,49,28,25,33,0,55,25,0,29,23,0,49,0,49,25,16,89,0,0,0,0,0,0,0,0,0,0,0,0,0,0],"split_type":[0,0,0,0,0,0,0,0,0,0,0,0,0,0,0,0,0,0,0,0,0,0,0,0,0,0,0,0,0,0,0,0,0,0,0,0,0],"sum_hessian":[6.9826135E2,1.4444493E2,5.538164E2,1.4329779E2,1.147145E0,1.5225781E1,5.3859064E2,1.19065315E2,2.423248E1,1.3674212E1,1.5515689E0,8.713506E1,4.514556E2,8.438059E1,3.468472E1,1.9088102E1,5.1443768E0,1.1735958E1,1.938254E0,7.802287E1,9.112194E0,3.1945874E2,1.3199684E2,3.104822E1,3.6365004E0,1.21861515E1,6.90195E0,1.9894379E0,9.74652E0,2.638362E1,5.163925E1,3.5852606E0,5.5269337E0,3.1534317E2,4.1155787E0,1.295508E2,2.446038E0],"tree_param":{"num_deleted":"0","num_feature":"90","num_nodes":"37","size_leaf_vector":"1"}},{"base_weights":[-2.5158942E-1,-8.03241E-1,-1.5698329E-1,-8.7364966E-1,-3.2942894E-1,-6.4376503E-1,-1.00656174E-1,-8.9314115E-1,-2.6115686E-1,8.2649186E-2,-7.502065E-1,-7.681594E-1,-1.7974453E-1,9.018319E-1,-1.3198735E-1,-9.036492E-1,-6.409897E-2,1.4092383E-1,-2.0414965E-1,-3.207678E-1,4.005473E-1,-3.3768248E-2,-2.574575E-1,-8.21458E-1,2.951247E-2,3.947453E-1,-7.5236434E-1,9.887892E-2,1.0656217E0,-2.7578354E-2,-3.8945925E-1,-2.7435312E-1,-6.7748144E-2,8.030614E-2,-1.8627901E-1,-2.5834453E-1,9.7500145E-2,2.6241195E-1,-1.9582248E-1,-3.1437255E-2,4.4667035E-1,-2.595852E-1,-2.844912E-2,2.4129605E-1,-1.7896375E-1,2.080896E-1,4.0472788E-1,-3.771219E-2,1.7791027E-1,-1.3001229E-1,2.4324983E-1],"categories":[],"categories_nodes":[],"categories_segments":[],"categories_sizes":[],"default_left":[0,0,0,0,0,0,0,0,0,0,0,0,0,0,0,0,0,0,0,0,0,0,0,0,0,0,0,0,0,0,0,0,0,0,0,0,0,0,0,0,0,0,0,0,0,0,0,0,0,0,0],"id":7,"left_children":[1,3,5,7,9,11,13,15,17,19,21,23,25,27,29,31,-1,-1,-1,33,-1,-1,-1,35,37,39,41,43,45,47,49,-1,-1,-1,-1,-1,-1,-1,-1,-1,-1,-1,-1,-1,-1,-1,-1,-1,-1,-1,-1],"loss_changes":[3.315919E1,2.8187714E0,1.4896503E1,7.27417E-1,2.4293308E0,3.117756E0,1.5517305E1,3.6079788E-1,1.5134802E0,4.3687453E0,3.7536955E-1,1.9023628E0,4.6491833E0,1.8654261E0,1.2792351E1,3.5359573E-1,0E0,0E0,0E0,1.3505224E0,0E0,0E0,0E0,2.1657028E0,2.7230632E0,4.124171E0,4.3544936E-1,2.266093E0,3.658924E-1,2.0776253E1,7.590393E0,0E0,0E0,0E0,0E0,0E0,0E0,0E0,0E0,0E0,0E0,0E0,0E0,0E0,0E0,0E0,0E0,0E0,0E0,0E0,0E0],"parents":[2147483647,0,0,1,1,2,2,3,3,4,4,5,5,6,6,7,7,8,8,9,9,10,10,11,11,12,12,13,13,14,14,15,15,19,19,23,23,24,24,25,25,26,26,27,27,28,28,29,29,30,30],"right_children":[2,4,6,8,10,12,14,16,18,20,22,24,26,28,30,32,-1,-1,-1,34,-1,-1,-1,36,38,40,42,44,46,48,50,-1,-1,-1,-1,-1,-1,-1,-1,-1,-1,-1,-1,-1,-1,-1,-1,-1,-1,-1,-1],"split_conditions":[1E0,1E0,1E0,2.9074075E0,1E0,1E0,1E0,1.5622009E0,4.0256314E0,2.7773166E-1,-4.5865023E-1,2.5E0,1E0,0E0,1E0,1E0,-6.409897E-2,1.4092383E-1,-2.0414965E-1,-6.655602E-1,4.005473E-1,-3.3768248E-2,-2.574575E-1,1.4E1,3.5E0,1E0,2.197158E-1,1E0,3.125E-1,1E0,6.524058E5,-2.7435312E-1,-6.7748144E-2,8.030614E-2,-1.8627901E-1,-2.5834453E-1,9.7500145E-2,2.6241195E-1,-1.9582248E-1,-3.1437255E-2,4.4667035E-1,-2.595852E-1,-2.844912E-2,2.4129605E-1,-1.7896375E-1,2.080896E-1,4.0472788E-1,-3.771219E-2,1.7791027E-1,-1.3001229E-1,2.4324983E-1],"split_indices":[15,55,14,83,17,21,29,49,77,50,49,25,23,25,10,70,0,0,0,50,0,0,0,24,25,51,49,51,23,11,82,0,0,0,0,0,0,0,0,0,0,0,0,0,0,0,0,0,0,0,0],"split_type":[0,0,0,0,0,0,0,0,0,0,0,0,0,0,0,0,0,0,0,0,0,0,0,0,0,0,0,0,0,0,0,0,0,0,0,0,0,0,0,0,0,0,0,0,0,0,0,0,0,0,0],"sum_hessian":[6.367758E2,9.212156E1,5.4465424E2,7.946862E1,1.265294E1,5.540576E1,4.892485E2,7.657359E1,2.8950248E0,6.7985377E0,5.8544016E0,4.317578E1,1.2229981E1,1.3985254E1,4.7526324E2,7.5082535E1,1.4910591E0,1.0116117E0,1.8834131E0,5.704947E0,1.093591E0,1.1436417E0,4.71076E0,4.0443615E1,2.7321675E0,6.2600856E0,5.9698963E0,2.6411483E0,1.1344106E1,3.3892914E2,1.3633409E2,7.355473E1,1.5278044E0,1.9635954E0,3.7413516E0,3.933084E1,1.1127733E0,1.0943612E0,1.6378063E0,4.9186883E0,1.3413972E0,4.825287E0,1.1446096E0,1.2333974E0,1.4077508E0,6.3967643E0,4.9473414E0,2.9334412E2,4.5585037E1,1.3213849E2,4.1956034E0],"tree_param":{"num_deleted":"0","num_feature":"90","num_nodes":"51","size_leaf_vector":"1"}},{"base_weights":[-1.984035E-1,-7.452419E-1,-1.1940912E-1,-8.276915E-1,-2.721346E-1,-2.6137447E-1,3.7439167E-2,-8.5128486E-1,-2.2081597E-1,7.8475595E-2,-6.922155E-1,-3.2103032E-1,4.0651628E-1,3.7088463E-1,-2.2169255E-1,-8.6409855E-1,-5.4867286E-2,1.4058489E-1,-1.9659075E-1,-3.5801956E-1,8.3462954E-1,-2.4517106E-1,-2.0691603E-2,-5.8479136E-1,-1.8939503E-1,6.6731656E-1,-5.1992416E-1,4.9849513E-1,-5.9002034E-2,-6.0333174E-1,-9.701271E-2,-2.6323506E-1,-5.8029465E-2,1.05504416E-1,-1.8537518E-1,-3.510999E-2,4.2867184E-1,3.5124913E-1,-1.8644515E-1,-8.040605E-2,9.560758E-2,-2.0274406E-3,3.301684E-1,-5.6249764E-2,-2.1627033E-1,2.1411437E-1,5.1807486E-2,1.1652232E-1,-1.1157501E-1,-5.690695E-2,-2.536514E-1,-4.478176E-2,1.7870307E-1],"categories":[],"categories_nodes":[],"categories_segments":[],"categories_sizes":[],"default_left":[0,0,0,0,0,0,0,0,0,0,0,0,0,0,0,0,0,0,0,0,0,0,0,0,0,0,0,0,0,0,0,0,0,0,0,0,0,0,0,0,0,0,0,0,0,0,0,0,0,0,0,0,0],"id":8,"left_children":[1,3,5,7,9,11,13,15,17,19,21,23,25,27,29,31,-1,-1,-1,33,35,-1,-1,37,39,41,43,45,47,49,51,-1,-1,-1,-1,-1,-1,-1,-1,-1,-1,-1,-1,-1,-1,-1,-1,-1,-1,-1,-1,-1,-1],"loss_changes":[2.5503607E1,2.6843758E0,1.1563456E1,7.145233E-1,1.9041941E0,1.0987137E1,2.145807E1,3.5860062E-1,1.418111E0,2.8548365E0,3.9678335E-1,8.593536E0,5.8518353E0,5.9845715E0,6.595048E0,3.5786438E-1,0E0,0E0,0E0,1.2520192E0,1.9399278E0,0E0,0E0,6.0732727E0,6.8252892E0,5.327423E0,2.3675668E-1,5.7536697E0,3.7484276E0,3.269702E0,3.9474661E0,0E0,0E0,0E0,0E0,0E0,0E0,0E0,0E0,0E0,0E0,0E0,0E0,0E0,0E0,0E0,0E0,0E0,0E0,0E0,0E0,0E0,0E0],"parents":[2147483647,0,0,1,1,2,2,3,3,4,4,5,5,6,6,7,7,8,8,9,9,10,10,11,11,12,12,13,13,14,14,15,15,19,19,20,20,23,23,24,24,25,25,26,26,27,27,28,28,29,29,30,30],"right_children":[2,4,6,8,10,12,14,16,18,20,22,24,26,28,30,32,-1,-1,-1,34,36,-1,-1,38,40,42,44,46,48,50,52,-1,-1,-1,-1,-1,-1,-1,-1,-1,-1,-1,-1,-1,-1,-1,-1,-1,-1,-1,-1,-1,-1],"split_conditions":[1E0,1E0,1.25E-1,2.9074075E0,1E0,1E0,1.75E0,1.5622009E0,8.7077504E-1,4.9040923E-1,1E0,1E0,6.943292E-1,1E0,1E0,1E0,-5.4867286E-2,1.4058489E-1,-1.9659075E-1,-7.612511E-1,-4.7939143E-1,-2.4517106E-1,-2.0691603E-2,-7.0456433E-1,1E0,0E0,1E0,1E0,5E-1,-3.4140912E-1,9.617791E0,-2.6323506E-1,-5.8029465E-2,1.05504416E-1,-1.8537518E-1,-3.510999E-2,4.2867184E-1,3.5124913E-1,-1.8644515E-1,-8.040605E-2,9.560758E-2,-2.0274406E-3,3.301684E-1,-5.6249764E-2,-2.1627033E-1,2.1411437E-1,5.1807486E-2,1.1652232E-1,-1.1157501E-1,-5.690695E-2,-2.536514E-1,-4.478176E-2,1.7870307E-1],"split_indices":[15,55,23,83,17,20,23,49,49,49,21,18,50,48,51,70,0,0,0,49,50,0,0,50,69,25,11,73,23,49,77,0,0,0,0,0,0,0,0,0,0,0,0,0,0,0,0,0,0,0,0,0,0],"split_type":[0,0,0,0,0,0,0,0,0,0,0,0,0,0,0,0,0,0,0,0,0,0,0,0,0,0,0,0,0,0,0,0,0,0,0,0,0,0,0,0,0,0,0,0,0,0,0,0,0,0,0,0,0],"sum_hessian":[5.914602E2,7.35912E1,5.17869E2,6.2031357E1,1.1559843E1,2.7148138E2,2.4638763E2,5.932236E1,2.7089949E0,6.7441735E0,4.815669E0,2.4969778E2,2.1783606E1,1.0755577E2,1.3883186E2,5.79192E1,1.4031601E0,1.0168813E0,1.6921135E0,4.609711E0,2.1344624E0,3.7518017E0,1.0638677E0,8.198327E1,1.6771451E2,1.7216675E1,4.5669312E0,8.281331E1,2.4742464E1,3.3241653E1,1.0559021E2,5.648635E1,1.4328502E0,1.140956E0,3.468755E0,1.1292189E0,1.0052433E0,1.045592E0,8.0937675E1,1.4564832E2,2.20662E1,7.121269E0,1.0095405E1,2.4490426E0,2.1178885E0,4.9153107E1,3.3660202E1,1.0083573E1,1.4658892E1,1.2933669E1,2.0307985E1,9.891229E1,6.677914E0],"tree_param":{"num_deleted":"0","num_feature":"90","num_nodes":"53","size_leaf_vector":"1"}},{"base_weights":[-1.568673E-1,-5.9890836E-1,-7.964376E-2,-6.281247E-1,2.546354E-1,8.3982617E-1,-1.07383795E-1,-7.512562E-1,-2.2812101E-1,9.305586E-1,4.4950265E-2,-1.1981169E-1,5.9802294E-1,-8.9487445E-1,-4.4310087E-1,-5.7988025E-2,-2.5085798E-1,2.4187326E-1,1.0676775E0,-1.3266543E-1,1.5342886E0,-1.3442087E-1,-2.8046927E-1,-1.7979817E-1,1.0830645E-1,-1.1457406E-1,7.292104E-2,-1.1083225E-1,2.2453351E-1,3.4137642E-1,8.2088E-2,-2.9972611E-2,-2.2126818E-1,6.888881E-1,5.483566E-2],"categories":[],"categories_nodes":[],"categories_segments":[],"categories_sizes":[],"default_left":[0,0,0,0,0,0,0,0,0,0,0,0,0,0,0,0,0,0,0,0,0,0,0,0,0,0,0,0,0,0,0,0,0,0,0],"id":9,"left_children":[1,3,5,7,-1,9,11,13,15,17,-1,19,-1,21,23,25,-1,27,29,31,33,-1,-1,-1,-1,-1,-1,-1,-1,-1,-1,-1,-1,-1,-1],"loss_changes":[1.9109467E1,4.0567245E0,1.2304935E1,3.8788834E0,0E0,7.4569416E-1,1.2399012E1,2.3669624E0,2.1024656E0,9.0357876E-1,0E0,1.0067989E1,0E0,3.2521057E-1,2.958897E0,1.7819434E0,0E0,1.3095077E0,2.4459553E-1,9.066757E0,3.346591E0,0E0,0E0,0E0,0E0,0E0,0E0,0E0,0E0,0E0,0E0,0E0,0E0,0E0,0E0],"parents":[2147483647,0,0,1,1,2,2,3,3,5,5,6,6,7,7,8,8,9,9,11,11,13,13,14,14,15,15,17,17,18,18,19,19,20,20],"right_children":[2,4,6,8,-1,10,12,14,16,18,-1,20,-1,22,24,26,-1,28,30,32,34,-1,-1,-1,-1,-1,-1,-1,-1,-1,-1,-1,-1,-1,-1],"split_conditions":[1E0,8.85E1,1E0,1E0,2.546354E-1,1E0,1E0,1E0,1E0,-7.720847E-1,4.4950265E-2,1E0,5.9802294E-1,-6.603043E-1,1E0,-2.5449518E-2,-2.5085798E-1,1.25E-1,1E0,1E0,-3.4838423E-1,-1.3442087E-1,-2.8046927E-1,-1.7979817E-1,1.0830645E-1,-1.1457406E-1,7.292104E-2,-1.1083225E-1,2.2453351E-1,3.4137642E-1,8.2088E-2,-2.9972611E-2,-2.2126818E-1,6.888881E-1,5.483566E-2],"split_indices":[14,37,29,55,0,30,60,28,25,49,0,7,0,50,29,50,0,23,69,52,49,0,0,0,0,0,0,0,0,0,0,0,0,0,0],"split_type":[0,0,0,0,0,0,0,0,0,0,0,0,0,0,0,0,0,0,0,0,0,0,0,0,0,0,0,0,0,0,0,0,0,0,0],"sum_hessian":[5.602017E2,8.2306915E1,4.7789478E2,8.1233635E1,1.0732821E0,1.3138303E1,4.6475647E2,6.144205E1,1.9791584E1,1.1303292E1,1.8350099E0,4.6296066E2,1.7958188E0,4.0611004E1,2.0831045E1,1.6320597E1,3.4709883E0,2.3357668E0,8.9675255E0,4.6030353E2,2.6571465E0,4.3413033E0,3.6269703E1,1.7655571E1,3.175474E0,7.7323513E0,8.588245E0,1.1811264E0,1.1546404E0,7.840845E0,1.1266806E0,4.3776263E2,2.2540878E1,1.2521132E0,1.4050333E0],"tree_param":{"num_deleted":"0","num_feature":"90","num_nodes":"35","size_leaf_vector":"1"}},{"base_weights":[-1.17866315E-1,-6.3199764E-1,-6.100689E-2,-7.334753E-1,-1.9358774E-1,-2.3789685E-2,-5.03009E-1,-7.6472366E-1,-1.5285127E-1,1.2436858E-1,-6.2830824E-1,-1.950773E-1,7.029499E-2,-6.081674E-1,-1.4599481E-2,-7.822121E-1,-3.3885874E-2,1.3717994E-1,-1.808036E-1,-3.5607868E-1,5.978114E-1,-2.2980316E-1,-1.7429065E-2,-3.466471E-1,6.960358E-2,1.5119916E-1,-2.9768732E-1,-6.8459E-1,1.2381504E-1,3.9192998E-1,-7.0426303E-1,-2.403049E-1,-3.0358573E-2,1.0475379E-1,-2.1712469E-1,-8.629871E-3,3.4541175E-1,-1.8602206E-1,-6.419121E-2,3.124101E-1,-1.7905187E-2,3.8317844E-2,4.2623243E-1,-1.1506857E-1,1.3639764E-1,-2.643004E-1,-8.797514E-2,-2.4626279E-1,-5.3357262E-2],"categories":[],"categories_nodes":[],"categories_segments":[],"categories_sizes":[],"default_left":[0,0,0,0,0,0,0,0,0,0,0,0,0,0,0,0,0,0,0,0,0,0,0,0,0,0,0,0,0,0,0,0,0,0,0,0,0,0,0,0,0,0,0,0,0,0,0,0,0],"id":10,"left_children":[1,3,5,7,9,11,13,15,17,19,21,23,25,27,29,31,-1,-1,-1,33,35,-1,-1,37,39,41,43,45,-1,-1,47,-1,-1,-1,-1,-1,-1,-1,-1,-1,-1,-1,-1,-1,-1,-1,-1,-1,-1],"loss_changes":[1.5585983E1,2.2211113E0,7.9229336E0,6.591873E-1,1.6459167E0,7.2004485E0,1.9125977E0,3.7145996E-1,1.218118E0,1.8928661E0,3.4469163E-1,6.3776174E0,8.636388E0,2.6823225E0,7.8920803E0,4.198742E-1,0E0,0E0,0E0,1.365767E0,1.4528744E0,0E0,0E0,3.5266352E0,7.412008E0,6.8881917E0,3.556479E0,1.9701452E0,0E0,0E0,2.0251799E-1,0E0,0E0,0E0,0E0,0E0,0E0,0E0,0E0,0E0,0E0,0E0,0E0,0E0,0E0,0E0,0E0,0E0,0E0],"parents":[2147483647,0,0,1,1,2,2,3,3,4,4,5,5,6,6,7,7,8,8,9,9,10,10,11,11,12,12,13,13,14,14,15,15,19,19,20,20,23,23,24,24,25,25,26,26,27,27,30,30],"right_children":[2,4,6,8,10,12,14,16,18,20,22,24,26,28,30,32,-1,-1,-1,34,36,-1,-1,38,40,42,44,46,-1,-1,48,-1,-1,-1,-1,-1,-1,-1,-1,-1,-1,-1,-1,-1,-1,-1,-1,-1,-1],"split_conditions":[1E0,1E0,1E0,2.9074075E0,1E0,0E0,1E0,1.5622009E0,3.8666666E0,2.8531146E-1,1E0,1.875E-1,3.3125E0,7.375E0,-3.0290458E-1,1E0,-3.3885874E-2,1.3717994E-1,-1.808036E-1,-7.612511E-1,2.6915628E-1,-2.2980316E-1,-1.7429065E-2,1E0,3.75E-1,9.4E1,9.617791E0,1.3130435E0,1.2381504E-1,3.9192998E-1,7.427386E-1,-2.403049E-1,-3.0358573E-2,1.0475379E-1,-2.1712469E-1,-8.629871E-3,3.4541175E-1,-1.8602206E-1,-6.419121E-2,3.124101E-1,-1.7905187E-2,3.8317844E-2,4.2623243E-1,-1.1506857E-1,1.3639764E-1,-2.643004E-1,-8.797514E-2,-2.4626279E-1,-5.3357262E-2],"split_indices":[15,55,12,83,17,25,66,49,75,49,21,23,23,23,50,70,0,0,0,49,50,0,0,18,23,46,77,75,0,0,50,0,0,0,0,0,0,0,0,0,0,0,0,0,0,0,0,0,0],"split_type":[0,0,0,0,0,0,0,0,0,0,0,0,0,0,0,0,0,0,0,0,0,0,0,0,0,0,0,0,0,0,0,0,0,0,0,0,0,0,0,0,0,0,0,0,0,0,0,0,0],"sum_hessian":[5.33479E2,5.2116726E1,4.813623E2,4.1774296E1,1.034243E1,4.4495065E2,3.641165E1,3.9340004E1,2.4342916E0,6.3857665E0,3.9566638E0,1.5737152E2,2.875791E2,2.9759087E1,6.652565E0,3.8117107E1,1.222899E0,1.0260644E0,1.4082272E0,3.292475E0,3.0932913E0,2.910433E0,1.0462308E0,9.987075E1,5.750078E1,2.3623079E2,5.1348324E1,2.799297E1,1.7661171E0,1.975068E0,4.677497E0,3.6921425E1,1.195683E0,1.145497E0,2.1469781E0,1.8956418E0,1.1976495E0,3.1428242E1,6.8442505E1,5.9234815E0,5.1577297E1,2.3302306E2,3.2077289E0,4.6527718E1,4.820605E0,1.7805326E1,1.0187644E1,3.3712716E0,1.3062253E0],"tree_param":{"num_deleted":"0","num_feature":"90","num_nodes":"49","size_leaf_vector":"1"}},{"base_weights":[-9.165622E-2,-4.779733E-1,-3.6529753E-2,-5.120485E-1,2.2221746E-1,2.3244089E-1,-1.0237161E-1,-6.424158E-1,-1.9029862E-1,1.2541042E-1,8.247873E-1,-1.175469E-1,8.620646E-1,-8.257188E-1,-3.413714E-1,-4.5963906E-2,-2.3489887E-1,5.9161082E-2,1.4802766E0,1.1476533E0,2.5556093E-1,-1.2986997E-1,9.934277E-1,4.5214072E-1,-1.221517E-1,-1.485235E-1,-2.8724277E-1,-1.3832362E-1,2.0475845E-1,-5.258968E-2,1.4440346E-1,-9.9416584E-2,7.133383E-2,-6.2036915E-3,7.4721694E-1,4.6142626E-1,8.699971E-2,-5.0143044E-2,3.478526E-1,-4.2108055E-3,-8.1659004E-2,4.4294903E-1,-5.5678483E-2],"categories":[],"categories_nodes":[],"categories_segments":[],"categories_sizes":[],"default_left":[0,0,0,0,0,0,0,0,0,0,0,0,0,0,0,0,0,0,0,0,0,0,0,0,0,0,0,0,0,0,0,0,0,0,0,0,0,0,0,0,0,0,0],"id":11,"left_children":[1,3,5,7,-1,9,11,13,15,17,19,21,23,25,27,29,-1,31,33,35,37,39,41,-1,-1,-1,-1,-1,-1,-1,-1,-1,-1,-1,-1,-1,-1,-1,-1,-1,-1,-1,-1],"loss_changes":[1.0994665E1,3.0574017E0,8.056848E0,2.5340652E0,0E0,5.571269E0,5.444688E0,2.1818047E0,1.6476848E0,6.8228784E0,2.1912165E0,5.06198E0,5.3425035E0,7.041645E-1,2.5946324E0,1.2362306E0,0E0,5.2717915E0,5.431665E0,2.3465042E0,2.5548716E0,5.885879E0,2.5912142E0,0E0,0E0,0E0,0E0,0E0,0E0,0E0,0E0,0E0,0E0,0E0,0E0,0E0,0E0,0E0,0E0,0E0,0E0,0E0,0E0],"parents":[2147483647,0,0,1,1,2,2,3,3,5,5,6,6,7,7,8,8,9,9,10,10,11,11,12,12,13,13,14,14,15,15,17,17,18,18,19,19,20,20,21,21,22,22],"right_children":[2,4,6,8,-1,10,12,14,16,18,20,22,24,26,28,30,-1,32,34,36,38,40,42,-1,-1,-1,-1,-1,-1,-1,-1,-1,-1,-1,-1,-1,-1,-1,-1,-1,-1,-1,-1],"split_conditions":[1E0,3.6E1,-5.506623E-1,1E0,2.2221746E-1,1E0,1E0,1E0,1E0,6.5625E0,1E0,4E0,2.3671316E-1,-6.522822E-1,1E0,1.8E1,-2.3489887E-1,-7.720847E-1,1E0,-6.5291435E-1,3.2033196E-1,1E0,2.2275362E0,4.5214072E-1,-1.221517E-1,-1.485235E-1,-2.8724277E-1,-1.3832362E-1,2.0475845E-1,-5.258968E-2,1.4440346E-1,-9.9416584E-2,7.133383E-2,-6.2036915E-3,7.4721694E-1,4.6142626E-1,8.699971E-2,-5.0143044E-2,3.478526E-1,-4.2108055E-3,-8.1659004E-2,4.4294903E-1,-5.5678483E-2],"split_indices":[14,40,49,55,0,55,16,28,25,23,11,35,77,50,27,48,0,49,65,49,50,73,75,0,0,0,0,0,0,0,0,0,0,0,0,0,0,0,0,0,0,0,0],"split_type":[0,0,0,0,0,0,0,0,0,0,0,0,0,0,0,0,0,0,0,0,0,0,0,0,0,0,0,0,0,0,0,0,0,0,0,0,0,0,0,0,0,0,0],"sum_hessian":[5.1609106E2,6.349041E1,4.5260065E2,6.2327553E1,1.1628568E0,8.850765E1,3.64093E2,4.3646236E1,1.8681316E1,7.5989E1,1.2518656E1,3.593173E2,4.7756963E0,2.6044905E1,1.7601334E1,1.5889442E1,2.7918735E0,7.344157E1,2.5474308E0,7.3395114E0,5.1791444E0,3.5624884E2,3.0684521E0,3.0421393E0,1.7335571E0,8.776938E0,1.7267965E1,1.6251055E1,1.3502787E0,1.3295873E1,2.5935702E0,2.2779287E1,5.0662277E1,1.4190521E0,1.1283786E0,4.4983435E0,2.841168E0,4.0843263E0,1.0948184E0,1.9700945E2,1.5923938E2,1.997664E0,1.0707881E0],"tree_param":{"num_deleted":"0","num_feature":"90","num_nodes":"43","size_leaf_vector":"1"}},{"base_weights":[-6.699453E-2,-5.154628E-1,-2.7581299E-2,8.3589554E-2,-5.896425E-1,-3.156663E-3,-6.262435E-1,-3.0496097E-1,2.2824474E-1,-6.3974535E-1,5.7121314E-2,6.3579954E-2,-2.0005243E-1,-8.2751673E-1,3.1324676E-1,-1.9433428E-1,7.3808365E-2,-6.823204E-1,5.893628E-2,4.2309027E-2,8.0823964E-1,1.0019945E0,-2.4659763E-1,-8.753153E-1,-2.9340759E-2,-2.153417E-1,-5.7781592E-2,-6.27515E-3,9.852716E-2,3.6911142E-1,-1.0427459E-1,9.122679E-2,4.336292E-1,1.6822222E-1,-8.713473E-2,-2.7702564E-1,-2.8835366E-2],"categories":[],"categories_nodes":[],"categories_segments":[],"categories_sizes":[],"default_left":[0,0,0,0,0,0,0,0,0,0,0,0,0,0,0,0,0,0,0,0,0,0,0,0,0,0,0,0,0,0,0,0,0,0,0,0,0],"id":12,"left_children":[1,3,5,7,9,11,13,15,-1,17,-1,19,21,23,-1,-1,-1,25,-1,27,29,31,33,35,-1,-1,-1,-1,-1,-1,-1,-1,-1,-1,-1,-1,-1],"loss_changes":[8.851742E0,1.8474264E0,6.755323E0,1.6356921E0,1.533864E0,5.860339E0,6.952801E0,9.344801E-1,0E0,1.3508539E0,0E0,5.242364E0,6.5634794E0,4.9759102E-1,0E0,0E0,0E0,4.3080425E-1,0E0,5.8848085E0,4.9145036E0,9.240117E-1,4.0390835E0,4.9471664E-1,0E0,0E0,0E0,0E0,0E0,0E0,0E0,0E0,0E0,0E0,0E0,0E0,0E0],"parents":[2147483647,0,0,1,1,2,2,3,3,4,4,5,5,6,6,7,7,9,9,11,11,12,12,13,13,17,17,19,19,20,20,21,21,22,22,23,23],"right_children":[2,4,6,8,10,12,14,16,-1,18,-1,20,22,24,-1,-1,-1,26,-1,28,30,32,34,36,-1,-1,-1,-1,-1,-1,-1,-1,-1,-1,-1,-1,-1],"split_conditions":[1E0,-6.603043E-1,1E0,9.876452E-2,1.8E1,1E0,7.324538E0,1E0,2.2824474E-1,1E0,5.7121314E-2,1.935145E1,-6.315353E-1,3.9643E2,3.1324676E-1,-1.9433428E-1,7.3808365E-2,2.9074075E0,5.893628E-2,1E0,2.855786E1,-4.2971098E-1,1E0,5.78143E5,-2.9340759E-2,-2.153417E-1,-5.7781592E-2,-6.27515E-3,9.852716E-2,3.6911142E-1,-1.0427459E-1,9.122679E-2,4.336292E-1,1.6822222E-1,-8.713473E-2,-2.7702564E-1,-2.8835366E-2],"split_indices":[15,50,52,49,48,10,77,55,0,20,0,75,50,37,0,0,0,83,0,11,77,49,11,82,0,0,0,0,0,0,0,0,0,0,0,0,0],"split_type":[0,0,0,0,0,0,0,0,0,0,0,0,0,0,0,0,0,0,0,0,0,0,0,0,0,0,0,0,0,0,0,0,0,0,0,0,0],"sum_hessian":[5.005935E2,3.946442E1,4.611291E2,4.3343887E0,3.513003E1,4.4401898E2,1.7110123E1,3.1034894E0,1.2308993E0,3.3178802E1,1.9512297E0,3.3212448E2,1.1189448E2,1.5720494E1,1.3896278E0,1.804856E0,1.2986336E0,3.1746454E1,1.4323472E0,3.239284E2,8.196078E0,3.4059968E0,1.0848849E2,1.45667925E1,1.1537024E0,2.916721E1,2.5792444E0,2.660607E2,5.7867706E1,5.956231E0,2.2398474E0,1.9782578E0,1.4277391E0,4.9818377E0,1.03506645E2,1.3545479E1,1.0213135E0],"tree_param":{"num_deleted":"0","num_feature":"90","num_nodes":"37","size_leaf_vector":"1"}},{"base_weights":[-5.0494164E-2,-3.7085584E-1,-1.1121748E-2,-4.183692E-1,5.225857E-1,-2.6270453E-2,9.989052E-1,-5.236036E-1,-2.6066145E-2,-3.4209516E-2,2.835649E-1,1.7602374E-1,-8.4297E-2,1.5143437E-2,4.131407E-1,-5.8477706E-1,3.1593034E-1,4.5754415E-1,-6.7044103E-1,-7.918905E-2,4.872561E-1,-2.2687411E-1,2.9219218E-2,-1.9112843E-1,3.4893E-2,-5.8650643E-2,2.1487013E-1,2.8423992E-1,-1.5573469E-1,-2.4196012E-1,-8.867579E-3,-8.440855E-2,1.2451689E-1,1.9278438E-1,-4.7755495E-2,-7.6818995E-2,2.511959E-1,1.958891E-1,-4.9233204E-3],"categories":[],"categories_nodes":[],"categories_segments":[],"categories_sizes":[],"default_left":[0,0,0,0,0,0,0,0,0,0,0,0,0,0,0,0,0,0,0,0,0,0,0,0,0,0,0,0,0,0,0,0,0,0,0,0,0,0,0],"id":13,"left_children":[1,3,5,7,9,11,13,15,17,-1,-1,19,21,-1,-1,23,25,27,29,31,33,35,37,-1,-1,-1,-1,-1,-1,-1,-1,-1,-1,-1,-1,-1,-1,-1,-1],"loss_changes":[6.1852055E0,2.497158E0,6.7282E0,2.1132917E0,9.566308E-1,5.0919604E0,2.2615094E0,2.2683382E0,4.0305076E0,0E0,0E0,7.7222576E0,5.4574594E0,0E0,0E0,1.4739971E0,8.3705825E-1,4.0425134E0,4.5837855E-1,5.513704E0,4.493471E0,4.8551655E0,5.3725505E0,0E0,0E0,0E0,0E0,0E0,0E0,0E0,0E0,0E0,0E0,0E0,0E0,0E0,0E0,0E0,0E0],"parents":[2147483647,0,0,1,1,2,2,3,3,4,4,5,5,6,6,7,7,8,8,11,11,12,12,15,15,16,16,17,17,18,18,19,19,20,20,21,21,22,22],"right_children":[2,4,6,8,10,12,14,16,18,-1,-1,20,22,-1,-1,24,26,28,30,32,34,36,38,-1,-1,-1,-1,-1,-1,-1,-1,-1,-1,-1,-1,-1,-1,-1,-1],"split_conditions":[1E0,1E0,1E0,1E0,1E0,-3.0290458E-1,-4.4868603E-1,2.1E1,8.75E-1,-3.4209516E-2,2.835649E-1,0E0,1.25E-1,1.5143437E-2,4.131407E-1,2.5E0,2.6E1,1E0,2.197158E-1,-6.604089E-3,-4.875153E-2,8.4E1,-7.4106777E-1,-1.9112843E-1,3.4893E-2,-5.8650643E-2,2.1487013E-1,2.8423992E-1,-1.5573469E-1,-2.4196012E-1,-8.867579E-3,-8.440855E-2,1.2451689E-1,1.9278438E-1,-4.7755495E-2,-7.6818995E-2,2.511959E-1,1.958891E-1,-4.9233204E-3],"split_indices":[14,20,54,21,73,50,50,48,23,0,0,25,23,0,0,25,24,31,49,49,49,40,49,0,0,0,0,0,0,0,0,0,0,0,0,0,0,0,0],"split_type":[0,0,0,0,0,0,0,0,0,0,0,0,0,0,0,0,0,0,0,0,0,0,0,0,0,0,0,0,0,0,0,0,0,0,0,0,0,0,0],"sum_hessian":[4.8969427E2,5.267492E1,4.3701935E2,5.051999E1,2.1549294E0,4.3152124E2,5.498102E0,3.957058E1,1.0949411E1,1.1511353E0,1.003794E0,9.573456E1,3.3578668E2,1.89066E0,3.6074421E0,3.71659E1,2.4046764E0,6.420613E0,4.528798E0,5.301085E1,4.2723713E1,1.4839854E2,1.8738814E2,3.4669975E1,2.495927E0,1.2804163E0,1.1242602E0,4.295667E0,2.1249459E0,3.5223472E0,1.0064509E0,3.7927284E1,1.5083564E1,3.4450245E1,8.273469E0,1.4517598E2,3.2225697E0,1.1866657E1,1.7552148E2],"tree_param":{"num_deleted":"0","num_feature":"90","num_nodes":"39","size_leaf_vector":"1"}},{"base_weights":[-3.8099E-2,-9.220498E-3,-4.2494833E-1,-2.0364283E-2,1.1977332E0,-5.142384E-1,2.8968874E-1,-1.6827297E-1,4.8828237E-2,5.3652966E-1,-8.140396E-2,-1.9569276E-1,-7.0909077E-1,2.5954688E-1,-1.8198079E-1,-3.1960425E-1,1.4678144E-1,-1.3918871E-2,3.7444824E-1,-5.345407E-1,6.9394314E-1,-7.944065E-1,7.2989985E-2,-1.04934625E-1,3.1602028E-1,8.0517806E-2,-1.9848228E-1,2.4878532E-2,-6.7229934E-2,-1.3773528E-1,1.4742099E-1,-2.3684885E-1,1.1426762E-1,-1.6479954E-1,4.1312605E-1,-4.0705502E-2,-2.720399E-1],"categories":[],"categories_nodes":[],"categories_segments":[],"categories_sizes":[],"default_left":[0,0,0,0,0,0,0,0,0,0,0,0,0,0,0,0,0,0,0,0,0,0,0,0,0,0,0,0,0,0,0,0,0,0,0,0,0],"id":14,"left_children":[1,3,5,7,9,11,13,15,17,-1,-1,19,21,-1,-1,23,25,27,29,31,33,35,-1,-1,-1,-1,-1,-1,-1,-1,-1,-1,-1,-1,-1,-1,-1],"loss_changes":[5.366152E0,6.054301E0,2.2782311E0,4.5644836E0,4.058972E0,1.7247415E0,2.766333E0,6.822631E0,6.2182064E0,0E0,0E0,4.222259E0,1.6759214E0,0E0,0E0,4.35929E0,4.7782836E0,5.22795E0,5.018783E0,2.5919151E0,4.1190424E0,1.1341848E0,0E0,0E0,0E0,0E0,0E0,0E0,0E0,0E0,0E0,0E0,0E0,0E0,0E0,0E0,0E0],"parents":[2147483647,0,0,1,1,2,2,3,3,4,4,5,5,6,6,7,7,8,8,11,11,12,12,15,15,16,16,17,17,18,18,19,19,20,20,21,21],"right_children":[2,4,6,8,10,12,14,16,18,-1,-1,20,22,-1,-1,24,26,28,30,32,34,36,-1,-1,-1,-1,-1,-1,-1,-1,-1,-1,-1,-1,-1,-1,-1],"split_conditions":[1E0,1E0,1.1615491E0,1E0,1E0,-1.4854771E-1,2E0,1E0,1E0,5.3652966E-1,-8.140396E-2,1E0,6.2E1,2.5954688E-1,-1.8198079E-1,6.6E1,4E0,1E5,1E0,3.35E2,0E0,-6.0735357E-1,7.2989985E-2,-1.04934625E-1,3.1602028E-1,8.0517806E-2,-1.9848228E-1,2.4878532E-2,-6.7229934E-2,-1.3773528E-1,1.4742099E-1,-2.3684885E-1,1.1426762E-1,-1.6479954E-1,4.1312605E-1,-4.0705502E-2,-2.720399E-1],"split_indices":[12,7,50,18,27,50,25,28,69,0,0,66,40,0,0,44,25,76,51,76,25,49,0,0,0,0,0,0,0,0,0,0,0,0,0,0,0],"split_type":[0,0,0,0,0,0,0,0,0,0,0,0,0,0,0,0,0,0,0,0,0,0,0,0,0,0,0,0,0,0,0,0,0,0,0,0,0],"sum_hessian":[4.796882E2,4.473194E2,3.2368786E1,4.4420123E2,3.1181757E0,2.9022945E1,3.3458421E0,1.4111539E2,3.0308585E2,2.06891E0,1.049266E0,1.177592E1,1.7247025E1,2.0587506E0,1.2870916E0,9.531698E1,4.579841E1,2.5491992E2,4.8165916E1,8.816865E0,2.9590547E0,1.5981294E1,1.2657318E0,9.399625E1,1.3207381E0,4.0390232E1,5.4081755E0,1.7492383E2,7.9996086E1,5.5665097E0,4.2599407E1,7.003816E0,1.8130488E0,1.1187968E0,1.8402579E0,2.6510534E0,1.333024E1],"tree_param":{"num_deleted":"0","num_feature":"90","num_nodes":"37","size_leaf_vector":"1"}},{"base_weights":[-3.0439394E-2,-6.504517E-2,2.3699719E-1,-8.944105E-2,3.800046E-1,5.283824E-1,1.6288403E-1,-9.839042E-2,3.445919E-1,1.4912109E0,-2.2202462E-1,-2.4955195E-1,3.4961924E-1,-1.1025117E-1,8.1314427E-1,-4.784494E-2,1.8319914E0,2.6231566E-1,-6.54675E-1,3.56229E-1,-6.13037E-1,5.03691E-1,-3.8226274E-1,-1.51992375E-2,-9.219184E-2,3.280496E-1,-3.880894E-2,6.761898E-1,1.648111E-1,2.2894454E-1,-2.2636543E-1,4.4958293E-2,-2.5281784E-1,2.5565428E-1,-1.6316052E-1,-2.707602E-1,9.6438356E-2,1.8460579E-1,-1.8536478E-1,-2.7541566E-1,3.4618046E-2],"categories":[],"categories_nodes":[],"categories_segments":[],"categories_sizes":[],"default_left":[0,0,0,0,0,0,0,0,0,0,0,0,0,0,0,0,0,0,0,0,0,0,0,0,0,0,0,0,0,0,0,0,0,0,0,0,0,0,0,0,0],"id":15,"left_children":[1,3,5,7,9,-1,11,13,-1,15,17,19,21,23,25,-1,27,29,31,33,35,37,39,-1,-1,-1,-1,-1,-1,-1,-1,-1,-1,-1,-1,-1,-1,-1,-1,-1,-1],"loss_changes":[4.4157295E0,4.6133065E0,5.8914003E0,4.552359E0,1.5121422E1,0E0,4.18884E0,4.4002676E0,0E0,4.7353344E0,3.3590324E0,4.001527E0,4.3732123E0,4.616225E0,1.5262337E0,0E0,2.3485374E0,4.5942373E0,1.385036E0,3.622043E0,3.2945557E0,4.2699404E0,1.9766941E0,0E0,0E0,0E0,0E0,0E0,0E0,0E0,0E0,0E0,0E0,0E0,0E0,0E0,0E0,0E0,0E0,0E0,0E0],"parents":[2147483647,0,0,1,1,2,2,3,3,4,4,6,6,7,7,9,9,10,10,11,11,12,12,13,13,14,14,16,16,17,17,18,18,19,19,20,20,21,21,22,22],"right_children":[2,4,6,8,10,-1,12,14,-1,16,18,20,22,24,26,-1,28,30,32,34,36,38,40,-1,-1,-1,-1,-1,-1,-1,-1,-1,-1,-1,-1,-1,-1,-1,-1,-1,-1],"split_conditions":[1E0,1E0,-5.7842326E-1,5E0,-1.9834526E-1,5.283824E-1,-2.8442103E-1,1E0,3.445919E-1,0E0,1E0,-1.0096819E-1,1E0,1E0,2.3671316E-1,-4.784494E-2,5.204165E5,1E0,4.1244814E-1,1E0,2E0,4.815E1,5.0345782E-2,-1.51992375E-2,-9.219184E-2,3.280496E-1,-3.880894E-2,6.761898E-1,1.648111E-1,2.2894454E-1,-2.2636543E-1,4.4958293E-2,-2.5281784E-1,2.5565428E-1,-1.6316052E-1,-2.707602E-1,9.6438356E-2,1.8460579E-1,-1.8536478E-1,-2.7541566E-1,3.4618046E-2],"split_indices":[20,0,50,35,49,0,49,16,0,25,25,50,67,10,77,0,82,11,50,65,25,47,50,0,0,0,0,0,0,0,0,0,0,0,0,0,0,0,0,0,0],"split_type":[0,0,0,0,0,0,0,0,0,0,0,0,0,0,0,0,0,0,0,0,0,0,0,0,0,0,0,0,0,0,0,0,0,0,0,0,0,0,0,0,0],"sum_hessian":[4.7446024E2,4.2077017E2,5.369007E1,3.9966135E2,2.1108831E1,1.4339292E0,5.225614E1,3.977071E2,1.9542648E0,6.8986144E0,1.42102165E1,1.6181093E1,3.6075047E1,3.934664E2,4.2406783E0,1.2715256E0,5.627089E0,6.890354E0,7.3198624E0,6.075568E0,1.0105525E1,3.005898E1,6.0160666E0,3.0307675E2,9.038966E1,3.1449833E0,1.0956949E0,3.6642585E0,1.9628305E0,4.783747E0,2.1066067E0,1.4252638E0,5.894599E0,3.951522E0,2.124046E0,7.7415004E0,2.3640244E0,2.7747814E1,2.3111668E0,2.490249E0,3.5258176E0],"tree_param":{"num_deleted":"0","num_feature":"90","num_nodes":"41","size_leaf_vector":"1"}},{"base_weights":[-2.348348E-2,-7.726033E-3,-4.8105764E-1,-2.63653E-1,2.0629916E-2,-8.6282426E-1,4.3543723E-1,-3.0156532E-1,2.0257218E-1,1.0193908E-2,3.8852918E-1,-1.104109E-2,-2.8207922E-1,8.810474E-1,-9.673553E-2,-1.9126347E-1,-6.574304E-1,4.782265E-1,-1.2708252E-2,4.3301764E-1,-3.676321E-2,-9.721332E-2,1.1360475E-1,-2.4849029E-1,8.984159E-2,5.8348347E-2,4.8533905E-1,-1.6015314E-1,9.451306E-4],"categories":[],"categories_nodes":[],"categories_segments":[],"categories_sizes":[],"default_left":[0,0,0,0,0,0,0,0,0,0,0,0,0,0,0,0,0,0,0,0,0,0,0,0,0,0,0,0,0],"id":16,"left_children":[1,3,5,7,9,11,13,15,-1,17,-1,-1,-1,19,-1,21,23,25,27,-1,-1,-1,-1,-1,-1,-1,-1,-1,-1],"loss_changes":[3.3902342E0,3.3150988E0,5.852846E0,1.8254595E0,5.459873E0,6.9373417E-1,2.0631592E0,1.6204281E0,0E0,4.391892E0,0E0,0E0,0E0,2.200279E0,0E0,2.799429E0,1.9020224E0,5.865346E0,3.2335315E0,0E0,0E0,0E0,0E0,0E0,0E0,0E0,0E0,0E0,0E0],"parents":[2147483647,0,0,1,1,2,2,3,3,4,4,5,5,6,6,7,7,9,9,13,13,15,15,16,16,17,17,18,18],"right_children":[2,4,6,8,10,12,14,16,-1,18,-1,-1,-1,20,-1,22,24,26,28,-1,-1,-1,-1,-1,-1,-1,-1,-1,-1],"split_conditions":[1E0,1E0,2.617284E0,8.85E1,1E0,-5.952974E-1,8.5E5,1.25E0,2.0257218E-1,-6.2323654E-1,3.8852918E-1,-1.104109E-2,-2.8207922E-1,3.6182573E-1,-9.673553E-2,3.125E-1,1E0,6.4742327E-1,-9.0223724E-1,4.3301764E-1,-3.676321E-2,-9.721332E-2,1.1360475E-1,-2.4849029E-1,8.984159E-2,5.8348347E-2,4.8533905E-1,-1.6015314E-1,9.451306E-4],"split_indices":[52,14,83,37,60,50,76,23,0,50,0,0,0,50,0,23,71,49,49,0,0,0,0,0,0,0,0,0,0],"split_type":[0,0,0,0,0,0,0,0,0,0,0,0,0,0,0,0,0,0,0,0,0,0,0,0,0,0,0,0,0],"sum_hessian":[4.6971515E2,4.5506116E2,1.4654019E1,4.4562626E1,4.104985E2,1.0386201E1,4.267819E0,4.3485497E1,1.0771267E0,4.0816425E2,2.3342655E0,1.0167007E0,9.3695E0,2.5852733E0,1.6825453E0,3.4369873E1,9.115624E0,1.8113441E1,3.900508E2,1.376019E0,1.2092544E0,2.8225578E1,6.1442957E0,7.848534E0,1.2670902E0,1.5439872E1,2.6735704E0,1.0554506E1,3.794963E2],"tree_param":{"num_deleted":"0","num_feature":"90","num_nodes":"29","size_leaf_vector":"1"}},{"base_weights":[-1.7459879E-2,-6.825923E-3,-6.5440863E-1,1.332725E-2,-3.1654307E-1,-2.2078946E-2,-2.572438E-1,3.8176107E-3,6.601087E-1,-3.966522E-1,4.0729806E-1,-4.39273E-3,7.605881E-1,-2.0208482E-2,1.1623557E0,-4.7915566E-1,1.6735631E-1,2.5238246E-1,-5.510437E-2,3.289033E-3,-1.5176062E-1,4.3758583E-1,1.9514048E-2,1.42272E-1,-1.473907E-1,4.3440852E-1,6.7707725E-2,-3.0449908E-2,-2.23798E-1],"categories":[],"categories_nodes":[],"categories_segments":[],"categories_sizes":[],"default_left":[0,0,0,0,0,0,0,0,0,0,0,0,0,0,0,0,0,0,0,0,0,0,0,0,0,0,0,0,0],"id":17,"left_children":[1,3,5,7,9,-1,-1,11,13,15,17,19,21,23,25,27,-1,-1,-1,-1,-1,-1,-1,-1,-1,-1,-1,-1,-1],"loss_changes":[3.1588852E0,2.8777807E0,8.401959E-1,2.661997E0,1.7948356E0,0E0,0E0,2.6622608E0,2.1663334E0,2.3042984E0,1.0008891E0,3.2732706E0,2.137824E0,1.0823619E0,6.431489E-1,2.3777628E0,0E0,0E0,0E0,0E0,0E0,0E0,0E0,0E0,0E0,0E0,0E0,0E0,0E0],"parents":[2147483647,0,0,1,1,2,2,3,3,4,4,7,7,8,8,9,9,10,10,11,11,12,12,13,13,14,14,15,15],"right_children":[2,4,6,8,10,-1,-1,12,14,16,18,20,22,24,26,28,-1,-1,-1,-1,-1,-1,-1,-1,-1,-1,-1,-1,-1],"split_conditions":[1.4503024E0,1E0,1.2669434E-1,3.7676E3,1E0,-2.2078946E-2,-2.572438E-1,1E0,1E0,7.375E0,1E0,1E0,1E0,8.125E-1,1E0,-1.4854771E-1,1.6735631E-1,2.5238246E-1,-5.510437E-2,3.289033E-3,-1.5176062E-1,4.3758583E-1,1.9514048E-2,1.42272E-1,-1.473907E-1,4.3440852E-1,6.7707725E-2,-3.0449908E-2,-2.23798E-1],"split_indices":[49,12,50,47,31,0,0,7,24,23,73,52,51,23,65,50,0,0,0,0,0,0,0,0,0,0,0,0,0],"split_type":[0,0,0,0,0,0,0,0,0,0,0,0,0,0,0,0,0,0,0,0,0,0,0,0,0,0,0,0,0],"sum_hessian":[4.6603372E2,4.593751E2,6.65862E0,4.3220844E2,2.7166662E1,2.0779102E0,4.58071E0,4.2693707E2,5.2713614E0,2.4866634E1,2.3000283E0,4.2333838E2,3.5986798E0,2.646422E0,2.6249392E0,2.3346657E1,1.5199783E0,1.0819719E0,1.2180566E0,4.117092E2,1.1629201E1,1.2485552E0,2.3501246E0,1.2879466E0,1.3584754E0,1.5931128E0,1.0318263E0,1.0237656E1,1.3109E1],"tree_param":{"num_deleted":"0","num_feature":"90","num_nodes":"29","size_leaf_vector":"1"}},{"base_weights":[-1.2373385E-2,-4.331453E-3,-6.837332E-1,9.076553E-2,-5.7198487E-2,-2.4617581E-1,-1.9134248E-2,4.8070047E-2,7.258388E-1,-7.5103664E-1,-3.602704E-2,1.0685194E-2,6.5619195E-1,1.0694364E0,-3.5637945E-1,-2.8243068E-1,-4.8226472E-2,-8.0236614E-2,2.3783724E-1,-8.7625064E-2,2.5372231E-2,4.220561E-1,4.4343024E-2,4.4278798E-1,-7.677736E-2,-1.9483767E-1,4.1416205E-2,-1.1434081E-2,-1.1371324E-1,3.5658147E-2,3.9404768E-1],"categories":[],"categories_nodes":[],"categories_segments":[],"categories_sizes":[],"default_left":[0,0,0,0,0,0,0,0,0,0,0,0,0,0,0,0,0,0,0,0,0,0,0,0,0,0,0,0,0,0,0],"id":18,"left_children":[1,3,5,7,9,-1,-1,11,13,15,17,19,21,23,25,-1,-1,27,29,-1,-1,-1,-1,-1,-1,-1,-1,-1,-1,-1,-1],"loss_changes":[2.5007782E0,2.314099E0,4.1283536E-1,4.4248676E0,4.3178024E0,0E0,0E0,3.521094E0,4.207504E0,8.27301E-1,3.506883E0,3.3181045E0,3.2156606E0,4.720581E0,5.5768704E-1,0E0,0E0,3.1168587E0,5.000328E0,0E0,0E0,0E0,0E0,0E0,0E0,0E0,0E0,0E0,0E0,0E0,0E0],"parents":[2147483647,0,0,1,1,2,2,3,3,4,4,7,7,8,8,9,9,10,10,11,11,12,12,13,13,14,14,17,17,18,18],"right_children":[2,4,6,8,10,-1,-1,12,14,16,18,20,22,24,26,-1,-1,28,30,-1,-1,-1,-1,-1,-1,-1,-1,-1,-1,-1,-1],"split_conditions":[1E0,-3.2671687E-1,3.25E0,9E0,-2.974808E-1,-2.4617581E-1,-1.9134248E-2,1E0,3.5E5,1E0,1E0,-8.172003E-1,1.5202899E0,3.4E1,-5.200905E-1,-2.8243068E-1,-4.8226472E-2,5.4375E0,1E0,-8.7625064E-2,2.5372231E-2,4.220561E-1,4.4343024E-2,4.4278798E-1,-7.677736E-2,-1.9483767E-1,4.1416205E-2,-1.1434081E-2,-1.1371324E-1,3.5658147E-2,3.9404768E-1],"split_indices":[3,49,23,40,49,0,0,0,76,11,20,49,75,42,49,0,0,23,55,0,0,0,0,0,0,0,0,0,0,0,0],"split_type":[0,0,0,0,0,0,0,0,0,0,0,0,0,0,0,0,0,0,0,0,0,0,0,0,0,0,0,0,0,0,0],"sum_hessian":[4.627388E2,4.5825598E2,4.4828005E0,1.6347716E2,2.9477884E2,3.4070714E0,1.0757293E0,1.5418698E2,9.290178E0,7.707629E0,2.870712E2,1.462158E2,7.971181E0,7.0603657E0,2.2298121E0,5.3780246E0,2.329605E0,2.477795E2,3.9291714E1,2.8103855E1,1.18111946E2,2.5050218E0,5.466159E0,5.316137E0,1.7442288E0,1.2031146E0,1.0266975E0,2.1815382E2,2.9625673E1,3.637844E1,2.9132705E0],"tree_param":{"num_deleted":"0","num_feature":"90","num_nodes":"31","size_leaf_vector":"1"}},{"base_weights":[-1.0710028E-2,-1.926671E-2,5.502112E-1,-8.861194E-2,5.04514E-2,1.1236818E0,-2.4037218E-1,-1.2987156E-1,2.5843745E-1,8.216722E-2,-6.858954E-1,-5.2348945E-2,4.9695283E-1,-2.508271E-1,1.6906524E-1,-9.1794625E-2,-5.39797E-1,4.9918532E-1,-5.858323E-1,7.851107E-1,4.6509333E-2,-2.755936E-1,-2.5979865E-1,-1.4673294E-1,-1.5657341E-2,-2.4356852E-1,5.187471E-2,8.049835E-2,5.4824615E-1,-2.6259294E-1,8.142428E-2,2.957098E-1,-6.731766E-2,5.7350047E-2,-2.207208E-2,2.1009748E-1,-2.4236761E-1],"categories":[],"categories_nodes":[],"categories_segments":[],"categories_sizes":[],"default_left":[0,0,0,0,0,0,0,0,0,0,0,0,0,0,0,0,0,0,0,0,0,0,0,0,0,0,0,0,0,0,0,0,0,0,0,0,0],"id":19,"left_children":[1,3,5,7,9,11,13,15,17,19,21,-1,-1,-1,-1,23,25,27,29,31,33,-1,35,-1,-1,-1,-1,-1,-1,-1,-1,-1,-1,-1,-1,-1,-1],"loss_changes":[2.2259395E0,2.2071035E0,3.4297132E0,3.3093739E0,5.376934E0,3.204854E0,2.2688656E0,3.1522493E0,5.301178E0,5.4605913E0,7.0493746E-1,0E0,0E0,0E0,0E0,2.9468193E0,3.4816842E0,5.555102E0,1.7085869E0,2.3523946E0,3.6582184E0,0E0,3.068326E0,0E0,0E0,0E0,0E0,0E0,0E0,0E0,0E0,0E0,0E0,0E0,0E0,0E0,0E0],"parents":[2147483647,0,0,1,1,2,2,3,3,4,4,5,5,6,6,7,7,8,8,9,9,10,10,15,15,16,16,17,17,18,18,19,19,20,20,22,22],"right_children":[2,4,6,8,10,12,14,16,18,20,22,-1,-1,-1,-1,24,26,28,30,32,34,-1,36,-1,-1,-1,-1,-1,-1,-1,-1,-1,-1,-1,-1,-1,-1],"split_conditions":[1.9843895E1,1.25E-1,2.3975271E1,1E0,1E0,5E-1,4.375E-1,3E0,2.8381374E0,-5.1618254E-1,3.769318E-1,-5.2348945E-2,4.9695283E-1,-2.508271E-1,1.6906524E-1,-7.720847E-1,6.9E1,2.4695652E0,1E0,1E0,9.790269E-2,-2.755936E-1,9.217391E-1,-1.4673294E-1,-1.5657341E-2,-2.4356852E-1,5.187471E-2,8.049835E-2,5.4824615E-1,-2.6259294E-1,8.142428E-2,2.957098E-1,-6.731766E-2,5.7350047E-2,-2.207208E-2,2.1009748E-1,-2.4236761E-1],"split_indices":[89,23,89,20,53,25,23,38,87,50,77,0,0,0,0,49,40,75,69,13,77,0,75,0,0,0,0,0,0,0,0,0,0,0,0,0,0],"split_type":[0,0,0,0,0,0,0,0,0,0,0,0,0,0,0,0,0,0,0,0,0,0,0,0,0,0,0,0,0,0,0,0,0,0,0,0,0],"sum_hessian":[4.605651E2,4.54596E2,5.969071E0,2.2777162E2,2.268244E2,3.2153785E0,2.7536924E0,2.0412912E2,2.3642496E1,2.183098E2,8.514597E0,1.1313857E0,2.083993E0,1.5586777E0,1.1950148E0,1.8789954E2,1.6229586E1,1.8714653E1,4.9278426E0,9.524779E0,2.0878502E2,4.7590637E0,3.755533E0,1.6002913E1,1.7189662E2,1.1644723E1,4.5848618E0,1.6967693E1,1.7469596E0,3.6681125E0,1.25973E0,7.9655933E0,1.559186E0,9.443376E1,1.1435126E2,1.2638443E0,2.4916887E0],"tree_param":{"num_deleted":"0","num_feature":"90","num_nodes":"37","size_leaf_vector":"1"}},{"base_weights":[-9.994785E-3,-6.037879E-2,8.8385485E-2,2.725314E-1,-9.870906E-2,-4.2076636E-2,2.9707375E-1,1.0843274E-2,1.3680619E0,-3.9615944E-2,-3.348607E-1,1.8630761E-1,-3.8056734E-1,1.5459758E0,2.0159286E-1,-9.632012E-2,7.8190666E-1,1.8670692E0,-7.63728E-2,-9.483381E-2,4.2657283E-1,-4.7532585E-1,5.270602E-1,9.09266E-2,7.932105E-1,-1.0882491E-1,-7.8447574E-1,-5.0644327E-2,6.505253E-1,5.445702E-1,1.3784546E-1,1.23313956E-1,-1.1605575E-1,4.3181345E-1,-9.924664E-2,1.8217836E-1,7.878706E-1,-7.1508944E-2,4.0938416E-3,3.4555042E-1,1.6802847E-2,-1.7707215E-1,1.0470025E-2,-2.119383E-1,2.970009E-1,8.280492E-2,-1.9177456E-1,3.1724E-1,-9.653312E-2,5.8903184E-2,-1.4135501E-1,-2.6566476E-1,-4.4316836E-2,1.4550795E-2,3.5872585E-1],"categories":[],"categories_nodes":[],"categories_segments":[],"categories_sizes":[],"default_left":[0,0,0,0,0,0,0,0,0,0,0,0,0,0,0,0,0,0,0,0,0,0,0,0,0,0,0,0,0,0,0,0,0,0,0,0,0,0,0,0,0,0,0,0,0,0,0,0,0,0,0,0,0,0,0],"id":20,"left_children":[1,3,5,7,9,11,13,15,17,19,21,23,25,27,29,31,33,35,-1,37,39,41,43,45,47,49,51,-1,-1,-1,53,-1,-1,-1,-1,-1,-1,-1,-1,-1,-1,-1,-1,-1,-1,-1,-1,-1,-1,-1,-1,-1,-1,-1,-1],"loss_changes":[2.280424E0,3.9077349E0,4.2558255E0,9.063643E0,3.802864E0,7.552445E0,6.8523903E0,2.2707098E0,5.412717E0,5.7001305E0,6.860807E0,3.3119133E0,4.230247E0,4.7602587E0,5.609083E0,3.728811E0,2.928239E0,2.9802055E0,0E0,3.0767245E0,6.2420077E0,2.804099E0,5.339282E0,7.1567187E0,2.641488E0,2.8201177E0,8.765793E-1,0E0,0E0,0E0,5.2234206E0,0E0,0E0,0E0,0E0,0E0,0E0,0E0,0E0,0E0,0E0,0E0,0E0,0E0,0E0,0E0,0E0,0E0,0E0,0E0,0E0,0E0,0E0,0E0,0E0],"parents":[2147483647,0,0,1,1,2,2,3,3,4,4,5,5,6,6,7,7,8,8,9,9,10,10,11,11,12,12,13,13,14,14,15,15,16,16,17,17,19,19,20,20,21,21,22,22,23,23,24,24,25,25,26,26,30,30],"right_children":[2,4,6,8,10,12,14,16,18,20,22,24,26,28,30,32,34,36,-1,38,40,42,44,46,48,50,52,-1,-1,-1,54,-1,-1,-1,-1,-1,-1,-1,-1,-1,-1,-1,-1,-1,-1,-1,-1,-1,-1,-1,-1,-1,-1,-1,-1],"split_conditions":[1E0,-7.4106777E-1,2.6903179E0,-7.720847E-1,2.1296296E0,9.5981455E-1,2.873614E0,1.6818811E-1,2.7029412E0,1.0885789E0,1E0,4.1828367E-1,-1.3579194E-2,-2.5251365E-1,-5.573997E-1,-4.4149378E-1,-8.0517936E-1,2.2753623E-1,-7.63728E-2,-6.604089E-3,-4.2971098E-1,1E0,2.7558823E0,6.1069272E-2,3.5E0,5E-1,4.125E0,-5.0644327E-2,6.505253E-1,5.445702E-1,4.8E1,1.23313956E-1,-1.1605575E-1,4.3181345E-1,-9.924664E-2,1.8217836E-1,7.878706E-1,-7.1508944E-2,4.0938416E-3,3.4555042E-1,1.6802847E-2,-1.7707215E-1,1.0470025E-2,-2.119383E-1,2.970009E-1,8.280492E-2,-1.9177456E-1,3.1724E-1,-9.653312E-2,5.8903184E-2,-1.4135501E-1,-2.6566476E-1,-4.4316836E-2,1.4550795E-2,3.5872585E-1],"split_indices":[25,49,87,49,83,89,87,50,81,77,67,49,49,49,50,50,49,75,0,49,49,71,81,49,25,23,23,0,0,0,24,0,0,0,0,0,0,0,0,0,0,0,0,0,0,0,0,0,0,0,0,0,0,0,0],"split_type":[0,0,0,0,0,0,0,0,0,0,0,0,0,0,0,0,0,0,0,0,0,0,0,0,0,0,0,0,0,0,0,0,0,0,0,0,0,0,0,0,0,0,0,0,0,0,0,0,0,0,0,0,0,0,0],"sum_hessian":[4.579839E2,3.0312775E2,1.5485614E2,3.066683E1,2.724609E2,9.5778366E1,5.907777E1,2.5569075E1,5.0977573E0,2.18862E2,5.3598907E1,5.7459354E1,3.831901E1,3.1168962E0,5.5960873E1,2.3217375E1,2.3516996E0,3.783565E0,1.3141922E0,1.9639635E2,2.246565E1,4.6473724E1,7.125181E0,5.0649143E1,6.8102117E0,2.3666224E1,1.4652787E1,1.0241661E0,2.09273E0,1.0825601E0,5.487831E1,8.302911E0,1.4914463E1,1.2937263E0,1.0579734E0,2.0994725E0,1.6840924E0,8.402541E1,1.1237093E2,6.8840127E0,1.5581637E1,3.7802834E1,8.670891E0,1.800824E0,5.324357E0,4.0902805E1,9.746338E0,5.547114E0,1.2630976E0,1.30956E1,1.0570622E1,1.2308328E1,2.3444593E0,5.156903E1,3.3092813E0],"tree_param":{"num_deleted":"0","num_feature":"90","num_nodes":"55","size_leaf_vector":"1"}},{"base_weights":[-8.405201E-3,-2.149492E-1,-1.873791E-3,2.109577E-1,-2.3987953E-2,-4.4447947E-2,1.0829532E0,-3.6083105E-1,1.4205426E-3,4.762409E-1,-2.263147E-1,-2.8913941E-2,1.364866E0,-5.045842E-1,3.8261223E-1,3.2434064E-1,-3.0865842E-2,4.0037498E-1,-1.352917E-1,-2.0848879E-1,2.752782E-2,5.132223E-1,-2.4187474E-3,-1.8113986E-1,1.502546E-1,2.8722543E-1,-3.1278722E-2,1.4058529E-1,-1.1541992E-1,-5.1739622E-2,7.6425346E-3],"categories":[],"categories_nodes":[],"categories_segments":[],"categories_sizes":[],"default_left":[0,0,0,0,0,0,0,0,0,0,0,0,0,0,0,0,0,0,0,0,0,0,0,0,0,0,0,0,0,0,0],"id":21,"left_children":[1,-1,3,5,7,9,11,13,15,17,19,-1,21,23,25,27,29,-1,-1,-1,-1,-1,-1,-1,-1,-1,-1,-1,-1,-1,-1],"loss_changes":[2.1104703E0,0E0,2.1392787E0,9.576489E0,3.5238626E0,3.332321E0,3.3670301E0,3.2793875E0,4.0113897E0,7.873577E0,3.9267297E0,0E0,3.774764E0,2.75943E0,1.568511E0,3.7579818E0,2.7952054E0,0E0,0E0,0E0,0E0,0E0,0E0,0E0,0E0,0E0,0E0,0E0,0E0,0E0,0E0],"parents":[2147483647,0,0,2,2,3,3,4,4,5,5,6,6,7,7,8,8,9,9,10,10,12,12,13,13,14,14,15,15,16,16],"right_children":[2,-1,4,6,8,10,12,14,16,18,20,-1,22,24,26,28,30,-1,-1,-1,-1,-1,-1,-1,-1,-1,-1,-1,-1,-1,-1],"split_conditions":[-1.1422105E0,-2.149492E-1,-7.4106777E-1,-7.720847E-1,-6.4415836E-1,-4.4149378E-1,1E0,1E0,-5.506623E-1,-9.5328903E-1,-1.4854771E-1,-2.8913941E-2,1E0,3E0,1E0,1E0,1E0,4.0037498E-1,-1.352917E-1,-2.0848879E-1,2.752782E-2,5.132223E-1,-2.4187474E-3,-1.8113986E-1,1.502546E-1,2.8722543E-1,-3.1278722E-2,1.4058529E-1,-1.1541992E-1,-5.1739622E-2,7.6425346E-3],"split_indices":[49,0,49,49,49,50,18,55,49,49,50,0,64,25,73,67,18,0,0,0,0,0,0,0,0,0,0,0,0,0,0],"split_type":[0,0,0,0,0,0,0,0,0,0,0,0,0,0,0,0,0,0,0,0,0,0,0,0,0,0,0,0,0,0,0],"sum_hessian":[4.556239E2,3.1707613E0,4.5245316E2,4.1783188E1,4.1066995E2,3.30515E1,8.731688E0,2.7878645E1,3.8279132E2,8.136857E0,2.4914642E1,1.8115413E0,6.9201465E0,2.3630674E1,4.2479696E0,3.397149E1,3.4881982E2,3.997205E0,4.1396523E0,9.594004E0,1.532064E1,5.331066E0,1.5890803E0,2.1871841E1,1.7588328E0,1.5048645E0,2.7431052E0,2.8509668E1,5.4618196E0,9.869994E1,2.5011989E2],"tree_param":{"num_deleted":"0","num_feature":"90","num_nodes":"31","size_leaf_vector":"1"}},{"base_weights":[-7.7120466E-3,8.262534E-3,-2.714591E-1,-7.6320674E-4,5.293178E-1,-9.041062E-2,-6.1347353E-1,3.6237943E-1,-1.408917E-2,8.862393E-1,-2.0233886E-1,-2.3689069E-1,7.265505E-2,-7.9120797E-1,1.096995E-1,1.5005445E-1,4.5466438E-1,-4.528692E-1,3.0324664E-3,1.2807845E0,-4.871202E-2,-1.1574836E-1,6.6215646E-1,-2.669938E-1,-5.2218664E-2,-8.7029606E-2,2.4186921E-1,-2.0185772E-1,1.1929796E-1,-4.8537E-3,9.678846E-2,1.6284214E-1,5.210011E-1,-8.527136E-2,2.612607E-1,-6.620385E-2,3.707537E-1],"categories":[],"categories_nodes":[],"categories_segments":[],"categories_sizes":[],"default_left":[0,0,0,0,0,0,0,0,0,0,0,0,0,0,0,0,0,0,0,0,0,0,0,0,0,0,0,0,0,0,0,0,0,0,0,0,0],"id":22,"left_children":[1,3,5,7,9,11,13,15,17,19,-1,-1,21,23,-1,25,-1,27,29,31,-1,33,35,-1,-1,-1,-1,-1,-1,-1,-1,-1,-1,-1,-1,-1,-1],"loss_changes":[1.9190056E0,2.0223098E0,1.5551344E0,2.0550244E0,3.7436028E0,2.130279E0,1.8260052E0,3.4530869E0,3.0783434E0,2.7232246E0,0E0,0E0,1.815684E0,3.1991673E-1,0E0,4.2208486E0,0E0,3.1468542E0,2.4316134E0,5.813546E-1,0E0,2.361529E0,2.2687664E0,0E0,0E0,0E0,0E0,0E0,0E0,0E0,0E0,0E0,0E0,0E0,0E0,0E0,0E0],"parents":[2147483647,0,0,1,1,2,2,3,3,4,4,5,5,6,6,7,7,8,8,9,9,12,12,13,13,15,15,17,17,18,18,19,19,21,21,22,22],"right_children":[2,4,6,8,10,12,14,16,18,20,-1,-1,22,24,-1,26,-1,28,30,32,-1,34,36,-1,-1,-1,-1,-1,-1,-1,-1,-1,-1,-1,-1,-1,-1],"split_conditions":[1E0,3E0,1E0,-6.603043E-1,6.943292E-1,1E0,1E0,-6.655602E-1,1E0,9E0,-2.0233886E-1,-2.3689069E-1,1.5E5,1E0,1.096995E-1,1E0,4.5466438E-1,2.9460582E-1,1.0626461E1,-3.7450376E-1,-4.871202E-2,7.375E0,1E0,-2.669938E-1,-5.2218664E-2,-8.7029606E-2,2.4186921E-1,-2.0185772E-1,1.1929796E-1,-4.8537E-3,9.678846E-2,1.6284214E-1,5.210011E-1,-8.527136E-2,2.612607E-1,-6.620385E-2,3.707537E-1],"split_indices":[12,34,27,50,50,11,72,50,17,34,0,0,76,67,0,55,0,50,77,49,0,23,73,0,0,0,0,0,0,0,0,0,0,0,0,0,0],"split_type":[0,0,0,0,0,0,0,0,0,0,0,0,0,0,0,0,0,0,0,0,0,0,0,0,0,0,0,0,0,0,0,0,0,0,0,0,0],"sum_hessian":[4.53937E2,4.2892654E2,2.5010468E1,4.226047E2,6.321841E0,1.7180277E1,7.8301897E0,1.4031877E1,4.085728E2,5.079541E0,1.2422998E0,2.522286E0,1.4657991E1,6.7896576E0,1.0405322E0,1.2804412E1,1.2274647E0,1.4388382E1,3.9418445E2,3.529967E0,1.5495741E0,1.1716934E1,2.9410572E0,5.471827E0,1.3178303E0,7.997622E0,4.80679E0,1.159756E1,2.7908218E0,3.7272845E2,2.1455992E1,2.184467E0,1.3455E0,1.061591E1,1.1010245E0,1.4007739E0,1.5402833E0],"tree_param":{"num_deleted":"0","num_feature":"90","num_nodes":"37","size_leaf_vector":"1"}},{"base_weights":[-5.115554E-3,2.5971937E-3,-5.596274E-1,-3.245524E-3,6.816812E-1,-9.519503E-3,-2.382542E-1,-1.5356806E-2,3.2382312E-1,-3.1560376E-2,3.166827E-1,4.992494E-4,-6.199128E-1,6.516352E-1,-4.819581E-1,-2.816799E-3,2.9373792E-1,-2.4622752E-1,-3.221334E-3,2.551094E-1,-2.0964323E-1,-2.4423763E-1,1.211197E-1],"categories":[],"categories_nodes":[],"categories_segments":[],"categories_sizes":[],"default_left":[0,0,0,0,0,0,0,0,0,0,0,0,0,0,0,0,0,0,0,0,0,0,0],"id":23,"left_children":[1,3,5,7,9,-1,-1,11,13,-1,-1,15,17,19,21,-1,-1,-1,-1,-1,-1,-1,-1],"loss_changes":[1.936138E0,1.7763914E0,7.437564E-1,1.7650888E0,1.2347935E0,0E0,0E0,4.116726E0,4.5169888E0,0E0,0E0,4.068304E0,1.3340716E0,3.7436957E0,1.8514866E0,0E0,0E0,0E0,0E0,0E0,0E0,0E0,0E0],"parents":[2147483647,0,0,1,1,2,2,3,3,4,4,7,7,8,8,11,11,12,12,13,13,14,14],"right_children":[2,4,6,8,10,-1,-1,12,14,-1,-1,16,18,20,22,-1,-1,-1,-1,-1,-1,-1,-1],"split_conditions":[1.4503024E0,1.3654139E0,1.2669434E-1,6E0,1.5988936E-1,-9.519503E-3,-2.382542E-1,3E0,1E0,-3.1560376E-2,3.166827E-1,8.4E1,1E0,1.2207469E0,8.7E4,-2.816799E-3,2.9373792E-1,-2.4622752E-1,-3.221334E-3,2.551094E-1,-2.0964323E-1,-2.4423763E-1,1.211197E-1],"split_indices":[49,49,50,39,50,0,0,39,10,0,0,42,20,50,76,0,0,0,0,0,0,0,0],"split_type":[0,0,0,0,0,0,0,0,0,0,0,0,0,0,0,0,0,0,0,0,0,0,0],"sum_hessian":[4.5136624E2,4.4615594E2,5.210301E0,4.4333676E2,2.8191695E0,1.9521015E0,3.2581992E0,4.2842532E2,1.4911452E1,1.1396284E0,1.6795411E0,4.1844955E2,9.975756E0,1.0735344E1,4.176109E0,4.152441E2,3.2054462E0,7.241048E0,2.7347074E0,9.68101E0,1.054333E0,3.0958498E0,1.080259E0],"tree_param":{"num_deleted":"0","num_feature":"90","num_nodes":"23","size_leaf_vector":"1"}},{"base_weights":[-5.1607303E-3,1.1978446E-3,-6.131867E-1,4.468109E-2,-8.603276E-2,-2.2881605E-1,-1.3202214E-2,1.3930842E-2,8.765607E-1,-5.0141555E-1,2.825366E-2,3.0153861E-2,-7.0909166E-1,1.1723362E0,-1.10808276E-1,-1.5181987E-1,-8.247072E-1,-4.5149827E-1,1.0221496E-1,1.363035E-2,-2.1225582E-1,-2.4634457E-1,-4.761957E-2,4.5260745E-1,-8.072922E-2,5.2794944E-2,-2.083257E-1,-1.2693606E-1,-2.8546688E-1,2.020114E-1,-2.0816967E-1,1.138504E-1,-1.5204245E-2],"categories":[],"categories_nodes":[],"categories_segments":[],"categories_sizes":[],"default_left":[0,0,0,0,0,0,0,0,0,0,0,0,0,0,0,0,0,0,0,0,0,0,0,0,0,0,0,0,0,0,0,0,0],"id":24,"left_children":[1,3,5,7,9,-1,-1,11,13,15,17,19,21,23,-1,25,27,29,31,-1,-1,-1,-1,-1,-1,-1,-1,-1,-1,-1,-1,-1,-1],"loss_changes":[1.7476326E0,1.7037568E0,3.6460948E-1,7.6551657E0,7.1078825E0,0E0,0E0,3.4237494E0,4.3645134E0,3.5248451E0,4.237848E0,3.2408693E0,2.647512E-1,4.7022686E0,0E0,3.1000354E0,4.406128E-1,4.820119E0,4.3931518E0,0E0,0E0,0E0,0E0,0E0,0E0,0E0,0E0,0E0,0E0,0E0,0E0,0E0,0E0],"parents":[2147483647,0,0,1,1,2,2,3,3,4,4,7,7,8,8,9,9,10,10,11,11,12,12,13,13,15,15,16,16,17,17,18,18],"right_children":[2,4,6,8,10,-1,-1,12,14,16,18,20,22,24,-1,26,28,30,32,-1,-1,-1,-1,-1,-1,-1,-1,-1,-1,-1,-1,-1,-1],"split_conditions":[1E0,1.8148148E0,3.25E0,1.6507246E0,2.5409877E0,-2.2881605E-1,-1.3202214E-2,1E0,1E0,-3.3473083E-1,1E0,7.6E1,1E0,1E0,-1.10808276E-1,6.875E-1,1.9652174E0,2.8381374E0,1.3E5,1.363035E-2,-2.1225582E-1,-2.4634457E-1,-4.761957E-2,4.5260745E-1,-8.072922E-2,5.2794944E-2,-2.083257E-1,-1.2693606E-1,-2.8546688E-1,2.020114E-1,-2.0816967E-1,1.138504E-1,-1.5204245E-2],"split_indices":[3,83,23,75,83,0,0,52,64,49,18,24,66,10,0,23,75,87,76,0,0,0,0,0,0,0,0,0,0,0,0,0,0],"split_type":[0,0,0,0,0,0,0,0,0,0,0,0,0,0,0,0,0,0,0,0,0,0,0,0,0,0,0,0,0,0,0,0,0],"sum_hessian":[4.50841E2,4.4716275E2,3.6782796E0,2.9873517E2,1.4842755E2,2.6436987E0,1.0345807E0,2.8906665E2,9.66854E0,3.1295242E1,1.1713232E2,2.8366022E2,5.4064107E0,7.8613544E0,1.8071856E0,1.5742015E1,1.5553226E1,1.49639225E1,1.02168396E2,2.788229E2,4.8373094E0,4.0830526E0,1.3233578E0,6.336165E0,1.5251895E0,1.0234602E1,5.507413E0,4.7742405E0,1.0778987E1,2.3377187E0,1.2626204E1,3.578603E1,6.638236E1],"tree_param":{"num_deleted":"0","num_feature":"90","num_nodes":"33","size_leaf_vector":"1"}},{"base_weights":[-9.293783E-3,-1.4878798E-2,2.4618739E-1,-3.737231E-3,-7.0975256E-1,-1.5545637E-2,5.9856564E-1,-2.8192735E-1,1.02510065E-1,-2.2304788E-2,6.1183196E-1,-9.509269E-2,9.687321E-1,2.6485983E-3,-7.553465E-2,3.4057415E-1,-1.6657743E-1,3.857108E-1,-3.5865236E-2],"categories":[],"categories_nodes":[],"categories_segments":[],"categories_sizes":[],"default_left":[0,0,0,0,0,0,0,0,0,0,0,0,0,0,0,0,0,0,0],"id":25,"left_children":[1,3,-1,5,7,9,11,-1,-1,13,15,-1,17,-1,-1,-1,-1,-1,-1],"loss_changes":[2.1084087E0,3.4828117E0,0E0,3.1678758E0,2.0380135E0,1.8648076E0,3.2096772E0,0E0,0E0,3.0946918E0,3.4942272E0,0E0,2.3425813E0,0E0,0E0,0E0,0E0,0E0,0E0],"parents":[2147483647,0,0,1,1,3,3,4,4,5,5,6,6,9,9,10,10,12,12],"right_children":[2,4,-1,6,8,10,12,-1,-1,14,16,-1,18,-1,-1,-1,-1,-1,-1],"split_conditions":[9.4E1,6.9E1,2.4618739E-1,4.6E1,1.3286307E0,1.375E1,2.6915628E-1,-2.8192735E-1,1.02510065E-1,1.0356847E0,3.35E2,-9.509269E-2,1.2594744E0,2.6485983E-3,-7.553465E-2,3.4057415E-1,-1.6657743E-1,3.857108E-1,-3.5865236E-2],"split_indices":[24,24,0,24,50,23,50,0,0,50,76,0,50,0,0,0,0,0,0],"split_type":[0,0,0,0,0,0,0,0,0,0,0,0,0,0,0,0,0,0,0],"sum_hessian":[4.5124393E2,4.4920303E2,2.0408828E0,4.4310373E2,6.0993223E0,4.3553897E2,7.564739E0,5.091735E0,1.0075876E0,4.3185083E2,3.6881652E0,2.2193255E0,5.3454137E0,3.8110712E2,5.07437E1,2.5650697E0,1.1230954E0,3.9992096E0,1.3462043E0],"tree_param":{"num_deleted":"0","num_feature":"90","num_nodes":"19","size_leaf_vector":"1"}},{"base_weights":[-6.8070157E-3,-1.1848547E-2,6.469291E-1,-1.9001572E-1,-6.691845E-3,3.2144064E-1,-6.0160745E-2,2.3545198E-4,-4.7987157E-1,-1.7151073E-2,2.7232087E-1,-8.8317406E-1,2.0660068E-1,-3.013993E-3,-2.1091785E-1,1.1947509E-1,-2.4965675E-1,-2.9536295E-1,-7.011909E-2],"categories":[],"categories_nodes":[],"categories_segments":[],"categories_sizes":[],"default_left":[0,0,0,0,0,0,0,0,0,0,0,0,0,0,0,0,0,0,0],"id":26,"left_children":[1,3,5,-1,7,-1,-1,9,11,13,15,17,-1,-1,-1,-1,-1,-1,-1],"loss_changes":[1.4940847E0,1.4333383E0,1.4631056E0,0E0,1.4615469E0,0E0,0E0,2.0881157E0,3.6401694E0,2.0147636E0,4.018977E0,1.1359453E-1,0E0,0E0,0E0,0E0,0E0,0E0,0E0],"parents":[2147483647,0,0,1,1,2,2,4,4,7,7,8,8,9,9,10,10,11,11],"right_children":[2,4,6,-1,8,-1,-1,10,12,14,16,18,-1,-1,-1,-1,-1,-1,-1],"split_conditions":[5E0,-1.1422105E0,-6.362379E-2,-1.9001572E-1,6.1E1,3.2144064E-1,-6.0160745E-2,9E0,3.93945E-1,6E0,1E0,1E0,2.0660068E-1,-3.013993E-3,-2.1091785E-1,1.1947509E-1,-2.4965675E-1,-2.9536295E-1,-7.011909E-2],"split_indices":[35,49,50,0,48,0,0,48,49,48,4,70,0,0,0,0,0,0,0],"split_type":[0,0,0,0,0,0,0,0,0,0,0,0,0,0,0,0,0,0,0],"sum_hessian":[4.499999E2,4.475305E2,2.4694238E0,2.68002E0,4.4485046E2,1.4691347E0,1.000289E0,4.3941696E2,5.4335117E0,4.13905E2,2.551197E1,4.220934E0,1.2125783E0,4.1066608E2,3.2389069E0,2.3474936E1,2.037035E0,3.20474E0,1.0161937E0],"tree_param":{"num_deleted":"0","num_feature":"90","num_nodes":"19","size_leaf_vector":"1"}},{"base_weights":[-6.431684E-3,-3.1515837E-2,1.1219473E-1,-4.2690754E-2,7.1071154E-1,-1.8789467E-1,2.4600475E-1,-3.3980586E-2,-2.7005303E-1,1.0055991E0,-1.9800073E-2,-3.1831762E-1,4.465006E-1,3.150132E-1,-2.3573092E-1,2.7346626E-2,-1.192954E-1,1.3097261E-1,3.960377E-1,-4.0125713E-1,1.1569751E-1,4.3652767E-1,-3.6458448E-1,2.2870526E-1,5.1875925E-1,2.0402608E-2,-1.5045705E-1,-4.716637E-2,1.6403833E-1,-1.5919021E-1,3.782605E-2,5.9700885E-4,-1.686083E-1,9.7100325E-2,-1.6931494E-1],"categories":[],"categories_nodes":[],"categories_segments":[],"categories_sizes":[],"default_left":[0,0,0,0,0,0,0,0,0,0,0,0,0,0,0,0,0,0,0,0,0,0,0,0,0,0,0,0,0,0,0,0,0,0,0],"id":27,"left_children":[1,3,5,7,9,11,13,15,-1,17,-1,19,21,23,-1,25,27,-1,-1,29,-1,-1,31,33,-1,-1,-1,-1,-1,-1,-1,-1,-1,-1,-1],"loss_changes":[1.3427715E0,3.1182308E0,3.2094967E0,2.7157853E0,1.344126E0,2.1991088E0,4.1575966E0,1.9132595E0,0E0,1.5836859E-1,0E0,1.3928635E0,4.3390946E0,5.974219E0,0E0,4.6189017E0,3.9473948E0,0E0,0E0,1.3946049E0,0E0,0E0,2.4576509E-1,3.973779E0,0E0,0E0,0E0,0E0,0E0,0E0,0E0,0E0,0E0,0E0,0E0],"parents":[2147483647,0,0,1,1,2,2,3,3,4,4,5,5,6,6,7,7,9,9,11,11,12,12,13,13,15,15,16,16,19,19,22,22,23,23],"right_children":[2,4,6,8,10,12,14,16,-1,18,-1,20,22,24,-1,26,28,-1,-1,30,-1,-1,32,34,-1,-1,-1,-1,-1,-1,-1,-1,-1,-1,-1],"split_conditions":[1E0,1E0,1E0,8E0,1E0,9.37558E-1,9.721367E-1,3.8363077E-2,-2.7005303E-1,0E0,-1.9800073E-2,3.3E4,-3.0290455E-1,7.894483E-1,-2.3573092E-1,5.154412E0,1.2980022E1,1.3097261E-1,3.960377E-1,1E0,1.1569751E-1,4.3652767E-1,1.1901459E0,4.8387936E-1,5.1875925E-1,2.0402608E-2,-1.5045705E-1,-4.716637E-2,1.6403833E-1,-1.5919021E-1,3.782605E-2,5.9700885E-4,-1.686083E-1,9.7100325E-2,-1.6931494E-1],"split_indices":[69,16,18,33,18,49,49,49,0,25,0,76,50,49,0,81,77,0,0,24,0,0,49,49,0,0,0,0,0,0,0,0,0,0,0],"split_type":[0,0,0,0,0,0,0,0,0,0,0,0,0,0,0,0,0,0,0,0,0,0,0,0,0,0,0,0,0,0,0,0,0,0,0],"sum_hessian":[4.4906592E2,3.7128925E2,7.777665E1,3.6671057E2,4.5786834E0,2.3860853E1,5.39158E1,3.6405225E2,2.6583402E0,3.1051064E0,1.473577E0,2.020518E1,3.6556735E0,5.1186935E1,2.7288623E0,2.1219713E2,1.518551E2,1.9554517E0,1.1496545E0,1.846028E1,1.7448993E0,1.2755314E0,2.380142E0,4.9337578E1,1.84936E0,1.978564E2,1.4340737E1,1.4439737E2,7.4577346E0,1.4818515E1,3.6417656E0,1.1797429E0,1.2003989E0,4.459033E1,4.747249E0],"tree_param":{"num_deleted":"0","num_feature":"90","num_nodes":"35","size_leaf_vector":"1"}},{"base_weights":[-5.47382E-3,-4.0606916E-4,-5.50173E-1,-1.6944389E-1,1.5954757E-2,-2.1184495E-1,-1.10126715E-2,-8.932687E-2,-2.455646E-1,6.538236E-1,-2.3462581E-3,1.0889297E-4,-6.805082E-1,7.6288366E-1,3.1359924E-3,-1.0146835E-2,2.5086582E-1,-9.156921E-2,9.57869E-2,-2.3289175E-1,-4.860539E-2,5.145052E-2,2.674609E-1,-1.3361706E-1,5.3471385E-4],"categories":[],"categories_nodes":[],"categories_segments":[],"categories_sizes":[],"default_left":[0,0,0,0,0,0,0,0,0,0,0,0,0,0,0,0,0,0,0,0,0,0,0,0,0],"id":28,"left_children":[1,3,5,7,9,-1,-1,11,-1,13,15,17,19,21,-1,23,-1,-1,-1,-1,-1,-1,-1,-1,-1],"loss_changes":[1.2366012E0,1.2332025E0,3.048017E-1,1.9732375E0,4.7478147E0,0E0,0E0,1.9113716E0,0E0,7.879448E-1,2.6003904E0,3.2549882E0,1.1017203E-1,5.839882E-1,0E0,2.0442708E0,0E0,0E0,0E0,0E0,0E0,0E0,0E0,0E0,0E0],"parents":[2147483647,0,0,1,1,2,2,3,3,4,4,7,7,9,9,10,10,11,11,12,12,13,13,15,15],"right_children":[2,4,6,8,10,-1,-1,12,-1,14,16,18,20,22,-1,24,-1,-1,-1,-1,-1,-1,-1,-1,-1],"split_conditions":[1E0,1E0,3.25E0,2E0,1E0,-2.1184495E-1,-1.10126715E-2,9.745505E-1,-2.455646E-1,1E0,1E0,-2.5449518E-2,2.52E2,-7.720847E-1,3.1359924E-3,1E0,2.5086582E-1,-9.156921E-2,9.57869E-2,-2.3289175E-1,-4.860539E-2,5.145052E-2,2.674609E-1,-1.3361706E-1,5.3471385E-4],"split_indices":[3,14,23,33,29,0,0,50,0,30,60,50,47,49,0,15,0,0,0,0,0,0,0,0,0],"split_type":[0,0,0,0,0,0,0,0,0,0,0,0,0,0,0,0,0,0,0,0,0,0,0,0,0],"sum_hessian":[4.4705997E2,4.4393048E2,3.1294777E0,3.834972E1,4.0558075E2,2.112492E0,1.0169857E0,3.5149002E1,3.2007184E0,1.0343383E1,3.9523737E2,3.1398722E1,3.7502816E0,8.685339E0,1.6580447E0,3.9257346E2,2.6639304E0,1.6069641E1,1.5329079E1,2.7457304E0,1.0045513E0,1.9687197E0,6.716619E0,9.503338E0,3.830701E2],"tree_param":{"num_deleted":"0","num_feature":"90","num_nodes":"25","size_leaf_vector":"1"}},{"base_weights":[-5.233824E-3,-1.0058282E-2,5.612436E-1,-4.0424345E-3,-2.4767338E-1,-1.0547865E-1,3.248162E-1,-9.430625E-3,4.9581093E-1,4.4296915E-3,-2.9476905E-1,9.543333E-1,-1.3241564E-1,1.5467364E-2,-2.2495348E-2,2.5733754E-2,-2.013346E-1,3.9515978E-1,4.2372502E-2],"categories":[],"categories_nodes":[],"categories_segments":[],"categories_sizes":[],"default_left":[0,0,0,0,0,0,0,0,0,0,0,0,0,0,0,0,0,0,0],"id":29,"left_children":[1,3,5,7,-1,-1,-1,9,11,13,15,17,-1,-1,-1,-1,-1,-1,-1],"loss_changes":[1.2214699E0,2.1656356E0,2.177409E0,1.1893798E0,0E0,0E0,0E0,1.7262677E0,2.4451046E0,1.5643266E0,2.9534097E0,8.4032536E-1,0E0,0E0,0E0,0E0,0E0,0E0,0E0],"parents":[2147483647,0,0,1,1,2,2,3,3,7,7,8,8,9,9,10,10,11,11],"right_children":[2,4,6,8,-1,-1,-1,10,12,14,16,18,-1,-1,-1,-1,-1,-1,-1],"split_conditions":[3.590145E1,2.7450726E1,-8.381742E-2,1E0,-2.4767338E-1,-1.0547865E-1,3.248162E-1,1E0,1E0,1.4281298E0,-2.0695284E-1,-3.4838423E-1,-1.3241564E-1,1.5467364E-2,-2.2495348E-2,2.5733754E-2,-2.013346E-1,3.9515978E-1,4.2372502E-2],"split_indices":[75,75,50,7,0,0,0,53,27,89,49,49,0,0,0,0,0,0,0],"split_type":[0,0,0,0,0,0,0,0,0,0,0,0,0,0,0,0,0,0,0],"sum_hessian":[4.4387686E2,4.4110242E2,2.7744458E0,4.3886996E2,2.2324572E0,1.1271513E0,1.6472945E0,4.3516028E2,3.7096953E0,4.1594043E2,1.9219833E1,2.478706E0,1.2309896E0,2.6125183E2,1.5468861E2,9.940459E0,9.279374E0,1.2851715E0,1.1935343E0],"tree_param":{"num_deleted":"0","num_feature":"90","num_nodes":"19","size_leaf_vector":"1"}},{"base_weights":[-4.205147E-3,7.013633E-3,-2.2755629E-1,-7.779807E-2,4.951131E-2,-4.2672408E-1,3.3472222E-1,-2.547387E-1,7.114504E-2,3.9245665E-2,8.026308E-1,5.575019E-1,-6.202624E-1,6.554407E-1,-1.983985E-1,-1.3712427E-1,-7.1973383E-1,6.426664E-1,1.3567201E-2,3.1416792E-2,2.8535992E-1,3.657769E-1,-3.602599E-2,5.1432177E-3,2.4803002E-1,-7.224284E-1,3.551398E-2,2.8293303E-1,-2.1529062E-2,-2.2514041E-1,1.3760795E-1,-9.2666514E-2,1.0392007E-1,-2.697519E-1,-9.425753E-2,-8.727512E-3,4.9227536E-1,7.6530784E-2,-4.9393993E-2,-3.8985037E-3,6.1887097E-2,-2.5478572E-1,-3.5583857E-2],"categories":[],"categories_nodes":[],"categories_segments":[],"categories_sizes":[],"default_left":[0,0,0,0,0,0,0,0,0,0,0,0,0,0,0,0,0,0,0,0,0,0,0,0,0,0,0,0,0,0,0,0,0,0,0,0,0,0,0,0,0,0,0],"id":30,"left_children":[1,3,5,7,9,11,13,15,17,19,21,23,25,27,29,31,33,35,37,39,-1,-1,-1,-1,-1,41,-1,-1,-1,-1,-1,-1,-1,-1,-1,-1,-1,-1,-1,-1,-1,-1,-1],"loss_changes":[1.1139024E0,1.5307959E0,2.5237594E0,3.755334E0,2.1551888E0,3.4200687E0,1.1766922E0,3.4578395E0,2.5506873E0,1.9698061E0,1.5888097E0,4.4833028E-1,1.1390319E0,9.1585326E-1,1.4568096E0,4.5202165E0,6.5569115E-1,4.806814E0,3.1274686E0,2.167466E0,0E0,0E0,0E0,0E0,0E0,8.494582E-1,0E0,0E0,0E0,0E0,0E0,0E0,0E0,0E0,0E0,0E0,0E0,0E0,0E0,0E0,0E0,0E0,0E0],"parents":[2147483647,0,0,1,1,2,2,3,3,4,4,5,5,6,6,7,7,8,8,9,9,10,10,11,11,12,12,13,13,14,14,15,15,16,16,17,17,18,18,19,19,25,25],"right_children":[2,4,6,8,10,12,14,16,18,20,22,24,26,28,30,32,34,36,38,40,-1,-1,-1,-1,-1,42,-1,-1,-1,-1,-1,-1,-1,-1,-1,-1,-1,-1,-1,-1,-1,-1,-1],"split_conditions":[8E0,0E0,1.35E1,-6.604089E-3,1E0,-4.7512335E-1,1.35574E0,1E0,-6.315353E-1,9.4E1,5.5574E-1,-6.1254776E-1,6.2E1,6.063147E-1,4.7945723E-1,2.2753623E-1,1E0,1E0,3.7910438E-1,1E0,2.8535992E-1,3.657769E-1,-3.602599E-2,5.1432177E-3,2.4803002E-1,1E0,3.551398E-2,2.8293303E-1,-2.1529062E-2,-2.2514041E-1,1.3760795E-1,-9.2666514E-2,1.0392007E-1,-2.697519E-1,-9.425753E-2,-8.727512E-3,4.9227536E-1,7.6530784E-2,-4.9393993E-2,-3.8985037E-3,6.1887097E-2,-2.5478572E-1,-3.5583857E-2],"split_indices":[23,25,23,49,22,49,50,10,50,24,50,49,40,49,77,75,65,11,49,71,0,0,0,0,0,66,0,0,0,0,0,0,0,0,0,0,0,0,0,0,0,0,0],"split_type":[0,0,0,0,0,0,0,0,0,0,0,0,0,0,0,0,0,0,0,0,0,0,0,0,0,0,0,0,0,0,0,0,0,0,0,0,0,0,0,0,0,0,0],"sum_hessian":[4.4290564E2,4.2264505E2,2.0260584E1,1.4080763E2,2.8183743E2,1.5139144E1,5.1214395E0,6.403061E1,7.677703E1,2.7908536E2,2.7520545E0,2.1787384E0,1.2960405E1,3.0544693E0,2.0669703E0,5.21379E1,1.1892704E1,6.0969195E0,7.0680115E1,2.7773553E2,1.3498327E0,1.6745746E0,1.0774798E0,1.0783622E0,1.1003761E0,1.1404879E1,1.5555263E0,1.9759281E0,1.0785414E0,1.0460247E0,1.0209455E0,3.873803E1,1.3399873E1,7.4008536E0,4.49185E0,4.224777E0,1.8721424E0,2.982563E1,4.0854485E1,2.2222403E2,5.5511505E1,9.088846E0,2.316033E0],"tree_param":{"num_deleted":"0","num_feature":"90","num_nodes":"43","size_leaf_vector":"1"}},{"base_weights":[-3.5395215E-3,1.0602667E-4,-1.8967779E-1,-1.4512042E-2,1.7780188E-1,-2.4022447E-2,4.688161E-1,4.3699515E-1,-8.207847E-1,-1.2192019E-2,-5.366689E-1,9.9242693E-1,-3.4685346E-1,1.1199186E0,1.9894008E-1,-2.7022573E-1,-6.3191056E-2,1.9924028E-3,-8.440943E-2,-2.286168E-1,1.8673824E-1,1.2015567E-1,3.9838216E-1,-2.2230431E-1,9.166699E-2,4.2489502E-1,1.0351863E-1,-1.3722374E-2,2.8064826E-1],"categories":[],"categories_nodes":[],"categories_segments":[],"categories_sizes":[],"default_left":[0,0,0,0,0,0,0,0,0,0,0,0,0,0,0,0,0,0,0,0,0,0,0,0,0,0,0,0,0],"id":31,"left_children":[1,3,-1,5,7,9,11,13,15,17,19,21,23,25,27,-1,-1,-1,-1,-1,-1,-1,-1,-1,-1,-1,-1,-1,-1],"loss_changes":[1.0141824E0,1.1478552E0,0E0,1.8881336E0,9.0524435E0,2.4277885E0,3.7302427E0,4.2186923E0,1.6494846E-1,1.9959513E0,2.8336327E0,4.78467E-1,1.2140492E0,1.0834961E0,3.9129012E0,0E0,0E0,0E0,0E0,0E0,0E0,0E0,0E0,0E0,0E0,0E0,0E0,0E0,0E0],"parents":[2147483647,0,0,1,1,3,3,4,4,5,5,6,6,7,7,8,8,9,9,10,10,11,11,12,12,13,13,14,14],"right_children":[2,4,-1,6,8,10,12,14,16,18,20,22,24,26,28,-1,-1,-1,-1,-1,-1,-1,-1,-1,-1,-1,-1,-1,-1],"split_conditions":[1.6269062E0,9.37558E-1,-1.8967779E-1,2.1302905E0,2.7E4,6.3E1,7.246377E-1,-3.0290455E-1,3.590145E1,6.863058E-1,4.5E0,5.625E-1,3.1202898E0,1E0,1.6901621E0,-2.7022573E-1,-6.3191056E-2,1.9924028E-3,-8.440943E-2,-2.286168E-1,1.8673824E-1,1.2015567E-1,3.9838216E-1,-2.2230431E-1,9.166699E-2,4.2489502E-1,1.0351863E-1,-1.3722374E-2,2.8064826E-1],"split_indices":[49,49,0,50,76,24,75,50,75,49,25,23,75,65,77,0,0,0,0,0,0,0,0,0,0,0,0,0,0],"split_type":[0,0,0,0,0,0,0,0,0,0,0,0,0,0,0,0,0,0,0,0,0,0,0,0,0,0,0,0,0],"sum_hessian":[4.4145328E2,4.3990237E2,1.5508842E0,4.0731326E2,3.2589108E1,4.0038522E2,6.9280467E0,2.6319899E1,6.2692103E0,3.9235458E2,8.030649E0,4.0874486E0,2.840598E0,5.845654E0,2.0474245E1,5.121665E0,1.1475452E0,3.676092E2,2.4745392E1,7.010126E0,1.0205227E0,2.2723503E0,1.815098E0,1.686107E0,1.1544911E0,3.629467E0,2.216187E0,1.6072802E1,4.4014435E0],"tree_param":{"num_deleted":"0","num_feature":"90","num_nodes":"29","size_leaf_vector":"1"}},{"base_weights":[-3.240714E-3,8.047109E-3,-2.0483744E-1,1.2663001E-3,4.44229E-1,-3.0073702E-1,3.5138682E-1,9.70964E-3,-6.8425196E-1,3.3208394E-1,5.9744235E-2,-2.5344834E-1,-1.5515941E-1,-5.4184843E-2,1.9405653E-1,-6.8048225E-4,7.475939E-1,-2.8489214E-1,-6.101353E-3,-1.8095917E-1,5.567986E-1,-2.545735E-1,1.6482565E-1,3.5144256E-3,-1.2989752E-1,-1.1480858E-1,3.3221668E-1,5.0012283E-3,2.4361219E-1,3.189253E-2,-1.6701066E-1],"categories":[],"categories_nodes":[],"categories_segments":[],"categories_sizes":[],"default_left":[0,0,0,0,0,0,0,0,0,0,0,0,0,0,0,0,0,0,0,0,0,0,0,0,0,0,0,0,0,0,0],"id":32,"left_children":[1,3,5,7,9,11,13,15,17,-1,19,-1,21,-1,-1,23,25,-1,-1,-1,27,29,-1,-1,-1,-1,-1,-1,-1,-1,-1],"loss_changes":[1.006783E0,1.2394239E0,1.3569814E0,2.4019186E0,1.5684087E0,1.4964268E0,7.315842E-1,3.1421804E0,8.702967E-1,0E0,2.0218978E0,0E0,1.3611152E0,0E0,0E0,2.1757882E0,2.7381248E0,0E0,0E0,0E0,4.6129155E-1,1.7996382E0,0E0,0E0,0E0,0E0,0E0,0E0,0E0,0E0,0E0],"parents":[2147483647,0,0,1,1,2,2,3,3,4,4,5,5,6,6,7,7,8,8,10,10,12,12,15,15,16,16,20,20,21,21],"right_children":[2,4,6,8,10,12,14,16,18,-1,20,-1,22,-1,-1,24,26,-1,-1,-1,28,30,-1,-1,-1,-1,-1,-1,-1,-1,-1],"split_conditions":[1E0,3.82249E3,1.1615491E0,1.5034E3,4.54415E3,1E0,3.228583E-1,7E2,1E0,3.3208394E-1,1E0,-2.5344834E-1,2.7E1,-5.4184843E-2,1.9405653E-1,1.458E2,1.1E1,-2.8489214E-1,-6.101353E-3,-1.8095917E-1,6.25E-1,-2.0470263E-1,1.6482565E-1,3.5144256E-3,-1.2989752E-1,-1.1480858E-1,3.3221668E-1,5.0012283E-3,2.4361219E-1,3.189253E-2,-1.6701066E-1],"split_indices":[12,47,50,47,47,10,49,47,21,0,24,0,40,0,0,47,48,0,0,0,23,50,0,0,0,0,0,0,0,0,0],"split_type":[0,0,0,0,0,0,0,0,0,0,0,0,0,0,0,0,0,0,0,0,0,0,0,0,0,0,0,0,0,0,0],"sum_hessian":[4.4070325E2,4.1824493E2,2.2458326E1,4.1283005E2,5.4148817E0,1.9547441E1,2.9108841E0,4.0878104E2,4.0490074E0,1.2981999E0,4.116682E0,3.1122496E0,1.6435192E1,1.1781992E0,1.732685E0,4.0409015E2,4.6909013E0,2.5852363E0,1.4637711E0,1.6724818E0,2.4442E0,1.4962685E1,1.4725074E0,3.9377277E2,1.0317357E1,1.1172942E0,3.5736072E0,1.1262374E0,1.3179628E0,7.1137276E0,7.848957E0],"tree_param":{"num_deleted":"0","num_feature":"90","num_nodes":"31","size_leaf_vector":"1"}},{"base_weights":[-2.9072764E-3,2.769656E-3,-3.7972918E-1,-1.3363211E-3,2.0416962E-1,-2.1737385E-1,-1.5100698E-1,-7.526486E-3,3.6825094E-1,2.604991E-1,-1.9134828E-1,5.7304744E-4,-3.9821824E-1,-1.8412793E-1,7.785375E-1,-3.9685704E-2,1.5465407E-1,-1.1185495E-3,2.674336E-1,6.0402647E-2,-2.8514507E-1,1.8532415E-1,-2.0713885E-1,3.720509E-1,-6.838079E-2],"categories":[],"categories_nodes":[],"categories_segments":[],"categories_sizes":[],"default_left":[0,0,0,0,0,0,0,0,0,0,0,0,0,0,0,0,0,0,0,0,0,0,0,0,0],"id":33,"left_children":[1,3,5,7,-1,-1,9,11,13,15,-1,17,19,21,23,-1,-1,-1,-1,-1,-1,-1,-1,-1,-1],"loss_changes":[9.4383764E-1,1.2119995E0,4.0707856E-1,9.946497E-1,0E0,0E0,1.20793E0,1.3526635E0,1.7664728E0,4.215967E-1,0E0,1.6116915E0,3.06605E0,1.99421E0,2.2809021E0,0E0,0E0,0E0,0E0,0E0,0E0,0E0,0E0,0E0,0E0],"parents":[2147483647,0,0,1,1,2,2,3,3,6,6,7,7,8,8,9,9,11,11,12,12,13,13,14,14],"right_children":[2,4,6,8,-1,-1,10,12,14,16,-1,18,20,22,24,-1,-1,-1,-1,-1,-1,-1,-1,-1,-1],"split_conditions":[1.4072645E0,1.3654139E0,-2.8575382E-1,1.9843895E1,2.0416962E-1,-2.1737385E-1,4.0082988E-1,1.1928903E1,3.1499276E-1,1.1811895E-1,-1.9134828E-1,1.7320508E6,5.625E-1,2.2670938E1,9.000111E-1,-3.9685704E-2,1.5465407E-1,-1.1185495E-3,2.674336E-1,6.0402647E-2,-2.8514507E-1,1.8532415E-1,-2.0713885E-1,3.720509E-1,-6.838079E-2],"split_indices":[49,49,50,89,0,0,50,89,49,50,0,82,23,77,49,0,0,0,0,0,0,0,0,0,0],"split_type":[0,0,0,0,0,0,0,0,0,0,0,0,0,0,0,0,0,0,0,0,0,0,0,0,0],"sum_hessian":[4.3972043E2,4.3417215E2,5.5482802E0,4.3254984E2,1.6222888E0,1.3479686E0,4.2003117E0,4.2638797E2,6.161877E0,2.528167E0,1.6721449E0,4.187062E2,7.6817756E0,2.8611126E0,3.3007646E0,1.1847004E0,1.3434666E0,4.1768524E2,1.0209638E0,3.987844E0,3.6939313E0,1.0222127E0,1.8388999E0,2.1036878E0,1.1970767E0],"tree_param":{"num_deleted":"0","num_feature":"90","num_nodes":"25","size_leaf_vector":"1"}},{"base_weights":[-2.195456E-3,-5.0523937E-2,4.535332E-2,-1.3754175E-2,-4.3410784E-1,4.0931925E-1,-1.16188545E-2,1.9513136E-2,-4.0371165E-1,-8.0206084E-1,7.7865504E-2,5.010914E-1,-1.8316081E-1,7.0483885E-3,-5.130984E-1,5.5640675E-3,3.4500796E-1,-9.147801E-2,-7.7212095E-1,-8.641954E-1,-2.5259605E-2,-2.6831552E-1,2.726994E-1,5.9164625E-1,-1.7898673E-1,5.4668065E-2,-1.760397E-1,-7.159103E-1,4.637339E-2,-8.212275E-3,1.5223776E-1,-9.1523655E-2,2.3247221E-1,-2.6310718E-1,-2.462789E-2,-2.8438556E-1,-2.6986176E-2,1.4798923E-1,-1.6179103E-1,6.305465E-2,2.7074802E-1,3.0039998E-2,-9.9090435E-2,-2.9501435E-1,-1.1561919E-3,-2.4253336E-1,-5.788895E-2],"categories":[],"categories_nodes":[],"categories_segments":[],"categories_sizes":[],"default_left":[0,0,0,0,0,0,0,0,0,0,0,0,0,0,0,0,0,0,0,0,0,0,0,0,0,0,0,0,0,0,0,0,0,0,0,0,0,0,0,0,0,0,0,0,0,0,0],"id":34,"left_children":[1,3,5,7,9,11,13,15,17,19,21,23,-1,25,27,29,-1,31,33,35,-1,37,-1,39,-1,41,43,45,-1,-1,-1,-1,-1,-1,-1,-1,-1,-1,-1,-1,-1,-1,-1,-1,-1,-1,-1],"loss_changes":[1.0136869E0,3.079303E0,4.6160197E0,2.610817E0,3.6608975E0,3.1255412E0,1.8127186E0,2.9240298E0,1.7488749E0,4.2691898E-1,2.804396E0,3.1549683E0,0E0,1.6426637E0,1.0516675E0,3.0650852E0,0E0,2.0307548E0,4.4351387E-1,5.763235E-1,0E0,1.7220095E0,0E0,2.9575758E0,0E0,2.648111E0,5.4035373E0,1.10518694E-1,0E0,0E0,0E0,0E0,0E0,0E0,0E0,0E0,0E0,0E0,0E0,0E0,0E0,0E0,0E0,0E0,0E0,0E0,0E0],"parents":[2147483647,0,0,1,1,2,2,3,3,4,4,5,5,6,6,7,7,8,8,9,9,10,10,11,11,13,13,14,14,15,15,17,17,18,18,19,19,21,21,23,23,25,25,26,26,27,27],"right_children":[2,4,6,8,10,12,14,16,18,20,22,24,-1,26,28,30,-1,32,34,36,-1,38,-1,40,-1,42,44,46,-1,-1,-1,-1,-1,-1,-1,-1,-1,-1,-1,-1,-1,-1,-1,-1,-1,-1,-1],"split_conditions":[1.25E-1,3E0,3.125E-1,1.0356847E0,4.7E1,1E0,1E0,1E0,1.2416852E0,1E0,1E0,1.1E1,-1.8316081E-1,3.79384E5,1E0,2.5E0,3.4500796E-1,1E0,5.50713E5,1.0273858E0,-2.5259605E-2,-3.8548586E-1,2.726994E-1,-2.127407E-1,-1.7898673E-1,3E0,3.4641016E5,2E0,4.637339E-2,-8.212275E-3,1.5223776E-1,-9.1523655E-2,2.3247221E-1,-2.6310718E-1,-2.462789E-2,-2.8438556E-1,-2.6986176E-2,1.4798923E-1,-1.6179103E-1,6.305465E-2,2.7074802E-1,3.0039998E-2,-9.9090435E-2,-2.9501435E-1,-1.1561919E-3,-2.4253336E-1,-5.788895E-2],"split_indices":[23,38,23,50,40,63,53,46,87,70,69,36,0,76,21,25,0,69,76,50,0,49,0,49,0,25,82,25,0,0,0,0,0,0,0,0,0,0,0,0,0,0,0,0,0,0,0],"split_type":[0,0,0,0,0,0,0,0,0,0,0,0,0,0,0,0,0,0,0,0,0,0,0,0,0,0,0,0,0,0,0,0,0,0,0,0,0,0,0,0,0,0,0,0,0,0,0],"sum_hessian":[4.3912756E2,2.177472E2,2.2138037E2,1.9964536E2,1.8101837E1,2.9125835E1,1.9225453E2,1.8482765E2,1.4817704E1,1.020264E1,7.899198E0,2.7187977E1,1.9378586E0,1.8630539E2,5.949149E0,1.8356758E2,1.2600644E0,8.695995E0,6.1217093E0,9.20229E0,1.00035E0,6.0545444E0,1.8446536E0,2.5541939E1,1.6460383E0,1.484073E2,3.7898083E1,4.507668E0,1.441481E0,1.731496E2,1.0417985E1,7.4958267E0,1.2001681E0,5.0786233E0,1.0430862E0,8.101516E0,1.1007731E0,1.373618E0,4.680927E0,1.22209015E1,1.3321037E1,1.3339331E2,1.5013982E1,5.833747E0,3.206434E1,3.366105E0,1.1415629E0],"tree_param":{"num_deleted":"0","num_feature":"90","num_nodes":"47","size_leaf_vector":"1"}},{"base_weights":[-5.413967E-3,-1.6092475E-1,9.620286E-3,-9.1527976E-2,-2.3477638E-1,-9.958878E-4,7.216698E-1,2.6417427E-2,-4.858004E-1,-5.7585463E-3,1.8367276E-1,-4.1069537E-3,3.1960154E-1,-2.494699E-1,4.5898578E-1,-6.689755E-1,9.171813E-2,-8.869813E-2,3.5146676E-2,-1.3497625E-1,9.7491756E-2,-4.4322763E-2,2.4804401E-1,-2.6190874E-1,2.6142342E-2,-3.6477372E-2,1.9002326E-1,2.287785E-2,-5.3077336E-2],"categories":[],"categories_nodes":[],"categories_segments":[],"categories_sizes":[],"default_left":[0,0,0,0,0,0,0,0,0,0,0,0,0,0,0,0,0,0,0,0,0,0,0,0,0,0,0,0,0],"id":35,"left_children":[1,3,5,7,-1,9,11,13,15,17,-1,-1,-1,19,21,23,-1,25,27,-1,-1,-1,-1,-1,-1,-1,-1,-1,-1],"loss_changes":[1.0266396E0,1.5982729E0,3.0300288E0,1.6847433E0,0E0,1.1596755E0,1.5027027E0,3.530346E0,1.4123133E0,1.3391281E0,0E0,0E0,0E0,2.2331827E0,2.6882753E0,1.168196E0,0E0,3.1731858E0,2.319124E0,0E0,0E0,0E0,0E0,0E0,0E0,0E0,0E0,0E0,0E0],"parents":[2147483647,0,0,1,1,2,2,3,3,5,5,6,6,7,7,8,8,9,9,13,13,14,14,15,15,17,17,18,18],"right_children":[2,4,6,8,-1,10,12,14,16,18,-1,-1,-1,20,22,24,-1,26,28,-1,-1,-1,-1,-1,-1,-1,-1,-1,-1],"split_conditions":[1E0,2E0,1E0,1.25E0,-2.3477638E-1,1E0,-4.4868603E-1,1E0,1E0,0E0,1.8367276E-1,-4.1069537E-3,3.1960154E-1,2.5E-1,-2.5449514E-2,6.75E0,9.171813E-2,1E0,3.375E0,-1.3497625E-1,9.7491756E-2,-4.4322763E-2,2.4804401E-1,-2.6190874E-1,2.6142342E-2,-3.6477372E-2,1.9002326E-1,2.287785E-2,-5.3077336E-2],"split_indices":[14,33,54,23,0,60,50,73,71,25,0,0,0,23,50,23,0,46,23,0,0,0,0,0,0,0,0,0,0],"split_type":[0,0,0,0,0,0,0,0,0,0,0,0,0,0,0,0,0,0,0,0,0,0,0,0,0,0,0,0,0],"sum_hessian":[4.3745023E2,3.770762E1,3.997426E2,3.4953014E1,2.7546031E0,3.9485422E2,4.8884063E0,2.7622751E1,7.330265E0,3.9279422E2,2.0599897E0,1.8627598E0,3.0256462E0,1.7124327E1,1.0498425E1,6.078427E0,1.2518381E0,1.2935175E2,2.6344247E2,1.2855268E1,4.269059E0,4.188262E0,6.310163E0,4.6648884E0,1.4135387E0,1.2451168E2,4.840071E0,2.2120026E2,4.2242214E1],"tree_param":{"num_deleted":"0","num_feature":"90","num_nodes":"29","size_leaf_vector":"1"}},{"base_weights":[-4.399581E-3,6.7711424E-4,-3.8183737E-1,-1.1446906E-2,1.7028867E-1,-2.79992E-1,4.0065843E-1,-2.1456122E-2,3.7706923E-1,8.0120784E-1,-2.6656654E-2,-1.6658008E-2,1.9819327E-1,-1.1171905E-2,-6.8985355E-1,-3.5052466E-1,7.3324996E-1,3.6510336E-1,1.7039463E-1,-2.8689358E-1,1.4983036E-1,-5.5366936E-3,1.8408579E-1,-2.7098495E-1,2.1512069E-2,7.680705E-2,-2.2102334E-1,-1.1311784E-1,3.6809552E-1,-1.3352674E-1,2.4691625E-1,1.8831635E-1,-5.487146E-2],"categories":[],"categories_nodes":[],"categories_segments":[],"categories_sizes":[],"default_left":[0,0,0,0,0,0,0,0,0,0,0,0,0,0,0,0,0,0,0,0,0,0,0,0,0,0,0,0,0,0,0,0,0],"id":36,"left_children":[1,3,5,7,9,-1,11,13,15,17,19,-1,-1,21,23,25,27,-1,29,-1,31,-1,-1,-1,-1,-1,-1,-1,-1,-1,-1,-1,-1],"loss_changes":[8.3401275E-1,8.869012E-1,2.8667014E0,1.5735949E0,3.596517E0,0E0,4.028968E-1,2.6965632E0,2.8912613E0,1.5964327E0,3.8997762E0,0E0,0E0,1.7791522E0,1.0310614E0,1.1296947E0,4.3809156E0,0E0,1.9309322E0,0E0,3.3120372E0,0E0,0E0,0E0,0E0,0E0,0E0,0E0,0E0,0E0,0E0,0E0,0E0],"parents":[2147483647,0,0,1,1,2,2,3,3,4,4,6,6,7,7,8,8,9,9,10,10,13,13,14,14,15,15,16,16,18,18,20,20],"right_children":[2,4,6,8,10,-1,12,14,16,18,20,-1,-1,22,24,26,28,-1,30,-1,32,-1,-1,-1,-1,-1,-1,-1,-1,-1,-1,-1,-1],"split_conditions":[6.1E1,4.51E1,1.4002152E-1,6E0,1.458E2,-2.79992E-1,1E1,6.3E1,3.5325035E-1,1.687414E-2,3.2967E2,-1.6658008E-2,1.9819327E-1,4.6E1,4.739706E0,-2.5251365E-1,-8.852447E-2,3.6510336E-1,1E0,-2.8689358E-1,5E-1,-5.5366936E-3,1.8408579E-1,-2.7098495E-1,2.1512069E-2,7.680705E-2,-2.2102334E-1,-1.1311784E-1,3.6809552E-1,-1.3352674E-1,2.4691625E-1,1.8831635E-1,-5.487146E-2],"split_indices":[48,47,49,25,47,0,24,24,50,50,47,0,0,24,81,49,49,0,69,0,23,0,0,0,0,0,0,0,0,0,0,0,0],"split_type":[0,0,0,0,0,0,0,0,0,0,0,0,0,0,0,0,0,0,0,0,0,0,0,0,0,0,0,0,0,0,0,0,0],"sum_hessian":[4.3412253E2,4.2934586E2,4.7766743E0,4.0157346E2,2.7772402E1,2.6889136E0,2.0877607E0,3.9240872E2,9.164726E0,5.877027E0,2.1895374E1,1.0433923E0,1.0443685E0,3.8746378E2,4.944951E0,3.017191E0,6.1475353E0,2.9820933E0,2.8949335E0,2.788452E0,1.9106922E1,3.839581E2,3.5056763E0,3.7171216E0,1.2278295E0,1.3049324E0,1.7122587E0,1.9649885E0,4.182547E0,1.65358E0,1.2413535E0,7.4788623E0,1.162806E1],"tree_param":{"num_deleted":"0","num_feature":"90","num_nodes":"33","size_leaf_vector":"1"}},{"base_weights":[-3.8059778E-3,-1.533981E-1,-1.4701068E-4,1.9542238E-1,-1.2177418E-2,-6.256734E-2,6.1507165E-1,-1.9628169E-2,4.856674E-1,4.9914137E-1,-3.363121E-1,-3.067906E-1,1.2024535E0,-5.0346743E-2,9.928591E-2,8.4245694E-1,-8.386163E-2,4.0948263E-1,-3.6431048E-2,-1.6039552E-1,2.6381668E-1,-2.1661651E-1,7.625046E-2,5.8356833E-1,9.371398E-3,-1.3653045E-3,-7.980392E-2,1.3297085E-1,-1.8217199E-2,7.393276E-2,3.3671397E-1],"categories":[],"categories_nodes":[],"categories_segments":[],"categories_sizes":[],"default_left":[0,0,0,0,0,0,0,0,0,0,0,0,0,0,0,0,0,0,0,0,0,0,0,0,0,0,0,0,0,0,0],"id":37,"left_children":[1,-1,3,5,7,9,11,13,15,17,19,21,23,25,27,29,-1,-1,-1,-1,-1,-1,-1,-1,-1,-1,-1,-1,-1,-1,-1],"loss_changes":[8.0421567E-1,0E0,1.0164572E0,2.7489924E0,1.5191388E0,2.6914392E0,5.580121E0,1.4732223E0,1.8844845E0,3.2713695E0,3.2748508E0,1.2416257E0,5.2299824E0,3.160144E0,4.586678E0,4.5220542E-1,0E0,0E0,0E0,0E0,0E0,0E0,0E0,0E0,0E0,0E0,0E0,0E0,0E0,0E0,0E0],"parents":[2147483647,0,0,2,2,3,3,4,4,5,5,6,6,7,7,8,8,9,9,10,10,11,11,12,12,13,13,14,14,15,15],"right_children":[2,-1,4,6,8,10,12,14,16,18,20,22,24,26,28,30,-1,-1,-1,-1,-1,-1,-1,-1,-1,-1,-1,-1,-1,-1,-1],"split_conditions":[-1.1422105E0,-1.533981E-1,-6.315353E-1,1E0,1E0,-6.190777E-1,-6.7966807E-1,3.3114767E0,5.742739E-1,-6.901798E-1,1.2625682E0,1E0,1E0,1.7820711E0,4.3104215E0,1E0,-8.386163E-2,4.0948263E-1,-3.6431048E-2,-1.6039552E-1,2.6381668E-1,-2.1661651E-1,7.625046E-2,5.8356833E-1,9.371398E-3,-1.3653045E-3,-7.980392E-2,1.3297085E-1,-1.8217199E-2,7.393276E-2,3.3671397E-1],"split_indices":[49,0,50,11,16,49,50,83,50,50,49,55,13,89,87,65,0,0,0,0,0,0,0,0,0,0,0,0,0,0,0],"split_type":[0,0,0,0,0,0,0,0,0,0,0,0,0,0,0,0,0,0,0,0,0,0,0,0,0,0,0,0,0,0,0],"sum_hessian":[4.3211243E2,2.0998812E0,4.3001254E2,2.4035831E1,4.059767E2,1.5411895E1,8.623937E0,4.0093686E2,5.0398507E0,4.7800727E0,1.0631822E1,3.5422602E0,5.0816765E0,3.1908545E2,8.1851395E1,3.3683503E0,1.6715008E0,1.4949385E0,3.2851343E0,9.622189E0,1.0096331E0,1.8704388E0,1.6718214E0,2.7052007E0,2.3764758E0,2.640391E2,5.5046356E1,2.5426233E1,5.6425163E1,1.6773394E0,1.6910107E0],"tree_param":{"num_deleted":"0","num_feature":"90","num_nodes":"31","size_leaf_vector":"1"}},{"base_weights":[-1.973056E-3,2.0144102E-3,-4.7710752E-1,5.013648E-3,-1.855272E-1,-1.9122928E-1,-1.5857108E-2,5.2647194E-4,4.13017E-1,7.288847E-3,-2.7977553E-1,3.323759E-1,-1.3803753E-1,1.3453169E-2,-1.7886713E-2,-2.148482E-1,1.1306689E-1,-2.0887923E-1,1.6153046E-1],"categories":[],"categories_nodes":[],"categories_segments":[],"categories_sizes":[],"default_left":[0,0,0,0,0,0,0,0,0,0,0,0,0,0,0,0,0,0,0],"id":38,"left_children":[1,3,5,7,-1,-1,-1,9,11,13,15,-1,17,-1,-1,-1,-1,-1,-1],"loss_changes":[8.1918615E-1,8.019187E-1,2.1106547E-1,7.83732E-1,0E0,0E0,0E0,8.067724E-1,1.9361746E0,1.0468177E0,3.143085E0,0E0,1.6914638E0,0E0,0E0,0E0,0E0,0E0,0E0],"parents":[2147483647,0,0,1,1,2,2,3,3,7,7,8,8,9,9,10,10,12,12],"right_children":[2,4,6,8,-1,-1,-1,10,12,14,16,-1,18,-1,-1,-1,-1,-1,-1],"split_conditions":[1E0,1E1,1E0,1E0,-1.855272E-1,-1.9122928E-1,-1.5857108E-2,1E0,1E0,1.4435858E0,2.518847E0,3.323759E-1,1.389855E0,1.3453169E-2,-1.7886713E-2,-2.148482E-1,1.1306689E-1,-2.0887923E-1,1.6153046E-1],"split_indices":[3,25,51,7,0,0,0,52,51,89,87,0,75,0,0,0,0,0,0],"split_type":[0,0,0,0,0,0,0,0,0,0,0,0,0,0,0,0,0,0,0],"sum_hessian":[4.3087616E2,4.2827768E2,2.5984702E0,4.2720447E2,1.0732139E0,1.5211455E0,1.0773246E0,4.2354764E2,3.65684E0,4.1452118E2,9.02646E0,1.1703879E0,2.486452E0,2.6571436E2,1.4880682E2,5.36834E0,3.658119E0,1.3462591E0,1.1401931E0],"tree_param":{"num_deleted":"0","num_feature":"90","num_nodes":"19","size_leaf_vector":"1"}},{"base_weights":[-2.4000846E-3,-1.4340423E-1,1.08371945E-2,-2.4963804E-1,2.2475746E-1,4.6700072E-1,-5.794567E-4,-1.1367245E-1,-5.822684E-1,6.599219E-1,-3.795921E-1,5.7454497E-1,-1.5374127E-2,-7.0071584E-3,4.6943256E-1,-2.9004735E-1,1.5335687E-1,-2.4783818E-1,-2.2028941E-1,1.0337138E0,9.507275E-2,8.3748385E-2,-2.1921128E-1,5.5511277E-3,7.273681E-1,4.0484034E-3,-4.866897E-1,-1.2810476E-1,2.8901267E-1,5.649172E-2,-1.8042092E-1,1.713462E-1,-1.9277516E-1,5.775325E-2,-1.8883066E-1,3.708219E-1,9.165237E-2,1.3692585E-1,-7.9182856E-2,2.841022E-1,1.5592967E-2,-1.04410805E-1,3.8443336E-3,-5.579751E-3,-2.4788925E-1,1.10001E-1,-1.6991208E-1],"categories":[],"categories_nodes":[],"categories_segments":[],"categories_sizes":[],"default_left":[0,0,0,0,0,0,0,0,0,0,0,0,0,0,0,0,0,0,0,0,0,0,0,0,0,0,0,0,0,0,0,0,0,0,0,0,0,0,0,0,0,0,0,0,0,0,0],"id":39,"left_children":[1,3,5,7,9,11,13,15,17,19,21,23,-1,25,27,29,31,-1,33,35,37,-1,-1,-1,39,41,43,45,-1,-1,-1,-1,-1,-1,-1,-1,-1,-1,-1,-1,-1,-1,-1,-1,-1,-1,-1],"loss_changes":[8.068405E-1,1.5070236E0,2.0591576E0,1.2572955E0,2.5736575E0,5.6751084E-1,1.1715117E0,1.0813359E0,5.4611444E-1,1.0631402E0,1.2061398E0,6.7288303E-1,0E0,2.0301983E0,1.6675049E0,2.1393948E0,3.496637E0,0E0,9.122323E-1,9.523797E-2,5.47518E-1,0E0,0E0,0E0,8.867457E-1,1.1613367E0,1.355628E0,9.1244745E-1,0E0,0E0,0E0,0E0,0E0,0E0,0E0,0E0,0E0,0E0,0E0,0E0,0E0,0E0,0E0,0E0,0E0,0E0,0E0],"parents":[2147483647,0,0,1,1,2,2,3,3,4,4,5,5,6,6,7,7,8,8,9,9,10,10,11,11,13,13,14,14,15,15,16,16,18,18,19,19,20,20,24,24,25,25,26,26,27,27],"right_children":[2,4,6,8,10,12,14,16,18,20,22,24,-1,26,28,30,32,-1,34,36,38,-1,-1,-1,40,42,44,46,-1,-1,-1,-1,-1,-1,-1,-1,-1,-1,-1,-1,-1,-1,-1,-1,-1,-1,-1],"split_conditions":[1E0,3.3487925E-1,1E0,-3.3473083E-1,0E0,1E0,1.375E1,1.1811895E-1,-7.872964E-2,6.7354286E-1,-2.5172893E-2,-7.720847E-1,-1.5374127E-2,9.25E0,1E0,-4.4453666E-1,5E-1,-2.4783818E-1,1.14644006E-1,1E0,-5.4522824E-1,8.3748385E-2,-2.1921128E-1,5.5511277E-3,9.375E-1,1E0,1.5293288E-1,1E0,2.8901267E-1,5.649172E-2,-1.8042092E-1,1.713462E-1,-1.9277516E-1,