{"learner":{"attributes":{"scikit_learn":"{\"_estimator_type\": \"classifier\"}"},"feature_names":["flg_substandard","flg_is_borderline_standard","flg_is_revised_term","flg_is_rental_flat","flg_has_health_claim","flg_has_life_claim","flg_gi_claim","flg_is_proposal","flg_with_preauthorisation","flg_is_returned_mail","is_consent_to_mail","is_consent_to_email","is_consent_to_call","is_consent_to_sms","is_valid_dm","is_valid_email","is_housewife_retiree","is_sg_pr","is_class_1_2","is_dependent_in_at_least_1_policy","f_ever_declined_la","flg_latest_being_lapse","flg_latest_being_cancel","recency_lapse","recency_cancel","tot_inforce_pols","tot_cancel_pols","f_elx","f_mindef_mha","f_retail","flg_affconnect_show_interest_ever","flg_affconnect_ready_to_buy_ever","flg_affconnect_lapse_ever","affcon_visit_days","clmcon_visit_days","recency_clmcon","recency_clmcon_regis","hlthclaim_amt","recency_hlthclaim","hlthclaim_cnt_success","recency_hlthclaim_success","hlthclaim_cnt_unsuccess","recency_hlthclaim_unsuccess","flg_hlthclaim_839f8a_ever","recency_hlthclaim_839f8a","flg_hlthclaim_14cb37_ever","recency_hlthclaim_14cb37","giclaim_amt","recency_giclaim","age","insurance_time","race_desc_0","race_desc_1","race_desc_2","race_desc_3","race_desc_4","clttype_0","clttype_1","clttype_2","stat_flag_0","stat_flag_1","stat_flag_2","hh_size_est_0","hh_size_est_1","hh_size_est_2","hh_size_est_3","hh_size_est_4","hh_size_est_5","hh_size_est_6","annual_income_est_0","annual_income_est_1","annual_income_est_2","annual_income_est_3","annual_income_est_4","annual_income_est_5","ae_lh_sum","smins_lh_sum","pempaid_lh_sum","ae_lh_mean","smins_lh_mean","pempaid_lh_mean","ae_lh_std","smins_lh_std","pempaid_lh_std","ae_lh_min","smins_lh_min","pempaid_lh_min","ae_lh_max","smins_lh_max","pempaid_lh_max"],"feature_types":["int","int","int","int","int","int","int","int","int","int","int","int","int","int","int","int","int","int","int","int","int","int","int","float","float","float","float","int","int","int","int","int","int","float","float","float","float","float","float","float","float","float","float","int","float","int","float","float","float","float","float","int","int","int","int","int","int","int","int","int","int","int","int","int","int","int","int","int","int","int","int","int","int","int","int","float","float","float","float","float","float","float","float","float","float","float","float","float","float","float"],"gradient_booster":{"gbtree":{"model":{"gbtree_model_param":{"num_parallel_tree":"1","num_trees":"100"},"iteration_indptr":[0,1,2,3,4,5,6,7,8,9,10,11,12,13,14,15,16,17,18,19,20,21,22,23,24,25,26,27,28,29,30,31,32,33,34,35,36,37,38,39,40,41,42,43,44,45,46,47,48,49,50,51,52,53,54,55,56,57,58,59,60,61,62,63,64,65,66,67,68,69,70,71,72,73,74,75,76,77,78,79,80,81,82,83,84,85,86,87,88,89,90,91,92,93,94,95,96,97,98,99,100],"tree_info":[0,0,0,0,0,0,0,0,0,0,0,0,0,0,0,0,0,0,0,0,0,0,0,0,0,0,0,0,0,0,0,0,0,0,0,0,0,0,0,0,0,0,0,0,0,0,0,0,0,0,0,0,0,0,0,0,0,0,0,0,0,0,0,0,0,0,0,0,0,0,0,0,0,0,0,0,0,0,0,0,0,0,0,0,0,0,0,0,0,0,0,0,0,0,0,0,0,0,0,0],"trees":[{"base_weights":[-8.2381195E-1,-8.669124E-1,4.8537442E-1,-1.1267073E0,-7.501564E-1,8.060938E-1,-5.5489576E-1,-3.385833E-1,-3.3620406E-2,-8.696338E-1,-4.898562E-1,1.14373E0,-3.0116668E-1,8.1192315E-1,-8.81205E-1,-8.7772053E-1,1.1860846E0,-2.9171547E-1,-8.0015934E-1,-2.0097513E-1,1.4195092E0,-8.228824E-1,3.9522555E-1,-3.3620406E-2,4.0269065E-1,-9.4949436E-1,-3.3620406E-2,-2.651213E-1,4.9963075E-1,-3.3620406E-2,5.4097384E-1,-1.21567845E-1,1.5908931E-1,-2.519513E-1,-3.0837862E-2,7.00366E-2,-2.3198067E-1,7.0637214E-1,2.9919243E-1,-2.828122E-1,-3.3620406E-2,-1.8818022E-1,2.5379515E-1,-3.085436E-1,-7.96307E-2],"categories":[],"categories_nodes":[],"categories_segments":[],"categories_sizes":[],"default_left":[0,0,0,0,0,0,0,0,0,0,0,0,0,0,0,0,0,0,0,0,0,0,0,0,0,0,0,0,0,0,0,0,0,0,0,0,0,0,0,0,0,0,0,0,0],"id":0,"left_children":[1,3,5,7,9,11,13,-1,-1,15,17,19,21,23,25,27,29,31,33,35,37,39,41,-1,-1,43,-1,-1,-1,-1,-1,-1,-1,-1,-1,-1,-1,-1,-1,-1,-1,-1,-1,-1,-1],"loss_changes":[9.6384766E1,4.910791E1,1.8745808E1,8.5595703E-1,3.5003174E1,1.6169249E1,6.744048E0,0E0,0E0,1.3999939E1,2.1942604E1,1.2391888E1,4.206494E0,1.6821272E0,4.9190903E-1,1.3362549E1,2.9899535E0,2.0900873E1,3.7870712E0,1.7796162E0,8.395634E0,4.4217253E-1,2.9508264E0,0E0,0E0,2.850561E-1,0E0,0E0,0E0,0E0,0E0,0E0,0E0,0E0,0E0,0E0,0E0,0E0,0E0,0E0,0E0,0E0,0E0,0E0,0E0],"parents":[2147483647,0,0,1,1,2,2,3,3,4,4,5,5,6,6,9,9,10,10,11,11,12,12,13,13,14,14,15,15,16,16,17,17,18,18,19,19,20,20,21,21,22,22,25,25],"right_children":[2,4,6,8,10,12,14,-1,-1,16,18,20,22,24,26,28,30,32,34,36,38,40,42,-1,-1,44,-1,-1,-1,-1,-1,-1,-1,-1,-1,-1,-1,-1,-1,-1,-1,-1,-1,-1,-1],"split_conditions":[1E0,1E0,3.5E0,2E1,5E-1,1E0,2E0,-3.385833E-1,-3.3620406E-2,1E0,1E0,1E0,3.8246E2,6.8489596E-2,1E0,5E0,1E0,1E0,5.778745E5,8.75E-1,-5.448744E-1,1E0,6E0,-3.3620406E-2,4.0269065E-1,9.3E1,-3.3620406E-2,-2.651213E-1,4.9963075E-1,-3.3620406E-2,5.4097384E-1,-1.21567845E-1,1.5908931E-1,-2.519513E-1,-3.0837862E-2,7.00366E-2,-2.3198067E-1,7.0637214E-1,2.9919243E-1,-2.828122E-1,-3.3620406E-2,-1.8818022E-1,2.5379515E-1,-3.085436E-1,-7.96307E-2],"split_indices":[6,15,23,47,25,13,48,0,0,16,10,14,47,49,0,34,65,21,82,23,49,69,48,0,0,48,0,0,0,0,0,0,0,0,0,0,0,0,0,0,0,0,0,0,0],"split_type":[0,0,0,0,0,0,0,0,0,0,0,0,0,0,0,0,0,0,0,0,0,0,0,0,0,0,0,0,0,0,0,0,0,0,0,0,0,0,0,0,0,0,0,0,0],"sum_hessian":[1.6996893E3,1.6458435E3,5.3845932E1,5.0763962E2,1.1382039E3,4.1329117E1,1.2516818E1,5.0657687E2,1.0627487E0,7.7852246E2,3.596814E2,3.1646294E1,9.682821E0,2.1254973E0,1.039132E1,7.760427E2,2.4797468E0,2.2069748E2,1.3898392E2,5.4318266E0,2.6214468E1,5.4318266E0,4.2509947E0,1.0627487E0,1.0627487E0,9.328571E0,1.0627487E0,7.748619E2,1.1808319E0,1.0627487E0,1.4169983E0,1.9436493E2,2.633255E1,1.313085E2,7.675407E0,3.4244125E0,2.007414E0,6.7307415E0,1.9483727E1,4.3690777E0,1.0627487E0,1.1808319E0,3.0701628E0,7.9115734E0,1.4169983E0],"tree_param":{"num_deleted":"0","num_feature":"90","num_nodes":"45","size_leaf_vector":"1"}},{"base_weights":[-7.250531E-1,-8.727606E-1,-4.0163273E-1,-1.0745114E0,-7.5603646E-1,9.3817836E-1,-7.046144E-1,-1.0772172E0,-2.4508005E-2,1.5305947E0,-8.0085135E-1,-2.679345E-1,1.2393367E0,-1.0426177E0,-6.128527E-1,-3.239275E-1,-5.615393E-2,-8.083517E-1,4.7951484E-1,1.2493954E-1,-2.897273E-1,1.3163381E0,1.041323E0,-1.0675958E0,1.5022011E-2,1.2077792E0,-6.5481186E-1,-2.4579726E-1,2.7217463E-1,1.4866015E-1,-9.1704115E-2,6.675455E-1,1.7203166E-1,-3.241577E-1,-1.9856002E-2,-5.712385E-2,-2.3400661E-1],"categories":[],"categories_nodes":[],"categories_segments":[],"categories_sizes":[],"default_left":[0,0,0,0,0,0,0,0,0,0,0,0,0,0,0,0,0,0,0,0,0,0,0,0,0,0,0,0,0,0,0,0,0,0,0,0,0],"id":1,"left_children":[1,3,5,7,9,11,13,15,-1,-1,17,19,21,23,25,-1,-1,27,-1,29,-1,-1,31,33,-1,-1,35,-1,-1,-1,-1,-1,-1,-1,-1,-1,-1],"loss_changes":[6.726233E1,2.2047913E1,1.8154178E2,8.614197E-1,1.6641476E2,3.0338158E1,1.0650085E1,5.9484863E-1,0E0,0E0,1.2350098E1,4.8711905E0,3.675302E1,2.135643E0,5.8826485E1,0E0,0E0,1.2287445E1,0E0,2.0619812E0,0E0,0E0,3.399066E1,8.947754E-1,0E0,0E0,1.6537544E1,0E0,0E0,0E0,0E0,0E0,0E0,0E0,0E0,0E0,0E0],"parents":[2147483647,0,0,1,1,2,2,3,3,4,4,5,5,6,6,7,7,10,10,11,11,12,12,13,13,14,14,17,17,19,19,22,22,23,23,26,26],"right_children":[2,4,6,8,10,12,14,16,-1,-1,18,20,22,24,26,-1,-1,28,-1,30,-1,-1,32,34,-1,-1,36,-1,-1,-1,-1,-1,-1,-1,-1,-1,-1],"split_conditions":[1.25E-1,1E0,1E0,2E0,1E0,1E0,1E0,1E0,-2.4508005E-2,1.5305947E0,1E0,-2.8991207E-1,1E0,5.9E1,1E0,-3.239275E-1,-5.615393E-2,1E0,4.7951484E-1,1E0,-2.897273E-1,1.3163381E0,3.125E-1,1.975E1,1.5022011E-2,1.2077792E0,-3.3725375E-1,-2.4579726E-1,2.7217463E-1,1.4866015E-1,-9.1704115E-2,6.675455E-1,1.7203166E-1,-3.241577E-1,-1.9856002E-2,-5.712385E-2,-2.3400661E-1],"split_indices":[23,14,23,39,29,14,14,6,0,0,60,49,29,24,29,0,0,16,0,29,0,0,23,37,0,0,49,0,0,0,0,0,0,0,0,0,0],"split_type":[0,0,0,0,0,0,0,0,0,0,0,0,0,0,0,0,0,0,0,0,0,0,0,0,0,0,0,0,0,0,0,0,0,0,0,0,0],"sum_hessian":[1.4143346E3,9.697478E2,4.4458688E2,3.5241464E2,6.173331E2,8.160887E1,3.62978E2,3.5137198E2,1.0426463E0,3.8301194E0,6.1350305E2,1.6327795E1,6.528108E1,7.5289085E1,2.876889E2,3.5015912E2,1.2128665E0,6.1225214E2,1.2509058E0,1.0971695E1,5.3560996E0,2.6107428E0,6.2670338E1,7.362895E1,1.6601393E0,1.7277633E0,2.8596115E2,6.088803E2,3.3717961E0,5.815819E0,5.155876E0,1.668885E1,4.5981487E1,7.2612404E1,1.016549E0,6.1262386E1,2.2469876E2],"tree_param":{"num_deleted":"0","num_feature":"90","num_nodes":"37","size_leaf_vector":"1"}},{"base_weights":[-6.374957E-1,-1.0306572E0,-4.972827E-1,-1.0365715E0,9.505245E-3,-6.6268367E-1,-2.0808335E-1,-7.239201E-2,-1.0395905E0,-7.616137E-1,-4.4854727E-1,-8.4551656E-1,-1.0072001E-1,-1.1385175E-1,-1.0425391E0,-7.739089E-1,8.112911E-1,5.8976984E-1,-5.420245E-1,-8.827856E-1,9.9150084E-2,2.0116003E0,-1.677732E-1,-3.1691098E-1,-2.4875094E-1,-2.4399891E-1,-1.0194295E-1,-7.595819E-2,4.4675228E-1,2.4950173E-1,-6.7511916E-2,-1.7796224E-1,9.933954E-2,-2.9185632E-1,-1.0160843E-1,6.8420637E-1,1.3058762E-1,2.50404E-3,-1.5740326E-1],"categories":[],"categories_nodes":[],"categories_segments":[],"categories_sizes":[],"default_left":[0,0,0,0,0,0,0,0,0,0,0,0,0,0,0,0,0,0,0,0,0,0,0,0,0,0,0,0,0,0,0,0,0,0,0,0,0,0,0],"id":2,"left_children":[1,3,5,7,-1,9,11,-1,13,15,17,19,21,-1,23,25,27,29,31,33,-1,35,37,-1,-1,-1,-1,-1,-1,-1,-1,-1,-1,-1,-1,-1,-1,-1,-1],"loss_changes":[6.5113556E1,1.9932861E0,4.192961E1,4.9417114E-1,0E0,1.1500839E1,2.1912895E1,0E0,2.0547485E-1,7.9947815E0,1.770132E1,2.3166656E0,3.9462852E1,0E0,2.9815674E-2,6.200531E0,2.8613663E0,3.196899E0,7.5620804E0,1.8783646E0,0E0,2.6448555E0,1.6891766E1,0E0,0E0,0E0,0E0,0E0,0E0,0E0,0E0,0E0,0E0,0E0,0E0,0E0,0E0,0E0,0E0],"parents":[2147483647,0,0,1,1,2,2,3,3,5,5,6,6,8,8,9,9,10,10,11,11,12,12,14,14,15,15,16,16,17,17,18,18,19,19,21,21,22,22],"right_children":[2,4,6,8,-1,10,12,-1,14,16,18,20,22,-1,24,26,28,30,32,34,-1,36,38,-1,-1,-1,-1,-1,-1,-1,-1,-1,-1,-1,-1,-1,-1,-1,-1],"split_conditions":[1E0,1.8E1,5E-1,-7.073306E-1,9.505245E-3,1.875E-1,1E0,-7.239201E-2,1E0,1E0,5E-1,3.1E1,1E0,-1.1385175E-1,1E0,3.02522E5,1E0,2.1847746E0,8E0,1E0,9.9150084E-2,1E0,1E0,-3.1691098E-1,-2.4875094E-1,-2.4399891E-1,-1.0194295E-1,-7.595819E-2,4.4675228E-1,2.4950173E-1,-6.7511916E-2,-1.7796224E-1,9.933954E-2,-2.9185632E-1,-1.0160843E-1,6.8420637E-1,1.3058762E-1,2.50404E-3,-1.5740326E-1],"split_indices":[15,48,25,50,0,23,14,0,59,16,23,24,29,0,55,76,11,87,48,67,0,6,10,0,0,0,0,0,0,0,0,0,0,0,0,0,0,0,0],"split_type":[0,0,0,0,0,0,0,0,0,0,0,0,0,0,0,0,0,0,0,0,0,0,0,0,0,0,0,0,0,0,0,0,0,0,0,0,0,0,0],"sum_hessian":[1.1894669E3,3.1101657E2,8.784503E2,3.0931876E2,1.6978209E0,5.5801495E2,3.2043533E2,1.4758711E0,3.078429E2,3.7993158E2,1.7808339E2,4.5200066E1,2.7523526E2,1.9458508E0,3.0589703E2,3.7748877E2,2.442806E0,1.4269769E1,1.6381361E2,4.4053318E1,1.1467487E0,7.5759635E0,2.676593E2,2.835652E2,2.2331842E1,3.4526175E2,3.2227016E1,1.1941369E0,1.2486693E0,1.0987176E1,3.2825935E0,1.550457E2,8.767911E0,3.712038E1,6.932937E0,6.089574E0,1.4863895E0,1.7987419E2,8.778511E1],"tree_param":{"num_deleted":"0","num_feature":"90","num_nodes":"39","size_leaf_vector":"1"}},{"base_weights":[-5.4781413E-1,-9.9188983E-1,-4.1004944E-1,-9.9931467E-1,7.6683643E-3,-5.878487E-1,-1.5575178E-1,-1.020561E0,-7.1557635E-1,-9.5163333E-1,-5.142469E-1,6.5116215E-1,-4.4341373E-1,-8.758278E-2,-3.074156E-1,-7.391009E-2,-8.7508917E-1,-9.8849106E-1,1.0772261E-1,-5.6183285E-1,2.1751032E0,3.282237E-1,1.0630159E0,-4.8693314E-1,7.7591944E-1,1.5745607E-1,-2.1184102E-1,-2.786596E-1,-1.4925478E-2,-3.001518E-1,-4.0514834E-2,2.8074583E-1,-1.8869187E-1,-5.1335897E-2,-1.9157697E-1,2.935792E-1,7.961838E-1,1.9529009E-1,-6.2146723E-2,-3.7926227E-2,4.050097E-1,3.5129684E-1,-1.5411915E-1,5.832506E-1,-1.9752021E-1],"categories":[],"categories_nodes":[],"categories_segments":[],"categories_sizes":[],"default_left":[0,0,0,0,0,0,0,0,0,0,0,0,0,0,0,0,0,0,0,0,0,0,0,0,0,0,0,0,0,0,0,0,0,0,0,0,0,0,0,0,0,0,0,0,0],"id":3,"left_children":[1,3,5,7,-1,9,11,13,15,17,19,21,23,-1,-1,25,27,29,31,33,35,37,39,41,43,-1,-1,-1,-1,-1,-1,-1,-1,-1,-1,-1,-1,-1,-1,-1,-1,-1,-1,-1,-1],"loss_changes":[6.1665375E1,1.8350677E0,3.4998337E1,7.0339966E-1,0E0,1.1730316E1,7.473012E1,3.6398315E-1,1.9735622E0,3.059204E0,5.007773E1,1.0914936E1,1.2955002E1,0E0,0E0,2.284971E0,6.575613E-1,6.1524963E-1,2.6898606E0,1.1164452E1,1.3233299E0,8.586851E0,1.2724701E1,1.0796093E1,1.5612552E1,0E0,0E0,0E0,0E0,0E0,0E0,0E0,0E0,0E0,0E0,0E0,0E0,0E0,0E0,0E0,0E0,0E0,0E0,0E0,0E0],"parents":[2147483647,0,0,1,1,2,2,3,3,5,5,6,6,7,7,8,8,9,9,10,10,11,11,12,12,15,15,16,16,17,17,18,18,19,19,20,20,21,21,22,22,23,23,24,24],"right_children":[2,4,6,8,-1,10,12,14,16,18,20,22,24,-1,-1,26,28,30,32,34,36,38,40,42,44,-1,-1,-1,-1,-1,-1,-1,-1,-1,-1,-1,-1,-1,-1,-1,-1,-1,-1,-1,-1],"split_conditions":[1E0,1.8E1,1.25E-1,1E0,7.6683643E-3,1E0,9.375E-1,1E0,-5.448744E-1,2.5E0,1E0,1E0,4E0,-8.758278E-2,-3.074156E-1,-1.8478562E-1,1E0,1E0,1E0,-5.448744E-1,-6.1466116E-1,1E0,1E0,-5.136929E-1,1.1594203E-1,1.5745607E-1,-2.1184102E-1,-2.786596E-1,-1.4925478E-2,-3.001518E-1,-4.0514834E-2,2.8074583E-1,-1.8869187E-1,-5.1335897E-2,-1.9157697E-1,2.935792E-1,7.961838E-1,1.9529009E-1,-6.2146723E-2,-3.7926227E-2,4.050097E-1,3.5129684E-1,-1.5411915E-1,5.832506E-1,-1.9752021E-1],"split_indices":[15,48,23,55,0,14,23,59,49,25,54,28,36,0,0,50,28,26,11,49,50,11,14,50,75,0,0,0,0,0,0,0,0,0,0,0,0,0,0,0,0,0,0,0,0],"split_type":[0,0,0,0,0,0,0,0,0,0,0,0,0,0,0,0,0,0,0,0,0,0,0,0,0,0,0,0,0,0,0,0,0,0,0,0,0,0,0,0,0,0,0,0,0],"sum_hessian":[1.01361566E3,2.3852989E2,7.7508575E2,2.3681952E2,1.7103662E0,4.5538147E2,3.197043E2,2.1790587E2,1.8913645E1,7.462253E1,3.8075894E2,8.368836E1,2.3601595E2,1.6404302E0,2.1626544E2,4.0570097E0,1.4856635E1,7.217816E1,2.4443698E0,3.7491617E2,5.842754E0,4.7914837E1,3.577353E1,2.284625E2,7.5534377E0,2.1708722E0,1.8861374E0,1.3830076E1,1.0265586E0,7.100621E1,1.1719496E0,1.0235431E0,1.4208267E0,6.2090233E1,3.1282596E2,2.5398893E0,3.3028646E0,2.9759184E1,1.8155653E1,7.062995E0,2.8710533E1,2.9547856E0,2.2550772E2,3.9669259E0,3.586512E0],"tree_param":{"num_deleted":"0","num_feature":"90","num_nodes":"45","size_leaf_vector":"1"}},{"base_weights":[-4.6633354E-1,-9.551901E-1,-3.3579597E-1,-9.915765E-1,-5.7219E-1,-4.937293E-1,-9.954835E-2,-7.524557E-2,-2.9906335E-1,-7.344558E-1,1.9932161E-1,-8.913258E-1,-4.266306E-1,-7.0051974E-1,-2.088502E-2,-8.4042084E-1,6.2182534E-2,3.896604E-1,-2.069482E-1,-9.355668E-1,9.927125E-2,1.4923804E0,-4.8048627E-1,-8.0830634E-1,-1.489817E-1,4.243981E-1,-1.925509E-1,-2.6688924E-1,-1.0198488E-1,-2.901042E-1,-8.575289E-3,1.5159163E-1,4.8646054E-1,-1.5242384E-1,8.3691317E-1,-2.6172227E-1,1.0899012E-1,-2.2897887E-1,1.21318586E-1,2.4082462E-1,7.5580385E-3,-6.836118E-2,4.507533E-1],"categories":[],"categories_nodes":[],"categories_segments":[],"categories_sizes":[],"default_left":[0,0,0,0,0,0,0,0,0,0,0,0,0,0,0,0,0,0,0,0,0,0,0,0,0,0,0,0,0,0,0,0,0,0,0,0,0,0,0,0,0,0,0],"id":4,"left_children":[1,3,5,7,9,11,13,-1,-1,15,17,19,21,23,25,27,-1,-1,-1,29,-1,31,33,35,37,39,41,-1,-1,-1,-1,-1,-1,-1,-1,-1,-1,-1,-1,-1,-1,-1,-1],"loss_changes":[5.56035E1,1.9989777E0,2.5815468E1,4.0504456E-1,2.4425645E0,1.0696907E1,1.3174714E1,0E0,0E0,1.7077484E0,4.781031E0,3.5018158E0,3.7631348E1,1.797452E0,1.9018503E1,4.264164E-2,0E0,0E0,0E0,1.6048241E0,0E0,4.5470238E-1,3.2835915E1,2.3267498E0,2.5182087E0,1.0438355E1,1.1088282E1,0E0,0E0,0E0,0E0,0E0,0E0,0E0,0E0,0E0,0E0,0E0,0E0,0E0,0E0,0E0,0E0],"parents":[2147483647,0,0,1,1,2,2,3,3,4,4,5,5,6,6,9,9,10,10,11,11,12,12,13,13,14,14,15,15,19,19,21,21,22,22,23,23,24,24,25,25,26,26],"right_children":[2,4,6,8,10,12,14,-1,-1,16,18,20,22,24,26,28,-1,-1,-1,30,-1,32,34,36,38,40,42,-1,-1,-1,-1,-1,-1,-1,-1,-1,-1,-1,-1,-1,-1,-1,-1],"split_conditions":[1E0,1E0,5E-1,1E0,1E0,1E0,1E0,-7.524557E-2,-2.9906335E-1,1.2E1,1E0,1E0,1E0,1E0,3.768116E-1,6.6528356E-1,6.2182534E-2,3.896604E-1,-2.069482E-1,1E0,9.927125E-2,-6.1466116E-1,1E0,3.1E1,4.9239278E-2,4.0414938E-1,1.8789799E1,-2.6688924E-1,-1.0198488E-1,-2.901042E-1,-8.575289E-3,1.5159163E-1,4.8646054E-1,-1.5242384E-1,8.3691317E-1,-2.6172227E-1,1.0899012E-1,-2.2897887E-1,1.21318586E-1,2.4082462E-1,7.5580385E-3,-6.836118E-2,4.507533E-1],"split_indices":[15,55,25,59,21,14,14,0,0,24,23,6,29,67,75,50,0,0,0,20,0,50,60,24,50,50,89,0,0,0,0,0,0,0,0,0,0,0,0,0,0,0,0],"split_type":[0,0,0,0,0,0,0,0,0,0,0,0,0,0,0,0,0,0,0,0,0,0,0,0,0,0,0,0,0,0,0,0,0,0,0,0,0,0,0,0,0,0,0],"sum_hessian":[8.753613E2,1.8315137E2,6.9220996E2,1.6580988E2,1.7341492E1,4.142145E2,2.7799542E2,1.5215125E0,1.6428836E2,1.43676815E1,2.9738095E0,5.8035954E1,3.5617856E2,3.1261187E1,2.4673424E2,1.3011218E1,1.3564634E0,1.1235713E0,1.8502383E0,5.6234962E1,1.8009937E0,8.993873E0,3.471847E2,2.5761158E1,5.500028E0,6.824408E1,1.7849016E2,1.1138423E1,1.8727946E0,5.4286533E1,1.9484285E0,1.6090423E0,7.3848305E0,3.451173E2,2.0673916E0,2.466695E1,1.0942093E0,2.426826E0,3.0732024E0,3.45182E1,3.372588E1,1.7569481E2,2.7953515E0],"tree_param":{"num_deleted":"0","num_feature":"90","num_nodes":"43","size_leaf_vector":"1"}},{"base_weights":[-3.8720667E-1,-9.174234E-1,-2.6753327E-1,-9.6305627E-1,-4.9644035E-1,-4.3687168E-1,-5.586989E-2,-6.452503E-2,-9.698303E-1,6.3355843E-4,-7.6000077E-1,-6.176799E-1,-2.693524E-1,4.0531835E-1,-3.3767846E-1,-9.7678363E-1,-3.9157742E-1,-3.2553396E-1,2.5076753E-1,-2.4694614E-1,-2.7450344E-1,4.5924562E-1,-6.44043E-1,7.2593015E-1,-3.1477457E-1,4.7174546E-1,-5.069737E-1,-1.4088739E-2,-4.627118E-1,-2.9520816E-1,-1.11677654E-1,-1.4323908E-2,-1.6280645E-1,5.116878E-2,-2.207566E-1,-1.985426E-1,1.2594654E-1,4.1807407E-1,-6.4523555E-2,-1.9865553E-1,2.1778221E-1,3.2151657E-1,-1.8413086E-1,-1.07132874E-1,1.8567288E-1,1.2322223E-1,4.9596235E-1,-2.9746518E-1,2.7659366E-1,-2.8302205E-1,5.9345655E-2,-9.028179E-2,-2.1878639E-1],"categories":[],"categories_nodes":[],"categories_segments":[],"categories_sizes":[],"default_left":[0,0,0,0,0,0,0,0,0,0,0,0,0,0,0,0,0,0,0,0,0,0,0,0,0,0,0,0,0,0,0,0,0,0,0,0,0,0,0,0,0,0,0,0,0,0,0,0,0,0,0,0,0],"id":5,"left_children":[1,3,5,7,9,11,13,-1,15,17,19,21,23,25,27,29,31,33,-1,35,-1,37,39,41,43,45,47,49,51,-1,-1,-1,-1,-1,-1,-1,-1,-1,-1,-1,-1,-1,-1,-1,-1,-1,-1,-1,-1,-1,-1,-1,-1],"loss_changes":[4.8822556E1,2.2495499E0,2.2639381E1,4.3506622E-1,2.0900145E0,1.0468979E1,3.6811058E1,0E0,1.2256622E-1,2.0499327E0,6.0303926E-1,5.0681534E0,8.548407E0,6.752672E0,7.1021843E0,1.7425537E-1,1.3835648E-1,1.2273278E0,0E0,1.3257445E0,0E0,3.1981666E0,4.569069E0,4.518967E0,7.2056007E0,6.5792503E0,6.299248E0,1.0033023E1,5.2444096E0,0E0,0E0,0E0,0E0,0E0,0E0,0E0,0E0,0E0,0E0,0E0,0E0,0E0,0E0,0E0,0E0,0E0,0E0,0E0,0E0,0E0,0E0,0E0,0E0],"parents":[2147483647,0,0,1,1,2,2,3,3,4,4,5,5,6,6,8,8,9,9,10,10,11,11,12,12,13,13,14,14,15,15,16,16,17,17,19,19,21,21,22,22,23,23,24,24,25,25,26,26,27,27,28,28],"right_children":[2,4,6,8,10,12,14,-1,16,18,20,22,24,26,28,30,32,34,-1,36,-1,38,40,42,44,46,48,50,52,-1,-1,-1,-1,-1,-1,-1,-1,-1,-1,-1,-1,-1,-1,-1,-1,-1,-1,-1,-1,-1,-1,-1,-1],"split_conditions":[1E0,1E0,1.25E-1,1E0,-3.0579156E-1,0E0,1.625E0,-6.452503E-2,1.5622009E0,1E0,1E0,-7.0041496E-1,-6.2904567E-1,1E0,-3.3725375E-1,1E0,1.1594203E-1,-1.8478562E-1,2.5076753E-1,-1.4854771E-1,-2.7450344E-1,-5.9340334E-1,1E0,2.7154164E0,3E0,4.2E1,2.3347826E0,1E0,1E0,-2.9520816E-1,-1.11677654E-1,-1.4323908E-2,-1.6280645E-1,5.116878E-2,-2.207566E-1,-1.985426E-1,1.2594654E-1,4.1807407E-1,-6.4523555E-2,-1.9865553E-1,2.1778221E-1,3.2151657E-1,-1.8413086E-1,-1.07132874E-1,1.8567288E-1,1.2322223E-1,4.9596235E-1,-2.9746518E-1,2.7659366E-1,-2.8302205E-1,5.9345655E-2,-9.028179E-2,-2.1878639E-1],"split_indices":[15,55,23,59,49,25,23,0,49,69,17,50,50,12,49,70,75,50,0,50,0,49,16,77,24,38,75,14,10,0,0,0,0,0,0,0,0,0,0,0,0,0,0,0,0,0,0,0,0,0,0,0,0],"split_type":[0,0,0,0,0,0,0,0,0,0,0,0,0,0,0,0,0,0,0,0,0,0,0,0,0,0,0,0,0,0,0,0,0,0,0,0,0,0,0,0,0,0,0,0,0,0,0,0,0,0,0,0,0],"sum_hessian":[7.722985E2,1.4098665E2,6.313119E2,1.2603712E2,1.4949539E1,3.5013065E2,2.811812E2,1.4251655E0,1.2461195E2,5.525695E0,9.423844E0,1.6709413E2,1.8303651E2,1.0648197E2,1.7469925E2,1.2245031E2,2.1616378E0,4.412771E0,1.1129236E0,2.7882807E0,6.6355634E0,3.6003714E0,1.6349376E2,7.334847E0,1.7570168E2,9.970501E1,6.7769628E0,4.8999607E1,1.2569964E2,1.20380135E2,2.070181E0,1.0617486E0,1.099889E0,2.2621057E0,2.1506655E0,1.7234126E0,1.0648682E0,1.0621029E0,2.5382686E0,1.6186688E2,1.6268735E0,5.9890366E0,1.3458105E0,1.6867131E2,7.030351E0,9.609101E1,3.6139972E0,5.289367E0,1.4875953E0,8.457478E0,4.0542133E1,7.955211E1,4.6147533E1],"tree_param":{"num_deleted":"0","num_feature":"90","num_nodes":"53","size_leaf_vector":"1"}},{"base_weights":[-3.1732276E-1,-8.020602E-1,-1.9331041E-1,-8.2791054E-1,3.869864E-1,1.1702362E0,-2.3617998E-1,-9.2376393E-1,-3.0631456E-1,1.2515357E0,1.2317514E-1,1.7305121E-1,-3.2751736E-1,-9.306222E-1,-3.0917963E-2,-4.4734734E-1,6.11333E-1,3.9263916E-1,1.2482742E-1,3.911311E-2,1.1634713E0,-4.5258757E-1,-1.1835126E-2,-2.8533188E-1,-1.5430444E-1,-4.88375E-2,-2.734322E-1,-1.8102996E-1,4.401452E-1,-5.1838536E-2,1.3371618E-1,4.5748875E-1,-2.0313172E-1,-1.3987456E-1,3.275348E-1,-4.3935746E-2,1.5758291E-1],"categories":[],"categories_nodes":[],"categories_segments":[],"categories_sizes":[],"default_left":[0,0,0,0,0,0,0,0,0,0,0,0,0,0,0,0,0,0,0,0,0,0,0,0,0,0,0,0,0,0,0,0,0,0,0,0,0],"id":6,"left_children":[1,3,5,7,-1,9,11,13,15,17,-1,19,21,23,-1,25,27,-1,-1,29,31,33,35,-1,-1,-1,-1,-1,-1,-1,-1,-1,-1,-1,-1,-1,-1],"loss_changes":[4.1712074E1,8.723679E0,3.2771557E1,6.738861E0,0E0,5.430088E-1,2.0233051E1,5.690994E-1,3.2887993E0,1.7156792E-1,0E0,1.3107044E1,1.743179E1,5.088196E-1,0E0,2.59487E0,4.55138E0,0E0,0E0,7.6914883E0,8.867877E0,7.182068E0,9.212585E0,0E0,0E0,0E0,0E0,0E0,0E0,0E0,0E0,0E0,0E0,0E0,0E0,0E0,0E0],"parents":[2147483647,0,0,1,1,2,2,3,3,5,5,6,6,7,7,8,8,9,9,11,11,12,12,13,13,15,15,16,16,19,19,20,20,21,21,22,22],"right_children":[2,4,6,8,-1,10,12,14,16,18,-1,20,22,24,-1,26,28,-1,-1,30,32,34,36,-1,-1,-1,-1,-1,-1,-1,-1,-1,-1,-1,-1,-1,-1],"split_conditions":[1E0,8.984E1,1E0,1E0,3.869864E-1,1E0,-5.448744E-1,7.5E1,1.5E1,1E0,1.2317514E-1,1E0,1E0,2.5E0,-3.0917963E-2,1E0,1.25E-1,3.9263916E-1,1.2482742E-1,-6.401514E-1,3.7E2,1E0,1E0,-2.8533188E-1,-1.5430444E-1,-4.88375E-2,-2.734322E-1,-1.8102996E-1,4.401452E-1,-5.1838536E-2,1.3371618E-1,4.5748875E-1,-2.0313172E-1,-1.3987456E-1,3.275348E-1,-4.3935746E-2,1.5758291E-1],"split_indices":[14,37,29,55,0,6,49,24,24,72,0,55,25,25,0,23,23,0,0,49,76,60,21,0,0,0,0,0,0,0,0,0,0,0,0,0,0],"split_type":[0,0,0,0,0,0,0,0,0,0,0,0,0,0,0,0,0,0,0,0,0,0,0,0,0,0,0,0,0,0,0,0,0,0,0,0,0],"sum_hessian":[6.954686E2,1.4056458E2,5.5490405E2,1.3944574E2,1.1188338E0,1.6112673E1,5.387914E2,1.1714673E2,2.2299011E1,1.3970059E1,2.1426134E0,9.814855E1,4.4064282E2,1.1604307E2,1.1036563E0,1.9772667E1,2.5263453E0,1.2543724E1,1.4263355E0,8.737236E1,1.077619E1,3.152931E2,1.25349724E2,1.09376076E2,6.6669955E0,1.30945835E1,6.6780834E0,1.1660842E0,1.360261E0,5.7815945E1,2.955642E1,9.150498E0,1.6256912E0,3.1322055E2,2.0725458E0,1.0081067E2,2.4539055E1],"tree_param":{"num_deleted":"0","num_feature":"90","num_nodes":"37","size_leaf_vector":"1"}},{"base_weights":[-2.5480896E-1,-8.398208E-1,-1.5658382E-1,-9.067037E-1,-3.7572017E-1,-1.7076164E-1,1.7833278E0,-2.2460874E-2,-9.174279E-1,-5.787947E-1,3.4568578E-1,-6.5753037E-1,-1.173132E-1,7.749375E-1,-4.267998E-2,-5.697983E-2,-9.28625E-1,-7.1284616E-1,5.905615E-2,2.9532284E-1,-1.6384546E-1,-7.1093386E-1,2.7293023E-1,9.034716E-1,-1.5111867E-1,-2.8197727E-1,-7.504451E-2,-2.3643845E-1,-3.4928583E-2,-2.413287E-1,-6.989303E-2,2.4137004E-1,-1.6657183E-1,1.1592482E-1,3.119906E-1,-1.4228964E-2,-1.1990133E-1],"categories":[],"categories_nodes":[],"categories_segments":[],"categories_sizes":[],"default_left":[0,0,0,0,0,0,0,0,0,0,0,0,0,0,0,0,0,0,0,0,0,0,0,0,0,0,0,0,0,0,0,0,0,0,0,0,0],"id":7,"left_children":[1,3,5,7,9,11,13,-1,15,17,19,21,23,-1,-1,-1,25,27,-1,-1,-1,29,31,33,35,-1,-1,-1,-1,-1,-1,-1,-1,-1,-1,-1,-1],"loss_changes":[3.630007E1,2.481453E0,1.526887E1,6.339035E-1,2.127955E0,1.3999358E1,6.581689E0,0E0,4.5628357E-1,1.246937E0,2.540917E0,2.8431797E0,1.7001871E1,0E0,0E0,0E0,3.4929657E-1,3.2539845E-1,0E0,0E0,0E0,2.0780773E0,2.0389848E0,7.139549E-1,1.2195102E1,0E0,0E0,0E0,0E0,0E0,0E0,0E0,0E0,0E0,0E0,0E0,0E0],"parents":[2147483647,0,0,1,1,2,2,3,3,4,4,5,5,6,6,8,8,9,9,10,10,11,11,12,12,16,16,17,17,21,21,22,22,23,23,24,24],"right_children":[2,4,6,8,10,12,14,-1,16,18,20,22,24,-1,-1,-1,26,28,-1,-1,-1,30,32,34,36,-1,-1,-1,-1,-1,-1,-1,-1,-1,-1,-1,-1],"split_conditions":[1E0,1E0,1E0,1E0,1E0,1E0,1E0,-2.2460874E-2,-1.1103032E0,1.2E1,1E0,3.5E1,1E0,7.749375E-1,-4.267998E-2,-5.697983E-2,1E0,6.6528356E-1,5.905615E-2,2.9532284E-1,-1.6384546E-1,1E0,1E0,-4.1466114E-1,1E0,-2.8197727E-1,-7.504451E-2,-2.3643845E-1,-3.4928583E-2,-2.413287E-1,-6.989303E-2,2.4137004E-1,-1.6657183E-1,1.1592482E-1,3.119906E-1,-1.4228964E-2,-1.1990133E-1],"split_indices":[15,55,7,59,21,14,27,0,49,24,23,24,29,0,0,0,70,50,0,0,0,67,11,50,10,0,0,0,0,0,0,0,0,0,0,0,0],"split_type":[0,0,0,0,0,0,0,0,0,0,0,0,0,0,0,0,0,0,0,0,0,0,0,0,0,0,0,0,0,0,0,0,0,0,0,0,0],"sum_hessian":[6.330019E2,8.9917725E1,5.4308417E2,7.77581E1,1.2159621E1,5.400492E2,3.0349705E0,1.0913054E0,7.6666794E1,9.642858E0,2.5167627E0,5.2313614E1,4.877356E2,1.903063E0,1.1319073E0,1.4343939E0,7.523241E1,8.290944E0,1.3519143E0,1.4060013E0,1.1107615E0,4.969719E1,2.616423E0,1.4809982E1,4.7292563E2,7.3620995E1,1.6114118E0,7.076309E0,1.2146343E0,4.099494E1,8.702246E0,1.6108508E0,1.0055721E0,3.8932326E0,1.091675E1,3.345514E2,1.383742E2],"tree_param":{"num_deleted":"0","num_feature":"90","num_nodes":"37","size_leaf_vector":"1"}},{"base_weights":[-2.0003402E-1,-7.8905517E-1,-1.1779667E-1,-8.434416E-1,-4.4558182E-2,-1.3751273E-1,1.0368795E0,-8.9564264E-1,-4.5456484E-1,7.034499E-1,-2.2235444E-1,-6.007844E-1,-9.277549E-2,1.3211414E0,-8.6713076E-2,-9.1070926E-1,-2.1713158E-2,2.4756736E-1,-2.6676676E-1,2.7544358E-1,6.8266146E-2,-8.7797284E-1,-3.6537385E-1,1.21961445E-1,-2.022802E-1,2.0426934E0,3.2183626E-1,-2.7771932E-1,-6.1200872E-2,-4.9232755E-2,2.3858036E-1,-2.8983063E-1,-1.0899287E-1,-1.7990594E-1,2.3748995E-1,5.787105E-1,2.6578406E-2,-6.510731E-2,4.440764E-1,-1.5513062E-2,8.2883364E-1,-1.0969396E-1,3.1196606E-1],"categories":[],"categories_nodes":[],"categories_segments":[],"categories_sizes":[],"default_left":[0,0,0,0,0,0,0,0,0,0,0,0,0,0,0,0,0,0,0,0,0,0,0,0,0,0,0,0,0,0,0,0,0,0,0,0,0,0,0,0,0,0,0],"id":8,"left_children":[1,3,5,7,9,11,13,15,17,19,-1,21,23,25,-1,27,-1,29,-1,-1,-1,31,33,35,37,39,41,-1,-1,-1,-1,-1,-1,-1,-1,-1,-1,-1,-1,-1,-1,-1,-1],"loss_changes":[2.8430939E1,2.876377E0,1.19326725E1,9.5318985E-1,3.624473E0,1.0515869E1,3.7030344E0,6.541252E-1,3.260201E0,1.3689697E-1,0E0,2.598423E0,1.099053E1,4.70395E0,0E0,4.1541672E-1,0E0,1.165663E0,0E0,0E0,0E0,5.4854774E-1,7.497404E0,9.363071E0,7.9922733E0,6.3726997E0,2.5052383E0,0E0,0E0,0E0,0E0,0E0,0E0,0E0,0E0,0E0,0E0,0E0,0E0,0E0,0E0,0E0,0E0],"parents":[2147483647,0,0,1,1,2,2,3,3,4,4,5,5,6,6,7,7,8,8,9,9,11,11,12,12,13,13,15,15,17,17,21,21,22,22,23,23,24,24,25,25,26,26],"right_children":[2,4,6,8,10,12,14,16,18,20,-1,22,24,26,-1,28,-1,30,-1,-1,-1,32,34,36,38,40,42,-1,-1,-1,-1,-1,-1,-1,-1,-1,-1,-1,-1,-1,-1,-1,-1],"split_conditions":[1E0,1E0,8.8E1,1E0,1E0,1E0,3.5E5,1.5622009E0,1E0,1E0,-2.2235444E-1,1E0,-3.4437725E-1,1.04E2,-8.6713076E-2,1E0,-2.1713158E-2,1E0,-2.6676676E-1,2.7544358E-1,6.8266146E-2,1E0,1E0,1E0,4E0,1E0,1E0,-2.7771932E-1,-6.1200872E-2,-4.9232755E-2,2.3858036E-1,-2.8983063E-1,-1.0899287E-1,-1.7990594E-1,2.3748995E-1,5.787105E-1,2.6578406E-2,-6.510731E-2,4.440764E-1,-1.5513062E-2,8.2883364E-1,-1.0969396E-1,3.1196606E-1],"split_indices":[15,69,46,55,29,14,76,49,17,27,0,28,49,38,0,70,0,66,0,0,0,67,29,59,35,18,4,0,0,0,0,0,0,0,0,0,0,0,0,0,0,0,0],"split_type":[0,0,0,0,0,0,0,0,0,0,0,0,0,0,0,0,0,0,0,0,0,0,0,0,0,0,0,0,0,0,0,0,0,0,0,0,0,0,0,0,0,0,0],"sum_hessian":[5.8785535E2,7.096648E1,5.168889E2,6.601137E1,4.9551125E0,5.090773E2,7.811575E0,5.705007E1,8.961294E0,2.3847053E0,2.5704074E0,4.3736763E1,4.6534055E2,6.4354897E0,1.3760853E0,5.5920456E1,1.1296176E0,3.590976E0,5.3703184E0,1.0029415E0,1.3817639E0,1.8832531E1,2.4904234E1,1.57119E2,3.0822156E2,3.1307828E0,3.304707E0,5.445307E1,1.4673816E0,2.4498925E0,1.1410835E0,1.5330273E1,3.5022578E0,2.1110672E1,3.793561E0,1.8185234E0,1.5530048E2,3.064075E2,1.8140517E0,1.0384855E0,2.0922973E0,1.9390155E0,1.3656915E0],"tree_param":{"num_deleted":"0","num_feature":"90","num_nodes":"43","size_leaf_vector":"1"}},{"base_weights":[-1.5375572E-1,-7.3080474E-1,-8.693773E-2,-7.939106E-1,-2.6722778E-2,-1.12597756E-1,7.4517965E-1,-8.572156E-1,-3.8518646E-1,5.3340816E-1,-2.0746459E-1,-7.964997E-2,-7.3722345E-1,1.1840881E0,-9.038118E-3,-8.7583864E-1,-1.8495595E-2,2.0295794E-1,-2.5283387E-1,3.0601062E-2,2.4821272E-1,-1.7060636E-1,1.1882531E-1,-9.248639E-1,6.258441E-1,1.9216856E0,-6.539367E-2,-6.628989E-1,6.4026284E-1,-2.683629E-1,-5.235944E-2,-4.0231112E-2,1.779247E-1,-2.3224002E-2,-1.242931E-1,3.902661E-1,2.483415E-2,-3.041891E-1,3.4829278E-2,4.2346424E-1,-1.7346914E-1,7.2645915E-1,2.4686477E-1,1.9924925E-1,-2.2220866E-1,-2.3772569E-1,-5.710468E-2,-4.7415014E-2,3.1905133E-1],"categories":[],"categories_nodes":[],"categories_segments":[],"categories_sizes":[],"default_left":[0,0,0,0,0,0,0,0,0,0,0,0,0,0,0,0,0,0,0,0,0,0,0,0,0,0,0,0,0,0,0,0,0,0,0,0,0,0,0,0,0,0,0,0,0,0,0,0,0],"id":9,"left_children":[1,3,5,7,9,11,13,15,17,19,-1,21,23,25,27,29,-1,31,-1,-1,-1,33,35,37,39,41,43,45,47,-1,-1,-1,-1,-1,-1,-1,-1,-1,-1,-1,-1,-1,-1,-1,-1,-1,-1,-1,-1],"loss_changes":[2.1449455E1,2.5454578E0,1.0785229E1,1.0406342E0,2.5237098E0,9.964959E0,5.01721E0,6.1359024E-1,2.5720534E0,3.8547933E-1,0E0,8.392624E0,6.7896013E0,8.943622E0,3.207784E0,4.204216E-1,0E0,6.9884205E-1,0E0,0E0,0E0,7.2001915E0,6.1272297E0,2.1348553E0,4.160215E0,1.3298073E0,2.7181695E0,7.916069E-2,1.4513996E0,0E0,0E0,0E0,0E0,0E0,0E0,0E0,0E0,0E0,0E0,0E0,0E0,0E0,0E0,0E0,0E0,0E0,0E0,0E0,0E0],"parents":[2147483647,0,0,1,1,2,2,3,3,4,4,5,5,6,6,7,7,8,8,9,9,11,11,12,12,13,13,14,14,15,15,17,17,21,21,22,22,23,23,24,24,25,25,26,26,27,27,28,28],"right_children":[2,4,6,8,10,12,14,16,18,20,-1,22,24,26,28,30,-1,32,-1,-1,-1,34,36,38,40,42,44,46,48,-1,-1,-1,-1,-1,-1,-1,-1,-1,-1,-1,-1,-1,-1,-1,-1,-1,-1,-1,-1],"split_conditions":[1E0,1E0,6E2,1E0,1E0,1E0,7.478261E-1,1.5622009E0,1E0,4.0414938E-1,-2.0746459E-1,1E0,6.291745E0,4E1,3.676275E0,1E0,-1.8495595E-2,1E0,-2.5283387E-1,3.0601062E-2,2.4821272E-1,1E0,-5.950207E-1,7.5E0,4.375E-1,1E0,-3.339145E-3,1E0,2E0,-2.683629E-1,-5.235944E-2,-4.0231112E-2,1.779247E-1,-2.3224002E-2,-1.242931E-1,3.902661E-1,2.483415E-2,-3.041891E-1,3.4829278E-2,4.2346424E-1,-1.7346914E-1,7.2645915E-1,2.4686477E-1,1.9924925E-1,-2.2220866E-1,-2.3772569E-1,-5.710468E-2,-4.7415014E-2,3.1905133E-1],"split_indices":[15,69,47,55,29,52,75,49,17,50,0,25,77,48,87,70,0,66,0,0,0,10,50,23,23,55,49,73,25,0,0,0,0,0,0,0,0,0,0,0,0,0,0,0,0,0,0,0,0],"split_type":[0,0,0,0,0,0,0,0,0,0,0,0,0,0,0,0,0,0,0,0,0,0,0,0,0,0,0,0,0,0,0,0,0,0,0,0,0,0,0,0,0,0,0,0,0,0,0,0,0],"sum_hessian":[5.569491E2,5.6766747E1,5.0018237E2,5.1980247E1,4.7865014E0,4.8605847E2,1.4123915E1,4.4058918E1,7.921329E0,2.7050812E0,2.0814202E0,4.6277548E2,2.3282988E1,8.567943E0,5.5559726E0,4.2952553E1,1.1063628E0,3.7097077E0,4.2116213E0,1.64216E0,1.062921E0,3.1744058E2,1.4533488E2,2.0748257E1,2.5347302E0,5.0492625E0,3.5186799E0,2.7578313E0,2.798141E0,4.156836E1,1.3841951E0,2.3422728E0,1.3674349E0,2.3058278E2,8.685781E1,3.2622168E0,1.4207266E2,1.913625E1,1.6120068E0,1.4295723E0,1.105158E0,2.6431193E0,2.406143E0,1.6993219E0,1.819358E0,1.6332722E0,1.1245592E0,1.1865872E0,1.6115538E0],"tree_param":{"num_deleted":"0","num_feature":"90","num_nodes":"49","size_leaf_vector":"1"}},{"base_weights":[-1.17806E-1,-6.67334E-1,-6.4442515E-2,-7.744328E-1,-1.9498329E-1,-2.6541475E-2,-5.2319103E-1,-8.120547E-1,-2.1244046E-1,1.8663032E-1,-5.175759E-1,-5.1242266E-2,8.551209E-1,-5.8571213E-1,1.8832715E-1,-8.346039E-1,-1.5752288E-2,-1.7027001E-1,5.923617E-2,-6.2327046E-2,1.8915246E-1,-2.3570444E-1,3.8186844E-2,-1.8185288E-1,8.64345E-2,1.067704E0,-1.8451574E-1,-1.6021638E-1,-7.001768E-1,-2.5723743E-1,-4.473244E-2,-1.4124955E-1,-1.4406738E-2,1.3104446E-1,-2.76133E-2,3.9046827E-1,-4.899477E-2,-2.3142807E-1,4.2053866E-1,1.1647142E-1,-2.279256E-1],"categories":[],"categories_nodes":[],"categories_segments":[],"categories_sizes":[],"default_left":[0,0,0,0,0,0,0,0,0,0,0,0,0,0,0,0,0,0,0,0,0,0,0,0,0,0,0,0,0,0,0,0,0,0,0,0,0,0,0,0,0],"id":10,"left_children":[1,3,5,7,9,11,13,15,17,19,21,23,25,27,-1,29,-1,-1,-1,-1,-1,-1,-1,31,33,35,-1,37,39,-1,-1,-1,-1,-1,-1,-1,-1,-1,-1,-1,-1],"loss_changes":[1.5620356E1,2.235283E0,8.470366E0,6.3337326E-1,1.3344234E0,9.882557E0,3.0434484E0,5.6196594E-1,6.573243E-1,1.0660057E0,1.0878938E0,7.9352007E0,4.522337E0,1.6307621E0,0E0,4.0924072E-1,0E0,0E0,0E0,0E0,0E0,0E0,0E0,8.730408E0,1.3490546E1,3.4286957E0,0E0,9.562088E0,2.1042833E0,0E0,0E0,0E0,0E0,0E0,0E0,0E0,0E0,0E0,0E0,0E0,0E0],"parents":[2147483647,0,0,1,1,2,2,3,3,4,4,5,5,6,6,7,7,8,8,9,9,10,10,11,11,12,12,13,13,15,15,23,23,24,24,25,25,27,27,28,28],"right_children":[2,4,6,8,10,12,14,16,18,20,22,24,26,28,-1,30,-1,-1,-1,-1,-1,-1,-1,32,34,36,-1,38,40,-1,-1,-1,-1,-1,-1,-1,-1,-1,-1,-1,-1],"split_conditions":[1E0,1E0,1E0,1E0,-3.0579156E-1,4E0,6.81145E3,1.5622009E0,1E0,1E0,5.305671E-1,1.25E-1,4.6223207E0,-3.0290458E-1,1.8832715E-1,1E0,-1.5752288E-2,-1.7027001E-1,5.923617E-2,-6.2327046E-2,1.8915246E-1,-2.3570444E-1,3.8186844E-2,1E0,8.125E-1,9E0,-1.8451574E-1,1E0,-8.670649E-1,-2.5723743E-1,-4.473244E-2,-1.4124955E-1,-1.4406738E-2,1.3104446E-1,-2.76133E-2,3.9046827E-1,-4.899477E-2,-2.3142807E-1,4.2053866E-1,1.1647142E-1,-2.279256E-1],"split_indices":[15,55,12,69,49,36,37,49,65,21,50,23,87,50,0,70,0,0,0,0,0,0,0,18,23,34,0,66,49,0,0,0,0,0,0,0,0,0,0,0,0],"split_type":[0,0,0,0,0,0,0,0,0,0,0,0,0,0,0,0,0,0,0,0,0,0,0,0,0,0,0,0,0,0,0,0,0,0,0,0,0,0,0,0,0],"sum_hessian":[5.3313477E2,4.6170753E1,4.8696402E2,3.7115757E1,9.0549965E0,4.5077924E2,3.6184776E1,3.436995E1,2.745811E0,4.341111E0,4.7138853E0,4.3941052E2,1.1368713E1,3.4786243E1,1.3985326E0,3.328303E1,1.0869157E0,1.2650901E0,1.4807208E0,2.5803823E0,1.7607287E0,3.175354E0,1.5385315E0,2.253272E2,2.1408333E2,1.0171673E1,1.1970398E0,7.882942E0,2.6903301E1,3.1966425E1,1.3166076E0,7.0525E1,1.548022E2,7.176013E1,1.423232E2,8.499684E0,1.6719884E0,6.02968E0,1.8532625E0,1.1098574E0,2.5793446E1],"tree_param":{"num_deleted":"0","num_feature":"90","num_nodes":"41","size_leaf_vector":"1"}},{"base_weights":[-9.20177E-2,-5.034044E-1,-3.5213996E-2,-5.5734247E-1,4.082696E-1,7.566969E-1,-6.1348572E-2,-7.3443115E-1,-5.442711E-2,8.3700436E-1,1.5679138E-2,-7.5649604E-2,1.1914593E0,-7.82792E-1,-7.733831E-2,1.1450186E-1,-5.904758E-1,1.0636252E0,4.3569198E-1,-8.7746136E-2,1.1422014E0,2.0633657E0,-2.182055E-1,-2.4531361E-1,-7.5649936E-3,-2.0520277E-1,2.4073787E-1,-6.680104E-2,1.4368165E-1,-2.6594622E-2,-2.1970418E-1,9.265098E-2,3.4285226E-1,-1.8082806E-1,2.4336998E-1,-1.7874282E-2,-1.9853579E-1,-2.3336546E-3,5.198027E-1,7.163553E-1,1.8266208E-1],"categories":[],"categories_nodes":[],"categories_segments":[],"categories_sizes":[],"default_left":[0,0,0,0,0,0,0,0,0,0,0,0,0,0,0,0,0,0,0,0,0,0,0,0,0,0,0,0,0,0,0,0,0,0,0,0,0,0,0,0,0],"id":11,"left_children":[1,3,5,7,-1,9,11,13,15,17,-1,19,21,23,25,27,29,31,33,35,37,39,-1,-1,-1,-1,-1,-1,-1,-1,-1,-1,-1,-1,-1,-1,-1,-1,-1,-1,-1],"loss_changes":[1.1989912E1,7.019911E0,9.413049E0,5.4128475E0,0E0,7.7844524E-1,7.956209E0,1.3758469E0,1.6092664E0,7.170429E-1,0E0,6.508949E0,9.890814E0,1.0902863E0,2.7950635E0,1.8002421E0,2.3708224E-1,1.0155201E-1,2.9763784E0,6.9399076E0,2.9671612E0,2.9646873E-1,0E0,0E0,0E0,0E0,0E0,0E0,0E0,0E0,0E0,0E0,0E0,0E0,0E0,0E0,0E0,0E0,0E0,0E0,0E0],"parents":[2147483647,0,0,1,1,2,2,3,3,5,5,6,6,7,7,8,8,9,9,11,11,12,12,13,13,14,14,15,15,16,16,17,17,18,18,19,19,20,20,21,21],"right_children":[2,4,6,8,-1,10,12,14,16,18,-1,20,22,24,26,28,30,32,34,36,38,40,-1,-1,-1,-1,-1,-1,-1,-1,-1,-1,-1,-1,-1,-1,-1,-1,-1,-1,-1],"split_conditions":[1E0,8.984E1,1E0,1E0,4.082696E-1,1E0,1E0,2.5E0,1E0,1E0,1.5679138E-2,1E0,1.1594203E-1,1.4060857E0,1E0,1E0,1E0,-8.979334E-1,0E0,1E0,1.457971E0,1E0,-2.182055E-1,-2.4531361E-1,-7.5649936E-3,-2.0520277E-1,2.4073787E-1,-6.680104E-2,1.4368165E-1,-2.6594622E-2,-2.1970418E-1,9.265098E-2,3.4285226E-1,-1.8082806E-1,2.4336998E-1,-1.7874282E-2,-1.9853579E-1,-2.3336546E-3,5.198027E-1,7.163553E-1,1.8266208E-1],"split_indices":[14,37,29,55,0,6,60,25,25,51,0,7,75,50,73,73,28,49,25,52,75,54,0,0,0,0,0,0,0,0,0,0,0,0,0,0,0,0,0,0,0],"split_type":[0,0,0,0,0,0,0,0,0,0,0,0,0,0,0,0,0,0,0,0,0,0,0,0,0,0,0,0,0,0,0,0,0,0,0,0,0,0,0,0,0],"sum_hessian":[5.128433E2,6.1267384E1,4.515759E2,6.0225967E1,1.0414164E0,1.3533703E1,4.380422E2,4.4201283E1,1.6024685E1,1.1979776E1,1.5539262E0,4.340273E2,4.014885E0,4.0992977E1,3.2083054E0,1.2782757E1,3.2419274E0,6.601529E0,5.3782473E0,4.306775E2,3.3498342E0,2.7087126E0,1.3061726E0,3.9110806E1,1.8821723E0,2.030617E0,1.1776882E0,6.841811E0,5.9409456E0,1.0726404E0,2.169287E0,1.0923162E0,5.509213E0,1.2677108E0,4.1105366E0,4.1158682E2,1.909067E1,1.471274E0,1.8785602E0,1.6899834E0,1.0187292E0],"tree_param":{"num_deleted":"0","num_feature":"90","num_nodes":"41","size_leaf_vector":"1"}},{"base_weights":[-6.7215614E-2,-5.5578893E-1,-2.9588718E-2,-6.42125E-1,8.143377E-2,-4.5580473E-2,8.118751E-1,-4.4056766E-2,-7.0474726E-1,5.4042995E-1,-1.8343848E-1,-5.7312865E-2,1.2026792E0,-6.9851424E-3,1.1940826E0,2.208424E-1,-1.947798E-1,-7.28902E-1,-1.5055961E-2,6.0895994E-2,2.0044391E-1,-2.7813831E-2,-4.6257588E-1,5.233005E-1,-4.298444E-2,-2.0436597E-1,2.7635643E-1,1.5641559E0,-4.690881E-2,-2.4612832E-1,-1.23006605E-1,-1.20903505E-2,3.0951566E-1,-1.6426426E-1,1.0441751E-1,6.269094E-1,5.603301E-2],"categories":[],"categories_nodes":[],"categories_segments":[],"categories_sizes":[],"default_left":[0,0,0,0,0,0,0,0,0,0,0,0,0,0,0,0,0,0,0,0,0,0,0,0,0,0,0,0,0,0,0,0,0,0,0,0,0],"id":12,"left_children":[1,3,5,7,9,11,13,15,17,19,-1,21,23,25,27,-1,-1,29,-1,-1,-1,31,33,-1,-1,-1,-1,35,-1,-1,-1,-1,-1,-1,-1,-1,-1],"loss_changes":[9.109795E0,2.002164E0,6.2538223E0,1.1421795E0,1.9576815E0,6.722548E0,2.721661E0,2.3836088E0,4.1070366E-1,1.9892812E-2,0E0,5.3793626E0,3.3672824E0,2.9761882E0,3.2014055E0,0E0,0E0,4.577284E-1,0E0,0E0,0E0,5.6184506E0,2.2942104E0,0E0,0E0,0E0,0E0,3.037033E0,0E0,0E0,0E0,0E0,0E0,0E0,0E0,0E0,0E0],"parents":[2147483647,0,0,1,1,2,2,3,3,4,4,5,5,6,6,7,7,8,8,9,9,11,11,12,12,13,13,14,14,17,17,21,21,22,22,27,27],"right_children":[2,4,6,8,10,12,14,16,18,20,-1,22,24,26,28,-1,-1,30,-1,-1,-1,32,34,-1,-1,-1,-1,36,-1,-1,-1,-1,-1,-1,-1,-1,-1],"split_conditions":[1E0,1E0,9.1E1,-6.603043E-1,1E0,1E0,1.6102397E0,1E0,1.5622009E0,4.0414938E-1,-1.8343848E-1,1E0,4.2028984E-1,8.75E0,1E0,2.208424E-1,-1.947798E-1,5.305671E-1,-1.5055961E-2,6.0895994E-2,2.0044391E-1,1.8789799E1,1.5E1,5.233005E-1,-4.298444E-2,-2.0436597E-1,2.7635643E-1,3.0625E0,-4.690881E-2,-2.4612832E-1,-1.23006605E-1,-1.20903505E-2,3.0951566E-1,-1.6426426E-1,1.0441751E-1,6.269094E-1,5.603301E-2],"split_indices":[15,69,46,50,29,16,81,54,49,50,0,12,75,23,10,0,0,50,0,0,0,89,40,0,0,0,0,23,0,0,0,0,0,0,0,0,0],"split_type":[0,0,0,0,0,0,0,0,0,0,0,0,0,0,0,0,0,0,0,0,0,0,0,0,0,0,0,0,0,0,0,0,0,0,0,0,0],"sum_hessian":[4.9543655E2,3.444236E1,4.609942E2,3.032587E1,4.116489E0,4.5332474E2,7.669461E0,3.035844E0,2.7290028E1,2.6085453E0,1.5079434E0,4.5004883E2,3.275924E0,2.7530067E0,4.916454E0,1.2316873E0,1.8041568E0,2.6209274E1,1.0807532E0,1.4271591E0,1.1813862E0,4.2050867E2,2.9540133E1,2.1248438E0,1.1510803E0,1.7487559E0,1.0042508E0,3.734741E0,1.181713E0,1.9142193E1,7.06708E0,4.165612E2,3.9475014E0,2.703123E1,2.5089011E0,2.3289647E0,1.4057761E0],"tree_param":{"num_deleted":"0","num_feature":"90","num_nodes":"37","size_leaf_vector":"1"}},{"base_weights":[-4.9097147E-2,-3.849563E-1,-1.0263261E-2,-4.429269E-1,2.9608288E-1,2.2255325E-1,-7.852418E-2,-6.354973E-1,-1.9452848E-2,3.0669484E-1,-2.9322872E-1,6.269441E-2,-2.4701439E-1,-8.1635964E-1,-3.2590616E-1,1.792371E-1,-4.7861895E-1,4.4221044E-1,-3.6722947E-2,-5.187725E-1,5.1157564E-1,1.939294E-1,-2.8012994E-1,-3.2781273E-1,3.1174088E-1,-9.10181E-2,-2.6880813E-1,-1.6841282E-1,1.1055322E-1,-1.8084206E-2,2.972872E-1,-2.228264E-1,7.501936E-3,2.7030038E-2,1.951298E-1,-8.363509E-2,2.6830426E-1,-7.099957E-2,-2.7492812E-1,-5.2731503E-2,2.810482E-1,8.913519E-2,-4.778402E-2,4.1505495E-1,-1.1936698E-1,-1.05087176E-1,3.6574352E-1,5.053356E-1,1.571541E-2],"categories":[],"categories_nodes":[],"categories_segments":[],"categories_sizes":[],"default_left":[0,0,0,0,0,0,0,0,0,0,0,0,0,0,0,0,0,0,0,0,0,0,0,0,0,0,0,0,0,0,0,0,0,0,0,0,0,0,0,0,0,0,0,0,0,0,0,0,0],"id":13,"left_children":[1,3,5,7,-1,9,11,13,15,17,19,21,23,25,27,29,31,33,35,37,39,41,43,45,47,-1,-1,-1,-1,-1,-1,-1,-1,-1,-1,-1,-1,-1,-1,-1,-1,-1,-1,-1,-1,-1,-1,-1,-1],"loss_changes":[6.3441906E0,4.4468064E0,6.9672008E0,3.988678E0,0E0,4.404064E0,8.0791445E0,1.6206369E0,1.5790992E0,4.016383E0,2.8889568E0,8.38505E0,7.087679E0,5.702057E-1,2.5107946E0,2.4223883E0,7.124522E-1,4.4657536E0,5.938735E0,1.1052897E0,1.2366195E0,4.949329E0,1.0673021E1,5.1445675E0,7.0536776E0,0E0,0E0,0E0,0E0,0E0,0E0,0E0,0E0,0E0,0E0,0E0,0E0,0E0,0E0,0E0,0E0,0E0,0E0,0E0,0E0,0E0,0E0,0E0,0E0],"parents":[2147483647,0,0,1,1,2,2,3,3,5,5,6,6,7,7,8,8,9,9,10,10,11,11,12,12,13,13,14,14,15,15,16,16,17,17,18,18,19,19,20,20,21,21,22,22,23,23,24,24],"right_children":[2,4,6,8,-1,10,12,14,16,18,20,22,24,26,28,30,32,34,36,38,40,42,44,46,48,-1,-1,-1,-1,-1,-1,-1,-1,-1,-1,-1,-1,-1,-1,-1,-1,-1,-1,-1,-1,-1,-1,-1,-1],"split_conditions":[1E0,8.984E1,-5.448744E-1,1E0,2.9608288E-1,1E0,1E0,5E-1,1E0,3.5E5,1E0,4.8847994E-1,3.8367648E0,-6.558783E-1,1E0,7.5E-1,-1.8454346E-1,0E0,6.639528E5,5E-1,-3.538036E-1,3.0625E0,-5.391425E-1,1.40625E1,4.1419067E0,-9.10181E-2,-2.6880813E-1,-1.6841282E-1,1.1055322E-1,-1.8084206E-2,2.972872E-1,-2.228264E-1,7.501936E-3,2.7030038E-2,1.951298E-1,-8.363509E-2,2.6830426E-1,-7.099957E-2,-2.7492812E-1,-5.2731503E-2,2.810482E-1,8.913519E-2,-4.778402E-2,4.1505495E-1,-1.1936698E-1,-1.05087176E-1,3.6574352E-1,5.053356E-1,1.571541E-2],"split_indices":[14,37,49,55,0,72,73,25,23,76,66,49,81,50,29,23,49,25,82,23,50,23,50,23,87,0,0,0,0,0,0,0,0,0,0,0,0,0,0,0,0,0,0,0,0,0,0,0,0],"split_type":[0,0,0,0,0,0,0,0,0,0,0,0,0,0,0,0,0,0,0,0,0,0,0,0,0,0,0,0,0,0,0,0,0,0,0,0,0,0,0,0,0,0,0,0,0,0,0,0,0],"sum_hessian":[4.8571936E2,4.941711E1,4.3630225E2,4.8063305E1,1.353807E0,9.840691E1,3.3789536E2,3.2694946E1,1.5368359E1,8.495348E1,1.34534235E1,1.8416606E2,1.5372928E2,1.960491E1,1.3090035E1,1.1152225E1,4.216134E0,6.0709373E1,2.4244116E1,1.0786069E1,2.6673546E0,1.3349701E2,5.0669056E1,1.346689E2,1.9060371E1,3.2818477E0,1.6323061E1,9.918393E0,3.1716425E0,9.326076E0,1.8261484E0,2.4541788E0,1.7619554E0,2.309229E1,3.761708E1,1.9797672E1,4.446442E0,7.242903E0,3.5431657E0,1.243734E0,1.4236207E0,1.0343728E2,3.005973E1,2.6389432E0,4.8030113E1,1.3350262E2,1.1662768E0,2.15575E0,1.6904621E1],"tree_param":{"num_deleted":"0","num_feature":"90","num_nodes":"49","size_leaf_vector":"1"}},{"base_weights":[-3.8894296E-2,-1.4266856E-1,6.797125E-2,-2.0023535E-1,5.610061E-1,1.9598351E-1,-1.5350783E-1,-2.2029139E-1,1.1734506E0,1.8916843E0,2.4716258E-1,1.641918E-1,5.7274437E-1,2.5629407E-2,-4.5670158E-1,-1.2724099E-1,-4.617616E-1,1.07149586E-1,4.1512176E-1,1.2007165E-1,7.2241914E-1,-5.8598608E-2,1.2126294E0,1.237301E-1,1.0318044E0,-4.1688293E-2,4.958448E-1,-6.1227554E-1,4.674735E-1,3.183869E-2,-8.228536E-2,-1.6072296E-1,1.0733791E-1,-1.3736929E-1,1.799314E-1,8.0465865E-1,-1.9562882E-1,-2.9897667E-3,9.856451E-2,1.54204E-1,5.772671E-1,4.366931E-2,-1.7132364E-1,1.0578491E-1,-2.2653945E-1,-1.9900669E-1,3.5383493E-1],"categories":[],"categories_nodes":[],"categories_segments":[],"categories_sizes":[],"default_left":[0,0,0,0,0,0,0,0,0,0,0,0,0,0,0,0,0,0,0,0,0,0,0,0,0,0,0,0,0,0,0,0,0,0,0,0,0,0,0,0,0,0,0,0,0,0,0],"id":14,"left_children":[1,3,5,7,9,11,13,15,17,19,21,23,-1,25,27,29,31,-1,-1,-1,-1,33,35,37,39,41,-1,43,45,-1,-1,-1,-1,-1,-1,-1,-1,-1,-1,-1,-1,-1,-1,-1,-1,-1,-1],"loss_changes":[5.297078E0,9.923788E0,6.708866E0,6.447196E0,7.2916613E0,7.8410506E0,4.728506E0,4.934703E0,8.777189E-2,1.6511955E0,4.848601E0,5.0709805E0,0E0,6.1523724E0,4.931249E0,5.581399E0,3.91677E0,0E0,0E0,0E0,0E0,3.756626E0,1.2542499E1,3.9088538E0,1.997025E0,5.466506E0,0E0,4.137532E0,4.986717E0,0E0,0E0,0E0,0E0,0E0,0E0,0E0,0E0,0E0,0E0,0E0,0E0,0E0,0E0,0E0,0E0,0E0,0E0],"parents":[2147483647,0,0,1,1,2,2,3,3,4,4,5,5,6,6,7,7,8,8,9,9,10,10,11,11,13,13,14,14,15,15,16,16,21,21,22,22,23,23,24,24,25,25,27,27,28,28],"right_children":[2,4,6,8,10,12,14,16,18,20,22,24,-1,26,28,30,32,-1,-1,-1,-1,34,36,38,40,42,-1,44,46,-1,-1,-1,-1,-1,-1,-1,-1,-1,-1,-1,-1,-1,-1,-1,-1,-1,-1],"split_conditions":[1.25E-1,1E0,3.375E0,1E0,-4.4453666E-1,1.1547005E6,1.7191176E0,1E0,3.5352698E-1,1E0,4.773464E0,1.0447074E0,5.7274437E-1,1.6507246E0,9.477874E0,-3.4437725E-1,8.00979E5,1.07149586E-1,4.1512176E-1,1.2007165E-1,7.2241914E-1,2.4999073E-1,3.02522E5,1E0,2.75E0,4.4470003E-1,4.958448E-1,0E0,1.5E0,3.183869E-2,-8.228536E-2,-1.6072296E-1,1.0733791E-1,-1.3736929E-1,1.799314E-1,8.0465865E-1,-1.9562882E-1,-2.9897667E-3,9.856451E-2,1.54204E-1,5.772671E-1,4.366931E-2,-1.7132364E-1,1.0578491E-1,-2.2653945E-1,-1.9900669E-1,3.5383493E-1],"split_indices":[23,20,23,16,50,82,81,10,50,73,77,49,0,75,77,49,88,0,0,0,0,49,76,28,23,49,0,25,25,0,0,0,0,0,0,0,0,0,0,0,0,0,0,0,0,0,0],"split_type":[0,0,0,0,0,0,0,0,0,0,0,0,0,0,0,0,0,0,0,0,0,0,0,0,0,0,0,0,0,0,0,0,0,0,0,0,0,0,0,0,0,0,0,0,0,0,0],"sum_hessian":[4.757747E2,2.4120853E2,2.3456615E2,2.2362914E2,1.7579391E1,1.4872183E2,8.584432E1,2.2123865E2,2.3904872E0,2.3954303E0,1.5183961E1,1.470881E2,1.6337181E0,5.4537292E1,3.1307032E1,1.6080101E2,6.0437637E1,1.0424439E0,1.3480434E0,1.072588E0,1.3228425E0,1.224523E1,2.9387312E0,1.416259E2,5.462209E0,5.3306355E1,1.2309363E0,2.708507E1,4.2219615E0,6.2262943E1,9.853807E1,5.5751244E1,4.6863923E0,7.811861E0,4.433368E0,1.3983352E0,1.540396E0,8.626646E1,5.5359444E1,4.453954E0,1.0082548E0,3.9913456E1,1.33929E1,3.3035526E0,2.3781517E1,1.657558E0,2.5644035E0],"tree_param":{"num_deleted":"0","num_feature":"90","num_nodes":"47","size_leaf_vector":"1"}},{"base_weights":[-2.730275E-2,-1.8398705E-1,4.61967E-2,-3.256059E-1,1.3942178E-1,-2.5586292E-2,4.5233837E-1,-7.029214E-2,-5.032464E-1,2.5984448E-1,-7.9362833E-1,-6.0349077E-2,5.4059696E-1,5.664151E-1,-2.6969838E-1,-2.0897613E-1,6.178544E-1,-5.5663776E-1,3.2085901E-1,-1.2624979E-1,5.922885E-1,-3.2453915E-1,-3.4574848E-1,-3.373396E-2,-6.713114E-1,9.787845E-1,-1.1370015E-1,6.369262E-1,-1.981957E-1,-7.304083E-1,2.3766522E-1,-1.7578866E-1,2.828686E-3,2.749756E-1,-1.6090147E-2,-1.7823544E-1,1.9798598E-1,3.4568775E-2,-2.1456963E-1,2.3504342E-1,-1.8536435E-2,1.830893E-2,-1.931402E-1,-1.6681055E-2,2.1855673E-1,-2.4971469E-1,1.04524516E-1,3.4433928E-1,-3.552038E-2,2.712729E-1,-1.48383E-1,1.5502283E-1,6.780406E-1,-2.525236E-1,-3.569314E-2],"categories":[],"categories_nodes":[],"categories_segments":[],"categories_sizes":[],"default_left":[0,0,0,0,0,0,0,0,0,0,0,0,0,0,0,0,0,0,0,0,0,0,0,0,0,0,0,0,0,0,0,0,0,0,0,0,0,0,0,0,0,0,0,0,0,0,0,0,0,0,0,0,0,0,0],"id":15,"left_children":[1,3,5,7,9,11,13,15,17,19,21,23,25,27,29,31,33,35,-1,37,39,41,-1,43,45,47,49,51,-1,53,-1,-1,-1,-1,-1,-1,-1,-1,-1,-1,-1,-1,-1,-1,-1,-1,-1,-1,-1,-1,-1,-1,-1,-1,-1],"loss_changes":[5.390261E0,6.88894E0,9.308829E0,4.691223E0,5.3977513E0,5.3851585E0,4.102416E0,4.320792E0,5.7423363E0,5.424088E0,5.566027E-1,4.158298E0,4.650344E0,4.0315E0,4.1108217E0,3.0768173E0,1.577635E0,3.1252022E0,0E0,2.9420872E0,2.8707948E0,5.056002E-1,0E0,4.165338E0,2.0442247E0,1.9134903E0,3.256824E0,6.6301727E0,0E0,2.7804565E-1,0E0,0E0,0E0,0E0,0E0,0E0,0E0,0E0,0E0,0E0,0E0,0E0,0E0,0E0,0E0,0E0,0E0,0E0,0E0,0E0,0E0,0E0,0E0,0E0,0E0],"parents":[2147483647,0,0,1,1,2,2,3,3,4,4,5,5,6,6,7,7,8,8,9,9,10,10,11,11,12,12,13,13,14,14,15,15,16,16,17,17,19,19,20,20,21,21,23,23,24,24,25,25,26,26,27,27,29,29],"right_children":[2,4,6,8,10,12,14,16,18,20,22,24,26,28,30,32,34,36,-1,38,40,42,-1,44,46,48,50,52,-1,54,-1,-1,-1,-1,-1,-1,-1,-1,-1,-1,-1,-1,-1,-1,-1,-1,-1,-1,-1,-1,-1,-1,-1,-1,-1],"split_conditions":[1E0,1E0,1E0,-2.0193638E-1,4E0,7E0,6.156138E5,7.5E-1,6.6E1,1E0,1E0,1E0,2E4,9.611546E-1,1.2990381E6,1E0,1E0,3.89884E3,3.2085901E-1,1E0,3.768116E-1,1E0,-3.4574848E-1,2.3E1,4.732443E0,3.125E0,-2.1881051E-1,7.673357E-1,-1.981957E-1,1.0014493E1,2.3766522E-1,-1.7578866E-1,2.828686E-3,2.749756E-1,-1.6090147E-2,-1.7823544E-1,1.9798598E-1,3.4568775E-2,-2.1456963E-1,2.3504342E-1,-1.8536435E-2,1.830893E-2,-1.931402E-1,-1.6681055E-2,2.1855673E-1,-2.4971469E-1,1.04524516E-1,3.4433928E-1,-3.552038E-2,2.712729E-1,-1.48383E-1,1.5502283E-1,6.780406E-1,-2.525236E-1,-3.569314E-2],"split_indices":[18,28,69,50,25,48,82,23,44,29,48,52,76,49,82,14,11,47,0,10,75,73,0,36,83,23,50,49,0,75,0,0,0,0,0,0,0,0,0,0,0,0,0,0,0,0,0,0,0,0,0,0,0,0,0],"split_type":[0,0,0,0,0,0,0,0,0,0,0,0,0,0,0,0,0,0,0,0,0,0,0,0,0,0,0,0,0,0,0,0,0,0,0,0,0,0,0,0,0,0,0,0,0,0,0,0,0,0,0,0,0,0,0],"sum_hessian":[4.6632062E2,1.4841977E2,3.1790082E2,1.0321551E2,4.520427E1,2.7094925E2,4.6951576E1,4.2921825E1,6.0293682E1,4.0675995E1,4.5282755E0,2.5611743E2,1.4831808E1,4.0731777E1,6.2198E0,3.630209E1,6.6197352E0,5.893895E1,1.3547337E0,1.9106407E1,2.1569586E1,2.788135E0,1.7401406E0,2.4643721E2,9.680236E0,8.585861E0,6.245947E0,3.8973194E1,1.7585846E0,4.5555587E0,1.664241E0,1.2699222E1,2.3602867E1,4.328896E0,2.2908394E0,5.7673805E1,1.2651417E0,1.4121174E1,4.985234E0,1.6537704E1,5.031883E0,1.6292937E0,1.1588414E0,2.4046518E2,5.972024E0,8.518428E0,1.161808E0,7.399843E0,1.186018E0,1.3266652E0,4.919282E0,3.751398E1,1.4592109E0,3.5351536E0,1.0204052E0],"tree_param":{"num_deleted":"0","num_feature":"90","num_nodes":"55","size_leaf_vector":"1"}},{"base_weights":[-2.3261704E-2,-1.6621067E-3,-4.3097377E-1,-4.4042462E-1,1.9205168E-2,-1.2533197E-1,-8.8123167E-1,2.0823078E-1,-5.577048E-1,3.2315007E-1,-1.7039053E-2,-3.4448478E-1,7.2602576E-1,-2.9302296E-1,-2.4823813E-2,-6.7189527E-1,8.5624814E-2,1.4867273E-1,1.3464626E0,-6.1242956E-1,7.827156E-3,-5.822954E-1,1.7071441E-1,-5.0570473E-2,4.1653273E-1,-2.3863669E-1,4.819056E-2,-1.8689273E-2,2.858162E-1,8.5330987E-1,1.2415225E-1,1.1361179E-1,-2.3380558E-1,1.1275784E-1,-7.936906E-3,-2.3958263E-1,9.701163E-3],"categories":[],"categories_nodes":[],"categories_segments":[],"categories_sizes":[],"default_left":[0,0,0,0,0,0,0,0,0,0,0,0,0,0,0,0,0,0,0,0,0,0,0,0,0,0,0,0,0,0,0,0,0,0,0,0,0],"id":16,"left_children":[1,3,5,7,9,11,13,-1,15,17,19,21,23,-1,-1,25,-1,27,29,31,33,35,-1,-1,-1,-1,-1,-1,-1,-1,-1,-1,-1,-1,-1,-1,-1],"loss_changes":[4.059619E0,4.0266747E0,3.0813656E0,3.0438194E0,4.6312895E0,3.045241E0,6.2174416E-1,0E0,1.9873705E0,7.7963777E0,5.5732617E0,3.067027E0,2.242169E0,0E0,0E0,1.8481336E0,0E0,6.7406673E0,7.763376E0,2.7918825E0,4.5777955E0,1.4199307E0,0E0,0E0,0E0,0E0,0E0,0E0,0E0,0E0,0E0,0E0,0E0,0E0,0E0,0E0,0E0],"parents":[2147483647,0,0,1,1,2,2,3,3,4,4,5,5,6,6,8,8,9,9,10,10,11,11,12,12,15,15,17,17,18,18,19,19,20,20,21,21],"right_children":[2,4,6,8,10,12,14,-1,16,18,20,22,24,-1,-1,26,-1,28,30,32,34,36,-1,-1,-1,-1,-1,-1,-1,-1,-1,-1,-1,-1,-1,-1,-1],"split_conditions":[1E0,1E0,1.648686E-1,-7.0041496E-1,-5.2060854E-1,-1.00691564E-1,8.603866E-1,2.0823078E-1,3.031812E-1,3.531884E0,-9.1247725E-1,1E0,3.5652173E-1,-2.9302296E-1,-2.4823813E-2,1E0,8.5624814E-2,2.4316403E-1,4.09951E0,-4.3706778E-1,-7.0678586E-1,5E-1,1.7071441E-1,-5.0570473E-2,4.1653273E-1,-2.3863669E-1,4.819056E-2,-1.8689273E-2,2.858162E-1,8.5330987E-1,1.2415225E-1,1.1361179E-1,-2.3380558E-1,1.1275784E-1,-7.936906E-3,-2.3958263E-1,9.701163E-3],"split_indices":[53,17,50,50,50,50,49,0,50,75,49,67,75,0,0,21,0,49,77,50,49,25,0,0,0,0,0,0,0,0,0,0,0,0,0,0,0],"split_type":[0,0,0,0,0,0,0,0,0,0,0,0,0,0,0,0,0,0,0,0,0,0,0,0,0,0,0,0,0,0,0,0,0,0,0,0,0],"sum_hessian":[4.6006555E2,4.3787222E2,2.2193333E1,1.8966661E1,4.1890555E2,1.3981105E1,8.212227E0,1.3161697E0,1.7650492E1,4.3787407E1,3.7511816E2,1.1592408E1,2.3886971E0,7.135468E0,1.0767587E0,1.5723959E1,1.9265331E0,3.8387524E1,5.399883E0,1.4091267E1,3.610269E2,9.485685E0,2.1067224E0,1.3334278E0,1.0552694E0,1.3730651E1,1.9933074E0,3.11395E1,7.248025E0,1.2854438E0,4.114439E0,1.848235E0,1.22430315E1,2.9916033E1,3.3111084E2,6.79495E0,2.6907356E0],"tree_param":{"num_deleted":"0","num_feature":"90","num_nodes":"37","size_leaf_vector":"1"}},{"base_weights":[-1.7590538E-2,-2.657796E-2,7.9535496E-1,-1.0304709E-2,-5.1118433E-1,3.995202E-1,-8.315965E-3,8.943937E-3,-3.985421E-1,-7.8467065E-1,4.023429E-1,3.1078191E-2,-3.2571164E-1,-1.5401085E-1,-8.1270105E-1,-2.8412378E-1,7.924075E-2,3.4254748E-1,-1.8258998E-1,5.054736E-3,2.322478E-1,-1.3197687E-1,1.2691942E-1,-1.0916974E-1,1.5987304E-1,-2.7325082E-1,-1.0366231E-1],"categories":[],"categories_nodes":[],"categories_segments":[],"categories_sizes":[],"default_left":[0,0,0,0,0,0,0,0,0,0,0,0,0,0,0,0,0,0,0,0,0,0,0,0,0,0,0],"id":17,"left_children":[1,3,5,7,9,-1,-1,11,13,15,17,19,21,23,25,-1,-1,-1,-1,-1,-1,-1,-1,-1,-1,-1,-1],"loss_changes":[3.3650923E0,3.5722313E0,2.2605865E0,3.2911577E0,3.9928238E0,0E0,0E0,3.122128E0,1.9816577E0,2.2372851E0,3.7242713E0,4.16315E0,2.422465E0,2.2576632E0,2.8603077E-2,0E0,0E0,0E0,0E0,0E0,0E0,0E0,0E0,0E0,0E0,0E0,0E0],"parents":[2147483647,0,0,1,1,2,2,3,3,4,4,7,7,8,8,9,9,10,10,11,11,12,12,13,13,14,14],"right_children":[2,4,6,8,10,-1,-1,12,14,16,18,20,22,24,26,-1,-1,-1,-1,-1,-1,-1,-1,-1,-1,-1,-1],"split_conditions":[1E0,1E0,-3.5164917E-1,1E0,3.8578053E0,3.995202E-1,-8.315965E-3,1E0,1.648686E-1,6.1875E0,1.4273858E-1,3E0,1.5E1,-1.00691564E-1,4.8847994E-1,-2.8412378E-1,7.924075E-2,3.4254748E-1,-1.8258998E-1,5.054736E-3,2.322478E-1,-1.3197687E-1,1.2691942E-1,-1.0916974E-1,1.5987304E-1,-2.7325082E-1,-1.0366231E-1],"split_indices":[7,52,49,53,89,0,0,12,50,23,50,34,40,50,49,0,0,0,0,0,0,0,0,0,0,0,0],"split_type":[0,0,0,0,0,0,0,0,0,0,0,0,0,0,0,0,0,0,0,0,0,0,0,0,0,0,0],"sum_hessian":[4.5668182E2,4.5264496E2,4.0368557E0,4.389269E2,1.3718055E1,2.0699308E0,1.9669249E0,4.1912387E2,1.9803022E1,1.0665989E1,3.052066E0,3.9397345E2,2.5150429E1,1.331395E1,6.489072E0,9.319803E0,1.3461859E0,1.687968E0,1.3640982E0,3.8757455E2,6.398893E0,2.217981E1,2.9706194E0,1.0558157E1,2.7557924E0,4.5777144E0,1.9113573E0],"tree_param":{"num_deleted":"0","num_feature":"90","num_nodes":"27","size_leaf_vector":"1"}},{"base_weights":[-1.3868084E-2,-1.3435222E-1,3.916898E-2,-3.1902302E-2,-4.7243237E-1,-1.0471362E-2,2.8918633E-1,1.5065034E-2,-7.913371E-1,-5.9748036E-1,3.0751085E-1,-3.259943E-2,5.106508E-1,3.579184E-1,-4.7387305E-1,-1.2781762E-1,2.6392692E-1,-3.1103137E-1,-8.731051E-4,-7.510431E-1,5.098919E-1,-1.5306589E-2,-8.9167E-1,1.0441556E0,-1.4570408E-1,4.0143853E-1,-2.2723131E-1,7.7455305E-2,-2.2927234E-1,-5.4472197E-2,2.406116E-1,1.2716481E-1,-9.031689E-2,-2.7826634E-1,2.3295686E-2,-7.690507E-2,3.1533396E-1,-1.0608638E-2,3.0027428E-1,-3.2000196E-1,-3.527084E-2,3.5741982E-1,6.2026482E-2,-2.1671592E-1,2.6650223E-1,9.001934E-2,3.1672674E-1],"categories":[],"categories_nodes":[],"categories_segments":[],"categories_sizes":[],"default_left":[0,0,0,0,0,0,0,0,0,0,0,0,0,0,0,0,0,0,0,0,0,0,0,0,0,0,0,0,0,0,0,0,0,0,0,0,0,0,0,0,0,0,0,0,0,0,0],"id":18,"left_children":[1,3,5,7,9,11,13,15,17,19,-1,21,23,25,27,29,31,-1,-1,33,35,37,39,41,43,45,-1,-1,-1,-1,-1,-1,-1,-1,-1,-1,-1,-1,-1,-1,-1,-1,-1,-1,-1,-1,-1],"loss_changes":[2.907167E0,4.8003874E0,3.9260533E0,3.8558943E0,6.6533585E0,3.068968E0,2.9177132E0,3.6774924E0,1.2152002E0,5.553486E0,0E0,3.7724051E0,3.948593E0,2.6649747E0,1.2091348E0,3.43327E0,3.5348198E0,0E0,0E0,4.0371046E0,2.0521035E0,5.147782E0,5.5349207E-1,5.061898E-1,4.0638285E0,2.831603E0,0E0,0E0,0E0,0E0,0E0,0E0,0E0,0E0,0E0,0E0,0E0,0E0,0E0,0E0,0E0,0E0,0E0,0E0,0E0,0E0,0E0],"parents":[2147483647,0,0,1,1,2,2,3,3,4,4,5,5,6,6,7,7,8,8,9,9,11,11,12,12,13,13,14,14,15,15,16,16,19,19,20,20,21,21,22,22,23,23,24,24,25,25],"right_children":[2,4,6,8,10,12,14,16,18,20,-1,22,24,26,28,30,32,-1,-1,34,36,38,40,42,44,46,-1,-1,-1,-1,-1,-1,-1,-1,-1,-1,-1,-1,-1,-1,-1,-1,-1,-1,-1,-1,-1],"split_conditions":[1E0,9.5891446E-1,1E0,3.5E0,4.2E1,3.2026E2,1E0,5E-1,1E0,3.02522E5,3.0751085E-1,6.4E1,-1.9448669E-1,8E0,-2.5088117E-1,1E0,1E0,-3.1103137E-1,-8.731051E-4,1.060581E0,1.25E-1,9E0,2.6875E0,7.75E5,5.512559E-1,1.0278261E1,-2.2723131E-1,7.7455305E-2,-2.2927234E-1,-5.4472197E-2,2.406116E-1,1.2716481E-1,-9.031689E-2,-2.7826634E-1,2.3295686E-2,-7.690507E-2,3.1533396E-1,-1.0608638E-2,3.0027428E-1,-3.2000196E-1,-3.527084E-2,3.5741982E-1,6.2026482E-2,-2.1671592E-1,2.6650223E-1,9.001934E-2,3.1672674E-1],"split_indices":[18,77,69,25,44,47,55,25,69,76,0,47,49,25,49,70,6,0,0,50,23,48,23,76,49,75,0,0,0,0,0,0,0,0,0,0,0,0,0,0,0,0,0,0,0,0,0],"split_type":[0,0,0,0,0,0,0,0,0,0,0,0,0,0,0,0,0,0,0,0,0,0,0,0,0,0,0,0,0,0,0,0,0,0,0,0,0,0,0,0,0,0,0,0,0,0,0],"sum_hessian":[4.531233E2,1.3802931E2,3.1509396E2,1.06769E2,3.1260319E1,2.636959E2,5.1398067E1,1.0147352E2,5.295479E0,2.940576E1,1.8545583E0,2.538541E2,9.841796E0,4.7638042E1,3.7600248E0,6.477164E1,3.670188E1,3.7981448E0,1.4973342E0,2.6107176E1,3.298584E0,2.4984265E2,4.0114417E0,5.103047E0,4.7387486E0,4.64651E1,1.1729423E0,1.0993221E0,2.660703E0,6.199249E1,2.7791486E0,2.8798351E1,7.903531E0,2.1424486E1,4.68269E0,1.5833212E0,1.7152628E0,2.4595386E2,3.8887985E0,2.9635189E0,1.0479231E0,3.9804177E0,1.1226295E0,3.2356424E0,1.5031061E0,4.149485E1,4.9702506E0],"tree_param":{"num_deleted":"0","num_feature":"90","num_nodes":"47","size_leaf_vector":"1"}},{"base_weights":[-1.2271454E-2,-2.6566902E-1,1.314946E-2,-3.2720035E-1,2.5886536E-1,-3.516915E-4,8.580528E-1,-4.443841E-1,2.2137539E-1,-5.8265424E-1,1.1146638E-2,2.7630948E-2,3.540629E-1,-5.309515E-1,4.8864955E-1,-2.0143138E-1,2.73984E-1,-7.8442425E-1,9.117706E-2,2.8897328E-3,7.907901E-1,-1.255124E-1,-2.601555E-1,3.4102187E-2,2.004955E-1,6.55204E-2,-2.1548696E-1,-1.5920665E-2,-2.7201292E-1,8.312538E-2,-6.55726E-3,4.833698E-1,-2.0842612E-1],"categories":[],"categories_nodes":[],"categories_segments":[],"categories_sizes":[],"default_left":[0,0,0,0,0,0,0,0,0,0,0,0,0,0,0,0,0,0,0,0,0,0,0,0,0,0,0,0,0,0,0,0,0],"id":19,"left_children":[1,3,5,7,-1,9,11,13,15,17,19,-1,-1,21,23,25,-1,27,-1,29,31,-1,-1,-1,-1,-1,-1,-1,-1,-1,-1,-1,-1],"loss_changes":[2.907605E0,3.1399658E0,4.68506E0,2.6536098E0,0E0,2.7196865E0,1.4852805E0,2.9317465E0,2.4259806E0,1.6454315E0,2.5621355E0,0E0,0E0,8.013468E-1,1.4836144E-1,1.3669024E0,0E0,5.498924E-1,0E0,2.687642E0,6.203038E0,0E0,0E0,0E0,0E0,0E0,0E0,0E0,0E0,0E0,0E0,0E0,0E0],"parents":[2147483647,0,0,1,1,2,2,3,3,5,5,6,6,7,7,8,8,9,9,10,10,13,13,14,14,15,15,17,17,19,19,20,20],"right_children":[2,4,6,8,-1,10,12,14,16,18,20,-1,-1,22,24,26,-1,28,-1,30,32,-1,-1,-1,-1,-1,-1,-1,-1,-1,-1,-1,-1],"split_conditions":[1E0,8.984E1,1E0,1E0,2.5886536E-1,1E0,-6.1466116E-1,9.698E1,-3.5164917E-1,1E0,1E0,2.7630948E-2,3.540629E-1,1E0,1E0,1.18395574E-1,2.73984E-1,-6.716136E-1,9.117706E-2,-5.7952976E-1,1.1594203E-1,-1.255124E-1,-2.601555E-1,3.4102187E-2,2.004955E-1,6.55204E-2,-2.1548696E-1,-1.5920665E-2,-2.7201292E-1,8.312538E-2,-6.55726E-3,4.833698E-1,-2.0842612E-1],"split_indices":[14,37,54,67,0,17,50,47,49,71,60,0,0,10,29,50,0,49,0,50,75,0,0,0,0,0,0,0,0,0,0,0,0],"split_type":[0,0,0,0,0,0,0,0,0,0,0,0,0,0,0,0,0,0,0,0,0,0,0,0,0,0,0,0,0,0,0,0,0],"sum_hessian":[4.498372E2,4.015166E1,4.0968555E2,3.8749043E1,1.4026163E0,4.0422577E2,5.459751E0,3.2085125E1,6.663918E0,6.865542E0,3.9736023E2,1.9971908E0,3.4625602E0,2.9755348E1,2.3297777E0,4.5763135E0,2.0876048E0,5.6865926E0,1.1789494E0,3.9418924E2,3.1710002E0,2.3973051E1,5.782298E0,1.2835809E0,1.0461968E0,2.8438013E0,1.7325121E0,1.0200334E0,4.666559E0,3.1787989E1,3.6240125E2,1.9882907E0,1.1827096E0],"tree_param":{"num_deleted":"0","num_feature":"90","num_nodes":"33","size_leaf_vector":"1"}},{"base_weights":[-8.523781E-3,-1.9546269E-2,5.125338E-1,-2.7715152E-2,6.589195E-1,-1.5937586E-1,7.025264E-1,-1.016194E-2,-3.2049823E-1,3.6496007E-1,-1.1585473E-1,9.339557E-1,-1.0540026E-1,-1.9666817E-2,6.362858E-1,-3.9866608E-1,1.533658E-1,1.3046844E0,6.598894E-2,-2.2301763E-4,-9.220944E-2,2.8498086E-1,1.1676056E-2,-1.6968727E-1,7.30616E-2,5.1371014E-1,1.3538381E-1,2.083606E-1,-1.7288889E-1],"categories":[],"categories_nodes":[],"categories_segments":[],"categories_sizes":[],"default_left":[0,0,0,0,0,0,0,0,0,0,0,0,0,0,0,0,0,0,0,0,0,0,0,0,0,0,0,0,0],"id":20,"left_children":[1,3,5,7,9,-1,11,13,15,-1,-1,17,-1,19,21,23,-1,25,27,-1,-1,-1,-1,-1,-1,-1,-1,-1,-1],"loss_changes":[2.5759735E0,2.448442E0,2.2159216E0,2.2283273E0,3.5333502E0,0E0,2.3504157E0,2.53598E0,1.7984338E0,0E0,0E0,2.1895375E0,0E0,2.208563E0,1.0836535E0,2.6019444E0,0E0,9.327936E-1,1.679946E0,0E0,0E0,0E0,0E0,0E0,0E0,0E0,0E0,0E0,0E0],"parents":[2147483647,0,0,1,1,2,2,3,3,4,4,6,6,7,7,8,8,11,11,13,13,14,14,15,15,17,17,18,18],"right_children":[2,4,6,8,10,-1,12,14,16,-1,-1,18,-1,20,22,24,-1,26,28,-1,-1,-1,-1,-1,-1,-1,-1,-1,-1],"split_conditions":[9.1E1,1E0,2.773913E-1,1E0,2.3671316E-1,-1.5937586E-1,3.5E5,3.89884E3,6.81145E3,3.6496007E-1,-1.1585473E-1,1E0,-1.0540026E-1,7.4986E2,1E0,1E0,1.533658E-1,8.4517494E-2,1E0,-2.2301763E-4,-9.220944E-2,2.8498086E-1,1.1676056E-2,-1.6968727E-1,7.30616E-2,5.1371014E-1,1.3538381E-1,2.083606E-1,-1.7288889E-1],"split_indices":[46,16,75,12,77,0,76,47,37,0,0,73,0,37,25,28,0,49,25,0,0,0,0,0,0,0,0,0,0],"split_type":[0,0,0,0,0,0,0,0,0,0,0,0,0,0,0,0,0,0,0,0,0,0,0,0,0,0,0,0,0],"sum_hessian":[4.457698E2,4.3747784E2,8.291948E0,4.3322092E2,4.2569294E0,1.0002995E0,7.2916493E0,4.096933E2,2.3527618E1,2.6689034E0,1.5880263E0,6.072005E0,1.2196444E0,4.0471228E2,4.9810057E0,2.1982311E1,1.5453063E0,3.902154E0,2.1698508E0,3.806758E2,2.4036488E1,2.8791049E0,2.1019008E0,1.7541246E1,4.441066E0,1.9595435E0,1.9426106E0,1.0555396E0,1.1143112E0],"tree_param":{"num_deleted":"0","num_feature":"90","num_nodes":"29","size_leaf_vector":"1"}},{"base_weights":[-5.309768E-3,-6.595178E-1,1.6934667E-3,-4.262328E-2,-2.3529573E-1,-3.8222063E-3,2.312407E-1,1.0087998E-2,-3.1563315E-1,-1.6013177E-2,2.2870873E-1,5.9134193E-2,-5.93133E-1,-2.8723413E-2,1.973922E-2,1.1550517E-1,-2.0894565E-1,-9.075034E-2,3.6073706E-1,-2.1642621E-1,1.5120224E-2],"categories":[],"categories_nodes":[],"categories_segments":[],"categories_sizes":[],"default_left":[0,0,0,0,0,0,0,0,0,0,0,0,0,0,0,0,0,0,0,0,0],"id":21,"left_children":[1,3,5,-1,-1,7,-1,9,11,13,15,17,19,-1,-1,-1,-1,-1,-1,-1,-1],"loss_changes":[2.0359995E0,1.9251299E-1,1.8713528E0,0E0,0E0,1.9042344E0,0E0,2.4034197E0,1.9849132E0,2.463005E0,6.764245E0,4.0377293E0,9.3318224E-1,0E0,0E0,0E0,0E0,0E0,0E0,0E0,0E0],"parents":[2147483647,0,0,1,1,2,2,5,5,7,7,8,8,9,9,10,10,11,11,12,12],"right_children":[2,4,6,-1,-1,8,-1,10,12,14,16,18,20,-1,-1,-1,-1,-1,-1,-1,-1],"split_conditions":[-1.1368679E0,1E0,5E0,-4.262328E-2,-2.3529573E-1,1E0,2.312407E-1,1E0,-4.1487032E-1,1.875E-1,6.1863244E-1,-4.967907E-1,7.96275E-1,-2.8723413E-2,1.973922E-2,1.1550517E-1,-2.0894565E-1,-9.075034E-2,3.6073706E-1,-2.1642621E-1,1.5120224E-2],"split_indices":[49,29,35,0,0,53,0,20,49,23,49,49,49,0,0,0,0,0,0,0,0],"split_type":[0,0,0,0,0,0,0,0,0,0,0,0,0,0,0,0,0,0,0,0,0],"sum_hessian":[4.4314502E2,3.7067332E0,4.394383E2,1.13584E0,2.5708933E0,4.3729724E2,2.1410518E0,4.195484E2,1.7748835E1,3.7562875E2,4.3919643E1,7.885824E0,9.863011E0,1.901453E2,1.8548347E2,3.807145E1,5.848192E0,6.5495934E0,1.3362305E0,8.1227255E0,1.740286E0],"tree_param":{"num_deleted":"0","num_feature":"90","num_nodes":"21","size_leaf_vector":"1"}},{"base_weights":[-5.4836897E-3,3.9082253E-3,-4.81526E-1,-3.2404854E-3,6.125587E-1,-7.564836E-1,1.7943543E-1,9.539372E-3,-4.2792562E-1,9.468446E-1,-9.6574515E-2,-1.3622396E-1,-2.95399E-1,-3.826614E-2,1.044078E-1,-7.1299136E-1,2.9153237E-1,4.4396278E-1,1.4204824E-2,-8.019292E-2,1.8263865E-2,-1.6829027E-2,2.9210532E-1,1.299229E-1,-2.6208172E-2,-2.7304402E-1,7.166884E-2,3.027674E-1,-1.1771937E-1],"categories":[],"categories_nodes":[],"categories_segments":[],"categories_sizes":[],"default_left":[0,0,0,0,0,0,0,0,0,0,0,0,0,0,0,0,0,0,0,0,0,0,0,0,0,0,0,0,0],"id":22,"left_children":[1,3,5,7,9,11,-1,13,15,17,-1,19,-1,21,23,25,27,-1,-1,-1,-1,-1,-1,-1,-1,-1,-1,-1,-1],"loss_changes":[1.9797034E0,1.8938504E0,2.9955812E0,2.3419528E0,1.8832164E0,8.9471817E-1,0E0,1.9049231E0,2.7931693E0,1.8359087E0,0E0,9.677322E-2,0E0,5.0966735E0,8.906593E0,1.9662395E0,2.5003033E0,0E0,0E0,0E0,0E0,0E0,0E0,0E0,0E0,0E0,0E0,0E0,0E0],"parents":[2147483647,0,0,1,1,2,2,3,3,4,4,5,5,7,7,8,8,9,9,11,11,13,13,14,14,15,15,16,16],"right_children":[2,4,6,8,10,12,-1,14,16,18,-1,20,-1,22,24,26,28,-1,-1,-1,-1,-1,-1,-1,-1,-1,-1,-1,-1],"split_conditions":[4E0,1E0,1.4E1,1E0,1E0,1.02904566E-1,1.7943543E-1,1E0,3.8578053E0,-3.5164917E-1,-9.6574515E-2,1E0,-2.95399E-1,1E0,1E0,6.1875E0,4.2295875E-3,4.4396278E-1,1.4204824E-2,-8.019292E-2,1.8263865E-2,-1.6829027E-2,2.9210532E-1,1.299229E-1,-2.6208172E-2,-2.7304402E-1,7.166884E-2,3.027674E-1,-1.1771937E-1],"split_indices":[33,7,48,52,27,50,0,11,89,49,0,51,0,10,10,23,49,0,0,0,0,0,0,0,0,0,0,0,0],"split_type":[0,0,0,0,0,0,0,0,0,0,0,0,0,0,0,0,0,0,0,0,0,0,0,0,0,0,0,0,0],"sum_hessian":[4.413718E2,4.33805E2,7.5668178E0,4.2975214E2,4.0528407E0,6.269467E0,1.2973512E0,4.1814658E2,1.1605557E1,2.9752703E0,1.0775706E0,2.1156123E0,4.1538544E0,2.7843564E2,1.3971094E2,8.318547E0,3.2870104E0,1.4630517E0,1.5122186E0,1.0566719E0,1.0589403E0,2.7454276E2,3.8928897E0,5.1016426E1,8.86945E1,6.9275584E0,1.3909886E0,1.3718326E0,1.915178E0],"tree_param":{"num_deleted":"0","num_feature":"90","num_nodes":"29","size_leaf_vector":"1"}},{"base_weights":[-4.4093262E-3,-9.834109E-3,7.1867716E-1,-3.661444E-1,2.811284E-3,3.3924103E-1,-3.1352397E-2,3.075979E-1,-6.99744E-1,1.14908636E-1,-3.5022456E-2,6.5096444E-1,-1.625327E-1,-8.5418206E-1,1.0698945E-1,3.841885E-2,1.0669129E0,-2.0828015E-1,3.9484035E-2,3.826903E-1,-3.1184688E-2,-2.7981004E-1,-8.240628E-2,-4.1735396E-2,1.2023634E-1,4.2062256E-1,-1.7043287E-1,-9.924385E-2,2.0550694E-2,1.5112297E-1,2.4180266E-3],"categories":[],"categories_nodes":[],"categories_segments":[],"categories_sizes":[],"default_left":[0,0,0,0,0,0,0,0,0,0,0,0,0,0,0,0,0,0,0,0,0,0,0,0,0,0,0,0,0,0,0],"id":23,"left_children":[1,3,5,7,9,-1,-1,11,13,15,17,19,-1,21,-1,23,25,27,29,-1,-1,-1,-1,-1,-1,-1,-1,-1,-1,-1,-1],"loss_changes":[1.7298911E0,1.9696609E0,1.2322949E0,3.5826979E0,1.797737E0,0E0,0E0,2.0023327E0,1.989275E0,7.7475796E0,4.1000752E0,2.2462928E0,0E0,1.6711664E-1,0E0,6.4917955E0,5.135151E0,3.260868E0,3.2419686E0,0E0,0E0,0E0,0E0,0E0,0E0,0E0,0E0,0E0,0E0,0E0,0E0],"parents":[2147483647,0,0,1,1,2,2,3,3,4,4,7,7,8,8,9,9,10,10,11,11,13,13,15,15,16,16,17,17,18,18],"right_children":[2,4,6,8,10,-1,-1,12,14,16,18,20,-1,22,-1,24,26,28,30,-1,-1,-1,-1,-1,-1,-1,-1,-1,-1,-1,-1],"split_conditions":[1E0,1E0,-2.6556013E-2,-5.448744E-1,-3.0290455E-1,3.3924103E-1,-3.1352397E-2,1E0,5.305671E-1,8.911067E-1,8.90733E-2,-6.558783E-1,-1.625327E-1,5.4848275E5,1.0698945E-1,1.1096871E0,4.7945723E-1,2.029564E0,1.3499308E-1,3.826903E-1,-3.1184688E-2,-2.7981004E-1,-8.240628E-2,-4.1735396E-2,1.2023634E-1,4.2062256E-1,-1.7043287E-1,-9.924385E-2,2.0550694E-2,1.5112297E-1,2.4180266E-3],"split_indices":[62,17,50,49,50,0,0,54,50,49,50,50,0,82,0,77,77,87,50,0,0,0,0,0,0,0,0,0,0,0,0],"split_type":[0,0,0,0,0,0,0,0,0,0,0,0,0,0,0,0,0,0,0,0,0,0,0,0,0,0,0,0,0,0,0],"sum_hessian":[4.3820593E2,4.359219E2,2.2839994E0,1.3982452E1,4.2193945E2,1.2729877E0,1.0110117E0,4.656356E0,9.326097E0,1.05958496E2,3.1598096E2,3.4822292E0,1.1741264E0,8.303552E0,1.0225449E0,9.904128E1,6.91722E0,9.44804E1,2.2150056E2,1.5280417E0,1.9541876E0,6.7759457E0,1.5276059E0,6.688711E1,3.2154175E1,5.8587184E0,1.0585017E0,6.535312E1,2.9127281E1,1.3089214E1,2.0841135E2],"tree_param":{"num_deleted":"0","num_feature":"90","num_nodes":"31","size_leaf_vector":"1"}},{"base_weights":[-4.6509337E-3,4.214085E-2,-9.720826E-2,1.4462786E-2,9.6098864E-1,-4.770894E-1,1.8521181E-3,2.5963768E-2,-2.4906264E-1,1.2685746E0,-1.8162934E-1,-2.0790903E-1,-8.3084565E-1,5.4755837E-1,-3.4880485E-2,1.5121343E-2,3.0859753E-1,7.2314817E-1,5.4788333E-1,3.7372E-1,-5.4291177E-1,-2.8783303E-1,4.94029E-2,-1.7230916E-1,1.7465183E-1,8.878682E-3,-2.6516932E-1,-9.553374E-2,3.5891062E-1,-8.299039E-2,2.9023358E-1,-2.4048816E-1,7.0456065E-2,-1.9495182E-2,-2.3130597E-1,-2.0436509E-1,7.928809E-2],"categories":[],"categories_nodes":[],"categories_segments":[],"categories_sizes":[],"default_left":[0,0,0,0,0,0,0,0,0,0,0,0,0,0,0,0,0,0,0,0,0,0,0,0,0,0,0,0,0,0,0,0,0,0,0,0,0],"id":24,"left_children":[1,3,5,7,9,11,13,15,-1,17,-1,19,21,-1,23,25,-1,-1,27,29,31,-1,-1,33,35,-1,-1,-1,-1,-1,-1,-1,-1,-1,-1,-1,-1],"loss_changes":[1.9044694E0,7.4159937E0,5.5568805E0,2.7865174E0,4.8767276E0,2.7355266E0,7.973692E0,3.0477152E0,0E0,4.811326E0,0E0,3.8421898E0,1.8048182E0,0E0,3.3920324E0,3.6666741E0,0E0,0E0,3.6743693E0,3.1321273E0,2.6550636E0,0E0,0E0,4.5127883E0,3.7660785E0,0E0,0E0,0E0,0E0,0E0,0E0,0E0,0E0,0E0,0E0,0E0,0E0],"parents":[2147483647,0,0,1,1,2,2,3,3,4,4,5,5,6,6,7,7,9,9,11,11,12,12,14,14,15,15,18,18,19,19,20,20,23,23,24,24],"right_children":[2,4,6,8,10,12,14,16,-1,18,-1,20,22,-1,24,26,-1,-1,28,30,32,-1,-1,34,36,-1,-1,-1,-1,-1,-1,-1,-1,-1,-1,-1,-1],"split_conditions":[1.8040123E0,1.7173011E0,2.3846493E0,1.9E1,1E0,-1.6346975E-1,2.421286E0,8.4E1,-2.4906264E-1,5E-1,-1.8162934E-1,5E3,1.073822E4,5.4755837E-1,1.5E0,3.3E1,3.0859753E-1,7.2314817E-1,1.3499308E-1,2.5E-1,-4.4692612E-1,-2.8783303E-1,4.94029E-2,3.8125E0,1E0,8.878682E-3,-2.6516932E-1,-9.553374E-2,3.5891062E-1,-8.299039E-2,2.9023358E-1,-2.4048816E-1,7.0456065E-2,-1.9495182E-2,-2.3130597E-1,-2.0436509E-1,7.928809E-2],"split_indices":[83,77,81,44,72,49,87,42,0,25,0,76,37,0,25,42,0,0,50,23,49,0,0,23,51,0,0,0,0,0,0,0,0,0,0,0,0],"split_type":[0,0,0,0,0,0,0,0,0,0,0,0,0,0,0,0,0,0,0,0,0,0,0,0,0,0,0,0,0,0,0,0,0,0,0,0,0],"sum_hessian":[4.3779172E2,2.9114825E2,1.4664348E2,2.836206E2,7.5276427E0,2.9541246E1,1.17102234E2,2.8076697E2,2.8536398E0,6.451044E0,1.0765988E0,1.7677666E1,1.1863581E1,1.3510252E0,1.15751205E2,2.7876764E2,1.9993145E0,1.5888503E0,4.862194E0,6.4184437E0,1.1259223E1,1.0538498E1,1.3250825E0,7.001029E1,4.574091E1,2.7530234E2,3.4653049E0,2.2993581E0,2.5628357E0,3.3180206E0,3.100423E0,8.425793E0,2.8334303E0,6.030799E1,9.702306E0,3.710928E0,4.2029984E1],"tree_param":{"num_deleted":"0","num_feature":"90","num_nodes":"37","size_leaf_vector":"1"}},{"base_weights":[-6.1547877E-3,-6.114308E-1,-2.2101095E-4,-3.224376E-2,-2.244069E-1,1.0597564E-2,-3.3415586E-1,-5.973568E-3,3.176316E-1,-5.1180345E-1,1.6432121E-1,3.4638453E-2,-1.765927E-1,5.1739585E-1,1.1770277E-1,-8.0678266E-1,7.8641966E-2,-1.2102542E-1,2.4522568E-1,-8.997735E-3,4.880736E-2,-9.9394815E-3,-2.1551768E-1,2.0144086E-1,-6.6521324E-2,-2.9309833E-1,-1.9977948E-2,1.4830014E-1,-1.7553958E-1],"categories":[],"categories_nodes":[],"categories_segments":[],"categories_sizes":[],"default_left":[0,0,0,0,0,0,0,0,0,0,0,0,0,0,0,0,0,0,0,0,0,0,0,0,0,0,0,0,0],"id":25,"left_children":[1,3,5,-1,-1,7,9,11,13,15,17,19,21,-1,23,25,27,-1,-1,-1,-1,-1,-1,-1,-1,-1,-1,-1,-1],"loss_changes":[1.5710614E0,2.1192694E-1,1.5722506E0,0E0,0E0,2.1467733E0,1.2934592E0,2.7844312E0,5.87482E0,1.8594158E0,1.9409229E0,2.6921875E0,5.980899E0,0E0,3.9066176E0,8.1246805E-1,1.488561E0,0E0,0E0,0E0,0E0,0E0,0E0,0E0,0E0,0E0,0E0,0E0,0E0],"parents":[2147483647,0,0,1,1,2,2,5,5,6,6,7,7,8,8,9,9,10,10,11,11,12,12,14,14,15,15,16,16],"right_children":[2,4,6,-1,-1,8,10,12,14,16,18,20,22,-1,24,26,28,-1,-1,-1,-1,-1,-1,-1,-1,-1,-1,-1,-1],"split_conditions":[-1.1368679E0,1E0,4.4E1,-3.224376E-2,-2.244069E-1,2E1,1.3853745E-1,4.7913033E-1,6.4E1,4.731E2,5E1,1E0,3.1E4,5.1739585E-1,5E-1,1E0,8.75E-1,-1.2102542E-1,2.4522568E-1,-8.997735E-3,4.880736E-2,-9.9394815E-3,-2.1551768E-1,2.0144086E-1,-6.6521324E-2,-2.9309833E-1,-1.9977948E-2,1.4830014E-1,-1.7553958E-1],"split_indices":[49,29,48,0,0,47,49,49,47,47,24,11,76,0,23,71,23,0,0,0,0,0,0,0,0,0,0,0,0],"split_type":[0,0,0,0,0,0,0,0,0,0,0,0,0,0,0,0,0,0,0,0,0,0,0,0,0,0,0,0,0],"sum_hessian":[4.3646756E2,3.2466822E0,4.3322086E2,1.0733733E0,2.1733088E0,4.20564E2,1.2656858E1,3.9995816E2,2.0605856E1,9.311637E0,3.3452215E0,3.237046E2,7.625356E1,1.6148484E0,1.8991007E1,5.965133E0,3.3465035E0,1.9940714E0,1.35115E0,2.156349E2,1.0806968E2,6.1128677E1,1.5124886E1,6.8453183E0,1.2145689E1,4.5897613E0,1.375372E0,2.214764E0,1.1317395E0],"tree_param":{"num_deleted":"0","num_feature":"90","num_nodes":"29","size_leaf_vector":"1"}},{"base_weights":[-5.8817645E-3,-1.43396985E-2,4.707054E-1,-3.5543516E-3,-5.1984686E-1,-3.3594403E-1,1.1052246E0,-1.5566138E-2,5.070825E-1,-7.469225E-1,1.7544246E-1,1.2607849E-1,-2.548038E-1,5.3198844E-1,2.3867767E-3,-9.983705E-4,-5.114511E-1,-2.1882196E-1,8.5544145E-1,-2.8966808E-1,4.433489E-2,-3.3532137E-3,2.4977076E-1,6.1505787E-2,-2.0440318E-1,4.3424377E-1,-1.3281847E-2],"categories":[],"categories_nodes":[],"categories_segments":[],"categories_sizes":[],"default_left":[0,0,0,0,0,0,0,0,0,0,0,0,0,0,0,0,0,0,0,0,0,0,0,0,0,0,0],"id":26,"left_children":[1,3,5,7,9,11,13,15,17,19,-1,-1,-1,-1,-1,21,23,-1,25,-1,-1,-1,-1,-1,-1,-1,-1],"loss_changes":[1.764092E0,2.3388975E0,4.2774267E0,2.5924315E0,2.6847975E0,1.9591873E0,3.288055E0,2.9804883E0,4.8081574E0,1.6827579E0,0E0,0E0,0E0,0E0,0E0,3.419221E0,1.5729532E0,0E0,4.3461666E0,0E0,0E0,0E0,0E0,0E0,0E0,0E0,0E0],"parents":[2147483647,0,0,1,1,2,2,3,3,4,4,5,5,6,6,7,7,8,8,9,9,15,15,16,16,18,18],"right_children":[2,4,6,8,10,12,14,16,18,20,-1,-1,-1,-1,-1,22,24,-1,26,-1,-1,-1,-1,-1,-1,-1,-1],"split_conditions":[1.9129343E1,1.10845585E1,3.043075E-1,1.0278261E1,1.342462E0,-4.3891218E-1,9.055022E-1,6.880989E0,-4.2323653E-2,1E0,1.7544246E-1,1.2607849E-1,-2.548038E-1,5.3198844E-1,2.3867767E-3,6.454405E0,-4.52714E-1,-2.1882196E-1,2.5E0,-2.8966808E-1,4.433489E-2,-3.3532137E-3,2.4977076E-1,6.1505787E-2,-2.0440318E-1,4.3424377E-1,-1.3281847E-2],"split_indices":[87,81,49,75,50,49,49,89,50,66,0,0,0,0,0,89,49,0,25,0,0,0,0,0,0,0,0],"split_type":[0,0,0,0,0,0,0,0,0,0,0,0,0,0,0,0,0,0,0,0,0,0,0,0,0,0,0],"sum_hessian":[4.3496304E2,4.2833142E2,6.631634E0,4.2036957E2,7.961846E0,3.1269584E0,3.5046756E0,4.1165564E2,8.71392E0,6.872881E0,1.0889653E0,1.3378361E0,1.7891222E0,1.7954315E0,1.7092441E0,4.0088086E2,1.0774788E1,1.6749393E0,7.038981E0,5.4595466E0,1.4133343E0,3.970193E2,3.8615618E0,2.025617E0,8.749171E0,3.878196E0,3.1607847E0],"tree_param":{"num_deleted":"0","num_feature":"90","num_nodes":"27","size_leaf_vector":"1"}},{"base_weights":[-4.779217E-3,-9.369695E-3,2.309889E-1,-1.5155473E-3,-2.5859347E-1,-2.1420175E-1,1.7679442E-2,-2.8164604E-1,2.475669E-1,5.4746836E-1,1.5184204E-3,-4.0681064E-2,-2.2920512E-1,1.9991955E-1,-2.2899091E-2,-2.4431031E-3,2.2981574E-1],"categories":[],"categories_nodes":[],"categories_segments":[],"categories_sizes":[],"default_left":[0,0,0,0,0,0,0,0,0,0,0,0,0,0,0,0,0],"id":27,"left_children":[1,3,-1,5,-1,7,9,11,-1,13,15,-1,-1,-1,-1,-1,-1],"loss_changes":[1.553715E0,2.900107E0,0E0,1.7605691E0,0E0,2.7349544E0,3.3864512E0,2.3104773E0,0E0,9.194846E-1,2.8495922E0,0E0,0E0,0E0,0E0,0E0,0E0],"parents":[2147483647,0,0,1,1,3,3,5,5,6,6,7,7,9,9,10,10],"right_children":[2,4,-1,6,-1,8,10,12,-1,14,16,-1,-1,-1,-1,-1,-1],"split_conditions":[9.5E1,7.6E1,2.309889E-1,1E0,-2.5859347E-1,8.984E1,1E0,1.25E0,2.475669E-1,1E0,1E0,-4.0681064E-2,-2.2920512E-1,1.9991955E-1,-2.2899091E-2,-2.4431031E-3,2.2981574E-1],"split_indices":[24,24,0,14,0,37,29,23,0,30,60,0,0,0,0,0,0],"split_type":[0,0,0,0,0,0,0,0,0,0,0,0,0,0,0,0,0],"sum_hessian":[4.3384564E2,4.3227225E2,1.5733795E0,4.2931918E2,2.953069E0,3.4697815E1,3.9462137E2,3.3268204E1,1.4296101E0,1.0708267E1,3.8391312E2,2.6520105E1,6.7481E0,8.936239E0,1.772027E0,3.8009882E2,3.8142986E0],"tree_param":{"num_deleted":"0","num_feature":"90","num_nodes":"17","size_leaf_vector":"1"}},{"base_weights":[-3.1057224E-3,-9.195435E-3,5.456166E-1,-4.051659E-3,-2.3188357E-1,2.7259868E-1,-6.7172386E-3,-1.07024E-2,3.155353E-1,7.33565E-3,-2.8588438E-1,-6.300149E-4,2.158754E-1,-1.409148E-1,1.0044798E-1],"categories":[],"categories_nodes":[],"categories_segments":[],"categories_sizes":[],"default_left":[0,0,0,0,0,0,0,0,0,0,0,0,0,0,0],"id":28,"left_children":[1,3,5,7,-1,-1,-1,9,-1,11,13,-1,-1,-1,-1],"loss_changes":[1.4459476E0,1.6761897E0,9.997858E-1,2.9999332E0,0E0,0E0,0E0,2.1064103E0,0E0,2.6818888E0,3.135945E0,0E0,0E0,0E0,0E0],"parents":[2147483647,0,0,1,1,2,2,3,3,7,7,9,9,10,10],"right_children":[2,4,6,8,-1,-1,-1,10,-1,12,14,-1,-1,-1,-1],"split_conditions":[1E0,9E1,-3.5164917E-1,6.6E1,-2.3188357E-1,2.7259868E-1,-6.7172386E-3,7.4986E2,3.155353E-1,6.7E1,1E0,-6.300149E-4,2.158754E-1,-1.409148E-1,1.0044798E-1],"split_indices":[7,44,49,44,0,0,0,37,0,42,71,0,0,0,0],"split_type":[0,0,0,0,0,0,0,0,0,0,0,0,0,0,0],"sum_hessian":[4.3021472E2,4.264651E2,3.749661E0,4.2461066E2,1.8544042E0,1.921674E0,1.827987E0,4.2293643E2,1.674225E0,3.978321E2,2.510436E1,3.9361462E2,4.2174582E0,1.9555893E1,5.548469E0],"tree_param":{"num_deleted":"0","num_feature":"90","num_nodes":"15","size_leaf_vector":"1"}},{"base_weights":[-1.6781938E-3,-8.206146E-3,5.0552535E-1,-1.01664886E-1,2.9605165E-2,7.655907E-1,-7.596007E-2,-7.0802435E-2,-8.299849E-1,-6.170264E-1,4.058476E-2,-2.3551544E-2,3.139673E-1,-1.8074149E-1,1.4448601E-1,-2.8872272E-1,-8.002204E-2,-2.291988E-1,-2.274382E-3,1.0624893E-1,-6.2657125E-2,-1.1713149E-3,-9.575738E-2,2.2184987E-2,2.7247757E-1,-1.9739673E-3,1.299207E-1,1.1764789E-1,-4.483327E-2],"categories":[],"categories_nodes":[],"categories_segments":[],"categories_sizes":[],"default_left":[0,0,0,0,0,0,0,0,0,0,0,0,0,0,0,0,0,0,0,0,0,0,0,0,0,0,0,0,0],"id":29,"left_children":[1,3,5,7,9,11,-1,13,15,17,19,-1,-1,21,23,-1,-1,-1,-1,25,27,-1,-1,-1,-1,-1,-1,-1,-1],"loss_changes":[1.4283644E0,1.5072234E0,1.2755107E0,2.7022882E0,2.1821594E0,1.1093161E0,0E0,2.8411338E0,1.0878348E-1,4.5410585E-1,2.03838E0,0E0,0E0,1.9371898E0,2.1287246E0,0E0,0E0,0E0,0E0,6.7714396E0,4.6823463E0,0E0,0E0,0E0,0E0,0E0,0E0,0E0,0E0],"parents":[2147483647,0,0,1,1,2,2,3,3,4,4,5,5,7,7,8,8,9,9,10,10,13,13,14,14,19,19,20,20],"right_children":[2,4,6,8,10,12,-1,14,16,18,20,-1,-1,22,24,-1,-1,-1,-1,26,28,-1,-1,-1,-1,-1,-1,-1,-1],"split_conditions":[1E0,1E0,6.901798E-1,4.5E0,1E0,1E0,-7.596007E-2,1E0,1E0,7.5739974E-1,2.8E4,-2.3551544E-2,3.139673E-1,-2.351314E-1,1E0,-2.8872272E-1,-8.002204E-2,-2.291988E-1,-2.274382E-3,6.882353E-1,-4.1881052E-1,-1.1713149E-3,-9.575738E-2,2.2184987E-2,2.7247757E-1,-1.9739673E-3,1.299207E-1,1.1764789E-1,-4.483327E-2],"split_indices":[16,18,50,25,15,65,0,28,69,50,76,0,0,50,27,0,0,0,0,81,50,0,0,0,0,0,0,0,0],"split_type":[0,0,0,0,0,0,0,0,0,0,0,0,0,0,0,0,0,0,0,0,0,0,0,0,0,0,0,0,0],"sum_hessian":[4.291467E2,4.246649E2,4.4818196E0,1.2183497E2,3.0282993E2,3.331013E0,1.1508065E0,1.17934715E2,3.900253E0,4.1345153E0,2.986954E2,1.0118244E0,2.3191886E0,7.81746E1,3.976012E1,2.584035E0,1.3162181E0,3.1268687E0,1.0076466E0,1.8255634E2,1.1613908E2,3.4779778E1,4.3394817E1,3.7402718E1,2.3574011E0,1.3643459E2,4.6121746E1,1.8046404E1,9.809267E1],"tree_param":{"num_deleted":"0","num_feature":"90","num_nodes":"29","size_leaf_vector":"1"}},{"base_weights":[-3.0557802E-3,-7.957924E-3,6.375107E-1,-1.8594984E-3,-5.3192335E-1,3.547364E-1,-8.536166E-2,-8.79044E-3,4.7897872E-1,-7.6992756E-1,3.4873873E-2,-1.2855402E-3,-6.02018E-1,-1.3021359E-1,9.2942554E-1,-5.899053E-2,-2.7646765E-1,-3.9247344E-3,9.1675214E-2,-2.4403672E-1,2.4005318E-2,3.681185E-1,8.244361E-2],"categories":[],"categories_nodes":[],"categories_segments":[],"categories_sizes":[],"default_left":[0,0,0,0,0,0,0,0,0,0,0,0,0,0,0,0,0,0,0,0,0,0,0],"id":30,"left_children":[1,3,5,7,9,-1,-1,11,13,15,-1,17,19,-1,21,-1,-1,-1,-1,-1,-1,-1,-1],"loss_changes":[1.3525152E0,1.3628882E0,1.9801319E0,1.4136691E0,8.4652126E-1,0E0,0E0,1.8597434E0,2.8823478E0,1.4220238E-1,0E0,1.5015537E0,8.176539E-1,0E0,5.1121783E-1,0E0,0E0,0E0,0E0,0E0,0E0,0E0,0E0],"parents":[2147483647,0,0,1,1,2,2,3,3,4,4,7,7,8,8,9,9,11,11,12,12,14,14],"right_children":[2,4,6,8,10,-1,-1,12,14,16,-1,18,20,-1,22,-1,-1,-1,-1,-1,-1,-1,-1],"split_conditions":[5E0,8E0,-6.0857534E-2,1.8789799E1,2E0,3.547364E-1,-8.536166E-2,1.1873457E1,-2.5532502E-1,5.0567085E-1,3.4873873E-2,9.058424E0,1E0,-1.3021359E-1,2.3653788E1,-5.899053E-2,-2.7646765E-1,-3.9247344E-3,9.1675214E-2,-2.4403672E-1,2.4005318E-2,3.681185E-1,8.244361E-2],"split_indices":[35,25,50,89,23,0,0,83,50,50,0,77,21,0,89,0,0,0,0,0,0,0,0],"split_type":[0,0,0,0,0,0,0,0,0,0,0,0,0,0,0,0,0,0,0,0,0,0,0],"sum_hessian":[4.2810126E2,4.2583005E2,2.2712262E0,4.2192282E2,3.9072046E0,1.2500248E0,1.0212015E0,4.168953E2,5.027531E0,2.7204294E0,1.1867752E0,4.1267673E2,4.2185907E0,1.6729635E0,3.3545678E0,1.0494462E0,1.6709833E0,3.983215E2,1.4355201E1,3.0731854E0,1.1454053E0,1.7049073E0,1.6496605E0],"tree_param":{"num_deleted":"0","num_feature":"90","num_nodes":"23","size_leaf_vector":"1"}},{"base_weights":[-2.333105E-3,-5.6235397E-1,2.7245956E-3,-2.8408954E-2,-2.0995083E-1,3.9681863E-2,-7.23293E-2,-1.7030738E-2,3.0809304E-1,-3.2245886E-1,3.7018087E-2,1.4684418E-2,-4.4213924E-1,7.245257E-1,3.6416184E-2,-6.268355E-2,-6.14347E-1,1.3634814E0,-2.296896E-2,-1.6729953E-2,4.959348E-2,-1.8409744E-1,9.7851776E-2,3.0156985E-1,-2.1721283E-2,2.878211E-1,-3.0303722E-2,-5.6172863E-2,3.0538177E-1,-2.2902814E-1,6.767843E-2,5.8169484E-1,7.695144E-2,-1.3629542E-1,1.7749002E-2],"categories":[],"categories_nodes":[],"categories_segments":[],"categories_sizes":[],"default_left":[0,0,0,0,0,0,0,0,0,0,0,0,0,0,0,0,0,0,0,0,0,0,0,0,0,0,0,0,0,0,0,0,0,0,0],"id":31,"left_children":[1,3,5,-1,-1,7,9,11,13,15,17,19,21,23,25,27,29,31,33,-1,-1,-1,-1,-1,-1,-1,-1,-1,-1,-1,-1,-1,-1,-1,-1],"loss_changes":[1.2149506E0,1.8056905E-1,1.1832955E0,0E0,0E0,4.3557544E0,3.8620353E0,3.2003753E0,5.6196575E0,3.2160568E0,7.8964186E0,2.3588307E0,2.3717003E0,4.4686756E0,4.0614214E0,3.3973284E0,2.6888766E0,2.2377124E0,3.4120324E0,0E0,0E0,0E0,0E0,0E0,0E0,0E0,0E0,0E0,0E0,0E0,0E0,0E0,0E0,0E0,0E0],"parents":[2147483647,0,0,1,1,2,2,5,5,6,6,7,7,8,8,9,9,10,10,11,11,12,12,13,13,14,14,15,15,16,16,17,17,18,18],"right_children":[2,4,6,-1,-1,8,10,12,14,16,18,20,22,24,26,28,30,32,34,-1,-1,-1,-1,-1,-1,-1,-1,-1,-1,-1,-1,-1,-1,-1,-1],"split_conditions":[-1.1368679E0,1E0,1.8040123E0,-2.8408954E-2,-2.0995083E-1,7.4264705E-1,2.8858025E0,3.768116E-1,5E-1,-2.771491E-1,2.8308823E0,2.4316403E-1,4.5625E0,3.270137E-1,8.4885037E-1,3.1E1,4E0,1E0,-6.3258266E-1,-1.6729953E-2,4.959348E-2,-1.8409744E-1,9.7851776E-2,3.0156985E-1,-2.1721283E-2,2.878211E-1,-3.0303722E-2,-5.6172863E-2,3.0538177E-1,-2.2902814E-1,6.767843E-2,5.8169484E-1,7.695144E-2,-1.3629542E-1,1.7749002E-2],"split_indices":[49,29,83,0,0,81,83,75,25,49,81,49,23,49,77,38,39,65,49,0,0,0,0,0,0,0,0,0,0,0,0,0,0,0,0],"split_type":[0,0,0,0,0,0,0,0,0,0,0,0,0,0,0,0,0,0,0,0,0,0,0,0,0,0,0,0,0,0,0,0,0,0,0],"sum_hessian":[4.2740375E2,2.8392231E0,4.245645E2,1.0287231E0,1.8105E0,2.8479834E2,1.3976617E2,2.3589305E2,4.8905293E1,4.1921894E1,9.7844284E1,2.2041452E2,1.5478535E1,1.8650503E1,3.0254791E1,2.2823832E1,1.9098063E1,3.293227E0,9.455106E1,1.5060414E2,6.981038E1,1.281826E1,2.6602743E0,1.3599051E1,5.0514517E0,3.1458387E0,2.7108952E1,2.12062E1,1.6176319E0,1.629668E1,2.8013806E0,1.6722473E0,1.6209798E0,1.439879E1,8.015227E1],"tree_param":{"num_deleted":"0","num_feature":"90","num_nodes":"35","size_leaf_vector":"1"}},{"base_weights":[-3.529343E-3,-8.246524E-3,5.98713E-1,3.9157197E-3,-2.26125E-1,2.2723247E-1,5.626601E-2,-5.486306E-3,4.8685136E-1,-8.269419E-2,-2.4760939E-1,-1.1752055E-2,5.611169E-1,9.912605E-1,-3.997728E-1,-3.763168E-1,7.2794753E-1,8.1614003E-4,-6.530899E-2,-4.85704E-3,2.5657663E-1,3.4558252E-1,6.823036E-2,6.868971E-2,-2.2767688E-1,-1.8517174E-1,1.2889394E-1,-5.4239977E-2,3.0751944E-1],"categories":[],"categories_nodes":[],"categories_segments":[],"categories_sizes":[],"default_left":[0,0,0,0,0,0,0,0,0,0,0,0,0,0,0,0,0,0,0,0,0,0,0,0,0,0,0,0,0],"id":32,"left_children":[1,3,5,7,9,-1,-1,11,13,15,-1,17,19,21,23,25,27,-1,-1,-1,-1,-1,-1,-1,-1,-1,-1,-1,-1],"loss_changes":[1.2235326E0,1.1313336E0,7.6393485E-2,1.8417403E0,1.8717492E0,0E0,0E0,1.4205809E0,3.8604043E0,4.873394E0,0E0,1.177629E0,7.570541E-1,3.7922525E-1,9.689353E-1,3.147655E0,1.6646612E0,0E0,0E0,0E0,0E0,0E0,0E0,0E0,0E0,0E0,0E0,0E0,0E0],"parents":[2147483647,0,0,1,1,2,2,3,3,4,4,7,7,8,8,9,9,11,11,12,12,13,13,14,14,15,15,16,16],"right_children":[2,4,6,8,10,-1,-1,12,14,16,-1,18,20,22,24,26,28,-1,-1,-1,-1,-1,-1,-1,-1,-1,-1,-1,-1],"split_conditions":[1E0,1E0,-1.4854771E-1,3E0,3.9879382E0,2.2723247E-1,5.626601E-2,1E0,1.1594203E-1,1.3750471E0,-2.4760939E-1,4.2493E2,1.389855E0,2.5E0,2.5E-1,1E0,-6.113605E-1,8.1614003E-4,-6.530899E-2,-4.85704E-3,2.5657663E-1,3.4558252E-1,6.823036E-2,6.868971E-2,-2.2767688E-1,-1.8517174E-1,1.2889394E-1,-5.4239977E-2,3.0751944E-1],"split_indices":[62,12,50,34,77,0,0,7,75,77,0,37,75,25,23,66,49,0,0,0,0,0,0,0,0,0,0,0,0],"split_type":[0,0,0,0,0,0,0,0,0,0,0,0,0,0,0,0,0,0,0,0,0,0,0,0,0,0,0,0,0],"sum_hessian":[4.2794897E2,4.2560165E2,2.347302E0,4.040302E2,2.1571434E1,1.0858865E0,1.2614155E0,3.9728433E2,6.7458844E0,1.8323595E1,3.2478402E0,3.939076E2,3.376746E0,4.2245054E0,2.5213792E0,1.3844688E1,4.478906E0,3.6896573E2,2.4941862E1,1.458702E0,1.9180439E0,3.07047E0,1.1540353E0,1.0484363E0,1.472943E0,1.0838849E1,3.0058396E0,1.200033E0,3.2788734E0],"tree_param":{"num_deleted":"0","num_feature":"90","num_nodes":"29","size_leaf_vector":"1"}},{"base_weights":[-2.0919854E-3,1.9078326E-3,-2.0402882E-1,-3.7304966E-3,4.974612E-1,4.846088E-3,-4.7854173E-1,-1.6387576E-1,9.670153E-1,-1.4149882E-2,1.5772189E-1,5.246006E-2,-2.6887697E-1,4.978381E-1,1.6370734E-2,-8.069949E-3,1.1791334E-1,1.6492327E-1,-5.994163E-2,-1.15249366E-1,1.5008026E-1],"categories":[],"categories_nodes":[],"categories_segments":[],"categories_sizes":[],"default_left":[0,0,0,0,0,0,0,0,0,0,0,0,0,0,0,0,0,0,0,0,0],"id":33,"left_children":[1,3,-1,5,7,9,11,-1,13,15,17,19,-1,-1,-1,-1,-1,-1,-1,-1,-1],"loss_changes":[1.1598167E0,1.1912766E0,0E0,1.7203841E0,2.8788564E0,1.2085612E0,1.7095876E0,0E0,2.2276485E0,1.9336085E0,6.556293E0,1.0221754E0,0E0,0E0,0E0,0E0,0E0,0E0,0E0,0E0,0E0],"parents":[2147483647,0,0,1,1,3,3,4,4,5,5,6,6,8,8,9,9,10,10,11,11],"right_children":[2,4,-1,6,8,10,12,-1,14,16,18,20,-1,-1,-1,-1,-1,-1,-1,-1,-1],"split_conditions":[5E0,1E0,-2.0402882E-1,4E0,0E0,1E0,3.1175658E-1,-1.6387576E-1,2.439834E-1,6E0,3.125E-1,1E0,-2.6887697E-1,4.978381E-1,1.6370734E-2,-8.069949E-3,1.1791334E-1,1.6492327E-1,-5.994163E-2,-1.15249366E-1,1.5008026E-1],"split_indices":[41,22,0,33,25,20,50,0,50,39,23,23,0,0,0,0,0,0,0,0,0],"split_type":[0,0,0,0,0,0,0,0,0,0,0,0,0,0,0,0,0,0,0,0,0],"sum_hessian":[4.2619946E2,4.2469122E2,1.5082378E0,4.208948E2,3.7964036E0,4.1439923E2,6.49556E0,1.1273078E0,2.669096E0,3.694053E2,4.499395E1,3.244959E0,3.2506013E0,1.0520293E0,1.6170667E0,3.5909534E2,1.0309948E1,2.12052E1,2.378875E1,1.7149534E0,1.5300057E0],"tree_param":{"num_deleted":"0","num_feature":"90","num_nodes":"21","size_leaf_vector":"1"}},{"base_weights":[-2.3092865E-3,9.1190316E-2,-2.9959006E-2,1.4971262E-1,-5.9098274E-1,-2.5442898E-1,-2.0505816E-2,3.576681E-2,3.7874898E-1,-7.0491624E-1,9.444748E-3,-4.6510424E-2,1.7963567E-1,-4.833063E-2,8.8073134E-1,5.5995387E-1,-5.5572325E-1,-1.8209763E-2,-2.814643E-1,-2.344718E-2,-5.092306E-1,-2.7427548E-1,3.5180447E-1,6.7285816E-3,-2.6825386E-1,-9.552693E-2,4.3009585E-1,1.1094929E-1,4.3060195E-1,1.5022093E-1,-3.1051782E-1,-1.063914E-2,2.3564546E-1,5.1725026E-2,-2.2239083E-1,-1.792839E-1,1.6612329E-1,2.1874699E-1,-4.5846086E-3],"categories":[],"categories_nodes":[],"categories_segments":[],"categories_sizes":[],"default_left":[0,0,0,0,0,0,0,0,0,0,0,0,0,0,0,0,0,0,0,0,0,0,0,0,0,0,0,0,0,0,0,0,0,0,0,0,0,0,0],"id":34,"left_children":[1,3,5,7,9,-1,11,13,15,17,-1,19,21,23,25,27,29,-1,-1,31,33,35,37,-1,-1,-1,-1,-1,-1,-1,-1,-1,-1,-1,-1,-1,-1,-1,-1],"loss_changes":[1.1063873E0,3.9880733E0,2.5365894E0,2.3550773E0,5.838604E-1,0E0,1.7127573E0,4.427764E0,5.3992343E0,9.556172E-1,0E0,3.0894775E0,3.0554347E0,3.436007E0,4.1947746E0,3.7407484E0,3.243834E0,0E0,0E0,2.728908E0,2.3028164E0,3.2689812E0,3.8743129E0,0E0,0E0,0E0,0E0,0E0,0E0,0E0,0E0,0E0,0E0,0E0,0E0,0E0,0E0,0E0,0E0],"parents":[2147483647,0,0,1,1,2,2,3,3,4,4,6,6,7,7,8,8,9,9,11,11,12,12,13,13,14,14,15,15,16,16,19,19,20,20,21,21,22,22],"right_children":[2,4,6,8,10,-1,12,14,16,18,-1,20,22,24,26,28,30,-1,-1,32,34,36,38,-1,-1,-1,-1,-1,-1,-1,-1,-1,-1,-1,-1,-1,-1,-1,-1],"split_conditions":[-5.81234E-1,5.1826086E0,-5.7366526E-1,-6.6463846E-1,1E0,-2.5442898E-1,6.00431E5,1E0,1E0,5E-1,9.444748E-3,4E5,2.927357E0,1.12E6,1E0,2.5088236E0,-5.391425E-1,-1.8209763E-2,-2.814643E-1,3.02522E5,-3.2807747E-1,5.554634E-1,1.1E6,6.7285816E-3,-2.6825386E-1,-9.552693E-2,4.3009585E-1,1.1094929E-1,4.3060195E-1,1.5022093E-1,-3.1051782E-1,-1.063914E-2,2.3564546E-1,5.1725026E-2,-2.2239083E-1,-1.792839E-1,1.6612329E-1,2.1874699E-1,-4.5846086E-3],"split_indices":[49,75,49,49,6,0,88,20,27,25,0,76,89,76,18,81,50,0,0,76,50,50,88,0,0,0,0,0,0,0,0,0,0,0,0,0,0,0,0],"split_type":[0,0,0,0,0,0,0,0,0,0,0,0,0,0,0,0,0,0,0,0,0,0,0,0,0,0,0,0,0,0,0,0,0,0,0,0,0,0,0],"sum_hessian":[4.259067E2,9.6679535E1,3.2922717E2,8.975975E1,6.91978E0,2.7472563E0,3.2647992E2,6.0711758E1,2.9047997E1,5.737206E0,1.1825734E0,2.8961722E2,3.686268E1,5.607367E1,4.6380863E0,2.4665796E1,4.3822E0,1.8603398E0,3.8768663E0,2.7686804E2,1.274919E1,9.97396E0,2.688872E1,5.2643295E1,3.430375E0,1.5975311E0,3.0405552E0,2.1433243E1,3.2325547E0,1.3537906E0,3.028409E0,2.7375754E2,3.110486E0,3.3034062E0,9.445784E0,7.373074E0,2.6008856E0,1.2772598E1,1.4116121E1],"tree_param":{"num_deleted":"0","num_feature":"90","num_nodes":"39","size_leaf_vector":"1"}},{"base_weights":[-4.5490335E-3,3.3989713E-2,-7.0958756E-2,1.9389939E-2,4.2170078E-1,-3.4894413E-1,-2.7784675E-2,3.209297E-2,-5.9166604E-1,-5.197097E-1,2.4595354E-1,-5.688552E-2,6.385829E-1,1.1204423E-2,3.7787774E-1,-2.5896892E-1,-1.7278126E-2,-7.834321E-1,3.4623238E-1,-2.7091306E-2,-5.585301E-1,4.163852E-1,-1.997405E-2,-1.2288283E-2,6.1993368E-2,7.9569745E-1,-1.25297755E-2,-2.657207E-1,-2.4404576E-2,-4.5194276E-2,3.2075495E-1,2.08896E-3,-1.421425E-1,-2.3133647E-1,3.2684542E-2,-2.1458216E-1,2.492427E-1],"categories":[],"categories_nodes":[],"categories_segments":[],"categories_sizes":[],"default_left":[0,0,0,0,0,0,0,0,0,0,0,0,0,0,0,0,0,0,0,0,0,0,0,0,0,0,0,0,0,0,0,0,0,0,0,0,0],"id":35,"left_children":[1,3,5,7,-1,9,11,13,15,17,-1,19,21,23,25,-1,-1,27,29,31,33,-1,35,-1,-1,-1,-1,-1,-1,-1,-1,-1,-1,-1,-1,-1,-1],"loss_changes":[1.0931193E0,5.386777E0,1.8724077E0,2.1032658E0,0E0,4.6164427E0,2.6895971E0,1.9025819E0,7.5084794E-1,4.594389E0,0E0,1.958008E0,2.8934808E0,2.55712E0,1.4435845E1,0E0,0E0,9.922352E-1,1.997719E0,1.9150311E0,1.1270263E0,0E0,3.005755E0,0E0,0E0,0E0,0E0,0E0,0E0,0E0,0E0,0E0,0E0,0E0,0E0,0E0,0E0],"parents":[2147483647,0,0,1,1,2,2,3,3,5,5,6,6,7,7,8,8,9,9,11,11,12,12,13,13,14,14,17,17,18,18,19,19,20,20,22,22],"right_children":[2,4,6,8,-1,10,12,14,16,18,-1,20,22,24,26,-1,-1,28,30,32,34,-1,36,-1,-1,-1,-1,-1,-1,-1,-1,-1,-1,-1,-1,-1,-1],"split_conditions":[1.4374034E0,1.4074074E0,1E0,5.5E0,4.2170078E-1,4.2E1,4.1E1,1.1096871E0,2E0,9.87269E4,2.4595354E-1,1E0,5.7E1,2.75E0,-4.3706778E-1,-2.5896892E-1,-1.7278126E-2,1.223834E0,1.5E0,1.2882434E0,6.4787035E0,4.163852E-1,1E0,-1.2288283E-2,6.1993368E-2,7.9569745E-1,-1.25297755E-2,-2.657207E-1,-2.4404576E-2,-4.5194276E-2,3.2075495E-1,2.08896E-3,-1.421425E-1,-2.3133647E-1,3.2684542E-2,-2.1458216E-1,2.492427E-1],"split_indices":[89,83,18,25,0,44,24,77,33,82,0,30,24,23,50,0,0,49,25,50,77,0,28,0,0,0,0,0,0,0,0,0,0,0,0,0,0],"split_type":[0,0,0,0,0,0,0,0,0,0,0,0,0,0,0,0,0,0,0,0,0,0,0,0,0,0,0,0,0,0,0,0,0,0,0,0,0],"sum_hessian":[4.2516626E2,2.6934735E2,1.558189E2,2.6751416E2,1.8332099E0,1.9994951E1,1.3582394E2,2.6299432E2,4.519819E0,1.7930555E1,2.0643942E0,1.3101695E2,4.8069897E0,2.4898573E2,1.4008601E1,2.5877104E0,1.9321083E0,1.3817672E1,4.1128845E0,1.2466662E2,6.35033E0,1.7304071E0,3.0765827E0,1.9715347E2,5.183226E1,1.35331E0,1.2655292E1,1.1832001E1,1.985671E0,2.9067283E0,1.2061565E0,1.16750786E2,7.9158306E0,4.6985645E0,1.6517653E0,1.7806376E0,1.2959449E0],"tree_param":{"num_deleted":"0","num_feature":"90","num_nodes":"37","size_leaf_vector":"1"}},{"base_weights":[-3.0988178E-3,-8.341534E-3,4.2845857E-1,3.658626E-3,-2.3402187E-1,3.1640595E-1,-2.687297E-1,-5.2033182E-2,5.821112E-2,1.5330626E-1,-3.166267E-1,8.594082E-2,-2.0718747E-1,2.0381538E-2,-2.1400313E-1,3.75466E-1,1.8809214E-2,-4.1064176E-1,1.4109288E-1,-1.156837E-2,8.530778E-2,-1.11467205E-1,1.1424109E-2,2.151662E-1,-7.830715E-2,1.1423221E-2,-1.9791639E-1,3.3902187E-2,-1.9799866E-1],"categories":[],"categories_nodes":[],"categories_segments":[],"categories_sizes":[],"default_left":[0,0,0,0,0,0,0,0,0,0,0,0,0,0,0,0,0,0,0,0,0,0,0,0,0,0,0,0,0],"id":36,"left_children":[1,3,5,7,9,-1,11,13,15,-1,17,-1,-1,19,21,23,25,27,-1,-1,-1,-1,-1,-1,-1,-1,-1,-1,-1],"loss_changes":[9.6623504E-1,1.1419656E0,2.5214024E0,1.2215137E0,1.4720125E0,0E0,9.5266473E-1,2.3382921E0,2.531486E0,0E0,1.6566485E0,0E0,0E0,2.1647573E0,2.4593384E0,5.0558834E0,2.4006019E0,2.4516003E0,0E0,0E0,0E0,0E0,0E0,0E0,0E0,0E0,0E0,0E0,0E0],"parents":[2147483647,0,0,1,1,2,2,3,3,4,4,6,6,7,7,8,8,10,10,13,13,14,14,15,15,16,16,17,17],"right_children":[2,4,6,8,10,-1,12,14,16,-1,18,-1,-1,20,22,24,26,28,-1,-1,-1,-1,-1,-1,-1,-1,-1,-1,-1],"split_conditions":[4E0,1E0,4.375E-1,1.01244815E-1,-8.670649E-1,3.1640595E-1,-6.0857534E-2,-1.7882982E-2,1.900415E-1,1.5330626E-1,1E0,8.594082E-2,-2.0718747E-1,1E0,5.862798E-1,2.0625E0,1E0,-1.4854771E-1,1.4109288E-1,-1.156837E-2,8.530778E-2,-1.11467205E-1,1.1424109E-2,2.151662E-1,-7.830715E-2,1.1423221E-2,-1.9791639E-1,3.3902187E-2,-1.9799866E-1],"split_indices":[35,12,23,50,49,0,50,49,50,0,1,0,0,71,49,23,53,50,0,0,0,0,0,0,0,0,0,0,0],"split_type":[0,0,0,0,0,0,0,0,0,0,0,0,0,0,0,0,0,0,0,0,0,0,0,0,0,0,0,0,0],"sum_hessian":[4.244794E2,4.2035345E2,4.1259356E0,4.000645E2,2.0288946E1,1.9034493E0,2.2224863E0,1.9798788E2,2.0207663E2,1.507343E0,1.8781605E1,1.098238E0,1.1242481E0,1.3742227E2,6.0565605E1,2.1382294E1,1.8069434E2,1.7204378E1,1.577226E0,1.13036606E2,2.4385674E1,3.69793E1,2.3586304E1,1.3829756E1,7.552538E0,1.7662267E2,4.0716605E0,5.7261405E0,1.1478237E1],"tree_param":{"num_deleted":"0","num_feature":"90","num_nodes":"29","size_leaf_vector":"1"}},{"base_weights":[-3.5390889E-3,-7.4018715E-3,1.7462294E-1,-1.457534E-3,-2.3170877E-1,-6.6819163E-3,4.6006948E-1,2.4062064E-2,-9.5454365E-2,8.3113086E-1,-6.678807E-2,3.0562142E-3,2.2876148E-1,4.5718644E-3,-1.03546105E-1,3.010817E-1,8.5024804E-2],"categories":[],"categories_nodes":[],"categories_segments":[],"categories_sizes":[],"default_left":[0,0,0,0,0,0,0,0,0,0,0,0,0,0,0,0,0],"id":37,"left_children":[1,3,-1,5,-1,7,9,11,13,15,-1,-1,-1,-1,-1,-1,-1],"loss_changes":[9.6444106E-1,1.920733E0,0E0,1.0167183E0,0E0,1.1394836E0,1.3806586E0,3.17147E0,2.973384E0,2.438116E-2,0E0,0E0,0E0,0E0,0E0,0E0,0E0],"parents":[2147483647,0,0,1,1,3,3,5,5,6,6,7,7,8,8,9,9],"right_children":[2,4,-1,6,-1,8,10,12,14,16,-1,-1,-1,-1,-1,-1,-1],"split_conditions":[9.5E1,7.6E1,1.7462294E-1,1E0,-2.3170877E-1,5.7735027E4,2.4E1,7.5E4,-1.7882982E-2,2.439834E-1,-6.678807E-2,3.0562142E-3,2.2876148E-1,4.5718644E-3,-1.03546105E-1,3.010817E-1,8.5024804E-2],"split_indices":[24,24,0,22,0,82,24,76,49,50,0,0,0,0,0,0,0],"split_type":[0,0,0,0,0,0,0,0,0,0,0,0,0,0,0,0,0],"sum_hessian":[4.2344196E2,4.216481E2,1.7938756E0,4.19391E2,2.2570882E0,4.1567123E2,3.719783E0,3.0928687E2,1.0638435E2,2.2690678E0,1.4507152E0,3.045782E2,4.708699E0,7.4359215E1,3.202513E1,1.092645E0,1.1764228E0],"tree_param":{"num_deleted":"0","num_feature":"90","num_nodes":"17","size_leaf_vector":"1"}},{"base_weights":[-2.2698408E-3,-5.682617E-3,2.1320939E-1,2.8712334E-4,-5.120349E-1,-8.661427E-3,3.15517E-1,-2.3065503E-1,1.884958E-2,2.9203775E-3,-3.2898673E-1,-6.445996E-2,8.410313E-1,-2.5642037E-3,2.1209289E-1,-1.4575675E-1,1.442878E-1,-1.20793715E-1,1.6625045E-1,3.370476E-1,2.0650908E-2],"categories":[],"categories_nodes":[],"categories_segments":[],"categories_sizes":[],"default_left":[0,0,0,0,0,0,0,0,0,0,0,0,0,0,0,0,0,0,0,0,0],"id":38,"left_children":[1,3,-1,5,7,9,11,-1,-1,13,15,17,19,-1,-1,-1,-1,-1,-1,-1,-1],"loss_changes":[1.0349984E0,1.2778175E0,0E0,1.1839728E0,7.7551913E-1,1.515239E0,2.3677218E0,0E0,0E0,3.194559E0,2.0444312E0,1.8241938E0,9.9863267E-1,0E0,0E0,0E0,0E0,0E0,0E0,0E0,0E0],"parents":[2147483647,0,0,1,1,3,3,4,4,5,5,6,6,9,9,10,10,11,11,12,12],"right_children":[2,4,-1,6,8,10,12,-1,-1,14,16,18,20,-1,-1,-1,-1,-1,-1,-1,-1],"split_conditions":[9.9E1,7.3E1,2.1320939E-1,4.1E1,1E0,1E1,1E0,-2.3065503E-1,1.884958E-2,1E0,1E0,2.8347826E0,1.6E0,-2.5642037E-3,2.1209289E-1,-1.4575675E-1,1.442878E-1,-1.20793715E-1,1.6625045E-1,3.370476E-1,2.0650908E-2],"split_indices":[24,24,0,24,28,24,11,0,0,24,27,75,75,0,0,0,0,0,0,0,0],"split_type":[0,0,0,0,0,0,0,0,0,0,0,0,0,0,0,0,0,0,0,0,0],"sum_hessian":[4.2270538E2,4.2167896E2,1.0264289E0,4.177532E2,3.925751E0,4.071673E2,1.0585889E1,2.4802759E0,1.4454751E0,3.9391562E2,1.325168E1,6.652842E0,3.9330468E0,3.8857434E2,5.3412724E0,1.1436764E1,1.8149165E0,4.527127E0,2.1257153E0,2.546596E0,1.3864506E0],"tree_param":{"num_deleted":"0","num_feature":"90","num_nodes":"21","size_leaf_vector":"1"}},{"base_weights":[-7.0994353E-4,3.3971595E-3,-5.555136E-1,-4.0273396E-3,3.1595626E-1,-2.1592565E-1,-3.234671E-2,-7.4658464E-3,1.9700502E-1,-1.3476953E-2,4.0248346E-1,-5.57444E-4,-1.6292961E-1,-1.1049509E-1,2.2134401E-1],"categories":[],"categories_nodes":[],"categories_segments":[],"categories_sizes":[],"default_left":[0,0,0,0,0,0,0,0,0,0,0,0,0,0,0],"id":39,"left_children":[1,3,5,7,-1,-1,-1,9,-1,11,13,-1,-1,-1,-1],"loss_changes":[9.645982E-1,3.2807827E0,1.5112138E-1,9.5551115E-1,0E0,0E0,0E0,1.0336324E0,0E0,2.5354195E0,1.8386459E0,0E0,0E0,0E0,0E0],"parents":[2147483647,0,0,1,1,2,2,3,3,7,7,9,9,10,10],"right_children":[2,4,6,8,-1,-1,-1,10,-1,12,14,-1,-1,-1,-1],"split_conditions":[6.9E1,5.3E1,-2.6720586E-1,3.212015E6,3.1595626E-1,-2.1592565E-1,-3.234671E-2,1.8789799E1,1.9700502E-1,1.031221E1,-2.5532502E-1,-5.57444E-4,-1.6292961E-1,-1.1049509E-1,2.2134401E-1],"split_indices":[36,36,49,76,0,0,0,89,0,89,50,0,0,0,0],"split_type":[0,0,0,0,0,0,0,0,0,0,0,0,0,0,0],"sum_hessian":[4.2149445E2,4.1938373E2,2.1107385E0,4.1742767E2,1.9560366E0,1.0996335E0,1.0111052E0,4.1625012E2,1.1775713E0,4.1118796E2,5.0621433E0,4.0334296E2,7.8450027E0,1.5047963E0,3.557347E0],"tree_param":{"num_deleted":"0","num_feature":"90","num_nodes":"15","size_leaf_vector":"1"}},{"base_weights":[-4.2694563E-4,5.645322E-3,-3.6965528E-1,-5.0687953E-3,4.245397E-1,1.9066647E-1,-7.328155E-1,1.9249351E-3,-2.072723E-1,7.280221E-1,-2.1193284E-1,-3.259958E-2,-2.5779083E-1,-9.901238E-3,2.9939115E-1,-1.7083531E-2,1.1533757E0,-1.9345327E-1,7.460551E-2,-4.364327E-3,1.6070265E-1,3.1879222E-1,3.8822334E-2,-1.9225983E-1,2.1495289E-1,5.544133E-1,4.823358E-2],"categories":[],"categories_nodes":[],"categories_segments":[],"categories_sizes":[],"default_left":[0,0,0,0,0,0,0,0,0,0,0,0,0,0,0,0,0,0,0,0,0,0,0,0,0,0,0],"id":40,"left_children":[1,3,5,7,9,-1,11,13,-1,15,17,-1,-1,19,21,23,25,-1,-1,-1,-1,-1,-1,-1,-1,-1,-1],"loss_changes":[9.483848E-1,1.8701982E0,2.964158E0,1.9527262E0,2.1616127E0,0E0,3.4020734E-1,1.4232125E0,0E0,2.321365E0,9.838766E-1,0E0,0E0,9.9456185E-1,1.8694066E0,2.1178014E0,2.9006996E0,0E0,0E0,0E0,0E0,0E0,0E0,0E0,0E0,0E0,0E0],"parents":[2147483647,0,0,1,1,2,2,3,3,4,4,6,6,7,7,9,9,10,10,13,13,14,14,15,15,16,16],"right_children":[2,4,6,8,10,-1,12,14,-1,16,18,-1,-1,20,22,24,26,-1,-1,-1,-1,-1,-1,-1,-1,-1,-1],"split_conditions":[1.2E1,5E0,3.4467497E-1,1.9E1,1E0,1.9066647E-1,1.8148148E0,1.6248963E0,-2.072723E-1,6.9903183E-1,3.639706E0,-3.259958E-2,-2.5779083E-1,1E0,5.3352132E-2,3.2E1,2.5E1,-1.9345327E-1,7.460551E-2,-4.364327E-3,1.6070265E-1,3.1879222E-1,3.8822334E-2,-1.9225983E-1,2.1495289E-1,5.544133E-1,4.823358E-2],"split_indices":[39,39,50,44,42,0,83,50,0,50,81,0,0,62,49,46,38,0,0,0,0,0,0,0,0,0,0],"split_type":[0,0,0,0,0,0,0,0,0,0,0,0,0,0,0,0,0,0,0,0,0,0,0,0,0,0,0],"sum_hessian":[4.2106757E2,4.1522357E2,5.8439875E0,4.0583148E2,9.392107E0,1.3519068E0,4.4920807E0,4.02722E2,3.1094987E0,6.262288E0,3.1298187E0,1.0702152E0,3.4218657E0,3.8825314E2,1.4468817E1,2.6245742E0,3.6377137E0,1.4072558E0,1.7225628E0,3.8593954E2,2.3135996E0,1.6788958E0,1.2789921E1,1.4867636E0,1.1378107E0,1.633019E0,2.0046947E0],"tree_param":{"num_deleted":"0","num_feature":"90","num_nodes":"27","size_leaf_vector":"1"}},{"base_weights":[3.131151E-4,-2.4417156E-1,8.643319E-3,2.2184338E-1,-5.1744825E-1,-5.6122113E-3,1.9572513E-1,-9.546111E-2,5.530783E-1,-7.063662E-1,5.160298E-2,-2.715859E-1,7.675233E-3,-9.566461E-2,7.2754663E-1,-1.6285269E-2,3.25223E-1,-2.3549838E-1,-4.8590817E-2,4.0310034E-1,-5.484853E-1,3.66183E-1,-2.0539444E-2,6.610088E-1,-3.563902E-1,-2.117205E-1,1.0767502E0,-5.0083943E-2,3.0635333E-1,-5.3839616E-2,-2.6745495E-1,1.5095219E-1,-9.982983E-2,-1.5359598E-1,1.2112707E-4,-3.311219E-2,4.3671617E-1,-1.4637552E-1,2.133989E-1,4.7186157E-1,1.2817703E-1],"categories":[],"categories_nodes":[],"categories_segments":[],"categories_sizes":[],"default_left":[0,0,0,0,0,0,0,0,0,0,0,0,0,0,0,0,0,0,0,0,0,0,0,0,0,0,0,0,0,0,0,0,0,0,0,0,0,0,0,0,0],"id":41,"left_children":[1,3,5,7,9,11,13,-1,15,17,-1,19,21,23,25,-1,-1,-1,-1,27,29,31,33,35,37,-1,39,-1,-1,-1,-1,-1,-1,-1,-1,-1,-1,-1,-1,-1,-1],"loss_changes":[8.6000097E-1,1.88673E0,1.0900712E0,1.2212226E0,1.3029687E0,1.3463986E0,