{"learner":{"attributes":{"scikit_learn":"{\"_estimator_type\": \"classifier\"}"},"feature_names":["flg_substandard","flg_is_borderline_standard","flg_is_revised_term","flg_is_rental_flat","flg_has_health_claim","flg_has_life_claim","flg_gi_claim","flg_is_proposal","flg_with_preauthorisation","flg_is_returned_mail","is_consent_to_mail","is_consent_to_email","is_consent_to_call","is_consent_to_sms","is_valid_dm","is_valid_email","is_housewife_retiree","is_sg_pr","is_class_1_2","is_dependent_in_at_least_1_policy","f_ever_declined_la","flg_latest_being_lapse","flg_latest_being_cancel","recency_lapse","recency_cancel","tot_inforce_pols","tot_cancel_pols","f_elx","f_mindef_mha","f_retail","flg_affconnect_show_interest_ever","flg_affconnect_ready_to_buy_ever","flg_affconnect_lapse_ever","affcon_visit_days","clmcon_visit_days","recency_clmcon","recency_clmcon_regis","hlthclaim_amt","recency_hlthclaim","hlthclaim_cnt_success","recency_hlthclaim_success","hlthclaim_cnt_unsuccess","recency_hlthclaim_unsuccess","flg_hlthclaim_839f8a_ever","recency_hlthclaim_839f8a","flg_hlthclaim_14cb37_ever","recency_hlthclaim_14cb37","giclaim_amt","recency_giclaim","age","insurance_time","race_desc_0","race_desc_1","race_desc_2","race_desc_3","race_desc_4","clttype_0","clttype_1","clttype_2","stat_flag_0","stat_flag_1","stat_flag_2","hh_size_est_0","hh_size_est_1","hh_size_est_2","hh_size_est_3","hh_size_est_4","hh_size_est_5","hh_size_est_6","annual_income_est_0","annual_income_est_1","annual_income_est_2","annual_income_est_3","annual_income_est_4","annual_income_est_5","ae_lh_sum","smins_lh_sum","pempaid_lh_sum","ae_lh_mean","smins_lh_mean","pempaid_lh_mean","ae_lh_std","smins_lh_std","pempaid_lh_std","ae_lh_min","smins_lh_min","pempaid_lh_min","ae_lh_max","smins_lh_max","pempaid_lh_max"],"feature_types":["int","int","int","int","int","int","int","int","int","int","int","int","int","int","int","int","int","int","int","int","int","int","int","float","float","float","float","int","int","int","int","int","int","float","float","float","float","float","float","float","float","float","float","int","float","int","float","float","float","float","float","int","int","int","int","int","int","int","int","int","int","int","int","int","int","int","int","int","int","int","int","int","int","int","int","float","float","float","float","float","float","float","float","float","float","float","float","float","float","float"],"gradient_booster":{"model":{"gbtree_model_param":{"num_parallel_tree":"1","num_trees":"100"},"iteration_indptr":[0,1,2,3,4,5,6,7,8,9,10,11,12,13,14,15,16,17,18,19,20,21,22,23,24,25,26,27,28,29,30,31,32,33,34,35,36,37,38,39,40,41,42,43,44,45,46,47,48,49,50,51,52,53,54,55,56,57,58,59,60,61,62,63,64,65,66,67,68,69,70,71,72,73,74,75,76,77,78,79,80,81,82,83,84,85,86,87,88,89,90,91,92,93,94,95,96,97,98,99,100],"tree_info":[0,0,0,0,0,0,0,0,0,0,0,0,0,0,0,0,0,0,0,0,0,0,0,0,0,0,0,0,0,0,0,0,0,0,0,0,0,0,0,0,0,0,0,0,0,0,0,0,0,0,0,0,0,0,0,0,0,0,0,0,0,0,0,0,0,0,0,0,0,0,0,0,0,0,0,0,0,0,0,0,0,0,0,0,0,0,0,0,0,0,0,0,0,0,0,0,0,0,0,0],"trees":[{"base_weights":[-8.237932E-1,-8.671672E-1,5.32694E-1,-1.1186697E0,-7.5496924E-1,8.841914E-1,-4.6172103E-1,-1.1225437E0,1.1181445E-1,-8.7137717E-1,-5.060876E-1,1.1604862E0,-2.9820895E-1,2.927287E-1,-6.906025E-1,-1.1244111E0,-1.03479914E-1,-8.807412E-1,1.387064E0,-2.8826493E-1,-8.3897984E-1,5.137998E-1,1.6644984E0,-8.4040487E-1,3.812438E-1,-8.8405335E-1,1.22664005E-1,-1.2342906E-1,-3.3788276E-1,-8.867813E-1,4.996268E-1,1.4456615E-1,5.481237E-1,-5.668308E-1,6.8150304E-2,-8.80733E-1,-2.5709879E-2,7.93818E-1,-2.4039574E-1,1.1029389E0,2.200622E0,-2.8554034E-1,-5.0619584E-2,-3.074827E-1,-3.3467394E-1,-3.315826E-1,-2.5183687E-1,-1.8403055E-1,4.355418E-1,5.761451E-1,-1.5042496E-1,-7.0468664E-2,-2.7202228E-1,-1.748606E-1,2.4935298E-1,-2.4735995E-2,3.8412264E-1,7.496517E-1,1.0360364E-1,4.0070125E-1,9.650537E-1,-2.2213344E-1,1.1181445E-1],"categories":[],"categories_nodes":[],"categories_segments":[],"categories_sizes":[],"default_left":[0,0,0,0,0,0,0,0,0,0,0,0,0,0,0,0,0,0,0,0,0,0,0,0,0,0,0,0,0,0,0,0,0,0,0,0,0,0,0,0,0,0,0,0,0,0,0,0,0,0,0,0,0,0,0,0,0,0,0,0,0,0,0],"id":0,"left_children":[1,3,5,7,9,11,13,15,-1,17,19,21,23,-1,25,27,-1,29,31,33,35,37,39,41,-1,43,-1,-1,-1,45,-1,-1,-1,47,49,51,53,55,-1,57,59,-1,-1,-1,61,-1,-1,-1,-1,-1,-1,-1,-1,-1,-1,-1,-1,-1,-1,-1,-1,-1,-1],"loss_changes":[1.0051807E2,4.5666626E1,1.904237E1,3.3441772E0,3.2670166E1,1.3326023E1,5.47077E0,3.460083E-1,0E0,1.7659607E1,2.634002E1,9.708546E0,8.146997E0,0E0,3.1611156E0,2.0617676E-1,0E0,1.3390808E1,5.52547E-1,2.2190754E1,4.883133E0,6.39654E0,2.922165E0,3.4715033E-1,0E0,5.478296E-1,0E0,0E0,0E0,7.0704346E0,0E0,0E0,0E0,1.2682465E1,1.0517191E2,2.0946808E0,4.3444443E0,5.8186426E0,0E0,1.04344635E1,2.8099785E0,0E0,0E0,0E0,1.3764828E0,0E0,0E0,0E0,0E0,0E0,0E0,0E0,0E0,0E0,0E0,0E0,0E0,0E0,0E0,0E0,0E0,0E0,0E0],"parents":[2147483647,0,0,1,1,2,2,3,3,4,4,5,5,6,6,7,7,9,9,10,10,11,11,12,12,14,14,15,15,17,17,18,18,19,19,20,20,21,21,22,22,23,23,25,25,29,29,33,33,34,34,35,35,36,36,37,37,39,39,40,40,44,44],"right_children":[2,4,6,8,10,12,14,16,-1,18,20,22,24,-1,26,28,-1,30,32,34,36,38,40,42,-1,44,-1,-1,-1,46,-1,-1,-1,48,50,52,54,56,-1,58,60,-1,-1,-1,62,-1,-1,-1,-1,-1,-1,-1,-1,-1,-1,-1,-1,-1,-1,-1,-1,-1,-1],"split_conditions":[1E0,1E0,3.125E0,1.8E1,5E-1,1E0,2E0,2.163368E4,1.1181445E-1,1E0,1E0,1E0,1E0,2.927287E-1,1E0,-7.0705396E-1,-1.03479914E-1,3E0,1E0,1.25E-1,5.78143E5,1E0,1E0,5.303306E-1,3.812438E-1,7.4E1,1.22664005E-1,-1.2342906E-1,-3.3788276E-1,1E0,4.996268E-1,1.4456615E-1,5.481237E-1,2.0342354E1,9.375E-1,-4.8603043E-1,1E0,2.5E-1,-2.4039574E-1,-5.506623E-1,2.925E2,-2.8554034E-1,-5.0619584E-2,-3.074827E-1,2.9258338E-1,-3.315826E-1,-2.5183687E-1,-1.8403055E-1,4.355418E-1,5.761451E-1,-1.5042496E-1,-7.0468664E-2,-2.7202228E-1,-1.748606E-1,2.4935298E-1,-2.4735995E-2,3.8412264E-1,7.496517E-1,1.0360364E-1,4.0070125E-1,9.650537E-1,-2.2213344E-1,1.1181445E-1],"split_indices":[6,15,23,48,25,13,48,37,0,16,10,18,55,0,31,50,0,34,11,23,82,67,21,49,0,48,0,0,0,14,0,0,0,81,23,50,73,23,0,49,47,0,0,0,49,0,0,0,0,0,0,0,0,0,0,0,0,0,0,0,0,0,0],"split_type":[0,0,0,0,0,0,0,0,0,0,0,0,0,0,0,0,0,0,0,0,0,0,0,0,0,0,0,0,0,0,0,0,0,0,0,0,0,0,0,0,0,0,0,0,0,0,0,0,0,0,0,0,0,0,0,0,0,0,0,0,0,0,0],"sum_hessian":[1.6995848E3,1.6472736E3,5.2311268E1,5.0540005E2,1.1418735E3,3.8731594E1,1.3579675E1,5.043373E2,1.0627571E0,7.7628503E2,3.6558844E2,3.1410378E1,7.3212156E0,1.4170095E0,1.2162665E1,5.026841E2,1.6531777E0,7.736872E2,2.5978508E0,2.2211624E2,1.4347221E2,1.4642431E1,1.6767946E1,5.7861223E0,1.5350937E0,1.0509487E1,1.6531777E0,1.889346E0,5.0079477E2,7.7250635E2,1.1808412E0,1.5350937E0,1.0627571E0,1.2434258E2,9.777366E1,1.3638716E2,7.0850477E0,1.2398833E1,2.2435985E0,9.6828985E0,7.0850477E0,4.605281E0,1.1808412E0,7.675468E0,2.834019E0,1.3355315E2,6.389532E2,1.2221707E2,2.1255143E0,2.2435984E1,7.533767E1,5.668038E0,1.3071913E2,4.487197E0,2.5978508E0,4.723365E0,7.675468E0,2.5978508E0,7.0850477E0,5.077617E0,2.00743E0,1.7712619E0,1.0627571E0],"tree_param":{"num_deleted":"0","num_feature":"90","num_nodes":"63","size_leaf_vector":"1"}},{"base_weights":[-7.266947E-1,-7.7190894E-1,3.347621E-1,-1.0430799E0,-6.437154E-1,5.9363663E-1,-3.4115607E-1,-1.0496358E0,8.486657E-2,1.7338871E0,-6.9660383E-1,6.778985E-1,-5.406501E-1,-5.177113E-1,2.8613573E-1,-1.0539348E0,8.997393E-2,-7.913451E-1,-3.059956E-1,4.5641515E-1,1.214309E0,-2.7288744E-2,-2.077687E-1,-6.597306E-1,1.2727126E-1,-1.0743002E0,-8.2923555E-1,-7.999919E-1,5.2076566E-1,-5.408303E-1,-7.151289E-2,2.6791766E-1,1.4546322E0,-1.02174625E-1,1.4960916E0,6.0830597E-2,-8.161603E-1,-3.2299358E-1,-1.2153213E-1,5.025363E-2,-2.6738742E-1,-2.4334183E-1,2.3809707E-1,-2.2511229E-1,-6.9137E-2,3.2944858E-1,-1.584557E-1,-1.0673217E-3,2.3737526E-1,6.298166E-1,-6.1056472E-2,5.5081916E-1,4.824734E-2,-2.8542596E-1,1.1375706E-2],"categories":[],"categories_nodes":[],"categories_segments":[],"categories_sizes":[],"default_left":[0,0,0,0,0,0,0,0,0,0,0,0,0,0,0,0,0,0,0,0,0,0,0,0,0,0,0,0,0,0,0,0,0,0,0,0,0,0,0,0,0,0,0,0,0,0,0,0,0,0,0,0,0,0,0],"id":1,"left_children":[1,3,5,7,9,11,13,15,-1,-1,17,19,21,23,-1,25,-1,27,29,31,33,-1,-1,35,-1,37,39,41,-1,43,45,47,49,-1,51,-1,53,-1,-1,-1,-1,-1,-1,-1,-1,-1,-1,-1,-1,-1,-1,-1,-1,-1,-1],"loss_changes":[6.816852E1,4.6518127E1,1.0440301E1,4.070862E0,3.1804938E2,4.4448643E0,4.343455E0,2.8236694E0,0E0,0E0,3.3718964E1,4.2174816E0,1.7657518E-1,2.3488398E0,0E0,1.0817566E0,0E0,1.7514343E1,9.915245E0,5.26054E0,5.3882866E0,0E0,0E0,2.03158E0,0E0,1.7877197E-1,2.6361885E0,1.3720764E1,0E0,5.69104E0,4.9511127E1,3.765565E0,5.285287E0,0E0,4.068201E0,0E0,1.4115591E0,0E0,0E0,0E0,0E0,0E0,0E0,0E0,0E0,0E0,0E0,0E0,0E0,0E0,0E0,0E0,0E0,0E0,0E0],"parents":[2147483647,0,0,1,1,2,2,3,3,4,4,5,5,6,6,7,7,10,10,11,11,12,12,13,13,15,15,17,17,18,18,19,19,20,20,23,23,25,25,26,26,27,27,29,29,30,30,31,31,32,32,34,34,36,36],"right_children":[2,4,6,8,10,12,14,16,-1,-1,18,20,22,24,-1,26,-1,28,30,32,34,-1,-1,36,-1,38,40,42,-1,44,46,48,50,-1,52,-1,54,-1,-1,-1,-1,-1,-1,-1,-1,-1,-1,-1,-1,-1,-1,-1,-1,-1,-1],"split_conditions":[1E0,1E0,4.7E1,8.85E1,1E0,4.625E0,5.778208E5,1.8E1,8.486657E-2,1.7338871E0,1E0,6E2,4.6307054E-1,1.2E1,2.8613573E-1,1E0,8.997393E-2,1E0,1.25E-1,6.716924E0,4E0,-2.7288744E-2,-2.077687E-1,-5.5719215E-1,1.2727126E-1,1E0,-6.655602E-1,1E0,5.2076566E-1,2.6903179E0,1.125E0,1.5E0,6.25E-1,-1.02174625E-1,2.2514706E0,6.0830597E-2,1E0,-3.2299358E-1,-1.2153213E-1,5.025363E-2,-2.6738742E-1,-2.4334183E-1,2.3809707E-1,-2.2511229E-1,-6.9137E-2,3.2944858E-1,-1.584557E-1,-1.0673217E-3,2.3737526E-1,6.298166E-1,-6.1056472E-2,5.5081916E-1,4.824734E-2,-2.8542596E-1,1.1375706E-2],"split_indices":[6,14,48,37,29,23,82,48,0,0,25,47,50,38,0,55,0,60,23,77,48,0,0,49,0,0,50,16,0,87,23,25,23,0,81,0,27,0,0,0,0,0,0,0,0,0,0,0,0,0,0,0,0,0,0],"split_type":[0,0,0,0,0,0,0,0,0,0,0,0,0,0,0,0,0,0,0,0,0,0,0,0,0,0,0,0,0,0,0,0,0,0,0,0,0,0,0,0,0,0,0,0,0,0,0,0,0,0,0,0,0,0,0],"sum_hessian":[1.414002E3,1.356493E3,5.7508945E1,4.3313516E2,9.2335785E2,4.1670868E1,1.5838079E1,4.3121155E2,1.923592E0,6.6563807E0,9.167015E2,3.9163887E1,2.5069802E0,1.4465962E1,1.3721162E0,4.3006064E2,1.1509324E0,7.369337E2,1.7976776E2,2.9028795E1,1.0135092E1,1.0367614E0,1.4702188E0,1.2831018E1,1.6349447E0,3.9085483E2,3.92058E1,7.3510205E2,1.8316641E0,8.916371E1,9.060405E1,2.5484793E1,3.5440032E0,1.5229124E0,8.612179E0,1.924387E0,1.0906631E1,3.8888318E2,1.9716365E0,2.1982265E0,3.7007572E1,7.304834E2,4.6186795E0,5.2381508E1,3.6782207E1,2.504687E1,6.555718E1,1.743415E1,8.050641E0,2.3601735E0,1.1838297E0,6.565488E0,2.0466914E0,9.317119E0,1.5895122E0],"tree_param":{"num_deleted":"0","num_feature":"90","num_nodes":"55","size_leaf_vector":"1"}},{"base_weights":[-6.410173E-1,-1.0193564E0,-5.053121E-1,-1.0274743E0,-7.857348E-2,-6.784333E-1,-2.2943738E-1,-1.0303588E0,-5.619232E-2,-1.2030206E-1,1.1765375E-1,-8.2753974E-1,-5.208576E-1,6.6331345E-1,-5.4429096E-1,-8.3955094E-2,-3.0994833E-1,-8.4072703E-1,1.9162227E-1,-9.067446E-1,-4.2981887E-1,9.11521E-1,2.3661569E-1,-2.0901874E-1,-6.720984E-1,-8.525227E-1,1.7425591E-1,-9.589298E-1,-9.687234E-2,1.4136119E0,-4.913152E-1,-5.3331044E-2,1.1204747E0,1.0087464E-1,1.1991347E0,-9.1699034E-1,1.29243E-2,-7.801423E-1,-3.0629185E-1,-2.585104E-1,1.6951624E-1,-2.931921E-1,-5.3070668E-2,1.9949907E-1,-2.0992829E-1,-9.650621E-3,5.133378E-1,-7.7862315E-2,-1.923001E-1,1.18734226E-1,-2.1966018E-1,3.7400693E-1,-2.3911644E-2,-1.0267561E-2,3.244322E-1,5.082188E-1,9.278216E-2,-3.0665517E-1,-7.4168466E-2,4.634283E-1,-2.391084E-2,-2.4210586E-1,-7.1272396E-2,-1.1420863E-1,4.0648508E-1],"categories":[],"categories_nodes":[],"categories_segments":[],"categories_sizes":[],"default_left":[0,0,0,0,0,0,0,0,0,0,0,0,0,0,0,0,0,0,0,0,0,0,0,0,0,0,0,0,0,0,0,0,0,0,0,0,0,0,0,0,0,0,0,0,0,0,0,0,0,0,0,0,0,0,0,0,0,0,0,0,0,0,0,0,0],"id":2,"left_children":[1,3,5,7,9,11,13,15,-1,-1,-1,17,19,21,23,-1,-1,25,-1,27,29,31,33,35,37,39,-1,41,43,45,47,49,51,53,55,57,59,61,63,-1,-1,-1,-1,-1,-1,-1,-1,-1,-1,-1,-1,-1,-1,-1,-1,-1,-1,-1,-1,-1,-1,-1,-1,-1,-1],"loss_changes":[6.0429382E1,2.3050537E0,4.1664307E1,5.5737305E-1,7.272687E-1,1.2197861E1,9.568624E1,3.5931396E-1,0E0,0E0,0E0,5.8443146E0,8.885689E0,9.196632E0,1.06261215E1,0E0,0E0,5.0638733E0,0E0,1.9990501E0,2.5127762E1,1.1316967E1,4.32575E0,1.1136292E1,6.933037E0,4.0081024E0,0E0,4.9378967E-1,2.3525827E0,3.158843E0,7.095356E0,3.6113293E0,7.0587654E0,4.133085E0,1.2882481E0,9.387665E-1,7.910973E0,1.8416901E0,5.833472E0,0E0,0E0,0E0,0E0,0E0,0E0,0E0,0E0,0E0,0E0,0E0,0E0,0E0,0E0,0E0,0E0,0E0,0E0,0E0,0E0,0E0,0E0,0E0,0E0,0E0,0E0],"parents":[2147483647,0,0,1,1,2,2,3,3,4,4,5,5,6,6,7,7,11,11,12,12,13,13,14,14,17,17,19,19,20,20,21,21,22,22,23,23,24,24,25,25,27,27,28,28,29,29,30,30,31,31,32,32,33,33,34,34,35,35,36,36,37,37,38,38],"right_children":[2,4,6,8,10,12,14,16,-1,-1,-1,18,20,22,24,-1,-1,26,-1,28,30,32,34,36,38,40,-1,42,44,46,48,50,52,54,56,58,60,62,64,-1,-1,-1,-1,-1,-1,-1,-1,-1,-1,-1,-1,-1,-1,-1,-1,-1,-1,-1,-1,-1,-1,-1,-1,-1,-1],"split_conditions":[1E0,1.8E1,1.25E-1,2.163368E4,2.9375E0,0E0,1E0,-7.0705396E-1,-5.619232E-2,-1.2030206E-1,1.1765375E-1,1E0,1E0,1.9374293E0,-3.4140912E-1,-8.3955094E-2,-3.0994833E-1,1E0,1.9162227E-1,2.5E0,1E0,1E0,5.5E0,1E0,1.5E0,2.12E2,1.7425591E-1,1E0,3.5E0,-7.720847E-1,-1.806849E-1,1E0,2.5E1,4.07E2,8.912863E-1,1E0,1E0,1.375E1,1.8535107E1,-2.585104E-1,1.6951624E-1,-2.931921E-1,-5.3070668E-2,1.9949907E-1,-2.0992829E-1,-9.650621E-3,5.133378E-1,-7.7862315E-2,-1.923001E-1,1.18734226E-1,-2.1966018E-1,3.7400693E-1,-2.3911644E-2,-1.0267561E-2,3.244322E-1,5.082188E-1,9.278216E-2,-3.0665517E-1,-7.4168466E-2,4.634283E-1,-2.391084E-2,-2.4210586E-1,-7.1272396E-2,-1.1420863E-1,4.0648508E-1],"split_indices":[15,48,23,37,23,25,23,50,0,0,0,27,14,77,49,0,0,16,0,25,29,14,25,14,25,47,0,18,25,49,49,31,48,47,50,30,29,23,87,0,0,0,0,0,0,0,0,0,0,0,0,0,0,0,0,0,0,0,0,0,0,0,0,0,0],"split_type":[0,0,0,0,0,0,0,0,0,0,0,0,0,0,0,0,0,0,0,0,0,0,0,0,0,0,0,0,0,0,0,0,0,0,0,0,0,0,0,0,0,0,0,0,0,0,0,0,0,0,0,0,0,0,0,0,0,0,0,0,0,0,0,0,0],"sum_hessian":[1.1860154E3,3.113833E2,8.746321E2,3.08628E2,2.7552924E0,5.3650006E2,3.3813208E2,3.0734644E2,1.2815646E0,1.7231859E0,1.0321064E0,2.7347345E2,2.6302658E2,8.7871185E1,2.5026088E2,1.5185047E0,3.0582794E2,2.7145865E2,2.0147974E0,4.849788E1,2.1452872E2,5.4836754E1,3.303443E1,6.979798E1,1.8046289E2,2.6962177E2,1.8368934E0,4.5389122E1,3.1087575E0,6.2157803E0,2.0831293E2,9.8942795E0,4.4942474E1,2.9919748E1,3.1146855E0,1.5911277E1,5.3886707E1,1.3844067E2,4.2022224E1,2.6827682E2,1.3449441E0,4.410302E1,1.2861022E0,1.3278006E0,1.780957E0,1.2130064E0,5.002774E0,8.281505E1,1.2549789E2,6.2057886E0,3.6884906E0,4.0630844E1,4.3116283E0,2.7144892E1,2.7748566E0,1.4207474E0,1.6939381E0,1.3296695E1,2.614582E0,2.1787097E0,5.1707996E1,1.3144202E2,6.9986496E0,4.095861E1,1.0636146E0],"tree_param":{"num_deleted":"0","num_feature":"90","num_nodes":"65","size_leaf_vector":"1"}},{"base_weights":[-5.555137E-1,-9.7718596E-1,-4.2276055E-1,-9.8739505E-1,-5.9953015E-2,-5.877484E-1,-1.8584554E-1,-1.0077951E0,-7.076779E-1,-1.12910606E-1,1.1806796E-1,-9.4362324E-1,-5.177423E-1,4.0345487E-1,-4.6262866E-1,-3.0354682E-1,-4.8122175E-2,1.068739E-1,-8.3660495E-1,-9.7984743E-1,-8.4639795E-2,-5.5217403E-1,1.4680066E0,6.3000166E-1,8.267286E-2,-3.0901015E-1,-7.2500515E-1,-4.15063E-1,-2.9443645E-1,-9.9280334E-1,-1.3800631E-2,-2.0243394E-1,1.7579989E-1,-7.131067E-1,-3.891234E-1,4.6388263E-1,5.683289E-1,-4.0468985E-1,7.4997884E-1,-2.0625378E-1,4.5999876E-1,-4.2875177E-1,6.403358E-1,-7.787764E-1,-2.2470715E-2,-2.5815064E-1,2.8085753E-1,-3.016582E-1,-1.1429682E-1,-2.1838799E-1,1.3049212E-1,-2.530487E-2,-1.5250343E-1,1.7973626E-1,3.3008326E-2,-2.281762E-1,1.7804588E-1,2.4822639E-1,-1.0547466E-1,1.9530231E-1,-1.4137305E-1,6.204393E-1,4.3524623E-2,-1.4029494E-1,5.4982775E-1,-4.253012E-2,4.3823448E-1,-2.4045552E-1,1.0473756E-1,2.8293785E-1,-1.0845077E-1],"categories":[],"categories_nodes":[],"categories_segments":[],"categories_sizes":[],"default_left":[0,0,0,0,0,0,0,0,0,0,0,0,0,0,0,0,0,0,0,0,0,0,0,0,0,0,0,0,0,0,0,0,0,0,0,0,0,0,0,0,0,0,0,0,0,0,0,0,0,0,0,0,0,0,0,0,0,0,0,0,0,0,0,0,0,0,0,0,0,0,0],"id":3,"left_children":[1,3,5,7,9,11,13,15,17,-1,-1,19,21,23,25,-1,-1,-1,27,29,31,33,35,37,39,41,43,45,-1,47,-1,-1,-1,49,51,53,-1,55,57,59,61,63,65,67,69,-1,-1,-1,-1,-1,-1,-1,-1,-1,-1,-1,-1,-1,-1,-1,-1,-1,-1,-1,-1,-1,-1,-1,-1,-1,-1],"loss_changes":[5.596582E1,2.1918793E0,2.9901169E1,6.4308167E-1,6.806254E-1,1.0775314E1,5.1833622E1,5.8569336E-1,2.9747763E0,0E0,0E0,2.1917572E0,2.679345E1,7.3406124E0,8.478622E0,0E0,0E0,0E0,6.736288E-1,8.01857E-1,1.9993466E0,9.543343E0,2.0115633E0,7.68602E0,4.810743E0,1.5953334E1,2.9664574E0,4.5737367E0,0E0,1.5439606E-1,0E0,0E0,0E0,3.5081635E0,6.792248E0,9.37438E-2,0E0,2.877308E0,4.866871E0,6.028781E0,9.356723E0,1.1683863E1,1.0377054E1,2.161171E0,2.516535E0,0E0,0E0,0E0,0E0,0E0,0E0,0E0,0E0,0E0,0E0,0E0,0E0,0E0,0E0,0E0,0E0,0E0,0E0,0E0,0E0,0E0,0E0,0E0,0E0,0E0,0E0],"parents":[2147483647,0,0,1,1,2,2,3,3,4,4,5,5,6,6,7,7,8,8,11,11,12,12,13,13,14,14,18,18,19,19,20,20,21,21,22,22,23,23,24,24,25,25,26,26,27,27,29,29,33,33,34,34,35,35,37,37,38,38,39,39,40,40,41,41,42,42,43,43,44,44],"right_children":[2,4,6,8,10,12,14,16,18,-1,-1,20,22,24,26,-1,-1,-1,28,30,32,34,36,38,40,42,44,46,-1,48,-1,-1,-1,50,52,54,-1,56,58,60,62,64,66,68,70,-1,-1,-1,-1,-1,-1,-1,-1,-1,-1,-1,-1,-1,-1,-1,-1,-1,-1,-1,-1,-1,-1,-1,-1,-1,-1],"split_conditions":[1E0,1.8E1,1.25E-1,1E0,3.1875E0,1E0,1.0625E0,2.163368E4,-6.655602E-1,-1.12910606E-1,1.1806796E-1,2.5E0,1E0,1E0,1E0,-3.0354682E-1,-4.8122175E-2,1.068739E-1,1E0,1E0,1E0,0E0,-4.4868603E-1,1E0,3.2863072E-1,1E0,2.8E1,9.405257E-2,-2.9443645E-1,1E0,-1.3800631E-2,-2.0243394E-1,1.7579989E-1,1E0,-2.0470262E-1,-1.9018291E-1,5.683289E-1,1E0,1E0,-7.4106777E-1,4.6307054E-1,2.1E1,1E0,1.55625E1,-3.041591E-1,-2.5815064E-1,2.8085753E-1,-3.016582E-1,-1.1429682E-1,-2.1838799E-1,1.3049212E-1,-2.530487E-2,-1.5250343E-1,1.7973626E-1,3.3008326E-2,-2.281762E-1,1.7804588E-1,2.4822639E-1,-1.0547466E-1,1.9530231E-1,-1.4137305E-1,6.204393E-1,4.3524623E-2,-1.4029494E-1,5.4982775E-1,-4.253012E-2,4.3823448E-1,-2.4045552E-1,1.0473756E-1,2.8293785E-1,-1.0845077E-1],"split_indices":[15,48,23,55,23,14,23,37,50,0,0,25,54,73,10,0,0,0,17,24,73,25,50,14,50,11,40,50,0,20,0,0,0,16,50,49,0,51,1,49,50,36,18,23,49,0,0,0,0,0,0,0,0,0,0,0,0,0,0,0,0,0,0,0,0,0,0,0,0,0,0],"split_type":[0,0,0,0,0,0,0,0,0,0,0,0,0,0,0,0,0,0,0,0,0,0,0,0,0,0,0,0,0,0,0,0,0,0,0,0,0,0,0,0,0,0,0,0,0,0,0,0,0,0,0,0,0,0,0,0,0,0,0,0,0,0,0,0,0,0,0,0,0,0,0],"sum_hessian":[1.006157E3,2.3939392E2,7.6676306E2,2.3668307E2,2.7108502E0,4.5112106E2,3.1564197E2,2.1816885E2,1.8514223E1,1.6969754E0,1.013875E0,7.210374E1,3.7901733E2,1.0072666E2,2.1491531E2,2.1694368E2,1.2251712E0,1.8105068E0,1.6703716E1,6.905107E1,3.0526602E0,3.7326703E2,5.750304E0,5.846957E1,4.2257088E1,1.3692497E2,7.799033E1,5.260392E0,1.1443324E1,6.804392E1,1.0071535E0,1.6205006E0,1.4321595E0,1.861558E2,1.8711122E2,2.3364263E0,3.4138777E0,5.828772E0,5.26408E1,2.4188675E1,1.8068413E1,1.2207584E2,1.4849134E1,7.234462E1,5.6457076E0,4.229369E0,1.0310225E0,6.602722E1,2.0166998E0,1.8413943E2,2.0163624E0,5.30931E1,1.3401813E2,1.1889142E0,1.147512E0,4.472231E0,1.356541E0,4.9415627E1,3.2251723E0,5.3675437E0,1.882113E1,2.0471818E0,1.6021233E1,1.2079144E2,1.2844015E0,8.025708E0,6.823426E0,7.119842E1,1.1462083E0,1.0041021E0,4.641606E0],"tree_param":{"num_deleted":"0","num_feature":"90","num_nodes":"71","size_leaf_vector":"1"}},{"base_weights":[-4.7272357E-1,-9.36436E-1,-3.4647647E-1,-9.75311E-1,-5.3419536E-1,-8.061209E-1,-2.7879328E-1,-2.941228E-1,-4.1193135E-2,-4.4340998E-2,-8.7426525E-1,-8.358831E-1,2.5354993E-1,1.2904327E0,-3.2182395E-1,-5.601026E-1,7.6500857E-1,-2.8583986E-1,-3.5125036E-2,-8.637673E-1,1.2560809E-1,1.3885198E0,1.03235565E-1,-4.3219087E-1,-4.837104E-2,7.95313E-2,-2.5462833E-1,-4.896823E-2,3.9133283E-1,-8.7321866E-1,-2.0801723E-2,-1.6645284E-1,1.9999139E-1,6.763494E-1,1.4983099E0,-4.4682264E-1,1.4755496E0,3.9598815E-2,-5.868303E-1,-2.7718407E-1,-1.8260583E-1,-4.251855E-2,3.370095E-1,2.1627314E-1,4.9369332E-1,-1.0156927E-1,-2.0263965E-1,-5.7910778E-2,6.9184136E-1,1.5205039E-3,5.534281E-1,-2.2526678E-1,1.2858827E-1],"categories":[],"categories_nodes":[],"categories_segments":[],"categories_sizes":[],"default_left":[0,0,0,0,0,0,0,0,0,0,0,0,0,0,0,0,0,0,0,0,0,0,0,0,0,0,0,0,0,0,0,0,0,0,0,0,0,0,0,0,0,0,0,0,0,0,0,0,0,0,0,0,0],"id":4,"left_children":[1,3,5,7,9,11,13,-1,-1,15,17,19,-1,21,23,25,27,-1,-1,29,31,33,-1,35,37,-1,-1,-1,-1,39,-1,-1,-1,41,43,45,47,49,51,-1,-1,-1,-1,-1,-1,-1,-1,-1,-1,-1,-1,-1,-1],"loss_changes":[5.0579773E1,2.3794556E0,2.1087082E1,5.828247E-1,3.0526552E0,5.0016937E0,4.0838734E1,0E0,0E0,4.0424423E0,5.366087E-1,2.4236488E0,0E0,1.0237789E0,1.758825E1,1.6221188E0,2.1118653E0,0E0,0E0,5.7050323E-1,1.5872521E0,1.0695076E-1,0E0,1.2259293E1,8.0238E0,0E0,0E0,0E0,0E0,5.510254E-1,0E0,0E0,0E0,1.5257068E0,1.4133263E-1,9.998337E0,5.1509376E0,9.0987215E0,4.28384E0,0E0,0E0,0E0,0E0,0E0,0E0,0E0,0E0,0E0,0E0,0E0,0E0,0E0,0E0],"parents":[2147483647,0,0,1,1,2,2,3,3,4,4,5,5,6,6,9,9,10,10,11,11,13,13,14,14,15,15,16,16,19,19,20,20,21,21,23,23,24,24,29,29,33,33,34,34,35,35,36,36,37,37,38,38],"right_children":[2,4,6,8,10,12,14,-1,-1,16,18,20,-1,22,24,26,28,-1,-1,30,32,34,-1,36,38,-1,-1,-1,-1,40,-1,-1,-1,42,44,46,48,50,52,-1,-1,-1,-1,-1,-1,-1,-1,-1,-1,-1,-1,-1,-1],"split_conditions":[1E0,1E0,1E0,2.163368E4,1E0,5E0,1E0,-2.941228E-1,-4.1193135E-2,2.8531146E-1,1E0,3.4E1,2.5354993E-1,1E0,1E0,-7.612511E-1,-2.7745506E-1,-2.8583986E-1,-3.5125036E-2,1.5E1,1E0,-7.720847E-1,1.03235565E-1,1E0,4.9375E0,7.95313E-2,-2.5462833E-1,-4.896823E-2,3.9133283E-1,1E0,-2.0801723E-2,-1.6645284E-1,1.9999139E-1,1.25E-1,0E0,1E0,-4.4149378E-1,4.5625E0,9.617791E0,-2.7718407E-1,-1.8260583E-1,-4.251855E-2,3.370095E-1,2.1627314E-1,4.9369332E-1,-1.0156927E-1,-2.0263965E-1,-5.7910778E-2,6.9184136E-1,1.5205039E-3,5.534281E-1,-2.2526678E-1,1.2858827E-1],"split_indices":[15,55,14,37,17,38,29,0,0,49,64,24,0,30,25,49,50,0,0,36,29,49,0,60,23,0,0,0,0,21,0,0,0,23,25,10,50,23,77,0,0,0,0,0,0,0,0,0,0,0,0,0,0],"split_type":[0,0,0,0,0,0,0,0,0,0,0,0,0,0,0,0,0,0,0,0,0,0,0,0,0,0,0,0,0,0,0,0,0,0,0,0,0,0,0,0,0,0,0,0,0,0,0,0,0,0,0,0,0],"sum_hessian":[8.6852844E2,1.8448555E2,6.840429E2,1.669279E2,1.7557644E1,8.6397446E1,5.9764545E2,1.6574957E2,1.178334E0,7.6576114E0,9.900032E0,8.5352875E1,1.0445708E0,1.5177285E1,5.8246814E2,4.8652005E0,2.7924106E0,8.735631E0,1.1644012E0,8.30461E1,2.3067827E0,1.3328474E1,1.8488109E0,4.145666E2,1.6790157E2,1.2819644E0,3.5832365E0,1.2826647E0,1.5097461E0,8.1971695E1,1.0744E0,1.0104338E0,1.2963489E0,2.7367187E0,1.0591756E1,4.1217114E2,2.395443E0,1.451194E2,2.2782171E1,6.6690094E1,1.5281601E1,1.2083241E0,1.5283946E0,2.626459E0,7.9652963E0,2.8140942E2,1.3076175E2,1.0512191E0,1.3442239E0,1.4337953E2,1.7398626E0,1.9837704E1,2.9444678E0],"tree_param":{"num_deleted":"0","num_feature":"90","num_nodes":"53","size_leaf_vector":"1"}},{"base_weights":[-3.915882E-1,-8.938752E-1,-2.7478763E-1,-9.4173187E-1,-4.6327105E-1,-4.326899E-1,-7.587989E-2,-9.4818234E-1,-3.5250925E-2,-3.4429736E-2,-8.2013106E-1,-4.8337826E-1,1.8926555E-1,2.8836983E-1,-3.306756E-1,-9.547867E-1,-1.0197957E-1,-3.568185E-1,2.6125187E-1,-2.7324796E-1,-2.5367083E-2,-4.997387E-1,3.6722887E-1,4.9105912E-1,5.6440167E-2,4.42687E-1,5.3509872E-2,-6.5037584E-1,-2.206597E-1,-9.6152514E-1,-3.7573087E-1,1.06621616E-1,-6.751097E-1,-7.343758E-1,-3.7286246E-1,-6.0476154E-1,2.7330205E-1,5.8274883E-1,-7.232252E-2,-2.7062634E-1,3.95344E-1,-7.2202855E-1,2.0434164E-1,-2.832176E-1,4.00287E-1,-2.904994E-1,-1.1625985E-1,-9.221622E-3,-1.5978257E-1,-2.4185342E-1,-2.1225285E-2,2.584767E-1,-2.3100924E-1,-1.1757941E-1,4.1038108E-1,-2.6122957E-1,1.14833936E-1,1.842721E-1,-2.1203782E-1,2.6844403E-1,3.959764E-2,1.283078E-1,-2.0002651E-1,1.4444222E-2,-2.0237184E-1,2.2500171E-1,-4.876083E-2,-2.2873138E-1,1.0256221E-1,-3.602991E-2,-1.4960587E-1,3.3380157E-1,-2.9758094E-2],"categories":[],"categories_nodes":[],"categories_segments":[],"categories_sizes":[],"default_left":[0,0,0,0,0,0,0,0,0,0,0,0,0,0,0,0,0,0,0,0,0,0,0,0,0,0,0,0,0,0,0,0,0,0,0,0,0,0,0,0,0,0,0,0,0,0,0,0,0,0,0,0,0,0,0,0,0,0,0,0,0,0,0,0,0,0,0,0,0,0,0,0,0],"id":5,"left_children":[1,3,5,7,9,11,13,15,-1,17,19,21,23,25,27,29,-1,31,-1,-1,-1,33,-1,-1,35,37,39,41,43,45,47,-1,49,51,53,55,57,59,61,63,65,67,-1,69,71,-1,-1,-1,-1,-1,-1,-1,-1,-1,-1,-1,-1,-1,-1,-1,-1,-1,-1,-1,-1,-1,-1,-1,-1,-1,-1,-1,-1],"loss_changes":[4.4626907E1,2.528267E0,1.9503044E1,5.7180023E-1,2.4750373E0,1.1016167E1,2.575465E1,1.8707275E-1,0E0,2.7836325E0,5.1567364E-1,9.570435E0,5.066827E0,4.119932E0,5.594614E0,1.2818909E-1,0E0,1.8171587E0,0E0,0E0,0E0,9.20385E0,0E0,0E0,3.8378744E0,5.0090647E0,5.256067E0,4.4277706E0,4.8870296E0,1.06658936E-1,1.5055922E-1,0E0,3.5117674E-1,6.962822E0,7.4627266E0,2.0767868E0,7.1090536E0,7.5123425E0,4.925492E0,3.180439E0,4.677523E0,1.9645615E0,0E0,3.884553E0,4.2599196E0,0E0,0E0,0E0,0E0,0E0,0E0,0E0,0E0,0E0,0E0,0E0,0E0,0E0,0E0,0E0,0E0,0E0,0E0,0E0,0E0,0E0,0E0,0E0,0E0,0E0,0E0,0E0,0E0],"parents":[2147483647,0,0,1,1,2,2,3,3,4,4,5,5,6,6,7,7,9,9,10,10,11,11,12,12,13,13,14,14,15,15,17,17,21,21,24,24,25,25,26,26,27,27,28,28,29,29,30,30,32,32,33,33,34,34,35,35,36,36,37,37,38,38,39,39,40,40,41,41,43,43,44,44],"right_children":[2,4,6,8,10,12,14,16,-1,18,20,22,24,26,28,30,-1,32,-1,-1,-1,34,-1,-1,36,38,40,42,44,46,48,-1,50,52,54,56,58,60,62,64,66,68,-1,70,72,-1,-1,-1,-1,-1,-1,-1,-1,-1,-1,-1,-1,-1,-1,-1,-1,-1,-1,-1,-1,-1,-1,-1,-1,-1,-1,-1,-1],"split_conditions":[1E0,1E0,1.25E-1,2.163368E4,1E0,1E0,1.75E0,3.9803996E0,-3.5250925E-2,2.7773166E-1,9.095436E-1,1E0,-5.784232E-1,1E0,1E0,1.5622009E0,-1.0197957E-1,-6.655602E-1,2.6125187E-1,-2.7324796E-1,-2.5367083E-2,1E0,3.6722887E-1,4.9105912E-1,-3.4838423E-1,9.745505E-1,2.1908714E-1,7E0,1E0,1E0,7.659751E-1,1.06621616E-1,3.1875E0,-6.987552E-1,8.4E1,2.7250543E0,6.943292E-1,1E0,1.2E0,6.25E-1,8.3347166E-1,6.81145E3,2.0434164E-1,1E0,6.1E1,-2.904994E-1,-1.1625985E-1,-9.221622E-3,-1.5978257E-1,-2.4185342E-1,-2.1225285E-2,2.584767E-1,-2.3100924E-1,-1.1757941E-1,4.1038108E-1,-2.6122957E-1,1.14833936E-1,1.842721E-1,-2.1203782E-1,2.6844403E-1,3.959764E-2,1.283078E-1,-2.0002651E-1,1.4444222E-2,-2.0237184E-1,2.2500171E-1,-4.876083E-2,-2.2873138E-1,1.0256221E-1,-3.602991E-2,-1.4960587E-1,3.3380157E-1,-2.9758094E-2],"split_indices":[15,55,23,37,17,20,23,77,0,50,50,16,50,73,51,49,0,50,0,0,0,18,0,0,49,50,50,36,6,70,50,0,23,50,40,83,50,11,75,23,50,37,0,65,47,0,0,0,0,0,0,0,0,0,0,0,0,0,0,0,0,0,0,0,0,0,0,0,0,0,0,0,0],"split_type":[0,0,0,0,0,0,0,0,0,0,0,0,0,0,0,0,0,0,0,0,0,0,0,0,0,0,0,0,0,0,0,0,0,0,0,0,0,0,0,0,0,0,0,0,0,0,0,0,0,0,0,0,0,0,0,0,0,0,0,0,0,0,0,0,0,0,0,0,0,0,0,0,0],"sum_hessian":[7.6386316E2,1.4285957E2,6.210036E2,1.2750219E2,1.5357387E1,3.4553024E2,2.754734E2,1.2636288E2,1.1393119E0,7.473231E0,7.884156E0,3.1969815E2,2.5832075E1,1.13329094E2,1.6214427E2,1.2444196E2,1.9209144E0,5.957471E0,1.5157598E0,6.806652E0,1.0775042E0,3.173646E2,2.3335543E0,1.2193671E0,2.4612707E1,6.7857635E1,4.5471466E1,4.025468E1,1.21889595E2,1.223576E2,2.0843701E0,1.8040457E0,4.153425E0,1.0970141E2,2.076632E2,5.637016E0,1.897569E1,5.3245483E1,1.461215E1,2.344685E1,2.2024616E1,3.8633442E1,1.6212393E0,1.1122774E2,1.0661857E1,1.20244774E2,2.1128232E0,1.0253806E0,1.0589895E0,3.138774E0,1.0146513E0,1.8910496E0,1.0781036E2,2.0617953E2,1.4836539E0,4.5339913E0,1.1030244E0,1.4355304E1,4.6203876E0,3.0881023E1,2.2364458E1,8.0887165E0,6.523434E0,1.3597337E1,9.849512E0,1.3254154E1,8.770461E0,3.7492744E1,1.1406984E0,6.41905E1,4.7037243E1,3.888385E0,6.7734714E0],"tree_param":{"num_deleted":"0","num_feature":"90","num_nodes":"73","size_leaf_vector":"1"}},{"base_weights":[-3.2048345E-1,-8.4819114E-1,-2.1669497E-1,-9.059205E-1,-3.9894843E-1,-6.869607E-1,-1.6011974E-1,-9.2202085E-1,-3.2219997E-1,-2.6659101E-2,-7.6492375E-1,-7.2544616E-1,2.3965658E-1,1.1019905E0,-1.9854078E-1,-9.3055654E-1,-8.952165E-2,1.4286602E-1,-2.1704754E-1,-4.0670124E-1,6.507451E-1,-2.6088735E-1,-2.1700148E-2,-7.616309E-1,6.6326104E-2,1.1871576E0,6.7311585E-2,-9.726435E-2,-4.3968955E-1,-2.8175402E-1,-9.85795E-2,6.24299E-2,-6.3621974E-1,2.5530505E-1,5.90385E-2,-9.2887026E-1,-5.940053E-1,3.8104904E-1,1.3038279E-1,-1.8110035E-1,4.1219506E-1,-4.934156E-1,4.3605044E-1,-2.3162629E-1,-2.353164E-2,-2.8842515E-1,-2.5882406E-2,-2.1486132E-1,4.7653406E-3,2.5035936E-2,-8.864481E-2,1.6944656E-1,-7.9087235E-2,-1.6919172E-1,-1.4868703E-3,-6.4115085E-2,3.6349237E-1],"categories":[],"categories_nodes":[],"categories_segments":[],"categories_sizes":[],"default_left":[0,0,0,0,0,0,0,0,0,0,0,0,0,0,0,0,0,0,0,0,0,0,0,0,0,0,0,0,0,0,0,0,0,0,0,0,0,0,0,0,0,0,0,0,0,0,0,0,0,0,0,0,0,0,0,0,0],"id":6,"left_children":[1,3,5,7,9,11,13,15,17,19,21,23,-1,25,27,29,-1,-1,-1,31,33,-1,-1,35,-1,37,-1,39,41,-1,-1,-1,43,-1,-1,45,47,-1,-1,49,51,53,55,-1,-1,-1,-1,-1,-1,-1,-1,-1,-1,-1,-1,-1,-1],"loss_changes":[3.7511337E1,2.563263E0,1.5227278E1,6.3469696E-1,1.9727054E0,4.1020184E0,2.523421E1,2.330246E-1,1.6896964E0,2.3982737E0,4.694004E-1,2.2429066E0,0E0,8.841591E-1,1.2204687E1,1.8026733E-1,0E0,0E0,0E0,9.6840006E-1,1.3828301E-1,0E0,0E0,1.0900192E0,0E0,3.0989075E-1,0E0,1.521333E1,7.180174E0,0E0,0E0,0E0,2.8505373E-1,0E0,0E0,6.723652E-1,2.3979359E0,0E0,0E0,9.255665E0,5.3465567E0,4.820339E0,4.83873E0,0E0,0E0,0E0,0E0,0E0,0E0,0E0,0E0,0E0,0E0,0E0,0E0,0E0,0E0],"parents":[2147483647,0,0,1,1,2,2,3,3,4,4,5,5,6,6,7,7,8,8,9,9,10,10,11,11,13,13,14,14,15,15,19,19,20,20,23,23,25,25,27,27,28,28,32,32,35,35,36,36,39,39,40,40,41,41,42,42],"right_children":[2,4,6,8,10,12,14,16,18,20,22,24,-1,26,28,30,-1,-1,-1,32,34,-1,-1,36,-1,38,-1,40,42,-1,-1,-1,44,-1,-1,46,48,-1,-1,50,52,54,56,-1,-1,-1,-1,-1,-1,-1,-1,-1,-1,-1,-1,-1,-1],"split_conditions":[1E0,1E0,1E0,2.9074075E0,1E0,8E0,1E0,1.5622009E0,6.7354286E-1,4.9040923E-1,9.095436E-1,9.5E1,2.3965658E-1,1E0,1E0,1E0,-8.952165E-2,1.4286602E-1,-2.1704754E-1,-7.612511E-1,8.274404E-1,-2.6088735E-1,-2.1700148E-2,1E0,6.6326104E-2,2E0,6.7311585E-2,1E0,5.78143E5,-2.8175402E-1,-9.85795E-2,6.24299E-2,1.8365303E-1,2.5530505E-1,5.90385E-2,1E0,1E0,3.8104904E-1,1.3038279E-1,-3.6441213E-1,1E0,1E0,1E0,-2.3162629E-1,-2.353164E-2,-2.8842515E-1,-2.5882406E-2,-2.1486132E-1,4.7653406E-3,2.5035936E-2,-8.864481E-2,1.6944656E-1,-7.9087235E-2,-1.6919172E-1,-1.4868703E-3,-6.4115085E-2,3.6349237E-1],"split_indices":[15,55,14,83,17,38,29,49,49,49,50,47,0,69,10,70,0,0,0,49,49,0,0,28,0,33,0,11,82,0,0,0,49,0,0,20,29,0,0,49,66,28,73,0,0,0,0,0,0,0,0,0,0,0,0,0,0],"split_type":[0,0,0,0,0,0,0,0,0,0,0,0,0,0,0,0,0,0,0,0,0,0,0,0,0,0,0,0,0,0,0,0,0,0,0,0,0,0,0,0,0,0,0,0,0,0,0,0,0,0,0,0,0,0,0,0,0],"sum_hessian":[6.872445E2,1.11772095E2,5.754724E2,9.814372E1,1.3628377E1,6.060102E1,5.148714E2,9.494535E1,3.1983695E0,7.287745E0,6.3406324E0,5.9569798E1,1.0312198E0,1.4392826E1,5.0047855E2,9.3177795E1,1.7675574E0,1.007368E0,2.1910014E0,4.9245543E0,2.3631904E0,5.2859316E0,1.0547007E0,5.756453E1,2.005269E0,1.2798147E1,1.5946792E0,3.534442E2,1.4703435E2,9.13095E1,1.8682882E0,1.3640517E0,3.5605028E0,1.0328362E0,1.3303543E0,2.6542173E1,3.1022356E1,1.0907263E1,1.8908837E0,3.04054E2,4.9390224E1,1.3894664E2,8.087706E0,2.554137E0,1.0063658E0,2.5419289E1,1.1228846E0,2.5698935E1,5.323422E0,9.186076E1,2.1219322E2,4.0424915E1,8.965308E0,1.2127428E2,1.7672363E1,4.7950215E0,3.2926838E0],"tree_param":{"num_deleted":"0","num_feature":"90","num_nodes":"57","size_leaf_vector":"1"}},{"base_weights":[-2.5788665E-1,-7.964529E-1,-1.683013E-1,-8.6517644E-1,-3.3777243E-1,-3.6023334E-1,-5.239515E-2,-8.8510007E-1,-2.7222416E-1,-1.4284912E-2,-7.081873E-1,-3.9756292E-1,7.3138505E-1,-1.0587484E-1,4.9373677E-1,-8.956471E-1,-7.703584E-2,1.4293893E-1,-2.067384E-1,-2.925354E-1,1.8726507E-1,-9.991402E-3,-2.5030312E-1,-4.3127024E-1,5.4680395E-1,-4.624849E-1,1.4580237E0,-6.6489894E-3,-3.4623903E-1,5.8849454E-1,-2.0329286E-1,-9.063945E-1,-8.5014164E-2,8.552415E-2,-6.1003715E-1,1.7264733E-2,-4.7961903E-1,1.0244095E0,-1.3132848E-1,-8.116976E-3,-1.8979049E-1,6.706744E-1,6.6178165E-2,-3.695373E-2,1.0749882E0,5.732759E-1,-4.1869766E-1,3.2022437E-1,1.1145203E0,-2.752632E-1,-1.0644E-1,-2.2207427E-1,-2.7850697E-2,-8.152475E-2,3.9216772E-1,-1.4928764E-1,1.8686251E-1,4.17277E-1,8.624334E-2,-2.3732165E-1,2.2487153E-1,-2.1904403E-2,2.7043435E-1,5.476331E-1,-3.5538483E-2,2.7144328E-1,-1.7735755E-1,-7.6708205E-2,-1.7478049E-1,2.103734E-1,-1.5331343E-1,-4.2418122E-2,5.0294614E-1],"categories":[],"categories_nodes":[],"categories_segments":[],"categories_sizes":[],"default_left":[0,0,0,0,0,0,0,0,0,0,0,0,0,0,0,0,0,0,0,0,0,0,0,0,0,0,0,0,0,0,0,0,0,0,0,0,0,0,0,0,0,0,0,0,0,0,0,0,0,0,0,0,0,0,0,0,0,0,0,0,0,0,0,0,0,0,0,0,0,0,0,0,0],"id":7,"left_children":[1,3,5,7,9,11,13,15,17,19,21,23,25,27,29,31,-1,-1,-1,33,-1,-1,-1,35,37,39,41,43,45,47,-1,49,-1,-1,51,53,55,57,59,-1,-1,-1,-1,61,63,65,67,69,71,-1,-1,-1,-1,-1,-1,-1,-1,-1,-1,-1,-1,-1,-1,-1,-1,-1,-1,-1,-1,-1,-1,-1,-1],"loss_changes":[3.0171822E1,2.5231514E0,1.1989952E1,6.6913986E-1,1.5809877E0,8.566204E0,9.9165535E0,2.609787E-1,1.5607877E0,1.6232599E0,4.9750686E-1,6.507143E0,6.8051543E0,7.3540435E0,3.7619553E0,2.1996689E-1,0E0,0E0,0E0,1.334538E0,0E0,0E0,0E0,4.145607E0,2.4763713E0,2.3723483E-1,3.9656076E0,7.229213E0,6.243355E0,3.6744108E0,0E0,1.09615326E-1,0E0,0E0,2.2775221E-1,7.636018E0,3.7295113E0,7.7672863E-1,2.844634E0,0E0,0E0,0E0,0E0,7.318433E0,5.599825E0,3.238781E0,2.097928E0,6.7949157E0,6.762192E0,0E0,0E0,0E0,0E0,0E0,0E0,0E0,0E0,0E0,0E0,0E0,0E0,0E0,0E0,0E0,0E0,0E0,0E0,0E0,0E0,0E0,0E0,0E0,0E0],"parents":[2147483647,0,0,1,1,2,2,3,3,4,4,5,5,6,6,7,7,8,8,9,9,10,10,11,11,12,12,13,13,14,14,15,15,19,19,23,23,24,24,25,25,26,26,27,27,28,28,29,29,31,31,34,34,35,35,36,36,37,37,38,38,43,43,44,44,45,45,46,46,47,47,48,48],"right_children":[2,4,6,8,10,12,14,16,18,20,22,24,26,28,30,32,-1,-1,-1,34,-1,-1,-1,36,38,40,42,44,46,48,-1,50,-1,-1,52,54,56,58,60,-1,-1,-1,-1,62,64,66,68,70,72,-1,-1,-1,-1,-1,-1,-1,-1,-1,-1,-1,-1,-1,-1,-1,-1,-1,-1,-1,-1,-1,-1,-1,-1],"split_conditions":[1E0,1E0,0E0,2.9074075E0,1E0,1E0,1E0,1.5622009E0,5.5941826E-1,2.7773166E-1,-4.3579563E-1,4.51E1,5E-1,1E0,5.4375E0,1E0,-7.703584E-2,1.4293893E-1,-2.067384E-1,-6.655602E-1,1.8726507E-1,-9.991402E-3,-2.5030312E-1,-6.188105E-1,8.125E-1,1.6E1,4.8E1,2.2E1,-4.8603043E-1,2.7078826E0,-2.0329286E-1,1E0,-8.5014164E-2,8.552415E-2,2.9375E0,6.4742327E-1,1E0,1.4E1,1E0,-8.116976E-3,-1.8979049E-1,6.706744E-1,6.6178165E-2,1.4847059E1,3E0,-5.676548E-2,-6.604089E-3,6.602941E-1,1.0511757E-1,-2.752632E-1,-1.0644E-1,-2.2207427E-1,-2.7850697E-2,-8.152475E-2,3.9216772E-1,-1.4928764E-1,1.8686251E-1,4.17277E-1,8.624334E-2,-2.3732165E-1,2.2487153E-1,-2.1904403E-2,2.7043435E-1,5.476331E-1,-3.5538483E-2,2.7144328E-1,-1.7735755E-1,-7.6708205E-2,-1.7478049E-1,2.103734E-1,-1.5331343E-1,-4.2418122E-2,5.0294614E-1],"split_indices":[15,55,25,83,17,46,24,49,49,50,49,47,23,10,23,70,0,0,0,50,0,0,0,50,23,40,40,36,50,89,0,20,0,0,23,49,16,48,73,0,0,0,0,81,25,49,49,81,50,0,0,0,0,0,0,0,0,0,0,0,0,0,0,0,0,0,0,0,0,0,0,0,0],"split_type":[0,0,0,0,0,0,0,0,0,0,0,0,0,0,0,0,0,0,0,0,0,0,0,0,0,0,0,0,0,0,0,0,0,0,0,0,0,0,0,0,0,0,0,0,0,0,0,0,0,0,0,0,0,0,0,0,0,0,0,0,0,0,0,0,0,0,0,0,0,0,0,0,0],"sum_hessian":[6.271316E2,8.831457E1,5.388171E2,7.603596E1,1.2278613E1,2.020798E2,3.3673724E2,7.308747E1,2.9484868E0,7.1088967E0,5.1697164E0,1.9601265E2,6.067153E0,3.074377E2,2.9299541E1,7.14624E1,1.6250677E0,1.0035049E0,1.9449819E0,5.3286037E0,1.780293E0,1.0132519E0,4.1564646E0,1.8978207E2,6.2305737E0,2.433096E0,3.634057E0,2.1833394E2,8.910377E1,2.7567127E1,1.7324136E0,6.975753E1,1.7048725E0,1.9262968E0,3.4023068E0,1.852912E1,1.7125296E2,3.3561907E0,2.8743832E0,1.0092798E0,1.423816E0,1.736358E0,1.897699E0,2.13323E2,5.0109353E0,6.0037074E0,8.310006E1,1.9321854E1,8.245275E0,6.772515E1,2.0323744E0,2.3734999E0,1.0288069E0,1.5782424E1,2.7466943E0,1.6904076E2,2.2122078E0,1.6487373E0,1.7074533E0,1.7018033E0,1.1725799E0,2.0631683E2,7.006163E0,2.7513204E0,2.2596147E0,4.8467693E0,1.1569378E0,4.2947994E1,4.015207E1,1.3356287E1,5.965566E0,2.7802389E0,5.4650354E0],"tree_param":{"num_deleted":"0","num_feature":"90","num_nodes":"73","size_leaf_vector":"1"}},{"base_weights":[-2.0292562E-1,-6.706109E-1,-1.0894125E-1,-7.710245E-1,-2.8149602E-1,9.62065E-1,-1.4100681E-1,-8.008284E-1,1.9464901E-1,-8.4618375E-2,-2.6417863E-1,1.042876E0,5.903041E-2,-1.5387957E-1,1.5327775E0,-9.2261016E-1,-5.110386E-1,2.0129924E-1,-5.406254E-1,1.1251092E0,1.1201103E-1,-1.21432304E-1,-7.460216E-1,7.0066804E-1,4.4979177E-2,-5.64377E-1,-2.8626794E-1,-6.5537375E-1,3.144755E-1,-2.3680642E-1,7.4860394E-1,-7.616771E-1,8.65022E-2,1.1532042E-1,1.2281221E0,-7.800612E-1,-8.9026056E-2,-9.5501435E-1,-3.7408315E-2,-2.4574228E-1,5.5940125E-2,-2.4310628E-1,8.0963835E-2,3.2208765E-1,-1.9634783E-1,-1.451982E-1,7.9580046E-2,4.0357137E-1,1.2918859E-2,-2.638389E-1,-3.2029103E-2,3.9012578E-1,1.0038368E-1,-2.4493283E-1,-1.002842E-2,-3.0121125E-2,3.95514E-1,-9.507757E-2,-3.0054212E-1,1.3329428E-1,-2.1700017E-1],"categories":[],"categories_nodes":[],"categories_segments":[],"categories_sizes":[],"default_left":[0,0,0,0,0,0,0,0,0,0,0,0,0,0,0,0,0,0,0,0,0,0,0,0,0,0,0,0,0,0,0,0,0,0,0,0,0,0,0,0,0,0,0,0,0,0,0,0,0,0,0,0,0,0,0,0,0,0,0,0,0],"id":8,"left_children":[1,3,5,7,9,11,13,15,-1,17,-1,19,-1,21,23,25,27,29,31,33,-1,35,37,-1,-1,39,-1,41,43,45,47,49,-1,-1,51,53,55,57,59,-1,-1,-1,-1,-1,-1,-1,-1,-1,-1,-1,-1,-1,-1,-1,-1,-1,-1,-1,-1,-1,-1],"loss_changes":[2.5620296E1,3.5970764E0,1.689199E1,3.7787933E0,2.473009E0,6.798706E-1,1.0461876E1,2.2064857E0,0E0,2.3725698E0,0E0,2.797804E-1,0E0,8.976105E0,3.772275E0,5.2532196E-2,3.1485066E0,2.9107828E0,1.4954412E0,3.53858E-1,0E0,9.504784E0,3.5660048E0,0E0,0E0,1.4305494E0,0E0,3.2793398E0,3.903161E0,1.0084805E0,2.1767876E0,3.5129762E-1,0E0,0E0,1.4931107E-1,5.4062176E-1,6.9966283E0,2.4205017E-1,2.4955719E0,0E0,0E0,0E0,0E0,0E0,0E0,0E0,0E0,0E0,0E0,0E0,0E0,0E0,0E0,0E0,0E0,0E0,0E0,0E0,0E0,0E0,0E0],"parents":[2147483647,0,0,1,1,2,2,3,3,4,4,5,5,6,6,7,7,9,9,11,11,13,13,14,14,15,15,16,16,17,17,18,18,19,19,21,21,22,22,25,25,27,27,28,28,29,29,30,30,31,31,34,34,35,35,36,36,37,37,38,38],"right_children":[2,4,6,8,10,12,14,16,-1,18,-1,20,-1,22,24,26,28,30,32,34,-1,36,38,-1,-1,40,-1,42,44,46,48,50,-1,-1,52,54,56,58,60,-1,-1,-1,-1,-1,-1,-1,-1,-1,-1,-1,-1,-1,-1,-1,-1,-1,-1,-1,-1,-1,-1],"split_conditions":[1E0,1E0,1E0,8.85E1,1E0,1E0,1E0,1E0,1.9464901E-1,8.75E-1,-2.6417863E-1,2E0,5.903041E-2,1E0,-3.4838423E-1,-6.603043E-1,1E0,1.875E-1,1E0,-7.720847E-1,1.1201103E-1,1E0,2.6166925E0,7.0066804E-1,4.4979177E-2,9.8764524E-2,-2.8626794E-1,2E0,1.5E0,5.0345786E-2,-6.6033465E-1,5.875E0,8.65022E-2,1.1532042E-1,1.0356847E0,7E0,1E0,-5.952974E-1,3.6182573E-1,-2.4574228E-1,5.5940125E-2,-2.4310628E-1,8.0963835E-2,3.2208765E-1,-1.9634783E-1,-1.451982E-1,7.9580046E-2,4.0357137E-1,1.2918859E-2,-2.638389E-1,-3.2029103E-2,3.9012578E-1,1.0038368E-1,-2.4493283E-1,-1.002842E-2,-3.0121125E-2,3.95514E-1,-9.507757E-2,-3.0054212E-1,1.3329428E-1,-2.1700017E-1],"split_indices":[14,55,29,37,25,69,7,28,0,23,0,33,0,52,49,50,29,23,71,49,0,15,89,0,0,49,0,25,25,50,49,23,0,0,50,39,60,50,50,0,0,0,0,0,0,0,0,0,0,0,0,0,0,0,0,0,0,0,0,0,0],"split_type":[0,0,0,0,0,0,0,0,0,0,0,0,0,0,0,0,0,0,0,0,0,0,0,0,0,0,0,0,0,0,0,0,0,0,0,0,0,0,0,0,0,0,0,0,0,0,0,0,0,0,0,0,0,0,0,0,0,0,0,0,0],"sum_hessian":[5.8353613E2,9.661667E1,4.8691943E2,7.60182E1,2.0598467E1,1.3311325E1,4.7360812E2,7.488234E1,1.1358619E0,1.636259E1,4.235876E0,1.17119055E1,1.5994194E0,4.7089462E2,2.7134972E0,5.1187496E1,2.3694847E1,1.0400199E1,5.962391E0,9.824668E0,1.8872375E0,4.4757422E2,2.332039E1,1.2809299E0,1.4325671E0,5.680016E0,4.5507477E1,2.0343956E1,3.35089E0,6.0914483E0,4.308751E0,4.771261E0,1.1911299E0,1.7772259E0,8.0474415E0,1.990716E1,4.2766708E2,1.7740444E1,5.579946E0,4.173107E0,1.5069091E0,1.7531586E1,2.8123705E0,1.8183064E0,1.5325834E0,4.1059566E0,1.9854914E0,1.8433036E0,2.4654474E0,3.7533538E0,1.0179074E0,7.0237217E0,1.0237203E0,1.8893051E1,1.0141091E0,4.251587E2,2.5083885E0,1.7431328E0,1.5997312E1,3.484816E0,2.09513E0],"tree_param":{"num_deleted":"0","num_feature":"90","num_nodes":"61","size_leaf_vector":"1"}},{"base_weights":[-1.5702003E-1,-6.007633E-1,-7.970941E-2,-6.8886834E-1,-1.2502013E-1,8.050856E-1,-1.0501546E-1,-7.265365E-1,1.79447E-1,3.6431074E-1,-7.306934E-1,8.910542E-1,4.889821E-2,1.7972931E-1,-1.686807E-1,-7.6254916E-1,2.2280288E-1,-9.590186E-2,2.0367657E-1,6.9365937E-1,-4.522866E-1,-2.5589347E-1,-1.0390501E-2,2.7935347E-1,3.0791193E-1,3.971837E-2,1.2005548E0,-3.8579577E-1,-9.3619354E-2,-7.940451E-1,-2.4275729E-1,-1.5494493E-1,2.4346255E-1,1.0626613E0,-1.7836455E-1,-1.6549435E-1,-3.8064085E-2,2.3386705E-1,-1.398367E-1,-4.2830294E-1,2.8340855E-1,1.6356288E0,4.8569304E-1,-4.425087E-1,7.759803E-1,-1.6916889E-1,3.0588827E-1,-2.4590577E-1,-8.960075E-3,-2.2051358E-1,1.6102485E-1,3.971093E-1,5.4255016E-2,1.855703E-1,-1.6992836E-1,6.0554814E-1,1.4680941E-2,6.705688E-1,1.2420083E-1,2.6286933E-1,-6.98402E-2,-1.4330043E-1,2.3786926E-1,3.6180258E-1,-8.519828E-2,-8.374878E-2,4.9683165E-2,1.18310355E-1,-2.3245983E-1],"categories":[],"categories_nodes":[],"categories_segments":[],"categories_sizes":[],"default_left":[0,0,0,0,0,0,0,0,0,0,0,0,0,0,0,0,0,0,0,0,0,0,0,0,0,0,0,0,0,0,0,0,0,0,0,0,0,0,0,0,0,0,0,0,0,0,0,0,0,0,0,0,0,0,0,0,0,0,0,0,0,0,0,0,0,0,0,0,0],"id":9,"left_children":[1,3,5,7,9,11,13,15,17,19,21,23,-1,25,27,29,31,-1,-1,33,35,-1,-1,37,-1,39,41,43,45,47,49,-1,-1,51,-1,-1,-1,-1,-1,53,55,57,59,61,63,65,67,-1,-1,-1,-1,-1,-1,-1,-1,-1,-1,-1,-1,-1,-1,-1,-1,-1,-1,-1,-1,-1,-1],"loss_changes":[1.8842976E1,3.3320732E0,1.0610545E1,2.3736572E0,4.404906E0,5.826864E-1,8.33164E0,2.4239922E0,1.127846E0,2.570551E0,5.299399E-1,6.574125E-1,0E0,1.1981054E1,6.0713177E0,8.508873E-1,1.8047829E0,0E0,0E0,3.6618567E0,2.7555525E-2,0E0,0E0,1.6461493E0,0E0,8.680277E0,2.352004E0,6.6657543E0,8.496921E0,1.1446266E0,2.3448606E0,0E0,0E0,9.837575E-1,0E0,0E0,0E0,0E0,0E0,4.1234174E0,2.0222527E1,3.3718243E0,1.6771082E0,4.3804035E0,2.5438066E0,8.734724E0,4.594713E0,0E0,0E0,0E0,0E0,0E0,0E0,0E0,0E0,0E0,0E0,0E0,0E0,0E0,0E0,0E0,0E0,0E0,0E0,0E0,0E0,0E0,0E0],"parents":[2147483647,0,0,1,1,2,2,3,3,4,4,5,5,6,6,7,7,8,8,9,9,10,10,11,11,13,13,14,14,15,15,16,16,19,19,20,20,23,23,25,25,26,26,27,27,28,28,29,29,30,30,33,33,39,39,40,40,41,41,42,42,43,43,44,44,45,45,46,46],"right_children":[2,4,6,8,10,12,14,16,18,20,22,24,-1,26,28,30,32,-1,-1,34,36,-1,-1,38,-1,40,42,44,46,48,50,-1,-1,52,-1,-1,-1,-1,-1,54,56,58,60,62,64,66,68,-1,-1,-1,-1,-1,-1,-1,-1,-1,-1,-1,-1,-1,-1,-1,-1,-1,-1,-1,-1,-1,-1],"split_conditions":[1E0,1E0,1E0,2.1E1,1E0,1E0,-5.506623E-1,1E0,2.6E1,1E0,5.625E0,-4.1466114E-1,4.889821E-2,1E0,1E0,2.5E0,4.2047027E-2,-9.590186E-2,2.0367657E-1,9.3001384E-1,5.0345786E-2,-2.5589347E-1,-1.0390501E-2,-6.3540804E-1,3.0791193E-1,-7.720847E-1,1E0,1E0,1E0,1E0,1E0,-1.5494493E-1,2.4346255E-1,6.25E-1,-1.7836455E-1,-1.6549435E-1,-3.8064085E-2,2.3386705E-1,-1.398367E-1,-6.188105E-1,-7.4106777E-1,-6.5291435E-1,5.625E-1,3.82249E3,2.3671316E-1,2.8392582E0,9.721367E-1,-2.4590577E-1,-8.960075E-3,-2.2051358E-1,1.6102485E-1,3.971093E-1,5.4255016E-2,1.855703E-1,-1.6992836E-1,6.0554814E-1,1.4680941E-2,6.705688E-1,1.2420083E-1,2.6286933E-1,-6.98402E-2,-1.4330043E-1,2.3786926E-1,3.6180258E-1,-8.519828E-2,-8.374878E-2,4.9683165E-2,1.18310355E-1,-2.3245983E-1],"split_indices":[14,21,29,48,23,30,49,20,24,31,23,50,0,55,18,25,50,0,0,50,50,0,0,50,0,49,11,16,69,63,73,0,0,23,0,0,0,0,0,50,49,49,23,47,77,89,49,0,0,0,0,0,0,0,0,0,0,0,0,0,0,0,0,0,0,0,0,0,0],"split_type":[0,0,0,0,0,0,0,0,0,0,0,0,0,0,0,0,0,0,0,0,0,0,0,0,0,0,0,0,0,0,0,0,0,0,0,0,0,0,0,0,0,0,0,0,0,0,0,0,0,0,0,0,0,0,0,0,0,0,0,0,0,0,0,0,0,0,0,0,0],"sum_hessian":[5.4965656E2,8.05499E1,4.6910666E2,6.758546E1,1.2964441E1,1.21870575E1,4.5691962E2,6.4931946E1,2.6535134E0,7.391368E0,5.573074E0,1.0406069E1,1.7809885E0,8.3160164E1,3.7375943E2,6.274838E1,2.183565E0,1.5072834E0,1.14623E0,5.3743453E0,2.0170226E0,4.5485377E0,1.0245359E0,2.4401093E0,7.9659595E0,7.404365E1,9.11652E0,9.495685E1,2.7880258E2,5.866599E1,4.08239E0,1.0224247E0,1.1611403E0,4.313769E0,1.0605763E0,1.0125781E0,1.0044444E0,1.4329222E0,1.007187E0,2.509317E1,4.8950474E1,4.866606E0,4.249913E0,9.11275E1,3.829344E0,2.3494878E2,4.385381E1,5.6691166E1,1.9748214E0,2.5371327E0,1.5452571E0,2.9418132E0,1.3719558E0,2.5194597E0,2.257371E1,4.921664E0,4.4028812E1,2.707829E0,2.1587775E0,2.6111052E0,1.6388081E0,8.920219E1,1.9253227E0,2.6261513E0,1.2031925E0,1.7697029E2,5.797848E1,4.1122295E1,2.731515E0],"tree_param":{"num_deleted":"0","num_feature":"90","num_nodes":"69","size_leaf_vector":"1"}},{"base_weights":[-1.21189475E-1,-5.283519E-1,-5.90457E-2,-6.479902E-1,-1.7314944E-1,-2.5121383E-2,-4.8393026E-1,-8.3231926E-1,-2.9505384E-1,-6.1254035E-4,-2.4134135E-1,-3.7721023E-2,1.19889E0,-6.0597533E-1,5.7739016E-2,-8.566792E-1,-7.2471495E-3,-1.9993467E-2,-6.570224E-1,2.0188282E-1,-3.9948255E-1,-1.0712565E-2,-6.3408977E-1,5.110654E-1,-5.9541993E-2,-7.008627E-1,1.1583175E-1,4.6233463E-1,-6.9486743E-1,-3.8994947E-1,-2.718714E-1,1.9762747E-1,-2.1295871E-1,-2.4869312E-1,-2.3895793E-1,-1.9080842E-2,3.0310762E-1,-6.5752584E-1,1.0414968E-1,1.034179E-1,-1.489666E-1,-8.487466E-1,8.097478E-2,1.265103E-1,-7.700201E-1,2.160897E-1,-1.9015045E-1,-2.4993967E-1,-1.5659006E-2,-2.1855338E-1,9.666398E-2,-2.4998944E-2,3.872388E-1,-1.9228686E-1,1.07339226E-1,-6.9751486E-2,1.865885E-1,-2.3380068E-1,-3.656688E-2,5.2793615E-2,-1.20756395E-1,-7.640514E-2,3.437567E-2,-2.7296066E-1,-8.009078E-3,2.667732E-1,-1.5053815E-1,-2.4918869E-1,-2.6825964E-2],"categories":[],"categories_nodes":[],"categories_segments":[],"categories_sizes":[],"default_left":[0,0,0,0,0,0,0,0,0,0,0,0,0,0,0,0,0,0,0,0,0,0,0,0,0,0,0,0,0,0,0,0,0,0,0,0,0,0,0,0,0,0,0,0,0,0,0,0,0,0,0,0,0,0,0,0,0,0,0,0,0,0,0,0,0,0,0,0,0],"id":10,"left_children":[1,3,5,7,9,11,13,15,17,19,-1,21,23,25,27,29,-1,31,33,35,37,39,41,-1,-1,43,45,-1,47,49,-1,51,-1,-1,53,55,-1,57,-1,59,61,63,65,-1,67,-1,-1,-1,-1,-1,-1,-1,-1,-1,-1,-1,-1,-1,-1,-1,-1,-1,-1,-1,-1,-1,-1,-1,-1],"loss_changes":[1.3218339E1,2.8290653E0,6.552374E0,3.0989628E0,2.0476687E0,6.5658474E0,2.2575226E0,6.3334846E-1,1.8972086E0,1.3542285E0,0E0,6.74964E0,3.397565E0,1.9663553E0,8.991795E0,3.9191246E-1,0E0,1.9319154E0,3.9523172E-1,2.0063105E0,1.3159251E0,6.363532E0,2.8556876E0,0E0,0E0,2.2242994E0,2.2945735E0,0E0,4.3601108E-1,1.4037015E0,0E0,3.1341398E0,0E0,0E0,1.1434189E0,1.4740126E0,0E0,2.012794E-1,0E0,8.183122E0,5.109541E0,6.817503E-1,2.8508523E0,0E0,8.910866E-1,0E0,0E0,0E0,0E0,0E0,0E0,0E0,0E0,0E0,0E0,0E0,0E0,0E0,0E0,0E0,0E0,0E0,0E0,0E0,0E0,0E0,0E0,0E0,0E0],"parents":[2147483647,0,0,1,1,2,2,3,3,4,4,5,5,6,6,7,7,8,8,9,9,11,11,12,12,13,13,14,14,15,15,17,17,18,18,19,19,20,20,21,21,22,22,25,25,26,26,28,28,29,29,31,31,34,34,35,35,37,37,39,39,40,40,41,41,42,42,44,44],"right_children":[2,4,6,8,10,12,14,16,18,20,-1,22,24,26,28,30,-1,32,34,36,38,40,42,-1,-1,44,46,-1,48,50,-1,52,-1,-1,54,56,-1,58,-1,60,62,64,66,-1,68,-1,-1,-1,-1,-1,-1,-1,-1,-1,-1,-1,-1,-1,-1,-1,-1,-1,-1,-1,-1,-1,-1,-1,-1],"split_conditions":[1E0,1E0,1E0,1E0,1E0,1E0,1E0,9.5625E0,1E0,8.75E-1,-2.4134135E-1,1E0,1E0,1.1615491E0,-3.0290458E-1,-6.603043E-1,-7.2471495E-3,1.25E0,1E0,1E0,1E0,1E0,3.790426E0,5.110654E-1,-5.9541993E-2,-8.5786366E-1,2E0,4.6233463E-1,8.085754E-1,9.8764524E-2,-2.718714E-1,3.125E-1,-2.1295871E-1,-2.4869312E-1,5.5574E-1,1E0,3.0310762E-1,5.3125E0,1.0414968E-1,1E0,1E0,1.541E1,-2.3158832E-1,1.265103E-1,3.2E1,2.160897E-1,-1.9015045E-1,-2.4993967E-1,-1.5659006E-2,-2.1855338E-1,9.666398E-2,-2.4998944E-2,3.872388E-1,-1.9228686E-1,1.07339226E-1,-6.9751486E-2,1.865885E-1,-2.3380068E-1,-3.656688E-2,5.2793615E-2,-1.20756395E-1,-7.640514E-2,3.437567E-2,-2.7296066E-1,-8.009078E-3,2.667732E-1,-1.5053815E-1,-2.4918869E-1,-2.6825964E-2],"split_indices":[14,55,12,28,25,7,66,23,10,23,0,52,27,50,50,50,0,23,25,67,71,73,77,0,0,49,25,0,50,49,0,23,0,0,50,6,0,23,0,66,66,37,49,0,40,0,0,0,0,0,0,0,0,0,0,0,0,0,0,0,0,0,0,0,0,0,0,0,0],"split_type":[0,0,0,0,0,0,0,0,0,0,0,0,0,0,0,0,0,0,0,0,0,0,0,0,0,0,0,0,0,0,0,0,0,0,0,0,0,0,0,0,0,0,0,0,0,0,0,0,0,0,0,0,0,0,0,0,0,0,0,0,0,0,0,0,0,0,0,0,0],"sum_hessian":[5.22643E2,6.8213036E1,4.5442996E2,5.0409847E1,1.7803188E1,4.2181024E2,3.2619724E1,3.222259E1,1.8187254E1,1.4768112E1,3.0350769E0,4.1847177E2,3.3384523E0,2.6524658E1,6.095067E0,3.1221468E1,1.0011243E0,1.09338455E1,7.2534084E0,1.0122871E1,4.645241E0,4.013149E2,1.7156862E1,2.2916858E0,1.0467665E0,2.3468546E1,3.0561132E0,1.698885E0,4.396182E0,3.848245E0,2.7373224E1,8.854271E0,2.079574E0,4.443042E0,2.8103664E0,8.716871E0,1.4059998E0,3.5408711E0,1.1043699E0,2.1997485E2,1.8134007E2,1.3051847E1,4.1050153E0,1.066088E0,2.2402458E1,1.7135926E0,1.3425206E0,3.3739486E0,1.0222336E0,2.5927138E0,1.255531E0,7.7787995E0,1.0754716E0,1.6349381E0,1.1754284E0,7.017738E0,1.6991336E0,2.5141528E0,1.0267184E0,1.9295395E2,2.7020899E1,1.294487E2,5.1891376E1,1.2049125E1,1.0027231E0,1.499455E0,2.6055603E0,2.0368193E1,2.0342648E0],"tree_param":{"num_deleted":"0","num_feature":"90","num_nodes":"69","size_leaf_vector":"1"}},{"base_weights":[-9.4938464E-2,-5.5314237E-1,-5.161104E-2,-6.6903967E-1,-8.493217E-2,-1.6208184E-1,6.35775E-2,-7.058999E-1,-7.026423E-2,2.3665142E-1,-5.612344E-1,-2.2037762E-1,4.036802E-1,2.079909E-1,-1.9282708E-1,-7.273504E-1,-4.7694803E-3,1.4242454E-1,-1.6446483E-1,-1.7085679E-1,2.1991748E-1,-1.33228665E-2,-2.123058E-1,-4.562787E-1,-1.2369447E-1,6.8084896E-1,-4.4355676E-1,1.7236874E-1,8.856791E-1,-5.417537E-1,-6.730077E-2,-8.0750835E-1,-3.8376772E-1,1.8988526E-1,-1.7880803E-1,-2.691661E-1,-8.113555E-1,-1.4938107E-1,9.63787E-1,4.076143E-1,6.4876866E-1,8.328647E-2,-2.5653183E-1,4.978493E-1,8.950779E-2,1.3846277E0,-9.973278E-2,-6.428835E-1,1.8110703E-1,1.648178E-1,-3.238173E-1,-1.510299E-1,-2.8387496E-1,1.4717072E-1,-1.7453998E-1,1.2621629E-1,-3.5521854E-2,-1.5201311E-1,1.1400024E-1,-2.6985785E-1,1.4190066E-1,-5.7968836E-2,1.5873487E-1,4.441162E-1,1.6218955E-2,1.7553475E-1,-2.0117615E-1,1.8414465E-1,-2.1518235E-1,7.538607E-2,-2.0772634E-2,6.186727E-1,1.550618E-1,-2.076476E-1,1.8966551E-1,-2.1623135E-1,9.272047E-2,6.363721E-3,6.7569983E-1,-2.3151632E-1,1.1828529E-2],"categories":[],"categories_nodes":[],"categories_segments":[],"categories_sizes":[],"default_left":[0,0,0,0,0,0,0,0,0,0,0,0,0,0,0,0,0,0,0,0,0,0,0,0,0,0,0,0,0,0,0,0,0,0,0,0,0,0,0,0,0,0,0,0,0,0,0,0,0,0,0,0,0,0,0,0,0,0,0,0,0,0,0,0,0,0,0,0,0,0,0,0,0,0,0,0,0,0,0,0,0],"id":11,"left_children":[1,3,5,7,9,11,13,15,17,19,21,23,25,27,29,31,-1,-1,-1,33,-1,-1,-1,35,37,39,41,43,45,47,49,51,53,55,-1,57,59,61,63,65,-1,-1,-1,67,69,71,73,75,-1,77,79,-1,-1,-1,-1,-1,-1,-1,-1,-1,-1,-1,-1,-1,-1,-1,-1,-1,-1,-1,-1,-1,-1,-1,-1,-1,-1,-1,-1,-1,-1],"loss_changes":[1.0056627E1,2.3190384E0,5.930146E0,7.217903E-1,1.63891E0,7.9303904E0,8.499675E0,4.741001E-1,1.0774994E0,1.454923E0,2.9098308E-1,4.874338E0,5.6002984E0,3.387074E0,3.5915902E0,5.6594276E-1,0E0,0E0,0E0,7.9121965E-1,0E0,0E0,0E0,3.9324045E0,4.4657216E0,6.161086E0,2.0678341E0,3.745977E0,3.6195626E0,2.9102974E0,3.7485526E0,5.7325935E-1,1.6569891E0,2.7398303E-1,0E0,6.732568E0,2.8108225E0,4.6247E0,1.6608365E0,3.4390297E0,0E0,0E0,0E0,4.4282575E0,2.9258668E0,1.7376499E0,1.8741865E0,1.7420988E0,0E0,9.917443E0,4.8817677E0,0E0,0E0,0E0,0E0,0E0,0E0,0E0,0E0,0E0,0E0,0E0,0E0,0E0,0E0,0E0,0E0,0E0,0E0,0E0,0E0,0E0,0E0,0E0,0E0,0E0,0E0,0E0,0E0,0E0,0E0],"parents":[2147483647,0,0,1,1,2,2,3,3,4,4,5,5,6,6,7,7,8,8,9,9,10,10,11,11,12,12,13,13,14,14,15,15,19,19,23,23,24,24,25,25,26,26,27,27,28,28,29,29,30,30,31,31,32,32,33,33,35,35,36,36,37,37,38,38,39,39,43,43,44,44,45,45,46,46,47,47,49,49,50,50],"right_children":[2,4,6,8,10,12,14,16,18,20,22,24,26,28,30,32,-1,-1,-1,34,-1,-1,-1,36,38,40,42,44,46,48,50,52,54,56,-1,58,60,62,64,66,-1,-1,-1,68,70,72,74,76,-1,78,80,-1,-1,-1,-1,-1,-1,-1,-1,-1,-1,-1,-1,-1,-1,-1,-1,-1,-1,-1,-1,-1,-1,-1,-1,-1,-1,-1,-1,-1,-1],"split_conditions":[1E0,1E0,1.25E-1,2.9074075E0,1E0,1E0,3.3125E0,1.5622009E0,4.637681E0,4.9040923E-1,-2.4598375E-1,1E0,2.8381374E0,5.5E1,1E0,5.643153E-1,-4.7694803E-3,1.4242454E-1,-1.6446483E-1,3.125E-1,2.1991748E-1,-1.33228665E-2,-2.123058E-1,4.2318842E-1,1E0,2.4695652E0,1.3E5,3.125E-1,3.45E3,2.1302905E0,1.3658537E0,-6.522822E-1,6.8188107E-1,-5.8731866E-1,-1.7880803E-1,5E-1,2.2E1,1E0,3.6811595E0,1.4794117E0,6.4876866E-1,8.328647E-2,-2.5653183E-1,1.1E1,2.3671316E-1,6.4E1,3.5E0,1E0,1.8110703E-1,1.2347826E0,3.412674E0,-1.510299E-1,-2.8387496E-1,1.4717072E-1,-1.7453998E-1,1.2621629E-1,-3.5521854E-2,-1.5201311E-1,1.1400024E-1,-2.6985785E-1,1.4190066E-1,-5.7968836E-2,1.5873487E-1,4.441162E-1,1.6218955E-2,1.7553475E-1,-2.0117615E-1,1.8414465E-1,-2.1518235E-1,7.538607E-2,-2.0772634E-2,6.186727E-1,1.550618E-1,-2.076476E-1,1.8966551E-1,-2.1623135E-1,9.272047E-2,6.363721E-3,6.7569983E-1,-2.3151632E-1,1.1828529E-2],"split_indices":[15,55,23,83,17,20,23,49,75,49,49,18,87,38,18,50,0,0,0,23,0,0,0,75,6,75,76,23,76,50,87,50,50,49,0,25,44,0,75,81,0,0,0,36,77,40,25,12,0,75,89,0,0,0,0,0,0,0,0,0,0,0,0,0,0,0,0,0,0,0,0,0,0,0,0,0,0,0,0,0,0],"split_type":[0,0,0,0,0,0,0,0,0,0,0,0,0,0,0,0,0,0,0,0,0,0,0,0,0,0,0,0,0,0,0,0,0,0,0,0,0,0,0,0,0,0,0,0,0,0,0,0,0,0,0,0,0,0,0,0,0,0,0,0,0,0,0,0,0,0,0,0,0,0,0,0,0,0,0,0,0,0,0,0,0],"sum_hessian":[5.069977E2,4.2783146E1,4.6421454E2,3.395039E1,8.832757E0,2.3675203E2,2.2746252E2,3.1813091E1,2.1372998E0,5.573119E0,3.2596378E0,2.151895E2,2.1562527E1,1.4562932E2,8.183321E1,3.080142E1,1.0116705E0,1.0017257E0,1.1355741E0,3.4207687E0,2.1523504E0,1.0074835E0,2.2521544E0,6.1474964E1,1.5371454E2,1.639529E1,5.1672363E0,1.395484E2,6.080909E0,2.0773384E1,6.105983E1,2.387996E1,6.9214616E0,2.1499772E0,1.2707915E0,4.141095E1,2.0064016E1,1.5101027E2,2.7042668E0,1.4919215E1,1.4760745E0,1.9956255E0,3.1716108E0,2.7300983E1,1.1224742E2,3.7679417E0,2.3129668E0,1.9491272E1,1.2821124E0,3.2241962E1,2.8817865E1,8.932168E0,1.4947791E1,1.0053772E0,5.9160843E0,1.0208911E0,1.1290863E0,3.0477877E1,1.0933072E1,1.9055494E1,1.0085224E0,1.4251532E2,8.494947E0,1.3247147E0,1.3795522E0,1.3202967E1,1.7162489E0,2.537423E1,1.9267536E0,5.5304607E1,5.6942814E1,1.3428264E0,2.4251153E0,1.3083669E0,1.0045998E0,1.8241611E1,1.2496601E0,3.111186E1,1.1301017E0,1.2401527E1,1.6416338E1],"tree_param":{"num_deleted":"0","num_feature":"90","num_nodes":"81","size_leaf_vector":"1"}},{"base_weights":[-7.37258E-2,-4.3807352E-1,-2.6047686E-2,-5.723888E-1,-1.8352741E-1,-3.995983E-2,9.616753E-1,-7.1214867E-1,-2.4784973E-1,2.6417752E-3,-7.025303E-1,-1.848303E-1,4.0782668E-2,1.0676082E-2,3.9017573E-1,-7.404799E-1,-6.916675E-3,-4.1025934E-1,2.1309797E-1,-4.075111E-1,4.4166845E-1,-2.4008016E-1,-4.0489238E-2,-3.0166018E-1,8.849876E-3,3.0233625E-1,-2.9320149E-2,-7.652817E-1,-6.141672E-2,3.0320808E-1,-7.880541E-1,-5.700931E-1,1.2347052E-1,6.8966156E-1,-1.0091422E-1,-3.3484498E-1,3.7193343E-1,1.0445342E0,-1.2173919E-1,4.805728E-1,-2.0584756E-1,-7.9570144E-2,5.1446587E-1,-2.819035E-1,-1.7245835E-1,-8.18491E-2,2.9409492E-1,-2.693998E-1,-7.5703985E-3,7.292291E-2,-2.6285693E-1,2.9379913E-1,-1.1636573E-1,-1.7041512E-1,-7.351773E-2,-7.167927E-2,3.8041565E-1,8.323464E-2,4.7847977E-1,-6.1889637E-2,2.0637299E-1,9.465966E-2,4.4464827E-1,-1.5676953E-1,2.9305625E-1,5.2964143E-2,-5.9591636E-2,-1.5890029E-1,1.9952793E-1],"categories":[],"categories_nodes":[],"categories_segments":[],"categories_sizes":[],"default_left":[0,0,0,0,0,0,0,0,0,0,0,0,0,0,0,0,0,0,0,0,0,0,0,0,0,0,0,0,0,0,0,0,0,0,0,0,0,0,0,0,0,0,0,0,0,0,0,0,0,0,0,0,0,0,0,0,0,0,0,0,0,0,0,0,0,0,0,0,0],"id":12,"left_children":[1,3,5,7,9,11,13,15,17,19,21,23,25,-1,-1,27,-1,29,-1,31,33,-1,-1,35,37,39,41,43,-1,45,47,49,-1,51,-1,53,55,57,59,61,63,65,67,-1,-1,-1,-1,-1,-1,-1,-1,-1,-1,-1,-1,-1,-1,-1,-1,-1,-1,-1,-1,-1,-1,-1,-1,-1,-1],"loss_changes":[8.536938E0,1.8396454E0,6.0325813E0,1.4908962E0,2.0423923E0,5.0503697E0,1.8678422E0,4.741583E-1,2.2521038E0,3.1582189E0,2.014823E-1,3.4979205E0,5.0996842E0,0E0,0E0,1.6404343E-1,0E0,3.3137026E0,0E0,1.4426014E0,1.865982E0,0E0,0E0,2.2788782E0,8.1190815E0,5.4225817E0,6.048969E0,2.137518E-1,0E0,2.0894694E0,6.261363E-1,2.2012525E0,0E0,2.4865947E0,0E0,1.7950754E0,3.0394151E0,2.3950305E0,3.7957907E0,6.774785E0,6.4894323E0,6.19938E0,3.2985134E0,0E0,0E0,0E0,0E0,0E0,0E0,0E0,0E0,0E0,0E0,0E0,0E0,0E0,0E0,0E0,0E0,0E0,0E0,0E0,0E0,0E0,0E0,0E0,0E0,0E0,0E0],"parents":[2147483647,0,0,1,1,2,2,3,3,4,4,5,5,6,6,7,7,8,8,9,9,10,10,11,11,12,12,15,15,17,17,19,19,20,20,23,23,24,24,25,25,26,26,27,27,29,29,30,30,31,31,33,33,35,35,36,36,37,37,38,38,39,39,40,40,41,41,42,42],"right_children":[2,4,6,8,10,12,14,16,18,20,22,24,26,-1,-1,28,-1,30,-1,32,34,-1,-1,36,38,40,42,44,-1,46,48,50,-1,52,-1,54,56,58,60,62,64,66,68,-1,-1,-1,-1,-1,-1,-1,-1,-1,-1,-1,-1,-1,-1,-1,-1,-1,-1,-1,-1,-1,-1,-1,-1,-1,-1],"split_conditions":[1E0,1E0,1E0,2.5E-1,1E0,0E0,-4.4868603E-1,1.0907135E0,1E0,5.0345786E-2,3.5164917E-1,1.875E-1,-2.340249E-1,1.0676082E-2,3.9017573E-1,1E0,-6.916675E-3,8.125E-1,2.1309797E-1,3.3487925E-1,9.3001384E-1,-2.4008016E-1,-4.0489238E-2,1E0,3.75E-1,-1.4462212E-1,1.0626461E1,1E0,-6.141672E-2,-4.690387E-1,1E0,-1.0432234E0,1.2347052E-1,1E0,-1.0091422E-1,1E0,1E0,1.3215598E-1,3E0,-2.7047083E-1,9.250918E-1,9.790269E-2,-7.358229E-2,-2.819035E-1,-1.7245835E-1,-8.18491E-2,2.9409492E-1,-2.693998E-1,-7.5703985E-3,7.292291E-2,-2.6285693E-1,2.9379913E-1,-1.1636573E-1,-1.7041512E-1,-7.351773E-2,-7.167927E-2,3.8041565E-1,8.323464E-2,4.7847977E-1,-6.1889637E-2,2.0637299E-1,9.465966E-2,4.4464827E-1,-1.5676953E-1,2.9305625E-1,5.2964143E-2,-5.9591636E-2,-1.5890029E-1,1.9952793E-1],"split_indices":[14,73,54,23,23,25,50,49,63,50,49,23,50,0,0,70,0,23,0,49,50,0,0,70,23,49,77,68,0,49,9,49,0,51,0,18,64,49,46,49,49,77,50,0,0,0,0,0,0,0,0,0,0,0,0,0,0,0,0,0,0,0,0,0,0,0,0,0,0],"split_type":[0,0,0,0,0,0,0,0,0,0,0,0,0,0,0,0,0,0,0,0,0,0,0,0,0,0,0,0,0,0,0,0,0,0,0,0,0,0,0,0,0,0,0,0,0,0,0,0,0,0,0,0,0,0,0,0,0,0,0,0,0,0,0,0,0,0,0,0,0],"sum_hessian":[4.9109296E2,5.587997E1,4.3521298E2,3.5761288E1,2.0118681E1,4.3011435E2,5.0986457E0,2.4161861E1,1.1599427E1,1.5539491E1,4.5791907E0,1.5346822E2,2.7664612E2,1.6620424E0,3.4366033E0,2.3136078E1,1.0257831E0,1.0407246E1,1.1921812E0,8.071045E0,7.4684453E0,3.5567143E0,1.0224763E0,9.537781E1,5.809041E1,5.7774975E1,2.1887115E2,2.1702974E1,1.4331048E0,3.6713357E0,6.73591E0,6.9879627E0,1.0830826E0,5.749476E0,1.7189692E0,9.13789E1,3.9989104E0,5.720809E0,5.23696E1,4.2813293E1,1.4961679E1,2.0113812E2,1.7733028E1,9.274329E0,1.2428645E1,2.30633E0,1.3650057E0,5.732478E0,1.0034319E0,1.9673715E0,5.0205913E0,4.6031857E0,1.1462905E0,2.3920988E1,6.745791E1,2.814024E0,1.1848865E0,3.0183074E0,2.7025013E0,4.809207E1,4.277527E0,3.7885582E1,4.927714E0,1.2241633E1,2.720046E0,6.3679802E1,1.3745831E2,1.9184058E0,1.5814623E1],"tree_param":{"num_deleted":"0","num_feature":"90","num_nodes":"69","size_leaf_vector":"1"}},{"base_weights":[-5.6899875E-2,-2.4120389E-2,-4.7211185E-1,-3.1674922E-1,9.037492E-3,-5.2909994E-1,9.8899685E-2,-4.606217E-1,-8.593404E-2,2.0665306E-1,-4.189002E-2,-6.5401256E-1,-1.1393675E-2,9.672031E-2,-5.2072114E-1,7.7351E-2,-6.483901E-1,-1.6557907E-1,3.8428122E-1,-2.7159974E-1,-2.9497068E-2,-8.9151806E-1,-1.3223489E-1,7.3803854E-1,-6.234351E-1,-7.449858E-2,1.4532591E-1,-5.883921E-1,1.2043363E-1,-8.629084E-2,2.8426555E-1,-5.6910496E-2,-2.2341801E-1,2.6842716E-1,-5.5140644E-1,1.2116522E0,2.3813863E-1,-4.3018997E-2,7.2557455E-1,-2.772865E-1,-5.7589456E-2,-3.457334E-1,2.064624E-1,-2.683003E-2,3.3070678E-1,-2.3163052E-1,-1.6040454E-2,-1.888438E-1,-4.360818E-3,2.2980663E-1,-1.7472677E-1,-1.00183554E-1,1.3209584E-1,1.8304747E-2,3.1362325E-1,-2.2849156E-1,1.5449218E-1,2.2499518E-2,4.418288E-1,-3.8831502E-2,1.557899E-1,-7.651274E-2,2.4356323E-3,-3.7033707E-2,3.550348E-1,-2.5373307E-1,9.600734E-2],"categories":[],"categories_nodes":[],"categories_segments":[],"categories_sizes":[],"default_left":[0,0,0,0,0,0,0,0,0,0,0,0,0,0,0,0,0,0,0,0,0,0,0,0,0,0,0,0,0,0,0,0,0,0,0,0,0,0,0,0,0,0,0,0,0,0,0,0,0,0,0,0,0,0,0,0,0,0,0,0,0,0,0,0,0,0,0],"id":13,"left_children":[1,3,5,7,9,11,-1,13,15,17,19,21,23,25,27,29,31,33,35,-1,37,39,41,43,45,-1,-1,47,49,51,-1,-1,-1,53,55,57,59,61,63,-1,-1,65,-1,-1,-1,-1,-1,-1,-1,-1,-1,-1,-1,-1,-1,-1,-1,-1,-1,-1,-1,-1,-1,-1,-1,-1,-1],"loss_changes":[6.510009E0,4.3220487E0,1.7738795E0,1.4658432E0,4.042419E0,2.1308737E0,0E0,9.7809696E-1,1.7617348E0,5.5049376E0,3.3922708E0,3.1811247E0,3.8750896E0,5.9376097E-1,1.1623902E0,2.265747E0,4.8717022E-2,4.716743E0,6.484091E0,0E0,3.257837E0,2.379551E-1,1.9022125E0,1.2456014E0,3.5191536E-1,0E0,0E0,5.3139734E-1,1.9126283E0,1.9501611E0,0E0,0E0,0E0,2.1138787E0,3.7037091E0,2.312502E0,5.1155844E0,3.378496E0,2.3292155E0,0E0,0E0,3.0021706E0,0E0,0E0,0E0,0E0,0E0,0E0,0E0,0E0,0E0,0E0,0E0,0E0,0E0,0E0,0E0,0E0,0E0,0E0,0E0,0E0,0E0,0E0,0E0,0E0,0E0],"parents":[2147483647,0,0,1,1,2,2,3,3,4,4,5,5,7,7,8,8,9,9,10,10,11,11,12,12,13,13,14,14,15,15,16,16,17,17,18,18,20,20,21,21,22,22,23,23,24,24,27,27,28,28,29,29,33,33,34,34,35,35,36,36,37,37,38,38,41,41],"right_children":[2,4,6,8,10,12,-1,14,16,18,20,22,24,26,28,30,32,34,36,-1,38,40,42,44,46,-1,-1,48,50,52,-1,-1,-1,54,56,58,60,62,64,-1,-1,66,-1,-1,-1,-1,-1,-1,-1,-1,-1,-1,-1,-1,-1,-1,-1,-1,-1,-1,-1,-1,-1,-1,-1,-1,-1],"split_conditions":[1E0,1E0,7.375E0,1E0,-5.506623E-1,1E0,9.8899685E-2,-6.655602E-1,1E0,-7.720847E-1,-5.3389233E-1,1.3130435E0,-3.0290458E-1,-1.5990798E-1,1E0,2E0,-8.2521427E-1,3.35E2,-7.4106777E-1,-2.7159974E-1,2E0,1.4329184E0,1E0,-6.190777E-1,5.5941826E-1,-7.449858E-2,1.4532591E-1,9.5E1,4.702632E-3,1E0,2.8426555E-1,-5.6910496E-2,-2.2341801E-1,1.2122126E0,1E0,1.1594203E-1,-6.4415836E-1,1E0,1E0,-2.772865E-1,-5.7589456E-2,3.125E-1,2.064624E-1,-2.683003E-2,3.3070678E-1,-2.3163052E-1,-1.6040454E-2,-1.888438E-1,-4.360818E-3,2.2980663E-1,-1.7472677E-1,-1.00183554E-1,1.3209584E-1,1.8304747E-2,3.1362325E-1,-2.2849156E-1,1.5449218E-1,2.2499518E-2,4.418288E-1,-3.8831502E-2,1.557899E-1,-7.651274E-2,2.4356323E-3,-3.7033707E-2,3.550348E-1,-2.5373307E-1,9.600734E-2],"split_indices":[12,14,23,73,49,66,0,50,31,49,49,75,50,49,63,25,49,76,49,0,35,50,20,49,49,0,0,47,50,67,0,0,0,77,69,75,49,51,27,0,0,23,0,0,0,0,0,0,0,0,0,0,0,0,0,0,0,0,0,0,0,0,0,0,0,0,0],"split_type":[0,0,0,0,0,0,0,0,0,0,0,0,0,0,0,0,0,0,0,0,0,0,0,0,0,0,0,0,0,0,0,0,0,0,0,0,0,0,0,0,0,0,0,0,0,0,0,0,0,0,0,0,0,0,0,0,0,0,0,0,0,0,0,0,0,0,0],"sum_hessian":[4.781468E2,4.441415E2,3.400528E1,4.43333E1,3.998082E2,3.2066196E1,1.9390836E0,2.669688E1,1.7636421E1,8.1295815E1,3.185124E2,2.562104E1,6.445156E0,2.5392623E0,2.4157618E1,1.4336816E1,3.2996047E0,2.6283905E1,5.5011913E1,3.4873796E0,3.1502502E2,1.711976E1,8.50128E0,2.8048322E0,3.6403239E0,1.5337344E0,1.005528E0,2.1925747E1,2.23187E0,1.2825761E1,1.5110548E0,1.0880784E0,2.2115262E0,1.2512845E1,1.377106E1,7.1638174E0,4.7848095E1,3.1040918E2,4.615825E0,1.60468E1,1.0729605E0,7.2049766E0,1.2963028E0,1.0880555E0,1.7167768E0,2.6059587E0,1.0343653E0,2.0370333E1,1.5554137E0,1.1164846E0,1.1153852E0,8.972182E0,3.853579E0,1.072768E1,1.7851644E0,1.1741959E1,2.0291018E0,1.5787039E0,5.5851135E0,2.0971087E1,2.6877008E1,5.9544212E1,2.5086497E2,1.8730646E0,2.7427604E0,3.9601524E0,3.2448242E0],"tree_param":{"num_deleted":"0","num_feature":"90","num_nodes":"67","size_leaf_vector":"1"}},{"base_weights":[-4.441708E-2,-1.9129451E-2,-4.0037042E-1,-7.73687E-3,-6.6474473E-1,-2.1777545E-1,-7.115057E-1,-1.6656775E-2,7.926775E-1,-1.2370973E-1,-2.562044E-1,-3.7197945E-1,4.0074575E-1,-8.49038E-1,6.042331E-2,1.4309808E-4,-5.0866973E-1,4.6768168E-1,6.679863E-2,-1.6233483E-1,1.01606436E-1,-4.9759355E-1,1.7944542E-1,2.4325326E-1,-8.3168566E-2,-2.7875382E-1,-5.220596E-2,4.554874E-1,-1.6136017E-2,-8.2220864E-1,9.700598E-2,-1.9897577E-1,2.240483E-1,-6.352601E-1,1.0886124E-1,4.2150527E-2,4.1007444E-1,-1.305637E-1,2.654682E-3,-1.6594833E-2,-2.7412087E-1,1.8434304E-1,-1.4620425E-1,-2.1939473E-1,7.7549405E-2],"categories":[],"categories_nodes":[],"categories_segments":[],"categories_sizes":[],"default_left":[0,0,0,0,0,0,0,0,0,0,0,0,0,0,0,0,0,0,0,0,0,0,0,0,0,0,0,0,0,0,0,0,0,0,0,0,0,0,0,0,0,0,0,0,0],"id":14,"left_children":[1,3,5,7,9,11,13,15,17,19,-1,21,23,25,-1,27,29,-1,31,-1,-1,33,-1,-1,-1,-1,-1,35,37,39,41,-1,-1,43,-1,-1,-1,-1,-1,-1,-1,-1,-1,-1,-1],"loss_changes":[4.235145E0,3.239571E0,1.6184282E0,3.1154144E0,6.764636E-1,2.1626887E0,1.5650568E0,3.560109E0,2.5709167E0,7.910173E-1,0E0,2.4201636E0,1.5300156E0,3.7067747E-1,0E0,3.1019335E0,2.7803574E0,0E0,2.2401528E0,0E0,0E0,2.1218793E0,0E0,0E0,0E0,0E0,0E0,3.9547145E0,4.2343073E0,6.145787E-1,2.0367162E0,0E0,0E0,1.4019394E0,0E0,0E0,0E0,0E0,0E0,0E0,0E0,0E0,0E0,0E0,0E0],"parents":[2147483647,0,0,1,1,2,2,3,3,4,4,5,5,6,6,7,7,8,8,9,9,11,11,12,12,13,13,15,15,16,16,18,18,21,21,27,27,28,28,29,29,30,30,33,33],"right_children":[2,4,6,8,10,12,14,16,18,20,-1,22,24,26,-1,28,30,-1,32,-1,-1,34,-1,-1,-1,-1,-1,36,38,40,42,-1,-1,44,-1,-1,-1,-1,-1,-1,-1,-1,-1,-1,-1],"split_conditions":[1E0,1.4503024E0,1E0,1E0,1.2669434E-1,1.5E5,1E0,1E0,1E0,-2.857538E-1,-2.562044E-1,7.375E0,3.8086956E0,7.745505E-1,6.042331E-2,-6.603043E-1,2.518847E0,4.6768168E-1,1.389855E0,-1.6233483E-1,1.01606436E-1,1E0,1.7944542E-1,2.4325326E-1,-8.3168566E-2,-2.7875382E-1,-5.220596E-2,6.863058E-1,1E0,-5.952974E-1,2.8324112E5,-1.9897577E-1,2.240483E-1,1.4901798E0,1.0886124E-1,4.2150527E-2,4.1007444E-1,-1.305637E-1,2.654682E-3,-1.6594833E-2,-2.7412087E-1,1.8434304E-1,-1.4620425E-1,-2.1939473E-1,7.7549405E-2],"split_indices":[12,49,27,7,50,76,72,52,51,50,0,23,75,50,0,50,87,0,75,0,0,20,0,0,0,0,0,49,15,50,82,0,0,50,0,0,0,0,0,0,0,0,0,0,0],"split_type":[0,0,0,0,0,0,0,0,0,0,0,0,0,0,0,0,0,0,0,0,0,0,0,0,0,0,0,0,0,0,0,0,0,0,0,0,0,0,0,0,0,0,0,0,0],"sum_hessian":[4.7035907E2,4.401441E2,3.0214964E1,4.3350638E2,6.637706E0,2.0111897E1,1.0103066E1,4.29697E2,3.8094003E0,2.148825E0,4.488881E0,1.6417448E1,3.694448E0,8.841112E0,1.2619544E0,4.1647604E2,1.32209425E1,1.2948538E0,2.5145466E0,1.0398835E0,1.1089416E0,1.4966631E1,1.4508175E0,2.1798825E0,1.5145653E0,7.5662827E0,1.2748293E0,1.3444314E1,4.0303174E2,8.475791E0,4.7451515E0,1.2245694E0,1.2899771E0,1.3127995E1,1.8386372E0,1.0849073E1,2.5952404E0,2.1752634E1,3.8127908E2,1.0747795E0,7.4010115E0,2.4892557E0,2.255896E0,1.2018113E1,1.1098808E0],"tree_param":{"num_deleted":"0","num_feature":"90","num_nodes":"45","size_leaf_vector":"1"}},{"base_weights":[-3.390288E-2,-4.5338877E-2,7.0912373E-1,-2.399546E-2,-3.791215E-1,1.1114674E0,-1.17845334E-1,-1.0032306E-1,5.5051055E-2,-1.9083565E-1,-7.3639476E-1,1.5714607E0,9.3288394E-4,-6.0942918E-2,-5.774203E-1,8.4467284E-2,-6.4742875E-1,-3.4424284E-1,3.3720854E-1,-2.725501E-1,4.887707E-2,6.427491E-1,1.0013731E-1,-8.126932E-2,6.830115E-1,-8.0228466E-1,-9.0876786E-4,7.026149E-1,4.9860045E-2,-8.236382E-1,8.078763E-3,-1.4398597E-1,-2.4965958E-1,-8.529548E-2,7.316507E-1,-2.8410153E-2,3.2559183E-1,3.5814404E-1,-1.8418594E-1,-2.597758E-1,-4.0526964E-2,2.63181E-1,-1.6866632E-1,2.8288808E-1,-6.172535E-2,2.6213907E-2,-8.728862E-2,-3.7102047E-2,-2.792832E-1,-1.1101349E-1,1.1385589E-1,-3.5459038E-2,3.667232E-1],"categories":[],"categories_nodes":[],"categories_segments":[],"categories_sizes":[],"default_left":[0,0,0,0,0,0,0,0,0,0,0,0,0,0,0,0,0,0,0,0,0,0,0,0,0,0,0,0,0,0,0,0,0,0,0,0,0,0,0,0,0,0,0,0,0,0,0,0,0,0,0,0,0],"id":15,"left_children":[1,3,5,7,9,11,-1,13,15,17,19,21,-1,23,25,27,29,31,33,-1,-1,-1,-1,35,37,39,41,43,45,47,-1,49,-1,-1,51,-1,-1,-1,-1,-1,-1,-1,-1,-1,-1,-1,-1,-1,-1,-1,-1,-1,-1],"loss_changes":[3.9859018E0,3.2621634E0,3.5902119E0,2.6159163E0,1.7113907E0,2.784761E0,0E0,4.106985E0,4.46006E0,1.6858468E0,1.5644546E0,2.016347E0,0E0,3.1521006E0,2.1631832E0,4.3611836E0,1.0540614E0,1.395839E0,1.4013455E0,0E0,0E0,0E0,0E0,3.2399693E0,4.4113836E0,3.9280844E-1,3.2954922E0,2.5560036E0,2.5277503E0,4.043646E-1,0E0,1.5850177E0,0E0,0E0,1.5031532E0,0E0,0E0,0E0,0E0,0E0,0E0,0E0,0E0,0E0,0E0,0E0,0E0,0E0,0E0,0E0,0E0,0E0,0E0],"parents":[2147483647,0,0,1,1,2,2,3,3,4,4,5,5,7,7,8,8,9,9,10,10,11,11,13,13,14,14,15,15,16,16,17,17,18,18,23,23,24,24,25,25,26,26,27,27,28,28,29,29,31,31,34,34],"right_children":[2,4,6,8,10,12,-1,14,16,18,20,22,-1,24,26,28,30,32,34,-1,-1,-1,-1,36,38,40,42,44,46,48,-1,50,-1,-1,52,-1,-1,-1,-1,-1,-1,-1,-1,-1,-1,-1,-1,-1,-1,-1,-1,-1,-1],"split_conditions":[9.1E1,1E0,4.028494E-1,1.25E-1,1E0,1E0,-1.17845334E-1,3E0,1E0,1.5E5,1E0,5E-1,9.3288394E-4,1.935145E1,4.7E1,-5.1618254E-1,1E0,1E0,1E0,-2.725501E-1,4.887707E-2,6.427491E-1,1.0013731E-1,1E0,2.3074255E1,1E0,3.4467497E-1,1.8579711E0,8E0,-7.158387E-1,8.078763E-3,1E0,-2.4965958E-1,-8.529548E-2,-5.3389233E-1,-2.8410153E-2,3.2559183E-1,3.5814404E-1,-1.8418594E-1,-2.597758E-1,-4.0526964E-2,2.63181E-1,-1.6866632E-1,2.8288808E-1,-6.172535E-2,2.6213907E-2,-8.728862E-2,-3.7102047E-2,-2.792832E-1,-1.1101349E-1,1.1385589E-1,-3.5459038E-2,3.667232E-1],"split_indices":[40,12,49,23,27,73,0,38,53,76,72,23,0,75,40,50,21,21,73,0,0,0,0,46,77,64,50,75,23,49,0,25,0,0,49,0,0,0,0,0,0,0,0,0,0,0,0,0,0,0,0,0,0],"split_type":[0,0,0,0,0,0,0,0,0,0,0,0,0,0,0,0,0,0,0,0,0,0,0,0,0,0,0,0,0,0,0,0,0,0,0,0,0,0,0,0,0,0,0,0,0,0,0,0,0,0,0,0,0],"sum_hessian":[4.642978E2,4.581848E2,6.112987E0,4.3165494E2,2.6529877E1,4.4716444E0,1.6413425E0,2.1946732E2,2.121876E2,1.8378437E1,8.151439E0,2.8648424E0,1.606802E0,2.0377522E2,1.5692099E1,2.045038E2,7.6838055E0,1.4510835E1,3.8676023E0,6.8334827E0,1.3179566E0,1.4601055E0,1.4047369E0,1.992228E2,4.552425E0,1.1007197E1,4.684901E0,9.818852E0,1.9468495E2,5.916468E0,1.7673374E0,1.1206693E1,3.3041427E0,1.6099601E0,2.2576425E0,1.9786354E2,1.3592509E0,3.323153E0,1.2292719E0,9.776865E0,1.2303324E0,1.6073287E0,3.0775728E0,7.734335E0,2.084518E0,1.7604817E2,1.863677E1,1.072565E0,4.843903E0,8.031631E0,3.1750605E0,1.1043677E0,1.1532747E0],"tree_param":{"num_deleted":"0","num_feature":"90","num_nodes":"53","size_leaf_vector":"1"}},{"base_weights":[-2.671331E-2,-5.6409936E-2,1.9250394E-1,-3.8136911E-4,-2.4130489E-1,7.208455E-1,6.972302E-2,-5.404885E-2,2.5076288E-1,-2.9489732E-1,3.2335892E-1,9.6703017E-1,-1.9436072E-1,-4.271254E-1,2.5008777E-1,-8.7486565E-2,4.9711248E-1,4.9539596E-1,-6.893568E-2,6.516953E-1,-3.3745763E-1,-1.8607573E-1,6.0450345E-1,5.5516228E-2,1.2658423E0,-7.146473E-1,2.0972942E-1,-4.53679E-1,4.3338212E-1,-1.3438644E-1,1.6082647E-1,9.539098E-1,-4.2065048E-1,3.109619E-1,1.2267593E0,8.3833605E-2,-6.997835E-1,3.015619E-1,-2.6800226E-2,-4.933031E-1,-1.4868021E-1,1.02124356E-1,-1.9657029E-1,9.682431E-1,-3.3194058E-2,-9.370422E-2,1.3334301E-1,1.4991341E0,4.539282E-2,-3.2014275E-1,1.1770774E-1,-1.751261E-1,2.8318968E-1,-6.53725E-1,1.2785944E-1,8.6693364E-1,-4.5895707E-2,-1.889937E-1,-3.0675232E-2,1.0036539E-1,-1.8600874E-1,4.7108132E-1,1.6355423E-2,1.1905419E-1,-2.4643263E-1,1.288365E-1,-1.4418514E-1,8.858079E-2,4.7911528E-1,1.2728623E-1,-1.2719224E-1,-3.08341E-1,7.483002E-2,1.7329447E-1,-1.6735342E-1,-9.9052005E-2,1.7316891E-1,4.5940895E-2,3.9524823E-1,5.129993E-1,1.0086137E-1,-4.9851555E-2,-2.706186E-1,3.1103173E-1,-1.1124604E-1,7.913025E-2,-2.5814438E-1],"categories":[],"categories_nodes":[],"categories_segments":[],"categories_sizes":[],"default_left":[0,0,0,0,0,0,0,0,0,0,0,0,0,0,0,0,0,0,0,0,0,0,0,0,0,0,0,0,0,0,0,0,0,0,0,0,0,0,0,0,0,0,0,0,0,0,0,0,0,0,0,0,0,0,0,0,0,0,0,0,0,0,0,0,0,0,0,0,0,0,0,0,0,0,0,0,0,0,0,0,0,0,0,0,0,0,0],"id":16,"left_children":[1,3,5,7,9,11,13,15,17,19,21,23,-1,25,27,29,31,33,35,37,39,41,43,45,47,49,51,53,55,57,59,61,63,65,67,69,71,-1,-1,73,75,-1,-1,77,-1,-1,-1,79,-1,-1,-1,-1,-1,81,-1,83,85,-1,-1,-1,-1,-1,-1,-1,-1,-1,-1,-1,-1,-1,-1,-1,-1,-1,-1,-1,-1,-1,-1,-1,-1,-1,-1,-1,-1,-1,-1],"loss_changes":[3.0004086E0,4.1976314E0,3.518525E0,4.218457E0,2.947003E0,4.085987E0,4.2064185E0,4.795927E0,4.343947E0,3.7082953E0,1.3507164E0,2.40909E0,0E0,2.4485233E0,4.6075206E0,2.8628602E0,6.6474886E0,3.8459644E0,2.445463E0,1.1551358E0,2.3838425E0,1.1713351E0,1.6175148E0,6.100424E-1,1.5437508E0,3.8820882E0,3.276324E0,1.6082578E0,5.783126E0,3.2125027E0,5.527017E0,5.598645E0,2.1756556E0,2.6796496E0,1.5883627E0,3.7812119E0,1.7930028E0,0E0,0E0,3.4547644E0,5.3552494E0,0E0,0E0,9.230876E-1,0E0,0E0,0E0,7.7838707E-1,0E0,0E0,0E0,0E0,0E0,6.430907E-1,0E0,3.4457645E0,3.7779472E0,0E0,0E0,0E0,0E0,0E0,0E0,0E0,0E0,0E0,0E0,0E0,0E0,0E0,0E0,0E0,0E0,0E0,0E0,0E0,0E0,0E0,0E0,0E0,0E0,0E0,0E0,0E0,0E0,0E0,0E0],"parents":[2147483647,0,0,1,1,2,2,3,3,4,4,5,5,6,6,7,7,8,8,9,9,10,10,11,11,13,13,14,14,15,15,16,16,17,17,18,18,19,19,20,20,21,21,22,22,23,23,24,24,25,25,26,26,27,27,28,28,29,29,30,30,31,31,32,32,33,33,34,34,35,35,36,36,39,39,40,40,43,43,47,47,53,53,55,55,56,56],"right_children":[2,4,6,8,10,12,14,16,18,20,22,24,-1,26,28,30,32,34,36,38,40,42,44,46,48,50,52,54,56,58,60,62,64,66,68,70,72,-1,-1,74,76,-1,-1,78,-1,-1,-1,80,-1,-1,-1,-1,-1,82,-1,84,86,-1,-1,-1,-1,-1,-1,-1,-1,-1,-1,-1,-1,-1,-1,-1,-1,-1,-1,-1,-1,-1,-1,-1,-1,-1,-1,-1,-1,-1,-1],"split_conditions":[1E0,1E0,-2.340249E-1,1E0,1E0,1E0,-2.8442103E-1,1E0,1E0,1E0,-1.7519386E-1,1E0,-1.9436072E-1,2.125E0,-1.632089E-2,1E0,5.643153E-1,2.375E0,6.1E1,4.9709544E-1,1E0,1.1594203E-1,1E0,-2.7833638E-1,1E0,2E0,1E0,3.8125E0,7.073306E-1,-8.5786366E-1,3.3125E0,3.03564E5,5E-1,9.375E-1,1E0,1E0,2.3125E0,3.015619E-1,-2.6800226E-2,-6.3540804E-1,1E0,1.02124356E-1,-1.9657029E-1,1.1594203E-1,-3.3194058E-2,-9.370422E-2,1.3334301E-1,2.7863781E0,4.539282E-2,-3.2014275E-1,1.1770774E-1,-1.751261E-1,2.8318968E-1,0E0,1.2785944E-1,1E0,1E0,-1.889937E-1,-3.0675232E-2,1.0036539E-1,-1.8600874E-1,4.7108132E-1,1.6355423E-2,1.1905419E-1,-2.4643263E-1,1.288365E-1,-1.4418514E-1,8.858079E-2,4.7911528E-1,1.2728623E-1,-1.2719224E-1,-3.08341E-1,7.483002E-2,1.7329447E-1,-1.6735342E-1,-9.9052005E-2,1.7316891E-1,4.5940895E-2,3.9524823E-1,5.129993E-1,1.0086137E-1,-4.9851555E-2,-2.706186E-1,3.1103173E-1,-1.1124604E-1,7.913025E-2,-2.5814438E-1],"split_indices":[20,10,50,11,6,23,49,0,25,11,49,18,0,23,50,21,50,23,47,50,13,75,13,49,67,25,73,23,50,49,23,76,25,23,18,73,23,0,0,50,28,0,0,75,0,0,0,81,0,0,0,0,0,25,0,6,71,0,0,0,0,0,0,0,0,0,0,0,0,0,0,0,0,0,0,0,0,0,0,0,0,0,0,0,0,0,0],"split_type":[0,0,0,0,0,0,0,0,0,0,0,0,0,0,0,0,0,0,0,0,0,0,0,0,0,0,0,0,0,0,0,0,0,0,0,0,0,0,0,0,0,0,0,0,0,0,0,0,0,0,0,0,0,0,0,0,0,0,0,0,0,0,0,0,0,0,0,0,0,0,0,0,0,0,0,0,0,0,0,0,0,0,0,0,0,0,0],"sum_hessian":[4.5822333E2,4.0420914E2,5.401418E1,3.1097632E2,9.323283E1,9.266837E0,4.474734E1,2.5687006E2,5.410625E1,8.558745E1,7.6453824E0,8.102883E0,1.1639544E0,1.1553352E1,3.319399E1,2.4297083E2,1.3899224E1,3.0340302E1,2.3765947E1,3.0667605E0,8.252068E1,2.839091E0,4.806291E0,2.2932396E0,5.8096433E0,7.8755937E0,3.6777585E0,6.554099E0,2.663989E1,2.0475647E2,3.8214367E1,9.253902E0,4.6453223E0,2.5368177E1,4.9721255E0,1.9830744E1,3.9352036E0,1.8349102E0,1.2318505E0,4.4319508E1,3.8201176E1,1.4671116E0,1.3719795E0,2.9513001E0,1.8549912E0,1.279812E0,1.0134277E0,4.5187163E0,1.290927E0,6.000813E0,1.8747807E0,1.8660666E0,1.8116919E0,5.5494266E0,1.0046728E0,1.3562505E1,1.3077385E1,1.133565E1,1.934208E2,3.1727243E1,6.487123E0,5.048319E0,4.205584E0,1.5314509E0,3.1138713E0,2.24631E1,2.905077E0,1.9255897E0,3.046536E0,1.1970041E1,7.860703E0,2.8630364E0,1.0721672E0,2.0672488E0,4.225226E1,3.0996534E1,7.204643E0,1.3167186E0,1.6345816E0,3.4269211E0,1.091795E0,2.4360106E0,3.1134157E0,1.20688505E1,1.4936548E0,9.965292E0,3.112093E0],"tree_param":{"num_deleted":"0","num_feature":"90","num_nodes":"87","size_leaf_vector":"1"}},{"base_weights":[-2.3889787E-2,-3.329843E-2,6.974565E-1,-3.995981E-2,2.8139123E-1,-1.05974294E-1,9.984276E-1,-2.666517E-2,-4.70909E-1,2.4219969E-1,4.9637973E-1,-3.638834E-2,5.162677E-1,-7.1383315E-1,2.114634E-1,-8.009679E-2,2.1315192E-1,-1.785204E-2,-3.5658464E-1,2.0606719E-2,3.6841702E-1,-8.3642125E-1,-9.8914295E-2,3.5389594E-3,-5.5815935E-2,-1.2266984E-1,1.2024047E-1,2.2259112E-1,-1.6311374E-1,-2.67762E-2,-2.7856556E-1,1.2223046E-1,-1.6430496E-1],"categories":[],"categories_nodes":[],"categories_segments":[],"categories_sizes":[],"default_left":[0,0,0,0,0,0,0,0,0,0,0,0,0,0,0,0,0,0,0,0,0,0,0,0,0,0,0,0,0,0,0,0,0],"id":17,"left_children":[1,3,5,7,-1,-1,9,11,13,15,-1,17,19,21,-1,-1,-1,23,25,27,-1,29,31,-1,-1,-1,-1,-1,-1,-1,-1,-1,-1],"loss_changes":[3.0992992E0,2.938345E0,2.212486E0,2.5442166E0,0E0,0E0,1.9974313E0,2.3097098E0,4.300578E0,1.0044469E0,0E0,2.5295663E0,2.6916003E0,7.8531456E-1,0E0,0E0,0E0,2.0215862E0,1.0882163E0,2.6654365E0,0E0,5.688143E-1,9.1579866E-1,0E0,0E0,0E0,0E0,0E0,0E0,0E0,0E0,0E0,0E0],"parents":[2147483647,0,0,1,1,2,2,3,3,6,6,7,7,8,8,9,9,11,11,12,12,13,13,17,17,18,18,19,19,21,21,22,22],"right_children":[2,4,6,8,-1,-1,10,12,14,16,-1,18,20,22,-1,-1,-1,24,26,28,-1,30,32,-1,-1,-1,-1,-1,-1,-1,-1,-1,-1],"split_conditions":[1E0,5E0,-4.4149378E-1,1E0,2.8139123E-1,-1.05974294E-1,9.721367E-1,9.1E1,7.324538E0,1E0,4.9637973E-1,1E0,3E0,3.790426E0,2.114634E-1,-8.009679E-2,2.1315192E-1,4.3104215E0,1.102113E6,3.0443E2,3.6841702E-1,-5.952974E-1,4.8492756E0,3.5389594E-3,-5.5815935E-2,-1.2266984E-1,1.2024047E-1,2.2259112E-1,-1.6311374E-1,-2.67762E-2,-2.7856556E-1,1.2223046E-1,-1.6430496E-1],"split_indices":[16,35,50,52,0,0,49,40,77,11,0,12,25,77,0,0,0,87,76,37,0,50,75,0,0,0,0,0,0,0,0,0,0],"split_type":[0,0,0,0,0,0,0,0,0,0,0,0,0,0,0,0,0,0,0,0,0,0,0,0,0,0,0,0,0,0,0,0,0],"sum_hessian":[4.5223776E2,4.4735666E2,4.8811116E0,4.4526172E2,2.0949368E0,1.0481789E0,3.832933E0,4.329667E2,1.2295005E1,2.4167614E0,1.4161716E0,4.2626587E2,6.700851E0,1.0515362E1,1.7796434E0,1.3637942E0,1.0529672E0,4.039375E2,2.2328363E1,4.5567E0,2.1441507E0,8.467163E0,2.048198E0,3.4419635E2,5.974115E1,2.1316116E1,1.0122471E0,1.8618761E0,2.6948242E0,1.1455641E0,7.3215995E0,1.0056365E0,1.0425614E0],"tree_param":{"num_deleted":"0","num_feature":"90","num_nodes":"33","size_leaf_vector":"1"}},{"base_weights":[-1.6230727E-2,-2.546801E-1,8.7166745E-3,-1.8748315E-1,-2.456059E-1,-3.3535664E-3,8.535848E-1,-3.947418E-1,1.1458677E-2,-1.0327115E-2,2.877005E-1,1.4628467E-2,3.4196734E-1,2.607766E-3,-6.06528E-1,1.836378E-1,-6.3102144E-1,-1.1565724E-1,4.346084E-2,-2.5997496E-1,2.3508197E-1,-2.7211037E-1,6.718742E-2,-3.2556616E-2,5.5050457E-1,-2.276441E-1,-2.6610801E-2,-7.5883254E-2,-7.249314E-1,2.8971065E-2,1.2598872E0,5.6862425E-2,-1.2682654E-1,2.2896317E-1,-9.501459E-2,4.0424086E-2,-2.2253959E-1,-3.1593226E-2,3.3379582E-1,-2.7682656E-1,1.6804413E-4,2.2495212E-2,-5.886032E-2,5.784854E-1,-1.7951125E-2],"categories":[],"categories_nodes":[],"categories_segments":[],"categories_sizes":[],"default_left":[0,0,0,0,0,0,0,0,0,0,0,0,0,0,0,0,0,0,0,0,0,0,0,0,0,0,0,0,0,0,0,0,0,0,0,0,0,0,0,0,0,0,0,0,0],"id":18,"left_children":[1,3,5,7,-1,9,11,13,15,17,-1,-1,-1,19,21,23,25,27,29,31,-1,-1,33,35,-1,-1,-1,37,39,41,43,-1,-1,-1,-1,-1,-1,-1,-1,-1,-1,-1,-1,-1,-1],"loss_changes":[2.6749477E0,1.4605689E0,4.160581E0,1.6270615E0,0E0,2.7141957E0,1.2685871E0,1.6258111E0,2.4444828E0,2.2771866E0,0E0,0E0,0E0,1.7841024E0,2.610786E0,6.263213E0,2.5664556E-1,3.236936E0,4.6556215E0,5.570779E-1,0E0,0E0,1.528562E0,2.0396543E0,0E0,0E0,0E0,4.616316E0,1.1784787E0,2.750992E0,2.8588438E0,0E0,0E0,0E0,0E0,0E0,0E0,0E0,0E0,0E0,0E0,0E0,0E0,0E0,0E0],"parents":[2147483647,0,0,1,1,2,2,3,3,5,5,6,6,7,7,8,8,9,9,13,13,14,14,15,15,16,16,17,17,18,18,19,19,22,22,23,23,27,27,28,28,29,29,30,30],"right_children":[2,4,6,8,-1,10,12,14,16,18,-1,-1,-1,20,22,24,26,28,30,32,-1,-1,34,36,-1,-1,-1,38,40,42,44,-1,-1,-1,-1,-1,-1,-1,-1,-1,-1,-1,-1,-1,-1],"split_conditions":[1E0,2E0,1E0,-2.5449518E-2,-2.456059E-1,1E0,-4.4868603E-1,-6.522822E-1,9.745505E-1,0E0,2.877005E-1,1.4628467E-2,3.4196734E-1,1E0,5.625E-1,8.912863E-1,1E0,4.3549385E0,1E0,-6.987552E-1,2.3508197E-1,-2.7211037E-1,-9.4126815E-1,6.8188107E-1,5.5050457E-1,-2.276441E-1,-2.6610801E-2,3.718055E0,6.362928E-1,3.375E0,5.5574E-1,5.6862425E-2,-1.2682654E-1,2.2896317E-1,-9.501459E-2,4.0424086E-2,-2.2253959E-1,-3.1593226E-2,3.3379582E-1,-2.7682656E-1,1.6804413E-4,2.2495212E-2,-5.886032E-2,5.784854E-1,-1.7951125E-2],"split_indices":[14,33,54,50,0,60,50,50,50,25,0,0,0,11,23,50,6,83,22,50,0,0,49,50,0,0,0,77,49,23,50,0,0,0,0,0,0,0,0,0,0,0,0,0,0],"split_type":[0,0,0,0,0,0,0,0,0,0,0,0,0,0,0,0,0,0,0,0,0,0,0,0,0,0,0,0,0,0,0,0,0,0,0,0,0,0,0,0,0,0,0,0,0],"sum_hessian":[4.4829672E2,4.158785E1,4.067089E2,3.8351032E1,3.2368152E0,4.0196225E2,4.7466183E0,1.8300875E1,2.0050158E1,4.000526E2,1.9096463E0,1.5525697E0,3.1940486E0,6.7063055E0,1.1594569E1,1.6375767E1,3.6743908E0,1.3484415E2,2.6520847E2,5.518151E0,1.1881546E0,7.778639E0,3.8159308E0,1.5346876E1,1.0288914E0,2.6506002E0,1.0237906E0,1.2763647E2,7.20768E0,2.6309833E2,2.1101463E0,1.423304E0,4.0948467E0,1.0052898E0,2.810641E0,1.3073073E1,2.2738032E0,1.2544199E2,2.19448E0,5.449761E0,1.7579195E0,2.1901128E2,4.408704E1,1.0946267E0,1.0155197E0],"tree_param":{"num_deleted":"0","num_feature":"90","num_nodes":"45","size_leaf_vector":"1"}},{"base_weights":[-1.1644229E-2,-4.010516E-3,-6.617021E-1,-6.9562817E-1,3.0963179E-3,-2.4053346E-1,-1.553107E-2,-5.7305053E-2,-2.3843223E-1,-4.2482447E-3,6.9825166E-1,4.1244547E-3,-5.741454E-1,1.1008953E0,-1.09936066E-1,5.3607143E-2,-9.3461454E-2,-1.9120198E-2,-2.3764718E-1,4.8479545E-1,3.4991357E-2,7.850893E-3,3.178122E-1,-1.5564659E-1,6.0382374E-3],"categories":[],"categories_nodes":[],"categories_segments":[],"categories_sizes":[],"default_left":[0,0,0,0,0,0,0,0,0,0,0,0,0,0,0,0,0,0,0,0,0,0,0,0,0],"id":19,"left_children":[1,3,5,7,9,-1,-1,-1,-1,11,13,15,17,19,-1,21,23,-1,-1,-1,-1,-1,-1,-1,-1],"loss_changes":[2.2008924E0,2.1643777E0,3.9831567E-1,7.2258234E-2,2.2311869E0,0E0,0E0,0E0,0E0,2.067778E0,2.3620708E0,2.0697262E0,6.4770293E-1,1.6188369E0,0E0,7.819223E0,6.979039E0,0E0,0E0,0E0,0E0,0E0,0E0,0E0,0E0],"parents":[2147483647,0,0,1,1,2,2,3,3,4,4,9,9,10,10,11,11,12,12,13,13,15,15,16,16],"right_children":[2,4,6,8,10,-1,-1,-1,-1,12,14,16,18,20,-1,22,24,-1,-1,-1,-1,-1,-1,-1,-1],"split_conditions":[1E0,-1.1422105E0,4.695652E-1,1E0,1E0,-2.4053346E-1,-1.553107E-2,-5.7305053E-2,-2.3843223E-1,1.4503024E0,1E0,1.8148148E0,1.2669434E-1,-3.4838423E-1,-1.09936066E-1,1.7173011E0,2.5409877E0,-1.9120198E-2,-2.3764718E-1,4.8479545E-1,3.4991357E-2,7.850893E-3,3.178122E-1,-1.5564659E-1,6.0382374E-3],"split_indices":[3,49,75,29,7,0,0,0,0,49,27,83,50,49,0,77,83,0,0,0,0,0,0,0,0],"split_type":[0,0,0,0,0,0,0,0,0,0,0,0,0,0,0,0,0,0,0,0,0,0,0,0,0],"sum_hessian":[4.4305246E2,4.389045E2,4.1479425E0,3.4787679E0,4.3542575E2,3.1174552E0,1.0304874E0,1.0518605E0,2.4269073E0,4.318569E2,3.5688326E0,4.265825E2,5.2744155E0,2.5648737E0,1.003959E0,2.833536E2,1.4322888E2,1.9653833E0,3.309032E0,1.2623954E0,1.3024783E0,2.7682773E2,6.5258913E0,2.9435005E1,1.1379387E2],"tree_param":{"num_deleted":"0","num_feature":"90","num_nodes":"25","size_leaf_vector":"1"}},{"base_weights":[-1.0292963E-2,-1.8114002E-2,5.448063E-1,-4.863265E-2,1.2675346E-1,8.2208127E-1,-7.669316E-2,-6.581653E-2,4.699516E-1,-3.3445068E-2,3.6889312E-1,2.075363E-1,3.9241168E-1,-5.200385E-2,-7.973702E-1,6.814163E-1,-1.6009536E-1,-4.951631E-1,1.6495553E-1,9.592376E-1,1.1464457E-2,1.612662E-1,-7.719449E-2,-6.441359E-2,5.8150285E-1,-2.876223E-1,4.809184E-3,1.0028948E0,3.2568235E-2,-4.910047E-2,-9.0803105E-1,-1.4798418E-1,6.180059E-1,1.8032851E0,1.2822257E-1,-1.8558577E-1,4.1566762E-1,-1.5917327E-2,-2.0191324E-1,3.392238E-1,-1.0721879E-1,3.8793945E-1,6.499625E-2,2.1174811E-1,-1.5090364E-1,-9.30235E-2,2.225915E-1,-3.0283406E-1,-4.5059208E-2,-1.2066067E-1,2.3731695E-1,3.8884482E-1,-8.743554E-2,6.5715295E-1,4.4465926E-2,-1.4526933E-1,1.7760041E-1,-9.726747E-2,2.2398865E-1],"categories":[],"categories_nodes":[],"categories_segments":[],"categories_sizes":[],"default_left":[0,0,0,0,0,0,0,0,0,0,0,0,0,0,0,0,0,0,0,0,0,0,0,0,0,0,0,0,0,0,0,0,0,0,0,0,0,0,0,0,0,0,0,0,0,0,0,0,0,0,0,0,0,0,0,0,0,0,0],"id":20,"left_children":[1,3,5,7,9,11,-1,13,15,17,19,21,-1,23,25,27,-1,29,31,33,35,-1,-1,37,39,-1,-1,41,43,45,47,49,51,53,55,57,-1,-1,-1,-1,-1,-1,-1,-1,-1,-1,-1,-1,-1,-1,-1,-1,-1,-1,-1,-1,-1,-1,-1],"loss_changes":[1.9317055E0,1.940372E0,1.5823371E0,3.2575731E0,2.9760807E0,1.1707098E0,0E0,3.5088131E0,2.854354E0,4.3778853E0,6.4257035E0,6.4779323E-1,0E0,2.7568624E0,8.6083794E-1,2.0809484E0,0E0,2.5973678E0,4.8485994E0,7.8294697E0,5.6759152E0,0E0,0E0,2.3153224E0,3.8826752E0,0E0,0E0,1.2583685E0,1.938243E0,1.8719324E0,4.1656876E-1,5.2483106E0,8.951279E0,3.2801323E0,2.2372646E0,2.6181402E0,0E0,0E0,0E0,0E0,0E0,0E0,0E0,0E0,0E0,0E0,0E0,0E0,0E0,0E0,0E0,0E0,0E0,0E0,0E0,0E0,0E0,0E0,0E0],"parents":[2147483647,0,0,1,1,2,2,3,3,4,4,5,5,7,7,8,8,9,9,10,10,11,11,13,13,14,14,15,15,17,17,18,18,19,19,20,20,23,23,24,24,27,27,28,28,29,29,30,30,31,31,32,32,33,33,34,34,35,35],"right_children":[2,4,6,8,10,12,-1,14,16,18,20,22,-1,24,26,28,-1,30,32,34,36,-1,-1,38,40,-1,-1,42,44,46,48,50,52,54,56,58,-1,-1,-1,-1,-1,-1,-1,-1,-1,-1,-1,-1,-1,-1,-1,-1,-1,-1,-1,-1,-1,-1,-1],"split_conditions":[1E0,1E0,2.3671316E-1,7E2,5E3,1E0,-7.669316E-2,6.3E1,3.7470589E0,-2.6126963E-1,-2.6126963E-1,1E0,3.9241168E-1,3.4E1,4.093793E-1,4E1,-1.6009536E-1,-5.644641E-1,1E0,7.5E5,1E0,1.612662E-1,-7.719449E-2,4E0,1.625051E-2,-2.876223E-1,4.809184E-3,1E0,0E0,1E0,8.229599E-1,8.014692E-1,3.7910438E-1,6.8362317E0,1.25E-1,1.2E2,4.1566762E-1,-1.5917327E-2,-2.0191324E-1,3.392238E-1,-1.0721879E-1,3.8793945E-1,6.499625E-2,2.1174811E-1,-1.5090364E-1,-9.30235E-2,2.225915E-1,-3.0283406E-1,-4.5059208E-2,-1.2066067E-1,2.3731695E-1,3.8884482E-1,-8.743554E-2,6.5715295E-1,4.4465926E-2,-1.4526933E-1,1.7760041E-1,-9.726747E-2,2.2398865E-1],"split_indices":[16,69,77,47,76,11,0,24,81,49,49,65,0,24,49,48,0,49,11,88,31,0,0,33,49,0,0,55,25,30,50,49,49,75,23,47,0,0,0,0,0,0,0,0,0,0,0,0,0,0,0,0,0,0,0,0,0,0,0],"split_type":[0,0,0,0,0,0,0,0,0,0,0,0,0,0,0,0,0,0,0,0,0,0,0,0,0,0,0,0,0,0,0,0,0,0,0,0,0,0,0,0,0,0,0,0,0,0,0,0,0,0,0,0,0,0,0,0,0,0,0],"sum_hessian":[4.4167133E2,4.364888E2,5.182516E0,3.610848E2,7.540399E1,3.8290977E0,1.3534185E0,3.503487E2,1.0736117E1,4.5899178E1,2.9504816E1,2.321006E0,1.5080917E0,3.4490747E2,5.441213E0,9.132813E0,1.6033043E0,1.3345572E1,3.2553604E1,1.0492023E1,1.9012793E1,1.265894E0,1.055112E0,3.3916196E2,5.7455115E0,4.391333E0,1.04988E0,5.7421513E0,3.3906624E0,6.952748E0,6.392825E0,1.9652328E1,1.2901276E1,4.6247582E0,5.8672657E0,1.73847E1,1.6280912E0,3.3401703E2,5.1449203E0,3.4960418E0,2.2494698E0,3.7230892E0,2.0190618E0,1.3614099E0,2.0292525E0,5.685204E0,1.2675437E0,5.345462E0,1.0473633E0,1.5915386E1,3.7369413E0,7.146929E0,5.754347E0,3.4857109E0,1.1390474E0,2.509366E0,3.3578994E0,1.57017355E1,1.6829658E0],"tree_param":{"num_deleted":"0","num_feature":"90","num_nodes":"59","size_leaf_vector":"1"}},{"base_weights":[-7.1784738E-3,-2.0075409E-1,1.1743164E-2,-2.4610892E-1,3.9169142E-1,5.7250065E-1,-3.2244804E-3,-3.3533514E-1,5.420223E-2,-4.004079E-2,2.1764109E-1,6.6719705E-1,-1.9511601E-2,-1.0597733E-2,7.234996E-1,-1.770713E-1,-6.881621E-1,2.0982797E-1,-1.921426E-1,7.859635E-1,2.5086619E-2,-1.847158E-2,6.255841E-1,1.6993184E-2,2.9008076E-1,-2.7817234E-1,2.6813942E-1,-7.5854915E-1,-2.5667278E-2,1.1129187E-1,-2.0328656E-1,2.2933993E-2,9.247024E-1,-2.347762E-3,-6.4426756E-1,1.2676468E0,-1.7979212E-1,-1.0362117E-1,1.2419822E-1,-5.472214E-2,-2.5926006E-1,1.3761947E-1,-7.31134E-2,3.3566046E-1,9.1458395E-2,-1.5553086E-2,2.6244681E-2,-5.775506E-2,-2.6616803E-1,8.428767E-2,5.12215E-1],"categories":[],"categories_nodes":[],"categories_segments":[],"categories_sizes":[],"default_left":[0,0,0,0,0,0,0,0,0,0,0,0,0,0,0,0,0,0,0,0,0,0,0,0,0,0,0,0,0,0,0,0,0,0,0,0,0,0,0,0,0,0,0,0,0,0,0,0,0,0,0],"id":21,"left_children":[1,3,5,7,9,11,13,15,17,-1,-1,19,-1,21,23,25,27,-1,29,31,-1,33,35,-1,-1,37,-1,39,-1,41,-1,-1,43,45,47,49,-1,-1,-1,-1,-1,-1,-1,-1,-1,-1,-1,-1,-1,-1,-1],"loss_changes":[1.6082264E0,1.1468896E0,3.3619497E0,1.0077112E0,6.517819E-1,6.720834E-1,2.1023526E0,1.4756804E0,1.6157326E0,0E0,0E0,5.6884193E-1,0E0,1.9550306E0,5.8497334E-1,2.532676E0,2.9617023E-1,0E0,1.1845347E0,6.6644E-1,0E0,3.875244E0,4.5126123E0,0E0,0E0,1.075534E0,0E0,2.9859686E-1,0E0,7.8921396E-1,0E0,0E0,4.018817E-1,1.6743659E0,8.880148E-1,1.0179782E0,0E0,0E0,0E0,0E0,0E0,0E0,0E0,0E0,0E0,0E0,0E0,0E0,0E0,0E0,0E0],"parents":[2147483647,0,0,1,1,2,2,3,3,4,4,5,5,6,6,7,7,8,8,11,11,13,13,14,14,15,15,16,16,18,18,19,19,21,21,22,22,25,25,27,27,29,29,32,32,33,33,34,34,35,35],"right_children":[2,4,6,8,10,12,14,16,18,-1,-1,20,-1,22,24,26,28,-1,30,32,-1,34,36,-1,-1,38,-1,40,-1,42,-1,-1,44,46,48,50,-1,-1,-1,-1,-1,-1,-1,-1,-1,-1,-1,-1,-1,-1,-1],"split_conditions":[1E0,1E0,1E0,3.3487925E-1,1E0,1E0,1E0,-3.3473083E-1,4.369829E-1,-4.004079E-2,2.1764109E-1,2E0,-1.9511601E-2,1.375E1,-4.3485478E-1,-4.0463027E-1,1.3892117E0,2.0982797E-1,1E0,-7.720847E-1,2.5086619E-2,9.25E0,3.35E2,1.6993184E-2,2.9008076E-1,7.879E1,2.6813942E-1,-6.522822E-1,-2.5667278E-2,-2.439834E-1,-2.0328656E-1,2.2933993E-2,7.5E-1,1E0,1.5293288E-1,1E0,-1.7979212E-1,-1.0362117E-1,1.2419822E-1,-5.472214E-2,-2.5926006E-1,1.3761947E-1,-7.31134E-2,3.3566046E-1,9.1458395E-2,-1.5553086E-2,2.6244681E-2,-5.775506E-2,-2.6616803E-1,8.428767E-2,5.12215E-1],"split_indices":[14,20,29,49,73,69,60,49,49,0,0,33,0,23,50,49,50,0,68,49,0,23,76,0,0,47,0,50,0,50,0,0,23,25,49,73,0,0,0,0,0,0,0,0,0,0,0,0,0,0,0],"split_type":[0,0,0,0,0,0,0,0,0,0,0,0,0,0,0,0,0,0,0,0,0,0,0,0,0,0,0,0,0,0,0,0,0,0,0,0,0,0,0,0,0,0,0,0,0,0,0,0,0,0,0],"sum_hessian":[4.3743045E2,3.809493E1,3.993355E2,3.5928967E1,2.1659634E0,9.413484E0,3.8992203E2,2.7609276E1,8.319689E0,1.0748861E0,1.0910773E0,8.155581E0,1.257902E0,3.869812E2,2.940846E0,2.0096617E1,7.512661E0,1.7905855E0,6.5291038E0,6.488304E0,1.6672771E0,3.832093E2,3.7719114E0,1.116113E0,1.824733E0,1.9039343E1,1.057272E0,6.4952054E0,1.0174553E0,4.4921665E0,2.0369372E0,1.3148931E0,5.1734114E0,3.7456232E2,8.646957E0,2.451815E0,1.3200965E0,1.7810368E1,1.228976E0,1.4290013E0,5.066204E0,2.1225996E0,2.3695667E0,3.326343E0,1.8470682E0,2.417708E2,1.3279152E2,3.6509244E0,4.9960327E0,1.2610887E0,1.190726E0],"tree_param":{"num_deleted":"0","num_feature":"90","num_nodes":"51","size_leaf_vector":"1"}},{"base_weights":[-4.165143E-3,2.703833E-3,-5.393011E-1,8.923887E-3,-5.938716E-1,-3.0027866E-1,2.0221162E-1,-1.9025214E-1,1.4803165E-2,-2.2483994E-1,-1.0772789E-2,1.41592E-1,-2.3184178E-2,2.3438042E-1,-3.736624E-1,-3.1058054E-2,6.788966E-1,5.4935247E-2,4.33187E-1,-1.7833488E-1,2.4237564E-1,-3.9579263E-3,-1.2932193E-1,3.8380358E-1,-9.097315E-2],"categories":[],"categories_nodes":[],"categories_segments":[],"categories_sizes":[],"default_left":[0,0,0,0,0,0,0,0,0,0,0,0,0,0,0,0,0,0,0,0,0,0,0,0,0],"id":22,"left_children":[1,3,5,7,9,-1,-1,-1,11,-1,-1,13,15,17,19,21,23,-1,-1,-1,-1,-1,-1,-1,-1],"loss_changes":[1.5966712E0,1.5989403E0,3.7579908E0,1.6201541E0,3.5910165E-1,0E0,0E0,0E0,2.0412793E0,0E0,0E0,4.758145E0,1.8257247E0,4.9067745E0,4.4699435E0,2.3081577E0,2.5488715E0,0E0,0E0,0E0,0E0,0E0,0E0,0E0,0E0],"parents":[2147483647,0,0,1,1,2,2,3,3,4,4,8,8,11,11,12,12,13,13,14,14,15,15,16,16],"right_children":[2,4,6,8,10,-1,-1,-1,12,-1,-1,14,16,18,20,22,24,-1,-1,-1,-1,-1,-1,-1,-1],"split_conditions":[6.8E1,1E0,3.93945E-1,-1.1422105E0,1.8125E0,-3.0027866E-1,2.0221162E-1,-1.9025214E-1,-5.430935E-1,-2.2483994E-1,-1.0772789E-2,3.6086957E0,6.6E1,3.5205429E0,1E0,6.2495225E5,8E-1,5.4935247E-2,4.33187E-1,-1.7833488E-1,2.4237564E-1,-3.9579263E-3,-1.2932193E-1,3.8380358E-1,-9.097315E-2],"split_indices":[48,3,49,49,23,0,0,0,49,0,0,75,44,77,27,82,50,0,0,0,0,0,0,0,0],"split_type":[0,0,0,0,0,0,0,0,0,0,0,0,0,0,0,0,0,0,0,0,0,0,0,0,0],"sum_hessian":[4.329729E2,4.2846805E2,4.504845E0,4.250217E2,3.446348E0,3.3901067E0,1.1147383E0,2.882269E0,4.2213943E2,2.4264746E0,1.0198736E0,9.6690865E1,3.2544858E2,8.23976E1,1.4293268E1,3.2278427E2,2.6642814E0,8.015207E1,2.2455285E0,1.2461624E1,1.8316433E0,3.099736E2,1.281067E1,1.4656324E0,1.1986489E0],"tree_param":{"num_deleted":"0","num_feature":"90","num_nodes":"25","size_leaf_vector":"1"}},{"base_weights":[-4.0973523E-3,2.5924968E-3,-5.168029E-1,-5.076246E-3,4.4597194E-1,-1.7326858E-2,-2.2401547E-1,-2.3378037E-2,2.3790792E-1,9.200977E-1,-2.3000047E-1,-3.0213593E-2,5.870471E-1,4.689995E-1,-2.6447436E-1,-4.572553E-2,4.0495238E-1,-2.3967305E-1,1.4297749E-1,-1.8172676E-2,-4.7742957E-1,3.6625376E-1,-1.88406E-2,1.1688502E0,2.27277E-1,-7.7674105E-3,1.6394156E-1,-2.2411396E-1,2.4231149E-2,-1.7588046E-1,1.5834783E-1,4.801595E-1,3.6972385E-2,2.081588E-2,3.7664324E-1],"categories":[],"categories_nodes":[],"categories_segments":[],"categories_sizes":[],"default_left":[0,0,0,0,0,0,0,0,0,0,0,0,0,0,0,0,0,0,0,0,0,0,0,0,0,0,0,0,0,0,0,0,0,0,0],"id":23,"left_children":[1,3,5,7,9,-1,-1,11,13,15,17,19,21,23,-1,-1,-1,-1,-1,25,27,-1,29,31,33,-1,-1,-1,-1,-1,-1,-1,-1,-1,-1],"loss_changes":[1.4868919E0,1.4593416E0,5.4617023E-1,1.8832581E0,2.5503364E0,0E0,0E0,1.6599435E0,8.087909E0,2.274711E0,1.9116257E0,2.0923052E0,1.71547E0,4.0045E0,0E0,0E0,0E0,0E0,0E0,1.6745481E0,1.5939074E0,0E0,1.3138828E0,2.6187344E0,3.1602545E0,0E0,0E0,0E0,0E0,0E0,0E0,0E0,0E0,0E0,0E0],"parents":[2147483647,0,0,1,1,2,2,3,3,4,4,7,7,8,8,9,9,10,10,11,11,12,12,13,13,19,19,20,20,22,22,23,23,24,24],"right_children":[2,4,6,8,10,-1,-1,12,14,16,18,20,22,24,-1,-1,-1,-1,-1,26,28,-1,30,32,34,-1,-1,-1,-1,-1,-1,-1,-1,-1,-1],"split_conditions":[1.4503024E0,1.9843895E1,1.2669434E-1,9.37558E-1,2.3595247E1,-1.7326858E-2,-2.2401547E-1,1E0,2.7E4,5.6718312E4,4.375E-1,1E0,1E0,-3.0290458E-1,-2.6447436E-1,-4.572553E-2,4.0495238E-1,-2.3967305E-1,1.4297749E-1,4E0,3.790426E0,3.6625376E-1,1.389855E0,1E0,1E0,-7.7674105E-3,1.6394156E-1,-2.2411396E-1,2.4231149E-2,-1.7588046E-1,1.5834783E-1,4.801595E-1,3.6972385E-2,2.081588E-2,3.7664324E-1],"split_indices":[49,89,50,49,83,0,0,7,76,82,23,52,51,50,0,0,0,0,0,35,77,0,75,65,16,0,0,0,0,0,0,0,0,0,0],"split_type":[0,0,0,0,0,0,0,0,0,0,0,0,0,0,0,0,0,0,0,0,0,0,0,0,0,0,0,0,0,0,0,0,0,0,0],"sum_hessian":[4.321153E2,4.2753174E2,4.5835466E0,4.212346E2,6.2971716E0,1.9471307E0,2.6364162E0,3.9256964E2,2.8664923E1,3.48891E0,2.8082616E0,3.8916232E2,3.407345E0,2.4241837E1,4.4230847E0,1.1826596E0,2.3062503E0,1.4833201E0,1.3249415E0,3.799725E2,9.189808E0,1.1692555E0,2.2380896E0,5.2387533E0,1.9003084E1,3.757896E2,4.1828995E0,5.9685955E0,3.2212126E0,1.0626457E0,1.1754439E0,3.332293E0,1.9064604E0,1.7398802E1,1.6042815E0],"tree_param":{"num_deleted":"0","num_feature":"90","num_nodes":"35","size_leaf_vector":"1"}},{"base_weights":[-2.4862431E-3,-7.4559515E-3,6.724019E-1,2.6015337E-3,-6.380396E-1,-5.617791E-2,3.7011084E-1,-2.8732225E-1,1.6116314E-2,-8.970715E-1,1.2215545E-1,2.2724561E-1,-4.3680686E-1,7.245692E-3,4.5912045E-1,-7.9310626E-2,-2.936086E-1,-7.541984E-1,-7.2247433E-3,7.6617836E-4,6.5423685E-1,-1.1629138E-1,7.844372E-1,-1.314124E-2,-2.770155E-1,2.096609E-1,-8.189611E-2,3.802665E-2,-8.437103E-3,2.9458287E-1,-3.250627E-2,3.213417E-1,-6.342248E-2],"categories":[],"categories_nodes":[],"categories_segments":[],"categories_sizes":[],"default_left":[0,0,0,0,0,0,0,0,0,0,0,0,0,0,0,0,0,0,0,0,0,0,0,0,0,0,0,0,0,0,0,0,0],"id":24,"left_children":[1,3,5,7,9,-1,-1,11,13,15,-1,-1,17,19,21,-1,-1,23,25,27,29,-1,31,-1,-1,-1,-1,-1,-1,-1,-1,-1,-1],"loss_changes":[1.4497515E0,2.7198236E0,1.7556812E0,1.6614999E0,2.1880898E0,0E0,0E0,3.2806535E0,1.5881013E0,3.6026478E-2,0E0,0E0,2.3338354E0,1.6681502E0,2.4895744E0,0E0,0E0,1.1442885E0,1.7482555E0,1.4416282E0,1.0924233E0,0E0,1.9573538E0,0E0,0E0,0E0,0E0,0E0,0E0,0E0,0E0,0E0,0E0],"parents":[2147483647,0,0,1,1,2,2,3,3,4,4,7,7,8,8,9,9,12,12,13,13,14,14,17,17,18,18,19,19,20,20,22,22],"right_children":[2,4,6,8,10,-1,-1,12,14,16,-1,-1,18,20,22,-1,-1,24,26,28,30,-1,32,-1,-1,-1,-1,-1,-1,-1,-1,-1,-1],"split_conditions":[9.4E1,6.9E1,1.5E0,1E0,1.3001384E0,-5.617791E-2,3.7011084E-1,-6.987552E-1,4.6E1,-3.56695E-1,1.2215545E-1,2.2724561E-1,3.227841E-2,1E0,2.6915628E-1,-7.9310626E-2,-2.936086E-1,-7.612511E-1,1.14644006E-1,-4.1466114E-1,2.5548175E-1,-1.1629138E-1,1.2594744E0,-1.314124E-2,-2.770155E-1,2.096609E-1,-8.189611E-2,3.802665E-2,-8.437103E-3,2.9458287E-1,-3.250627E-2,3.213417E-1,-6.342248E-2],"split_indices":[24,24,25,17,50,0,0,50,24,49,0,0,49,22,50,0,0,49,49,50,49,0,50,0,0,0,0,0,0,0,0,0,0],"split_type":[0,0,0,0,0,0,0,0,0,0,0,0,0,0,0,0,0,0,0,0,0,0,0,0,0,0,0,0,0,0,0,0,0],"sum_hessian":[4.2975116E2,4.2759143E2,2.1597247E0,4.218589E2,5.732558E0,1.1163536E0,1.0433711E0,1.7886724E1,4.0397214E2,4.707635E0,1.024923E0,1.7297183E0,1.6157005E1,3.970383E2,6.933855E0,1.0222889E0,3.6853461E0,8.857266E0,7.299739E0,3.940927E2,2.9455914E0,1.8713629E0,5.062492E0,1.9458375E0,6.911429E0,1.5505251E0,5.749214E0,7.2878845E1,3.2121387E2,1.8590622E0,1.0865294E0,3.8721116E0,1.1903806E0],"tree_param":{"num_deleted":"0","num_feature":"90","num_nodes":"33","size_leaf_vector":"1"}},{"base_weights":[-1.8455796E-3,2.1809353E-3,-2.1864432E-1,-1.7160593E-1,6.9540003E-3,1.20727895E-2,-5.36374E-1,3.860576E-3,3.2889634E-1,-2.0874594E-1,-9.388564E-3,2.1919962E-2,-2.3137048E-1,5.014733E-1,-1.9762726E-1,-2.4949894E-3,4.916438E-2,-2.69304E-1,-2.8857894E-2,2.2470807E-1,-1.339517E-1],"categories":[],"categories_nodes":[],"categories_segments":[],"categories_sizes":[],"default_left":[0,0,0,0,0,0,0,0,0,0,0,0,0,0,0,0,0,0,0,0,0],"id":25,"left_children":[1,3,-1,-1,5,7,9,11,13,-1,-1,15,17,19,-1,-1,-1,-1,-1,-1,-1],"loss_changes":[1.2590766E0,1.1776128E0,0E0,0E0,1.1903763E0,1.0984885E0,2.9995334E-1,1.759634E0,2.1485965E0,0E0,0E0,1.6517386E0,2.5738244E0,2.598738E0,0E0,0E0,0E0,0E0,0E0,0E0,0E0],"parents":[2147483647,0,0,1,1,4,4,5,5,6,6,7,7,8,8,11,11,12,12,13,13],"right_children":[2,4,-1,-1,6,8,10,12,14,-1,-1,16,18,20,-1,-1,-1,-1,-1,-1,-1],"split_conditions":[1E1,-1.1422105E0,-2.1864432E-1,-1.7160593E-1,1E0,1.7038824E1,3.5652173E-1,5.941358E0,1E0,-2.0874594E-1,-9.388564E-3,2.6903179E0,6.1559496E0,5.764862E5,-1.9762726E-1,-2.4949894E-3,4.916438E-2,-2.69304E-1,-2.8857894E-2,2.2470807E-1,-1.339517E-1],"split_indices":[25,49,0,0,3,77,75,83,70,0,0,87,87,82,0,0,0,0,0,0,0],"split_type":[0,0,0,0,0,0,0,0,0,0,0,0,0,0,0,0,0,0,0,0,0],"sum_hessian":[4.2859424E2,4.2722495E2,1.369302E0,2.542301E0,4.2468265E2,4.2168762E2,2.9950137E0,4.1202005E2,9.667565E0,1.9893574E0,1.0056564E0,3.8348557E2,2.8534508E1,8.648614E0,1.0189512E0,3.1692462E2,6.6560936E1,3.8612242E0,2.4673285E1,7.0241976E0,1.6244162E0],"tree_param":{"num_deleted":"0","num_feature":"90","num_nodes":"21","size_leaf_vector":"1"}},{"base_weights":[-4.4022514E-3,2.7200848E-2,-9.090229E-2,4.0299438E-2,-5.323972E-1,-1.8075286E-1,1.9929989E-1,3.196378E-2,2.7697E-1,-8.57736E-1,2.1324587E-1,-2.038614E-1,2.1000263E-1,9.244813E-1,2.2343952E-2,3.4447256E-3,2.3650676E-1,-2.9674733E-1,-2.9620647E-2,-3.33905E-1,-2.2436516E-2,4.898713E-1,-1.24134414E-1,-5.599392E-1,2.2639422E-1,-1.1168744E-2,6.5058744E-1,3.5409868E-1,-7.510013E-1,-2.7273549E-2,-6.369983E-1,-1.9303244E-1,4.7296223E-1,5.3566013E-2,-7.6346934E-1,1.0314493E-1,2.9642904E-1,2.5303941E-3,-1.2381611E-1,2.8047878E-1,-9.675695E-2,1.4905979E-1,-5.5858556E-2,-2.8404054E-1,-1.628268E-2,-4.8647676E-2,4.2117026E-1,-2.3303628E-1,3.46207E-2,-1.6971469E-1,1.633853E-2,2.6374945E-1,-9.699602E-2,-6.878767E-2,-2.647579E-1,-5.6218997E-2,1.5307641E-1],"categories":[],"categories_nodes":[],"categories_segments":[],"categories_sizes":[],"default_left":[0,0,0,0,0,0,0,0,0,0,0,0,0,0,0,0,0,0,0,0,0,0,0,0,0,0,0,0,0,0,0,0,0,0,0,0,0,0,0,0,0,0,0,0,0,0,0,0,0,0,0,0,0,0,0,0,0],"id":26,"left_children":[1,3,5,7,9,11,13,15,-1,17,-1,19,-1,21,23,25,27,-1,-1,29,31,-1,-1,33,35,37,39,41,43,45,47,49,51,-1,53,55,-1,-1,-1,-1,-1,-1,-1,-1,-1,-1,-1,-1,-1,-1,-1,-1,-1,-1,-1,-1,-1],"loss_changes":[1.1775349E0,2.3347507E0,3.0412242E0,2.2469354E0,3.5576873E0,1.9445598E0,3.536932E0,1.7926531E0,0E0,5.237732E-1,0E0,2.0460734E0,0E0,5.807679E0,2.89635E0,2.5686262E0,4.6329465E0,0E0,0E0,4.687859E0,3.25319E0,0E0,0E0,1.0887715E0,1.5854008E0,2.0961518E0,1.9611204E0,2.7371097E0,5.382302E-1,5.2876735E0,2.7628326E0,2.6632342E0,3.4777834E0,0E0,1.2562919E-1,2.0575266E0,0E0,0E0,0E0,0E0,0E0,0E0,0E0,0E0,0E0,0E0,0E0,0E0,0E0,0E0,0E0,0E0,0E0,0E0,0E0,0E0,0E0],"parents":[2147483647,0,0,1,1,2,2,3,3,4,4,5,5,6,6,7,7,9,9,11,11,13,13,14,14,15,15,16,16,19,19,20,20,23,23,24,24,25,25,26,26,27,27,28,28,29,29,30,30,31,31,32,32,34,34,35,35],"right_children":[2,4,6,8,10,12,14,16,-1,18,-1,20,-1,22,24,26,28,-1,-1,30,32,-1,-1,34,36,38,40,42,44,46,48,50,52,-1,54,56,-1,-1,-1,-1,-1,-1,-1,-1,-1,-1,-1,-1,-1,-1,-1,-1,-1,-1,-1,-1,-1],"split_conditions":[8E4,6.3E1,1E0,7.5E4,9.5299226E-1,9E1,1.8426471E0,1E0,2.7697E-1,1.2207469E0,2.1324587E-1,4.6188022E5,2.1000263E-1,1E0,3.5935085E0,3.9E1,1E0,-2.9674733E-1,-2.9620647E-2,1.6818811E-1,4.0082988E-1,4.898713E-1,-1.24134414E-1,-7.229622E-1,1.2719518E6,4.8222566E0,3E0,1E0,1.3125E0,1.2033195E-1,1E0,2.690881E0,5.0169454E0,5.3566013E-2,-2.340249E-1,2E0,2.9642904E-1,2.5303941E-3,-1.2381611E-1,2.8047878E-1,-9.675695E-2,1.4905979E-1,-5.5858556E-2,-2.8404054E-1,-1.628268E-2,-4.8647676E-2,4.2117026E-1,-2.3303628E-1,3.46207E-2,-1.6971469E-1,1.633853E-2,2.6374945E-1,-9.699602E-2,-6.878767E-2,-2.647579E-1,-5.6218997E-2,1.5307641E-1],"split_indices":[76,24,69,76,49,46,81,20,0,50,0,82,0,11,89,24,31,0,0,50,50,0,0,49,82,89,25,71,23,50,67,89,81,0,50,25,0,0,0,0,0,0,0,0,0,0,0,0,0,0,0,0,0,0,0,0,0],"split_type":[0,0,0,0,0,0,0,0,0,0,0,0,0,0,0,0,0,0,0,0,0,0,0,0,0,0,0,0,0,0,0,0,0,0,0,0,0,0,0,0,0,0,0,0,0,0,0,0,0,0,0,0,0,0,0,0,0],"sum_hessian":[4.2884802E2,3.145951E2,1.1425291E2,3.0830652E2,6.28859E0,8.752967E1,2.6723236E1,3.064496E2,1.8569475E0,5.23001E0,1.05858E0,8.604076E1,1.4889119E0,4.413197E0,2.231004E1,2.6984274E2,3.660684E1,4.199607E0,1.0304029E0,4.962767E1,3.641309E1,2.741689E0,1.6715082E0,5.3367696E0,1.6973269E1,2.6484488E2,4.99786E0,3.3284733E1,3.3221061E0,2.5211672E1,2.4415997E1,2.7539808E1,8.873282E0,1.1795577E0,4.157212E0,1.5586645E1,1.3866243E0,2.5345064E2,1.1394238E1,3.8980813E0,1.0997788E0,2.6391438E1,6.893295E0,2.3131206E0,1.0089856E0,2.3850504E1,1.3611676E0,